solver_type L2R_LR
nr_class 36
label 1 2 3 4 5 6 7 8 9 10 11 12 13 14 15 16 17 18 19 20 21 22 23 24 25 26 27 28 29 30 31 32 33 34 35 36
nr_feature 108
bias -1
w
-0.83352397254355659 -0.50813792034007377 -0.4574723351028076 -0.42283355356801117 -0.36528224397180276 -0.43139123324017292 -0.47404393113602405 -0.39859889551197103 -0.37752474719014878 -0.30206795541887976 -0.40164639748643838 -0.58800180173150174 -0.39413712962381814 -0.17216697194260419 -0.19465861728362391 -0.22887817364717225 -0.84402943417088749 -0.33022414681198542 -0.85327243192257252 -0.36987711904538328 -0.49880254117042822 0.063241486835185809 -0.46320159640621278 -0.29123361983835094 -0.91034408679802781 -0.31467938695493963 -0.29651649917462364 -0.44990704836773626 -0.16697371655424906 -0.73756719030030515 -0.19774582864053403 -0.371647284773438 -0.4305864317644485 -0.54313282890515424 -0.42124807530965674 -0.28944264173014883 
-0.6234838318148922 -0.60720710502364772 -0.26811812312751848 -0.11719009051775518 0.035906960282183917 0.13247566190154275 -0.010792287883442501 -0.10651415521700983 -0.12612691772001988 -0.11169426907857977 -0.046868677480209189 -0.19167674542285526 -0.095933606620209208 -0.53266701350687351 -0.59856393908936611 -0.58941061825523944 -0.4602346886548182 -0.58166456259052557 -0.60264364809587256 -0.51720404742787085 -0.57941749236654316 -0.41032817431609875 -0.53819778697353726 -0.63051794383311743 -0.17064529749775958 -0.55580598917583046 0.049970317590925441 -0.37623720078685685 -0.043034119083874695 -0.30042576936017173 -0.36910075911686452 -0.21360110447625699 -0.078943808209836541 0.090830834993762946 -0.24318491172558551 -0.0065521203289869148 
-0.7028212937579903 -0.53657811924762711 -0.16572545358315544 -0.10073917400633807 0.030775587738438658 0.049494894709823149 0.13804172800569126 -0.017174122748078675 -0.069809353216886777 -0.23810329051931944 -0.069359562369299535 0.070047270520519858 -0.1789613020817841 -0.68993849953690045 -0.87652542232929664 -0.62776692086147079 -0.28504868215631674 -0.71005783868030903 -0.66505314152541228 -0.7452794027795685 -0.59544978166782492 -0.68946686785388966 -0.58026344049995116 -0.6957025356500246 -0.041489115003528081 -0.58421719012452966 -0.17983787704200604 0.006617511673418214 -0.13068276684920596 -0.16685620729849127 -0.6908683764404896 -0.15988835043923183 -0.14282086964213478 0.053978328458641305 -0.34412397221094182 -0.060448333815669497 
-0.028131912444437277 -0.16838841626866097 0.06555988496306335 0.076596962287968556 -0.018501664509763115 0.082072230120771916 -0.079758247410289654 -0.029064406197973507 -0.16077138090954138 0.0018542160920726688 -0.10906587066110794 -0.023176989634638878 -0.033908921497679788 -0.17282099003431145 -0.19007307034833523 -0.15844241910084006 -0.029927421475052958 -0.14982455011547069 -0.14384479304810074 -0.22339700504402549 0.086330567063506405 -0.1273350954746168 0.23381350325428055 -0.22378236048059533 -0.12725973133292845 -0.17306109858221277 0.13345773089341201 0.17890160691339224 -0.091561865884962484 -0.14199290728290098 -0.1976935697481314 -0.10380767076697822 -0.14114899019079999 -0.12190514702185822 0.063007475066673896 -0.036933584991796858 
0.23808569379349259 0.15341784692064919 -0.36381014401829215 -0.37610190010493949 -0.37220861430739149 -0.36432921881072466 -0.30808311073537281 -0.48793165254885934 -0.3916336923290733 -0.2564551529987214 -0.097183251618094588 0.16474961931050272 -0.39609320483041643 -0.37458619626857781 -0.20582138935434749 -0.44288219739655937 -0.31417491797171809 0.18582291262918987 -0.24910126043423361 -0.079965462744901114 -0.012085270636359516 -0.23912458203134623 -0.11604312446817229 -0.013639233270668669 -0.30332198298359769 -0.62152714921786023 0.05035719136919347 0.18655093143256335 -0.3602391032953895 -0.25979625926336969 0.050745970069028624 -0.33983679840687908 -0.26730570660132785 -0.36452095520861821 -0.11021549718393242 -0.29352611752876795 
0.31307750671017337 -0.079988680803915149 -0.31483382014495659 -0.19415514213544868 -0.065483750538319813 0.072769703537563957 -0.26748136339820128 -0.26504218259517853 -0.22506367791640158 -0.012169655503918349 -0.16422327423651042 -0.2926432922402058 -0.14583714733668068 -0.22484986553304837 -0.21191967043907098 -0.2543646845691826 0.012698521189255624 -0.11457231028208745 -0.21708221071947023 0.19839817390266729 0.071551612746199283 -0.17402864267854978 0.029731127658670493 -0.18017032957447779 -0.073870994060837802 -0.2846881672984225 0.23747639515324626 -0.28838639160759866 -0.11849273449871769 0.43996123181513763 -0.13879441211139729 -0.3302118551877346 -0.12431070584608978 -0.019786404147163105 -0.085325740030401345 -0.16261450610689501 
-0.11146187319074284 0.15401239576485226 -0.22997540011115106 -0.15733901669033049 -0.087017371379932512 -0.015120561807522297 -0.1301454925731059 -0.12501598984434267 -0.084821313129629011 -0.091604502116377287 0.037566443957399401 -0.12912953136612657 -0.090447163637570049 -0.14243447378466775 -0.16703451958199439 -0.15294312378127714 0.53169312795226553 -0.10060971936642595 -0.13249438986241177 -0.065783737677227366 0.022962092318689644 -0.13644631956118816 -0.066112559676073462 -0.14626695320846186 -0.11659994022081357 -0.1495399803275618 -0.016563024157534113 -0.12313286615091842 -0.079840757950069924 0.062930747265770193 -0.062675505494740172 -0.04789515052575536 -0.095187104556079968 -0.089134104345019685 -0.14927420628352919 -0.075699798914544078 
-0.29341708027822822 0.23907535825759768 -0.23149563304697054 -0.18855648632250435 -0.26924025390729983 -0.23571994072051528 -0.049652274360919707 -0.26045014829248125 -0.20887395691066493 -0.12674716105146441 -0.080497460294137346 -0.32607187208195243 -0.23493054330001517 -0.018154014918113501 -0.25234742538655147 -0.082250503028143768 0.21443927718830214 -0.20873807227257582 -0.20512782881041455 -0.32382426032708916 0.39066498818594908 0.061287536678088936 0.38476357520415211 0.048698064472150498 -0.23711800293061766 0.25886273235305529 -0.24509799353433828 -0.21506968933099982 -0.1781561053178489 -0.20166455536579977 -0.28528940379438988 -0.11171548221845964 -0.19563789736266674 -0.31512138557081559 -0.062430799414619348 -0.1617102594096898 
-0.73639450775001114 -0.26061763430383511 -0.35372402241126549 -0.46685976045478944 -0.31011659348869597 -0.6679768163769928 -0.36077306408052234 -0.38596764707658815 -0.21658500718140633 -0.42064222326554646 -0.29412471390014638 -0.60621516636788153 -0.49534124674653396 0.018723225722750456 -0.070037662585573576 -0.10712298583853037 -0.63285035886484264 -0.24348239530355645 -0.721911546921578 -0.33665069075873538 -0.20070443252131825 0.15803221655463839 -0.20282205843025805 -0.068689586693326726 -0.79694581433438327 -0.14821906785081687 -0.62505891758708043 -0.31350600128575751 -0.33102149529733793 -0.63773580368921223 -0.10051542427040636 -0.32709182692448213 -0.64892285785012005 -0.65652358557676405 -0.45450120236268443 -0.4966329361737491 
-0.55504773330241075 -0.59939512578194221 -0.5454061237693677 -0.39229260958152373 -0.38317752701725577 -0.37164045037831817 -0.31805222789378534 -0.44649962142602828 -0.36591649533265591 -0.40240482710105729 -0.29211304725204573 -0.36278353088669546 -0.36812636692769601 -0.10762593314846677 -0.26934208187397685 -0.15301718979061196 -0.70951262452582575 -0.48542062732782343 -0.88837123575352117 -0.33465401229722358 -0.74789880616680271 0.024536504638764171 -0.64917312214739842 -0.15634340689014331 -0.8737343401984593 -0.23818029233881513 -0.35066321825559177 -0.36417077185920704 -0.24908827446497922 -0.61784407911717198 -0.25089469581612001 -0.46036486290545131 -0.58946357850737263 -0.73233789119262205 -0.61311538676561972 -0.28886963326437715 
0.020576005591482999 0.16059301098455181 -0.21208985802046987 -0.28410789827637456 -0.15511821362714187 -0.047294693781359615 -0.21654345982348472 -0.22182924301027412 -0.35812000069484939 -0.11053271722888415 -0.021777392085882051 -0.23758989591060056 -0.12548398193188218 -0.22898451629820454 -0.35870495242372691 -0.34854772621271279 0.25188870858579765 -0.3176947945869199 -0.32194988279822095 -0.15596934547552682 -0.24573928918538088 -0.10639976820834898 -0.2744475325751114 -0.36098365376032093 -0.27781370952061329 -0.042912122974568791 0.27666148270254215 -0.33923528092657618 0.12256424119588574 -0.041252028706336062 -0.057099243981505704 -0.094352312621674733 -0.17849742412696973 -0.12417798626468329 -0.27963980261182186 -0.14753240388631586 
-0.071166187076837639 0.37107051654637679 -0.34798680778252916 -0.20454512121978136 -0.10525909062789511 -0.10940106183438376 -0.14948752213131908 -0.26579233998712354 -0.18046950782833696 -0.2107978981636541 -0.044941782609200974 -0.2152089022117574 -0.24179254094108582 -0.26801935038473518 -0.31294923310938333 -0.21551090310990428 0.30940838285082001 -0.28140846822570365 -0.247977878949454 -0.32244620084614872 -0.14019580699483725 -0.26815400706843312 -0.1480688094078238 -0.29245830935318395 -0.15019902502698676 0.12544832754813431 -0.24909433219135704 -0.18465033336769346 0.034749287992725558 0.080921390177761829 -0.30525737878918463 0.16473038341675397 -0.10013089638231493 -0.054326331677789358 -0.30709729615081821 -0.11984575336977756 
-0.033044600295654744 -0.17800912471339758 -0.11903313127893202 -0.087324962355426541 -0.10115149939387229 -0.081418370160094095 -0.12213076364453967 -0.19248962396772987 -0.10625917680778586 0.047882887050561082 -0.12369725962181309 -0.24541043306875415 -0.084179726026294907 -0.15511889784022675 -0.16460551048242011 0.081150470389305229 -0.11059025987700731 -0.24346676167125478 -0.12053197289966211 -0.30549436541156499 0.46452111601249013 -0.11094636842116476 0.50945075125198103 -0.30028461077189622 -0.16593537574036668 0.3689685618152499 -0.011945939975157464 -0.064816823376438487 -0.10273017550655213 -0.10584031392655717 -0.16295840091059219 -0.0588281064750832 -0.13197696426683866 -0.21766926224151462 0.045879140732863671 -0.10460334029881839 
0.081990844819780556 -0.47569432234028775 -0.42287192743180785 -0.42588826217599723 -0.53322474340182269 -0.41730353733838721 -0.31397817043656445 -0.60044307414243281 -0.45018632263962216 -0.39900525432514866 -0.074848541402375818 -0.026601036279914565 -0.26701244946801783 -0.38417636832117558 -0.2667887893246223 -0.07933893596050734 -0.086513743138156934 -0.025943739562066501 -0.31414880224693015 -0.11868764253752684 -0.13338661427464588 -0.29145893950632779 -0.17193920338723928 0.11580890716098173 -0.035121195968243389 -0.23103601856683323 -0.30669442900582444 0.037856814101189101 -0.54633328146312288 -0.37605888994692149 0.062588679366322508 -0.37288622097241514 -0.30940365347846849 -0.06532260030037465 0.031330593179626047 -0.36785935941466164 
0.27983846998802081 -0.20890981235039244 0.084819527455158084 -0.14410648943322618 -0.22214148029094502 -0.25550663170459725 -0.24270625775042731 -0.19395350663135866 -0.26575727933028248 -0.29823013791687369 -0.18868854110882305 -0.39112374909337211 -0.095856142218384066 -0.21250192556477218 -0.24566112697452816 -0.18696725492997152 -0.065533977940663818 -0.20390170340782654 -0.24418178355557368 0.37677781031170471 -0.17833092318763044 -0.17626895414871627 -0.021586300276825378 -0.13167189281657188 0.38873067421093749 -0.32213016740462291 -0.22136133544417066 -0.36111094561437718 -0.29246646639853568 0.36640343488727728 -0.12910490943641706 -0.059765441036443975 -0.29651122197691698 0.34398391335929518 -0.085945222749000877 -0.23162455548978897 
-0.30913148107336175 -0.19371168794652432 0.13724568670037424 0.0022698791985237884 -0.42213818081478677 -0.34917786721266952 -0.38653820946417911 0.17399081128778005 0.2731162238449753 -0.24311061362574632 -0.03478740194198543 -0.36778419942310148 -0.15831302519855439 -0.35418789147568858 0.27524173507051053 -0.33466885435615945 0.17068177482880861 -0.140331213603789 -0.30715032847491369 -0.28496330270203324 -0.15935017510111665 -0.34537531523914744 -0.10342613390922158 -0.38689280064946197 -0.259964794041873 -0.37825025380692673 -0.34326873453082912 -0.34197185754866888 -0.43091756932686615 -0.19443186457200498 -0.2046218426481356 0.19096980346253775 0.21519165731897988 -0.26859229973423504 -0.026411737114528086 -0.49029504572621735 
-0.41283611548154914 -0.28541045740155602 0.0087693311774895942 -0.13103030887276423 -0.43056128573630215 -0.43579565553036503 -0.18613678374194517 -0.06579499951862898 -0.11511798432898528 0.22444115518293054 -0.11227269255270404 -0.39409299449407686 -0.48471432175464041 -0.096967661785584594 0.086469386426903105 0.051052006032967751 -0.091278050194767438 -0.1418198521931433 -0.34146108267970698 -0.46524005888218056 0.030082540678954165 -0.10211530515101619 0.082673206666669552 -0.16751373908422493 -0.37804359071577537 0.17894559729358248 -0.44224866092045367 -0.43283860065412511 -0.39781234023338008 -0.42814827680700529 -0.39384016724220694 0.17846359534027198 0.1486670753821222 -0.44646572503715765 0.13613347868473963 -0.39748593436180846 
-0.75251145574840761 -0.62157360282518304 -0.50957487423773817 -0.3198785016088827 -0.36463492947622922 -0.41688483911781837 -0.30070931399106521 -0.48637549253063556 -0.34174217111114868 -0.33388324656538865 -0.33718360273193554 -0.39373392036100557 -0.40699720291528158 -0.031475825264865628 -0.24691654187028586 -0.18030214730294195 -0.88335711475478396 -0.39166348515516841 -0.87611739610288153 -0.37203731356344716 -0.56035801660594897 0.017813618247851506 -0.40938256797753336 -0.18719652298795611 -0.88674735434680418 -0.28148638431197542 -0.60544685814922949 -0.36920880271789236 -0.37975817265203921 -0.74071672137817179 -0.24647938723055626 -0.28808501435615225 -0.62565464737259102 -0.83551630634663121 -0.38930192308683848 -0.34298306093804082 
0.28147581816992145 0.14598212019986082 -0.35419024302532931 -0.26272114112832251 -0.35702047104748774 -0.2690963725532729 -0.35965987056781329 -0.47344094358083849 -0.33977409645652168 -0.29796341470093202 -0.28184229744994382 0.15667371204236796 -0.39386682778513732 -0.36043946292766554 -0.32269792085741889 -0.42148886986153528 -0.36546381889523316 0.1901266086642743 -0.35215300419192236 0.059232212881595407 0.033951484067029067 -0.30536665466792057 -0.14664043173308522 -0.38880492127914357 -0.23960405407629481 -0.2637315589126808 -0.035445692614243247 0.26316706897303843 -0.26453485850192732 0.22350247732197714 -0.29929971445217801 -0.37405513850582944 -0.33734207910952069 -0.28798954006538613 -0.10940388536502517 -0.28103041643810511 
-0.58379785493281755 -0.47681354933471104 -0.49598714628171137 -0.32769441378200792 0.076619219758213938 -0.1406465201608999 -0.15190077189877696 -0.36262523412147873 0.13802451904678395 -0.21102268296919954 0.14713134203619821 0.069823127187713094 -0.2226235303820899 -0.53786793881237704 -0.67186383524780691 -0.45545862149619415 -0.55353496793982104 -0.5477146084999871 -0.46669616331467834 0.041888711829191641 -0.22488578302204773 -0.52009055291411777 -0.12860376442580793 -0.58921529797488226 -0.015448817071314069 -0.54250654843512924 -0.250127225813703 -0.5297969450807356 -0.1098319060223981 0.017593070748019211 -0.5250279272744689 -0.024469193329940592 -0.15641557128220185 0.056835955557392813 -0.45552070549823864 0.0036677495536820625 
-0.64657888663964502 -0.44376680927035944 -0.15288659799096865 -0.1172886474840194 0.033731108302653481 0.079778076484065846 0.14407961752645873 -0.012493154065226875 -0.05467360819712011 -0.17612211023032975 -0.062546231596440682 0.24250319513650409 -0.16501088205888673 -0.73243531467303025 -0.83907444631695793 -0.56843410651629545 -0.27030136385214409 -0.66003041162630671 -0.5489771160793725 -0.71223297300513821 -0.56911336551957026 -0.67145390239768343 -0.59124102485689178 -0.68537404145476355 -0.018932686910116216 -0.59860790950614462 -0.10543212227394264 -0.66147856029748031 -0.12555107019949063 -0.3135848670524008 -0.66352415219204242 -0.12698913917858853 -0.12206084119279126 0.07879962913053315 -0.30683550807733179 -0.058364907424707971 
-0.33731749189614735 -0.41525522416844757 0.20519788579534351 0.1181643289416998 0.26867151983373389 0.28747236897780026 0.26568471950266948 0.29670938442580791 -0.61491704795825031 0.19980576878348608 -0.32813252983066327 -0.3504514379517516 0.10201349686315404 -0.42583621845667491 -0.48018990264123784 -0.35081988055877461 -0.17118039199043272 -0.39427768038029332 -0.23604004693830644 -0.42655577561819819 -0.3663283283792429 -0.44281658551749931 -0.33380731747180453 -0.44718975225120566 -0.37551654674733853 -0.42239120217314169 0.1980242881217856 -0.35355876313447321 0.20026655154679238 -0.50888172276787724 -0.42921699471550034 -0.42335370216526869 0.10155694917345104 -0.10340602751996206 0.14949087641899372 0.01652539595594445 
-0.48678097169009649 -0.46461787038712132 -0.45032459225512356 -0.097600961587864729 -0.41140146935421901 -0.58982066734361238 -0.2985821848603934 -0.28165197183877244 -0.78573212966676353 -0.33868433480878335 -0.9033578599740073 -0.48421842586473696 -0.44891765970100261 0.028875246741325935 -0.13815870138807382 -0.22111579533389591 -0.69673693907004863 -0.3151149559426063 0.43420374126206718 -0.4023533959559904 -0.35407201414223877 -0.83574862309313291 -0.4040835469111827 -0.20206893334931597 -0.28354202398131928 -0.22931324826730362 -0.39801449074107459 -0.71485050927523597 -0.29771843378215679 -0.58114571149924443 -0.82293393965003858 -0.90920641813624681 -0.51903984085433941 -0.40158100748880393 -0.28606457947935693 -0.35469468055738768 
-0.18164084643008477 -0.26442385642878774 -0.14484224430534226 -0.23171322401469174 -0.22544874521282154 -0.27639146148030952 -0.27638254655712025 -0.34547327952529655 -0.20995024960966666 -0.25951672258717134 -0.19430221406239695 -0.4752883576355218 -0.30501121201806897 -0.01289557785463295 -0.23899010831888756 0.12325090934920295 -0.37588828738916558 -0.26996131560488246 -0.028628487604895749 0.34665033153176678 0.28358287055929676 -0.19696743695737909 0.29283284590223924 0.0017615939656412741 0.30796642341928682 -0.42268235464552595 -0.30912122112983237 -0.43563328214719294 -0.29248970114445277 0.30202199199569685 -0.23923486110251133 -0.3014502458136325 -0.27977126618058917 0.23474706456102079 -0.27421270735746117 -0.14365739199809271 
-0.2691005054956106 0.45640424460525841 -0.21846532727185758 -0.12401314615661946 -0.15706045889343709 -0.13580837850060284 -0.10438842969137718 -0.11106271096782244 -0.16096192838023243 -0.14431197278325794 -0.075600466410607484 -0.23484724657535999 -0.17873703702205757 -0.15706444585053098 -0.21443968681060638 -0.15651174107986116 0.43848322443076398 -0.21697904411484586 -0.10860094726133758 -0.078216624804777424 -0.014387340014530252 -0.20842317424992782 -0.042173345078941354 -0.20110216970052922 -0.071381396509539952 -0.23089824034914583 -0.10270809937112232 -0.24269141297821969 -0.13725413534329362 -0.037710373912765889 0.15654890682513195 -0.079231275181092839 -0.15372197497396006 -0.10151846361466321 -0.2191209208318019 -0.042318448117719849 
0.013248658793108931 0.35643602457029061 -0.11251027399646157 -0.0057395148787221968 -0.10610945358007733 0.066445036090478776 0.0080321952053863787 0.025049873088094338 -0.23757159453231516 -0.0022170392107879024 -0.21415447496063353 -0.26220350121654962 -0.0037272674980366348 -0.26560776291806537 -0.27408962925875041 -0.27525545103347426 0.43014967681601862 -0.10423156570515192 -0.22313317648503347 -0.29549829392252319 -0.022858169136379045 -0.24021786221170377 -0.03999630527751355 -0.28471780088998011 -0.24121264405757689 -0.07634069094846524 0.2348650571098824 -0.08997067717808821 -0.098026636136133355 -0.15744334204577007 0.037959730226853443 -0.20769081361762018 -0.26317859054116127 -0.26849463365667592 -0.052902546332300897 -0.14385673614825681 
0.33099567967683047 0.20937588655801678 -0.20065135027082165 -0.16613316974312317 -0.28507948289432983 -0.15811420858934352 -0.21847755323736551 -0.2851369262366848 -0.33760873098898142 -0.22501718206588378 -0.37668585108315328 0.071823818899133085 -0.22646758042947804 -0.38155372615352684 -0.31954261860433186 -0.44129657775347275 0.027022612190878915 0.28815855625030351 -0.34264641799028728 -0.27061331216783963 0.016648211695494217 -0.31002976149660705 -0.20690821525176514 -0.34716010317223589 -0.34184644171804141 -0.10989053641759068 0.15099146259987628 0.30243213136860569 -0.22577084774761083 -0.12725245794137741 -0.17322140662021163 -0.38878575698286261 -0.40609911444410512 -0.46614997605221259 -0.022687500585518088 -0.29039528170585982 
0.091088485942792577 -0.31604868802973635 -0.18513808595951781 -0.346148113115745 -0.42200369700067136 -0.41579325588500704 -0.45422259878364435 -0.48398938759667665 -0.37027032111186764 -0.44618307761259485 -0.40015508027423535 0.035089862830254247 -0.50804454104046626 -0.45020562269714526 -0.38300528237288151 -0.087872512271410325 -0.079167498932497166 0.046035012646509985 -0.36528261768218312 -0.064565184752321106 -0.10965269487626236 -0.31560004611331322 -0.13243588222334252 -0.42404838109667903 0.097041338616651693 -0.035316088335132306 -0.31026610890155487 0.086815064266421368 -0.48785571494094837 0.12454218834124806 0.10631908363824122 -0.47821682583353825 -0.48247325490096676 -0.050286803775319668 -0.056873780169717905 -0.42673571830147666 
-0.12065917332219089 0.28547370670211103 -0.23746334156428747 -0.24525409907953627 -0.16140445488897634 -0.28132440723670976 -0.28066833388570922 -0.29275137612077501 -0.28588282643048823 -0.23103019100823208 -0.19438745479879085 -0.29703442816626052 -0.18854560803575859 -0.29078025762063087 -0.36345220810871226 -0.1644745238378284 0.042803744738278984 -0.44594415333618181 -0.29798677300940474 0.22112497086412436 0.20193842398316939 -0.28890648881664893 0.24489462915507801 -0.43506412616092505 0.27018584560756537 -0.44368148697468562 -0.31310630044415128 -0.4885950105105028 -0.32883740500415204 0.23106099814937101 -0.41797348677987817 -0.22822237108455506 -0.25408864286291266 0.25628584073332472 -0.27494420883762555 -0.24925456337198076 
0.0013045414314372399 0.30500603143447613 -0.33021479848409907 -0.21708219410431046 0.17601592640289807 -0.13076380344277691 -0.22708527070741974 -0.18665848271930588 -0.2482880628477864 0.0077122295615597476 0.027238107685959724 -0.1912572531767997 0.19047982882284001 -0.34007351823659782 -0.34777968776106777 -0.19882105936054284 0.22533818180683979 -0.30951923720100477 -0.16503569684027697 -0.35253916035648175 -0.28709315357571608 -0.35534745753156821 -0.26514809617716334 -0.20600441607822334 -0.16494516359516778 -0.26977831075447317 -0.2353868352993945 -0.32945100670321265 -0.16582390475473835 -0.037740246011722975 -0.33941989589804777 0.082522786704016776 0.0099224786326585507 -0.26134878286964691 -0.43890759440936428 -0.15340820901744825 
0.037133831644404522 -0.30243481033294828 -0.097258837979541143 -0.12977619776651167 0.30898093476796351 0.16639728965353431 -0.15059740980122102 -0.18139725878007093 -0.36365157727623837 0.30762055891902945 -0.30015586865008409 -0.28160740315966321 0.26600217521659425 -0.21807168361243734 -0.22226252795684867 -0.30294320966114485 -0.10014402343950052 -0.28123518597638647 -0.032203428910612189 -0.29668078639121853 -0.22268542509083145 -0.29450006045601435 -0.16737348686711112 -0.24429636816262398 -0.28592018778557748 -0.13357298107693263 0.38579519757939773 -0.24079944544825327 0.048784438577463098 -0.23335860711413978 -0.16696256309361518 -0.23966007562671737 -0.083695714972077159 -0.26506854834212784 -0.26811350346096063 0.12782658394484278 
-0.4250382871639965 -0.83248042969424396 -0.43706475411769119 -0.12474665762817921 -0.60139889877976815 -0.28671672450723823 -0.26494263511434873 -0.28715388013824694 -0.81543609164545561 -0.56741601481972681 -0.91875488792324034 -0.3563751642658417 -0.47984524957541996 0.00085512070746160927 -0.13959775381513537 -0.29781924953319872 -0.36371583749671155 -0.36592587082510741 0.40065735394882102 -0.42622164977018095 -0.60134812798947013 -0.83514017073005664 -0.55195806122658131 -0.26226862808935164 -0.30017940377255525 -0.26999858003231542 -0.45534138602070562 -0.32099565573526506 -0.28340776009323349 -0.82120286178761603 -0.30431315215862248 -0.85763914678926889 -0.64232278223226957 -0.43821639106021587 -0.2676106572618589 -0.15168112151287805 
-0.4280550784041281 -0.37513411259565399 0.40412364498857761 0.14142678150904142 -0.35554211784163459 -0.43033697504254864 -0.33708890493982879 0.10994025005473199 -0.43764949736734565 -0.46182247206686161 -0.47374013799073361 -0.59756426780280092 -0.2406241251445298 -0.39620377278821906 0.15569858310888254 0.3007124461883342 -0.45507930160483628 -0.26554356677196522 -0.14894177141488749 0.067413278708563007 -0.15372868357432576 -0.28901668173704109 0.080273181917873554 0.082455468938868126 0.17824259745566262 -0.54915188864968656 -0.44242838283899538 -0.52964420850648664 0.097005898580165173 -0.092421542854599428 -0.22766839872149958 -0.35471700820243879 -0.47219356772086341 0.16779982636843499 0.2445728543213877 -0.19902338043707296 
-0.49854180467350012 -0.07367202819773816 0.050125998434841161 -0.048409574504189402 -0.53593318798679035 -0.46641405784259043 -0.48857942214791933 0.11414858800660857 0.15353345838556037 -0.29019064312840859 0.043712149214108389 -0.46722823615454251 0.19708733872866144 -0.41867158392812409 0.2355627358942205 -0.33347956655642602 0.012022090476959546 -0.42906113450593836 -0.28651317993780689 -0.41252218938245255 -0.24833976990491305 -0.45213663483572786 -0.14165798024322304 -0.43655327907079117 -0.28379162043561351 -0.45771632881227187 -0.45438414964103663 -0.44424484995590807 -0.40116886121170436 -0.092073564710586253 0.081842245362373084 0.050802597962588264 0.078412635784630175 -0.30406549162164381 -0.085945943392361418 -0.49297434289069658 
0.031366167787116407 0.010737999712135951 -0.37649485194916787 -0.25613382304381388 -0.4114049040660952 -0.38046345438835466 -0.36474473567250842 -0.21006600685723481 0.023029217233685038 0.06290533512430331 -0.076359480745470165 -0.24929072258517759 0.050088548113370782 -0.32763686576948969 -0.1251673116307476 -0.33350056615027057 -0.22915031782990899 -0.10768837863626 -0.28418987995446743 -0.29993429287354889 -0.16258985279680768 -0.33856978161366413 -0.10032408888988024 -0.37960497617447864 -0.35820022051043321 0.059553784339816868 -0.32721409171973814 -0.36795133246560857 -0.33179735190790638 0.13739805364994601 0.19023876770983225 0.20599965635269724 0.31504109803771713 -0.3850884508128613 -0.1847204400254786 -0.40785798583650651 
0.096781542538618759 -0.23044942968036292 -0.3538467075367428 -0.3890686757662819 -0.46753270337660879 -0.4511162705395359 -0.47461519520959278 -0.57518987292319768 -0.34580235933102454 -0.24340764278498925 -0.40519465155365741 0.062164563285415857 -0.53886185619411842 -0.47567559072362237 -0.40667111552829766 -0.15245279469395556 -0.23276738159889532 0.053325575213477742 -0.36484705367279341 -0.11091595851414372 -0.12314483388690442 -0.34497780478825846 -0.11596136634465813 -0.40036523107529676 -0.17510383773248667 0.13068713174290253 -0.33143720198048426 0.095786640530878112 -0.47195986132813633 0.078465690326957785 0.11557763670776845 -0.13277684554219102 -0.34176324293528693 -0.27789381809145802 -0.13406074847939919 -0.47107828115268946 
-0.25936338143061138 -0.025061420673633809 -0.61820069935484878 -0.3520967025808957 0.075084121765054232 -0.13287125300552094 0.026312769474217949 -0.52775077409000248 -0.4715531834138727 -0.73707383551259242 -0.36841604555745888 -0.30582957783758624 -0.20986889579825027 0.020621018428660202 -0.57356128041749266 -0.28247345930756457 -0.37010761305557077 -0.51611483657817059 -0.76504294587858301 -0.20767448373557446 -0.52334427289712881 0.14828385908644792 -0.5183056863968154 -0.19888378986109925 -0.47935448652513757 -0.27006086463658996 -0.078731665481022256 -0.37938286806452021 -0.60541476891176849 -0.48377948775877666 -0.14527702024414998 -0.35112275394650128 -0.54438103115928083 -0.56580574175224596 -0.54338772764904419 -0.47924694524311379 
-0.090254013240507219 0.149544331632251 -0.18324843579050198 -0.17227801086419731 -0.053797421774724789 -0.42017786533826501 -0.29505959498592982 -0.18253902021079968 -0.26424450789177045 -0.41202150031566848 -0.15165602084505295 -0.28341548661974358 -0.48518130562007322 -0.22579510116157267 -0.078061982240356875 -0.34392862066470564 0.17008935407337344 -0.34354940145586421 -0.32356070245992152 -0.26556399789810681 -0.1724480145532763 0.067570047816847473 -0.2665596515891423 -0.30622442864265786 -0.1584746919309043 -0.22207721097203689 -0.18711355959181059 -0.3785064522404244 -0.26388568296481846 0.23271017503692851 -0.20797953898034827 0.19511177071850072 -0.028634749757251585 -0.26073595436404046 0.013845172106410356 -0.41558605661443648 
-0.27736302481223973 0.48938896552163147 0.026603485057270112 -0.054962465553851078 -0.46109764921448287 -0.38506080516670432 -0.38135105820324344 -0.011402450948585895 0.072786346092138882 -0.051754173612394178 -0.052434900017678365 -0.34704364436575286 -0.39053711218053816 -0.36544035308736023 0.15806952603340149 -0.29797718217227959 0.09292028167019592 -0.36044903775984477 -0.31507803983784632 -0.35779684876543671 -0.21140652338514887 -0.3823004979131136 -0.21268608385642401 -0.28579201331227 -0.41011839808879369 -0.18294041755120152 -0.41852872322680007 -0.33613005865959444 -0.25604477145235316 0.18434779924388031 -0.31285485042144218 0.075284018297307131 0.10039845082399283 -0.3621987724573828 0.00058240908320478539 -0.47214459139498594 
-0.085296012404785293 -0.23135764802734843 -0.067054413332567397 -0.17812624979254787 -0.18305263239473418 -0.22416479589417435 -0.18728980301020215 -0.13081121672254983 -0.14864996945665304 0.5680333200018417 -0.12657530716466658 -0.29611310774071575 0.13890267814170923 -0.18793310791282319 -0.23988028738959596 -0.040085182348422434 -0.24271140448602713 -0.24122306994080367 -0.16518216414608777 -0.33140862626385703 0.44427273382624821 -0.14843880928915915 0.55101896150530594 -0.27276324386306339 -0.20417838406698227 0.27914299849223911 -0.18639423730018051 -0.19083133438963659 -0.15827780516744458 -0.075499075298371257 -0.19262183894257082 0.051014384543790474 -0.26639859385731335 -0.2967795632037013 0.018048236583222192 -0.20323879148228821 
-0.02707795268943082 -0.59944819841619956 -0.50396232246393213 -0.39716168644506039 -0.50108882171950386 -0.42219787991650748 -0.22027785492793853 -0.63087852588974769 -0.38707199390518721 -0.34588751825678171 -0.22547598255779139 0.04516014840436048 0.30310329267458846 -0.36070145864883252 -0.37240624221084562 -0.072093810536207531 -0.25824648318873394 -0.11085700209320624 -0.35009490080838518 -0.13188253607330644 -0.038136404960764432 -0.36022056024980514 0.029005818442070876 -0.11386870138846138 0.021081329413777633 -0.010915875977909946 -0.41607832318292809 0.1039767096776882 -0.48704671300057201 -0.24368924753019294 0.011114043181272149 -0.38504121820105897 -0.36919672428614525 -0.0055967735768149597 -0.044385130785743361 -0.36277096258552594 
0.16988820337929705 -0.26138562991691022 0.0815872837048192 -0.10882963403592061 -0.21638176729814312 -0.25409702690822689 -0.24029652219630898 -0.18882153943813709 -0.27147446407533765 -0.27356280693992341 -0.15565300427542655 -0.33050268573306291 0.074671539107133311 -0.1928553357598424 -0.24013584482330308 -0.092653008293861361 0.12828888579424413 -0.20079065458970391 -0.23745022102993951 0.40311883917383873 -0.03576477832005602 -0.16740779267767242 -0.27193411081232166 -0.14518112758417642 0.32500191129120953 -0.27654886832762537 -0.25132606441448385 -0.30401591531922134 0.12481995809181301 0.12284506233946703 -0.25377344740738317 -0.13160903358516712 -0.25662981692519204 0.2621658162715837 0.059321298883449086 -0.25588746231630222 
-0.30854544866701894 -0.41645190830668777 0.10455351420185612 0.068026187632523341 -0.46600710931587436 -0.42120553073080597 -0.41079511452005257 0.092857726321061027 0.10392880358352843 -0.13296515886282625 0.049513699992316015 -0.35843632810008946 -0.1040352127284242 -0.36331851370700696 0.15116122169667112 -0.33312315044652052 0.10719402735691515 0.016272674097338711 -0.32233421626537995 -0.15774047316165249 -0.25052695858053481 -0.33754478533293641 -0.229219774746628 -0.3948899634878873 -0.24390747848366595 -0.37997700975704402 -0.39044406654349084 -0.32652446011363861 -0.36510803043070555 -0.41971840392641474 -0.35621156010200167 0.13070127822170252 0.13633658722573988 -0.30061057964584431 0.05442834975941218 0.160267196394417 
-0.35641209796561973 -0.41195741932527891 0.06542650446093011 -0.010319602223706235 -0.069533833090319991 -0.45127610238229465 -0.35386333534562625 -0.044746826302447258 0.015209141441753261 0.21401857053436246 0.0085639505599730791 -0.30060670010259893 -0.4465272810385385 -0.19229481877736068 0.11284713041347107 0.0016934234758132927 -0.25379049165369505 0.00047322648850538652 -0.30574773723224841 -0.19909847787732141 -0.18587885165117077 -0.060153184286141831 -0.26691619284938606 -0.19490125517679341 -0.34585456855933067 -0.096432745290801647 -0.41964704367990746 -0.35615489827703173 -0.42184100470059571 -0.40017866943257702 -0.39198771259586468 -0.063116199444174625 -0.074147572073622353 -0.35502246360109879 0.11151813440655098 0.18627162583082746 
-0.42084824023470951 -0.0036177625124839828 -0.54444881658428579 -0.33972218294992418 0.069895562282652909 -0.15730779594962638 0.024477594547486818 -0.53944195733997446 -0.4319107517384399 -0.18435466694227692 -0.32424012283530945 -0.3094338855066866 -0.25506145150976628 0.011843249990722716 -0.49783784215818139 -0.1397268347060576 -0.68932329494304678 -0.36184424677534027 -0.75625482752663264 -0.18827945446867944 -0.53636664942234169 0.1363134724181084 -0.5418855008879494 -0.18243393107877001 -0.5942790229444781 -0.23604305111640597 -0.24313314498328267 -0.38173602899984177 -0.65855100824002977 -0.62111700352127375 -0.19683252090681308 -0.59918438244179972 -0.62803450299092156 -0.61318346364518961 -0.49388720035558326 -0.27106929814910463 
-0.24590817940012663 -0.12627120687201993 -0.32800726936583469 -0.42574987362580585 0.0045310582229553791 -0.17639828364377574 -0.085491243798726607 -0.36856515545529817 -0.37503896672098436 -0.94545004842975122 -0.31852938153133664 -0.36797187326235686 -0.31431583953131237 -0.077747468907212833 -0.41694963045193845 -0.47428338330327074 -0.40317842907024443 -0.40049523004487919 -0.72994143049750149 -0.33473677772674115 -0.64268777425770485 0.064785218458268221 -0.4665900836499563 -0.29301551189292369 -0.18860362046044774 -0.43170744740818395 -0.24461492672475493 -0.40360202047785798 -0.69170962578066675 -0.72601119361119604 -0.45409715514027366 -0.63186360746798864 -0.33846268439923266 -0.45815861600733304 -0.29176405756332147 -0.81679431810355652 
-0.29091837876655446 -0.54148838030229107 -0.093132621481728156 0.015898501509815515 0.018983728516502069 -0.52104422923687366 -0.48896738339428275 -0.17604818590178625 -0.083525183747255108 -0.43142283949944593 -0.11361813411121915 -0.37877002797909398 -0.60814122585994246 -0.39789063777067735 0.052112512845143177 -0.48647645028198838 0.017275508297281285 -0.074918115434006505 -0.39932223798374283 0.10476863504308982 -0.23558957846488762 -0.033194373074277916 -0.43218293488008996 -0.26322725791901863 0.13875178019326334 -0.49057712054709351 -0.51354001920555603 -0.41740311224401189 -0.25607280091663587 -0.15116369544183331 -0.27204860908292289 0.013195821871817025 -0.044482420170983784 -0.39597754958677434 0.073031424667982583 -0.19514224148440112 
-0.42812837783662017 -0.46941469250423551 0.0032550241784860159 0.049337542330016797 -0.50737195636136234 -0.43390464504368953 -0.44530536992451603 0.047499168193193143 0.050761669754632262 0.052936359072376746 0.018114467789388512 -0.37881337051704222 -0.27047991327052862 -0.39802214685641929 0.1059106152969686 -0.36688382288001264 0.035116153258015044 0.03605764498115261 -0.36642467412697854 -0.14044126173686772 -0.22373585932927992 -0.37482802301447354 -0.33995847492095832 -0.15216962388885361 -0.44750270064699343 -0.36854900918421568 -0.43387924113739279 -0.35252230982660265 -0.41251513496696396 0.14212402422075993 -0.33511090847132219 -0.12998947324301355 0.02747127633389404 -0.40749169260167395 -0.010724133758288852 0.14508218329697001 
-0.18655217276683006 -0.22392058034796306 0.030545436073200961 -0.26629828976337172 -0.23163937047887054 -0.20851141238196652 -0.23612437139198811 0.20373942445150797 -0.11971887034100606 0.49565506918374752 -0.091616497706995897 -0.3018297939408876 0.18778596542659887 -0.22241656486360095 -0.31795800339753494 -0.087089253999237171 -0.27052056667875002 0.38021962906084161 -0.19333578241064542 -0.079905345047327561 -0.039492755447462023 -0.17842580727841062 0.085925023245321017 0.11942297922176603 -0.20277322701611128 0.28506612504442169 -0.24409632767016043 -0.27650734256777415 -0.23253566087445676 -0.15871021510612834 -0.24604879794409343 -0.062058496556693848 -0.29625522815735972 -0.22009621626400272 -0.014621043670719468 0.16085371607736287 
-0.030551941147285808 -0.34630155095755916 -0.43198101572123743 -0.44362707295469728 -0.53945058053580663 -0.040885916926477042 -0.23522790801081872 -0.26175287885238568 -0.33868379691662343 -0.36203755066233739 -0.25461670111477519 0.014290547918177712 -0.0053137479880083164 -0.37088606035472504 -0.34452537947686146 -0.1004785198404312 -0.56716281207157937 -0.14256244232286336 -0.33379913369027042 -0.22863786742499156 -0.047807843056558871 -0.41977376179572168 0.014486287252871632 -0.01961223379741852 0.037399503234880213 -0.010780164882711442 -0.4202191962067876 0.080701204778328775 -0.26511937820297188 -0.39057603421523684 -0.059404327752693491 -0.37757857476433526 -0.40351670714088966 -0.032434633062242035 -0.43609795079643127 -0.41372837449234756 
0.12033696799828661 -0.11353435598647305 -0.24404468538289498 -0.24884372249842548 -0.23591281955600885 -0.066003653050143621 -0.26613990245958075 -0.28764671643834755 -0.23230334212408765 -0.22063750989942776 -0.1999397936849264 -0.15629257059632032 -0.14517098098617978 -0.22385033603037643 -0.23171737362985664 -0.045240166017009247 0.32931452109227982 -0.29431365969674822 -0.17265203393427783 -0.023654434874733378 0.44651851844027646 -0.18690499897325932 -0.39025049864428851 -0.10000004983547128 0.27437727998047062 -0.31602582051815153 -0.2651959181805244 -0.32298589731136029 0.54859566938630333 -0.25458565596027632 -0.062023819692928917 -0.20423914200919729 -0.20175947510212736 0.12805350084736175 -0.16578890903853516 -0.29002221952028212 
-0.20469735525375435 -0.011938413283223374 -0.16354197733906148 -0.033865916361874665 -0.39311950737752782 0.050850019566111002 -0.36075806431707691 -0.15253188862758058 0.062917021096358494 -0.15742214266355348 0.0087672478409255433 -0.30930259502016316 -0.36294157157947632 -0.34799885833007405 -0.04724808491445158 -0.15083073461284993 0.13280454181432605 -0.31903253302711065 -0.082661390802039325 -0.13175385758450528 -0.18120058883626344 -0.28093707088854936 -0.31423276655158389 -0.13846172630533612 -0.21226386460933036 -0.34441589275401135 -0.3923706753820857 -0.32959999503847615 0.26761760660631934 -0.33240894719892128 0.26358976268346379 -0.34301873815877398 -0.34585200675310146 -0.29463340271317878 -0.33790470584653015 0.26184114593511648 
-0.27590759450473357 0.038189522797340981 -0.22106792371602285 -0.086165334294384346 -0.048393756289582555 -0.068689790088950251 -0.23549133229692321 -0.17897743406673142 -0.11480063645676215 -0.044313000980237729 -0.0090237150996662838 -0.23847947599163927 -0.35021607944208594 -0.2578651491584299 -0.17476570240956413 0.13718574391304175 -0.029818316360448717 -0.31692617258930078 0.074376645420608858 -0.12743765948346727 -0.033866512388332937 -0.14803862826071174 -0.3099275435367948 0.11603797896113083 -0.27017039177532731 -0.11461207568534917 -0.11458333098383247 -0.29896287312901576 -0.20314088002873523 -0.25805289778866247 0.05964451677934731 -0.28380110625108901 -0.26843265097048569 -0.30087545328618626 -0.29526826297702452 0.4106096797604521 
-0.16076978194816441 -0.046190654998072775 -0.31906147357196774 -0.46422542258538346 0.04743334876080639 -0.13871972252436104 -0.053793136160796826 -0.34134573487955427 -0.37303485854219959 -0.71293970448253585 -0.23248775172614805 -0.31667207416309906 -0.21119076455185629 -0.07656256623358583 -0.4633413771135757 -0.20758652860224674 -0.67459174387746745 -0.50095554266911613 -0.52485745051424826 -0.45721779972146664 -0.53862551170740414 0.11977762971211522 -0.42584414362596296 -0.251482144444311 -0.44172654087181284 -0.30048154580984637 -0.05096506448873437 -0.37274657739237049 -0.78980588427735043 -0.69681196117204969 -0.40856635387047036 -0.81229500935437082 -0.37144915341033052 -0.44055290139013037 -0.75983699340611544 -0.45643187355571768 
-0.034408863102086247 -0.41119454839155006 -0.10426673923843252 -0.14819159303478288 -0.39855272119489676 -0.4188753322362207 -0.46594579692127602 -0.22960306258149943 -0.30473322549953674 -0.46785878773802997 -0.38438500774305262 0.066085623252305159 -0.52569744224516968 -0.47937701806779504 -0.48425947224676213 -0.097869466065147848 -0.1097041744543519 -0.08577846020941364 -0.30546103876715475 -0.12235796877949402 -0.03535513809716534 -0.31954781887715061 0.047637912463490438 -0.34431644891518687 0.028487609007769681 -0.20803402465373677 -0.42740365378717587 0.12587919127185074 -0.39822511344319073 -0.35133686934242664 0.037747927232532001 -0.35890764770019379 -0.39709039803377305 -0.014595756439781159 -0.016597346399000814 -0.45891791100291141 
-0.2915776722247288 0.28140673086565837 -0.1682896496411114 0.16861532838736298 -0.3447708534789678 -0.39839677343786639 -0.40111422956186144 -0.07694254820308398 -0.13582884778698742 -0.44742998841084486 -0.19446897593771695 -0.41416586254949367 -0.25321631258395844 -0.33557321007189389 -0.21231143106793901 -0.25513309218441244 -0.070267000971495797 -0.44891934529779581 -0.3292522937283564 -0.27349308835720676 0.23695444404030083 -0.35645623283632127 0.083106488520849398 -0.26933556657696467 0.17058139363758762 -0.48296601890303181 -0.41855331317386618 -0.48148525008291998 -0.3163757860183487 0.077759866615931317 -0.4461561412064024 -0.15467543505628659 -0.15071782611787685 0.20822209367895475 -0.12834475781447444 -0.41829424085665062 
-0.20899641144010328 0.47444669985979221 -0.036528828960070613 0.060190295019903015 -0.30102055369246805 -0.40183752971060177 -0.44136815871111029 -0.071857522603949703 0.023697580371958717 -0.38039743734165987 0.01164094102379104 -0.3558770499135685 0.12529159461711595 -0.36622320949693027 0.15499665402140794 -0.29462432778201642 0.011255946073022995 -0.37844708332898191 -0.21319273132327726 -0.34281689008442129 -0.30333322041044175 -0.42523328548374889 -0.27408043057242432 -0.12232238274675702 -0.38953771874805398 -0.34145100244940446 -0.33971074237993176 -0.3533678815714647 -0.37263219869562347 0.1764894114829115 -0.34878406424842301 0.079630184530421644 0.080678228779528488 -0.3855865786128545 -0.10276776812702064 -0.47529896860466758 
0.16501596488062997 -0.32925032789633124 -0.086557618325481506 -0.29174689421743777 -0.21215171176056138 -0.31205271158551628 -0.11768244599292045 -0.11464605552523897 -0.28717829663063194 -0.18611699422557371 -0.10843206230067649 -0.28071435569998793 0.091810126438862105 -0.040869240593451185 -0.13212512483312422 -0.28507680616959918 -0.27259649330717517 -0.27138506829197778 -0.1323716739560146 -0.28809714971950301 -0.19433198151202613 -0.25035236745338296 -0.090200952254273492 0.036506799271050418 -0.2710659368965978 -0.01467721911890031 0.2734100580877466 -0.25987579451428167 -0.24265622244360921 0.27620339665778454 -0.11771535403751444 0.29297499908656693 0.18471094646213715 -0.2928881457345695 0.17418828747915396 -0.29067144200858019 
-0.29905049915782211 -0.81821121729681578 -0.73615824180039424 -0.1508932078448916 -0.99670611616340377 -0.0018742429913748606 0.043353249161995767 -0.43038215753875819 -0.68460161926672858 -0.86628491299431709 -0.7512621678327307 -0.2638008026838124 -0.38163519629027781 0.024334127149055654 -0.31047565122920306 -0.31945867369471231 -0.27610516537002028 -0.34209640420449866 0.506631347124326 -0.51960309864462217 -0.73140604720093105 -0.73841147214517611 -0.53008513509974331 -0.31711997195839176 -0.40141557747685136 -0.22524921527177932 0.15830655281181233 -0.31346675478875607 -0.25209287026850913 -0.33324999282386653 -0.26800129616361762 -0.65429125036251945 -0.77981177731038476 -0.24520153494427777 -0.55233913012226632 -0.18285358988902042 
-0.36553555460333076 -0.31807857591257221 0.36718226911900309 0.15409836880322925 -0.35857081169422428 -0.42660078227879267 -0.16930649382960075 0.020782661067332245 -0.43398212052013391 -0.43997235168197874 -0.42294313214317675 -0.45470456885305222 -0.045154420401970707 -0.33019000904034462 0.044730983569099977 0.26187385008935338 0.13586769195433335 0.15870977904129394 -0.29222558769398421 -0.053420772796359872 -0.37698030502812424 -0.26009228356504455 -0.31796233766352605 -0.099825772715861988 0.20219896883655961 -0.35314834229951081 -0.35621525942310278 -0.39962662447302366 0.36304169014957177 -0.34133496464249169 -0.35823589957285346 -0.30820740231446719 -0.40381078033339385 0.14198019239343712 0.1689032867603093 0.18977421387441742 
-0.34485416908999622 -0.45636441673695893 -0.0060540907293152217 0.026659566214200348 -0.52309301920636653 -0.49889753307777218 -0.4841882399951572 0.042051101957391174 0.036603020385167231 0.042943220177001001 0.013208814873862097 -0.39016603385177678 0.18782380035691218 -0.40502399025265046 0.10783548030349417 -0.29117247687695869 -0.25846339394345202 0.07134942657957169 -0.31041294462759061 -0.43477507206633731 -0.35264086699854136 -0.39958576040476462 -0.25395265373036718 -0.40496804339902948 -0.34183134007510863 -0.40701420505101948 -0.37321947132680472 -0.36613888212857548 -0.18771779844430242 -0.14327096005996909 -0.36973079276912962 0.042339744515934294 0.021644737960815709 -0.33704373129676646 0.0046387345222365563 0.1015993328352062 
-0.085364200579511287 -0.41665988199091147 -0.24437016743936185 -0.21875711925476771 -0.43959811298015122 -0.42234248762054549 -0.41366701272135475 -0.18355228105200111 0.16708838090991929 0.14096581194195587 0.098374216365822484 -0.24146480916015634 0.13167034157359639 -0.3461985646061414 -0.12308544163743101 -0.27715984168168833 -0.48467366349749325 0.060685920163912881 -0.30403331180261306 0.05324980707069029 -0.026179478787742155 -0.34837747381722273 -0.34525374220519967 -0.37655831309760118 -0.3956151944991424 -0.020834494047050497 -0.37515663465409671 -0.37599058784766132 -0.38009728703912193 0.18806179063755249 -0.32911588333927133 0.088220661477760753 0.11606501022866607 -0.39638396810412596 -0.1235768929616114 -0.18419381273815078 
-0.041371382561157043 -0.49214295922265305 -0.22717715122245372 -0.45440538234954647 -0.45553960598483478 -0.46094016580526093 -0.50199995159063526 -0.43106784841539819 -0.27386731474073045 0.10294728743965909 -0.40352711449147927 0.064540681129992922 -0.56585473661478647 -0.51437782906949059 -0.52105608083333721 -0.14737645773131186 -0.38019755036253577 -0.10475569579488941 -0.33100109085932095 -0.1273768748514171 -0.059157065085690685 -0.34053455035901464 0.025950260756946637 -0.42245535128362871 -0.15536050391261785 -0.047516018285298278 -0.47337658862116228 0.10855422045732732 -0.47594133181667858 -0.11992617673071355 0.014015522651632174 -0.16228782997640603 -0.30686106843070371 -0.026260742280755763 -0.13195560419638228 -0.49096691886097282 
-0.11508107930857309 -0.51423658690901919 -0.31068193521036225 -0.20996749206146292 -0.46885955897799358 -0.46616899517228461 -0.54847336251097456 -0.012724241118309151 -0.29142188312138545 -0.49114624979559302 -0.35599567510080327 -0.0011437281305091106 -0.53702537333744771 -0.56566394487281735 -0.53285843596242444 -0.15094660637174645 -0.29008355414659814 -0.16255492438466346 -0.24228062834289435 -0.19472376652850049 -0.10192581805717607 -0.37172447522141411 -0.005038447251860579 -0.04968984795943579 -0.099092280993138104 -0.18027609081132909 -0.51819435614879206 0.066261715015003608 0.22409250885170193 -0.4817346946629153 -0.03958202259241804 -0.42489969996921495 -0.42034376059746886 -0.098464574971557958 -0.40409699142678879 -0.55520221912860146 
-0.39291639234517178 -0.44775692343305756 -0.23302981512619708 0.039031650660906546 -0.44432057320311674 -0.46018742171017557 -0.45531313249204697 -0.1897622241297458 0.13732253613774592 -0.36131672491161637 0.06765607242973383 -0.29930698677501755 -0.12685153642167643 -0.36643235075906427 -0.044516627304172933 -0.13560614805153409 0.032748884324199472 -0.11107090381589683 -0.35275149412182105 -0.19602451162396742 -0.18660050964572431 -0.36362347221806374 -0.31733201682424939 -0.069641764938508155 0.13656322551071087 -0.45891156768969665 -0.40150801475983849 -0.32144869024182471 0.30090579058337258 -0.21148080153966459 -0.43017426669569953 -0.37106025336356296 -0.18004367811301283 -0.14323665528348323 -0.24791133650810296 -0.16449838520954754 
-0.37480273324374719 -0.48034468272019765 -0.0052293603687393417 0.011024778872775018 -0.55100712596939261 -0.48629408954779269 -0.4793114958789666 -0.08889055337453354 0.022666417451684236 -0.013468731286207427 1.5426576963989413e-05 -0.38094721289066913 0.14728509273575566 -0.42427979283414879 0.097333930246793571 -0.40287070759200377 -0.017552491615292033 -0.10544427038780257 -0.3224610162314791 -0.067473787113225256 -0.23242132584043762 -0.40731783617697814 -0.35269867033690472 -0.26309499764118555 -0.50580672679552841 -0.38372664661186001 -0.35601006687729336 -0.36293357029771156 -0.078587606021892242 0.048609630298146779 -0.43384341276209232 -0.1319567642172319 0.0015432000862415137 -0.43090889268135857 -0.080587615410206051 0.079546868060849207 
0.098307682450005859 -0.39415617416141818 0.21361951857210079 -0.47468378447920895 -0.43762668449486336 -0.34176361807405814 -0.085165828221022324 0.21850588113122202 -0.30216188360216079 0.20691571848430332 -0.035435223347001388 -0.38567643961518683 0.10480708830682646 -0.2981327789233652 -0.02576676491471554 -0.38425908026736355 -0.35624858438171253 0.30488816908878164 -0.33348919320339709 0.042107651978535034 -0.26630090699657027 -0.3076040481071512 -0.2821823654900445 -0.056940770173301479 -0.33975207680387087 0.084512657302294458 -0.13822921865646692 -0.37635785372953839 -0.33713273058664467 0.064644312156798486 -0.27851299156797155 0.16276377825915794 0.16067515098311758 -0.34796066743648868 0.18661062989866248 -0.27495346031940998 
-0.39286717259630088 -0.87951979326428498 -0.34944804940449842 -0.8017725691401214 -0.21818343109250651 -0.13701929489113093 -0.11785755607158825 -0.34666593650852368 -0.80399077038076849 -0.78063875837520635 -0.76272110976438512 -0.2892294463753316 -0.34691942029745432 -0.11513191175650818 -0.3354660634894629 -0.378850618828251 -0.53173235734414259 -0.56387841536200589 0.43636429807819788 -0.39927440755807325 -0.67945488713282287 -0.8524119387358513 -0.22974951575526659 -0.40077230567778388 -0.72712383216276177 -0.35426267062075917 -0.016735020098554494 -0.3148230811405543 -0.68156277691447764 -0.22082471072259777 -0.33839504156620831 -0.2460859129110789 -0.25054117216577737 -0.29982906955730476 -0.62974202724762507 -0.52879062237976637 
-0.33295343065964994 -0.23111286195667391 -0.31803631810331068 -0.25252851277333832 0.11236330251825534 -0.01227322866785609 -0.16285276148831243 -0.3122387405642072 -0.30825931387831029 -0.3351312649690627 -0.27921215551022727 -0.29440108424077543 -0.31159563886006403 -0.26452311751482355 -0.10944032150137846 0.2393670972757124 0.27305953068336575 -0.17010966471306407 -0.24181334218794578 -0.25122160918801834 -0.24024941771732491 -0.27834954950464147 -0.33950042382283097 0.084833269258883945 -0.098433288845702016 -0.15260083114723219 0.34112217175338405 -0.34408451674594021 0.46711645140399821 -0.29728496385012304 0.10660986144388758 -0.10701250386152755 -0.28551562025365662 -0.075285727413192199 -0.36116396709563015 0.18078844294465871 
-0.18371729562208522 -0.19061693460068641 -0.29863087042608794 -0.16709407201252408 0.22979344601009408 0.42669488188388721 -0.49649558772213348 -0.28508162277084514 0.05701297001737575 0.037805110998143418 0.12442792230480916 -0.35200195550339908 -0.11374306746400645 -0.41184800886438039 -0.021127923052753225 -0.151447251224297 0.026807454179078836 -0.13749662156316472 -0.24879920104146239 -0.38334763189273791 -0.33836879128383945 -0.38349775479941506 -0.30676868051644263 -0.1591370127450645 -0.36349073747788074 -0.23471731347727776 -0.33446994875770142 -0.34815400846523481 0.1915756254400737 -0.32453443728453751 0.098602982811400217 -0.31203260726760523 -0.44221903073781849 -0.30845538536772388 -0.41114169726290517 0.1770761095220493 
-0.072956801419492692 -0.039092383209739644 -0.1198012140140057 -0.26784879124684136 -0.15477047440767214 0.34918005865098867 -0.37194059995579282 0.11685699589344775 -0.012895628692908492 0.40364952280761685 -0.0853611065391746 -0.21075804931208017 -0.26604449223481319 -0.32176374974065775 -0.26553375407151442 -0.15244932615903542 -0.28141316611805062 -0.33410236883469663 -0.2429655965676209 0.31179857704720598 0.44493069793738488 -0.29071094266460079 -0.41799531678558227 -0.21225281743609381 -0.32738472189433454 0.15707047171011421 -0.36844092251597871 -0.31408002999755602 -0.23571239672846311 -0.26130403153252313 -0.083681211437114794 -0.27559151414033484 -0.32453154084502839 -0.35772131561706111 -0.19792293662243685 0.15895060880069925 
-0.049432598241902014 -0.33358095298363016 -0.16068971070608198 -0.49087766483589501 -0.44351890676665884 -0.1375206061085795 -0.50556264494020842 0.079377185801660088 -0.25899623908972413 0.042592155413495661 -0.39644750080259711 0.031910401746268788 -0.50950588585182788 -0.54981444819895187 -0.49306472327376599 -0.091905680289271027 -0.44415159873844556 -0.13877301647718593 -0.20134093284755342 -0.13285278504394696 -0.047451366906353876 -0.34125363646752277 0.010744827781302164 -0.0066284518911121099 -0.17996902906683682 -0.023608252857331778 -0.49066660981652122 0.094539229220388224 -0.42219427689206906 -0.44154568251672999 0.0042171909112295944 -0.38934419684181693 -0.38030247623210806 0.0062955735285289416 -0.33372863180669965 -0.40837160417088281 
-0.31850119364397128 -0.3073910137666781 -0.35332025045877058 -0.089623940717796405 -0.27866057839314662 -0.54234418029864062 -0.21286027721901377 -0.26409892766212334 -0.23233086847055079 -0.72973528052950432 -0.05325558444115424 -0.38141758117679447 -0.30333446343973142 -0.26819288697123872 -0.07973724855814851 -0.71539144518645481 -0.40770402685740309 -0.27559372310504127 -0.45349321946813537 -0.2532754324542022 -0.40219048125381807 -0.16503082325692775 -0.5361993613443703 -0.35887159090491322 -0.20487561559472342 -0.39044044438867115 -0.54493249209903782 -0.38455641638840288 -0.34071838458878445 -0.82568167060859687 -0.84653021881238644 -0.87301995669088095 -0.1956645801568653 -0.4270308883490882 -0.36954801346818661 -0.92666569515681407 
-0.16968112105397495 -0.34190833218808375 -0.32553666797455705 0.20402635919822942 -0.25380705129500813 -0.3643497887590284 -0.24638788231183772 -0.30551263585427874 -0.12798923416518476 -0.32625990347476064 0.01511526898246989 -0.31909443143607402 -0.40173057602665418 -0.28084446143684066 -0.17978851472231097 -0.35477984732913842 0.17342965172069177 -0.20169354668579537 -0.28421094282062387 0.39901451393857135 0.22848578043372952 -0.22948567060891911 -0.38260727315778875 -0.24108145546510473 0.29492428651490799 -0.38392618335721845 -0.32332191196513871 -0.30884222698690861 0.2129228789307627 -0.34363660461525997 -0.066958899730870866 -0.32552258872443479 -0.24791708947868182 -0.34410035881117562 0.092308796035371551 0.049059145615347598 
-0.08962200108791514 -0.30107080790816171 -0.15809843641647264 0.52720121854013691 -0.32326121083719406 -0.23725615360718227 -0.30112118759272211 -0.2916338171146679 -0.046652296781604083 -0.094443201858521203 0.22139664678563409 -0.29260126917979667 -0.3425031762452701 -0.26681982618684674 -0.034025005519304818 -0.27619250962773717 0.13257064030450469 -0.15175571707735286 -0.23955176060984229 -0.15229416394735087 -0.11226538222981609 -0.27290939222626454 -0.25602762771623438 -0.25429836893256191 -0.33321278579537394 -0.22026364157918385 -0.28743151251897575 -0.26961438726492021 -0.20550261152037386 -0.28753091092079763 0.39104484892395147 -0.35874155073692265 -0.24870876502965317 -0.2850487453353876 -0.25793829203017932 0.37855090525479812 
-0.209386124603578 -0.16475676136208472 -0.12582978777527304 -0.19448723870193538 -0.18282264883509039 0.14751764964134281 -0.19473176006888329 0.085006298386967105 -0.11642725997863755 0.25051395715769542 -0.074935924093340905 -0.24022074857308998 -0.14577698099283715 -0.18431396995990823 -0.23297655199000167 0.2531204030999345 -0.1654135974494178 0.19872655829786004 -0.15560288315190171 0.011107355082274895 0.033806203715580262 -0.14185624809169736 -0.14772341745520426 0.054539740943376387 -0.15796145326790095 0.52417542111577498 -0.18342909519978667 -0.23684691178868736 -0.19505142494413427 -0.14552772351821452 -0.14233994232694624 -0.1728093071029331 -0.17432258307894452 -0.16626928720405235 -0.14299905087219003 0.24111576771307591 
-0.097593858739468492 0.095434323773740018 -0.3879050570713794 -0.41436384351065719 -0.51919262336638827 0.069836058643564222 -0.36187584267826867 -0.10687026545395287 -0.38110833063012123 -0.44339693245269124 0.0018643048540400546 0.0093110038103961269 -0.48751409956937802 -0.39526018949219732 -0.24047784599955183 0.051967969676021464 -0.42115445125138157 -0.043456990953232466 -0.40978273874175264 -0.176989741597638 -0.14272528878308599 -0.47273147675501137 0.041148951230895056 -0.03309893546920277 -0.0055790589582006798 0.059021896275736341 -0.34823777964262403 -0.013461651253828146 -0.29988099489540376 -0.44311718072925488 -0.49509725221050482 -0.38762853497009786 -0.42310038345291673 0.020706803122216778 -0.5933078064078009 -0.4210940206067792 
0.081450796699708852 -0.043673177842851421 -0.20492061614323406 -0.26152051161771794 -0.21090839175479234 -0.081115291383427365 -0.21182193808739316 -0.25204753896028387 -0.20650986877462651 -0.17995486028011098 -0.20637930429452578 -0.08939266781470287 -0.17715779050273489 -0.17594174148243666 -0.19397584231714435 -0.13975297591932972 0.35893182782340144 -0.23641067703439708 -0.13538957927614387 -0.37099047101137561 0.38344432768023384 -0.16400844327848574 -0.27472262232247668 -0.14969614072486653 0.34004449290314526 -0.26666174722471209 -0.13410008855242359 -0.1363431541162915 0.41281087472294653 -0.22388831762251005 0.026272977687815745 -0.110423912934525 -0.18347060774792692 -0.030868600474353806 -0.2634151294340451 -0.23891619874947492 
0.15911384439163953 -0.13368654724625051 -0.22032792035063609 -0.22478848151184466 -0.24274026159548953 -0.025388078594021212 -0.26060999254362566 -0.37214939115840939 -0.20760120198992021 -0.094563468451712818 -0.33163896014566452 -0.32566848704154139 -0.12009497995498765 -0.24855382839686879 -0.35482246888940783 -0.048596611303543667 -0.013715526923717344 -0.35776216339828232 -0.11588491015646826 -0.35046862575619564 -0.26764839358917369 -0.054695104423371707 -0.32744845142078299 -0.080557045819792075 -0.075007295270195812 -0.32766045241918568 -0.40699332404613697 -0.24202369101436993 0.010003676881657417 -0.033180058839585989 0.34334106611648291 -0.0036716972688051628 -0.16863104477052987 -0.32673811603851682 -0.16679477241651289 0.0067335006696053346 
-0.032158068288104698 0.0062142768912299097 -0.17814390085125262 -0.030910616011458662 -0.0128615882480063 0.067164332505486021 -0.29324551570252066 -0.293575884292683 -0.22982874769446923 0.10388983354414962 -0.22352817424209301 -0.31353862936739557 -0.17073663381451051 -0.11987217102018534 -0.40206231520125024 1.0768718663852796e-05 0.019508610529835761 -0.3751886160953955 0.084829275575973667 -0.33594128383756339 -0.28686877763332441 -0.22276831358695884 -0.34283478831814967 -0.12327572270329151 -0.26368791297435723 -0.23710011660834315 0.064668984842505425 -0.31661337411293727 -0.29191833372797454 -0.18846630057314134 0.19350202320113979 0.12624996439370881 -0.29220124105841189 -0.3189177758758085 -0.19547192595157548 -0.24372484659210761 
-0.31330516448259421 -0.30513983850147852 -0.28405188958903482 -0.028832595325799008 -0.28476226545142835 -0.4079307914307726 -0.27086232081041656 -0.25570488080050457 -0.27973458253348893 -0.49146480369639228 -0.02197643363517738 -0.37226825555725712 -0.25313984763876707 -0.32390441507683931 -0.094637456348187904 -0.56338468169655043 -0.63135661720451031 -0.36914846332987311 -0.24959694139319902 -0.44968816283175211 -0.69680491480819651 -0.15722721956674229 -0.50778973614252809 -0.3335734915688896 -0.33625758587956622 -0.30726075456236163 -0.29235206230324795 -0.38836678943684994 -0.78158440412441321 -0.783385510625068 -0.70899402127546407 -0.66248837231882396 -0.25510833542707045 -0.43604192263892266 -0.57837859731087604 -0.88753315733092397 
-0.30778361531767873 -0.18392117974466865 -0.5106553548424877 -0.0043822428953302541 -0.53871672801930781 -0.60535433783193926 -0.13556125293710405 -0.14856271384432848 -0.22726856320339214 -0.52832074731693646 0.043755104393532682 -0.24734185273966711 -0.5457891210321425 -0.50507959936380609 0.016281373456763924 -0.54789424832729361 -0.54908666810244977 -0.19064646643382102 -0.3045156540371064 -0.20929738607865933 -0.22882885357050248 -0.22339081133508157 -0.42530350757228169 -0.21070194340835682 -0.15165659244432217 -0.2212265667726887 -0.52880123635855247 -0.56397188477396387 -0.16951074479920814 -0.72158091447708328 -0.8864023734091665 -0.67992735848788799 -0.39054975167362904 -0.33542974811919035 -0.56745290026975292 -0.81117923862335328 
0.35366816550035435 -0.25313758746601095 -0.18402500144691042 -0.28707375350006686 -0.14973789433298926 -0.23681753498966468 -0.12201159815958487 -0.10913824513431329 -0.18477609148078952 -0.20834103976961782 -0.069212206945422988 -0.29372784489256065 -0.13832012441456742 -0.18014791311478434 -0.2199240026104726 -0.11922785354326232 -0.015170425476480436 -0.29507214257281877 -0.18723230959032239 0.15202507192325226 0.39246933360664021 -0.12447798740039145 -0.30299233113334861 -0.13598893599939324 0.22410512153793796 -0.20742328112912323 -0.23303646601222505 -0.2912794960970963 0.3863162606851564 -0.18021316091633416 0.19004799044142481 -0.1676217117150213 -0.1671824517610444 -0.25436458923773325 -0.23416363700549839 -0.17896547356181922 
0.49511863610136597 -0.23264580307441093 -0.04740186115982948 -0.19772297879085515 0.013983337479477175 -0.02595816286133093 -0.22333117317067588 -0.21709871262372604 -0.14114741720179863 -0.14737348694238475 -0.15692605476276208 -0.17222676377171123 0.0087880440001143704 -0.076547045637017183 -0.20956752928184019 -0.15821306186574521 -0.024791331377668577 -0.17514061916224979 -0.094761011225628092 -0.21757142828959958 -0.16012898917256749 -0.10588654770209026 -0.18992040084918471 -0.1889953411383708 -0.16390893874197121 -0.19780432208014256 -0.19732509587315192 -0.22372696852162022 -0.060468502194389137 -0.055242996716408727 0.46957870979591987 -0.08085286807206031 -0.089915252380961194 -0.20437829685483666 -0.10807712943789091 0.069061436550791042 
-0.27633065644323651 -0.28924736152096425 -0.27158764692471954 -0.21940671266624984 0.10679113299504536 0.35853348401557755 -0.41792780833991472 -0.23575285596880174 -0.23850192295674202 0.02987193534841753 -0.23028108483522497 -0.023158265173841508 0.023719597890345532 0.081452680973145147 -0.29215289535554168 0.3885990760450912 0.1201119163751916 0.037154337601253605 -0.08992839179533163 -0.2047674264304418 0.01505400360821519 -0.25874017959968409 -0.19933573770940957 -0.076229037649730699 -0.24234100362821237 0.066608775088835379 0.027331562060451738 -0.37866358711634657 -0.2557720274528627 -0.14095540827868763 -0.058032509745075983 0.13393106779100186 -0.088878879083452919 -0.28571074772521038 -0.28791866600063581 -0.24479923230749887 
-0.48152169257078498 0.069699871775747102 -0.52020762292728306 -0.54503384653041209 -0.38763800793270109 -0.11781396734368078 -0.49739731732111958 -0.28251862029741531 -0.4613517575493053 -0.43892316422036298 0.019307227670015515 0.020273079211314261 -0.52991932447762269 -0.3474299837621922 -0.21885073006472142 0.036578920406086277 -0.30883898933177939 -0.02887874005597103 -0.37362058966981615 -0.39832370529038147 -0.25339759191364802 -0.49379772752136969 0.061536557280056567 -0.044182138867635209 -0.44682679800099667 -0.13422992312074192 -0.12885901040368938 -0.014424862170896714 -0.41349579996118024 -0.37465383860261137 -0.15788724545368385 -0.37706674251630246 -0.40942333171370421 0.080037972101427435 -0.47413509188578584 0.019244787061710254 
-0.18370000045931525 0.060322892177321182 -0.063994082993694551 -0.2834459303941495 -0.2088264598292803 -0.1324174858126336 0.053811442332048924 -0.3128015245533628 -0.30682617205883334 -0.1544289497195063 -0.2503473634206993 -0.31210263154819867 -0.094432329700426976 -0.19009555949952894 -0.26717602024768605 -0.31456217540768283 -0.15630048726819992 -0.27127746607702757 0.0023689678148206966 -0.30477094675985833 0.031542849243299954 -0.10031244720391656 0.06596894413055511 -0.3161122159837928 -0.029591687614812286 -0.30580119710963838 0.099888830421373156 0.11966563927363273 0.091011081441665309 -0.22376746493399238 -0.25190077915663145 0.062451959347540095 -0.27250750147176789 -0.21911948979863222 -0.28351019382179476 0.23785093381421138 
-0.29311882904476078 -0.48396088415526378 -0.16016727616513779 -0.76468303440744712 -0.29680625837067554 -0.33932105727196232 -0.19236155622158069 -0.86828288288899913 0.069460746023415454 -0.20344161190241705 -0.79612588015497543 -0.72665677477236401 -0.20959115336749209 -0.19156287543318815 -0.80251082418006725 -0.66437043536118179 -0.33182742123429854 -0.68878759587515215 -0.060247170624567664 -0.71586161816404881 -0.60508254730535915 0.03646617653410196 -0.57627979690442166 -0.70938692567323125 -0.014355010927502795 -0.62591314914300389 -0.42155742227539567 0.072901684313054244 -0.16423616816336128 -0.014097761848312941 -0.54859574857178151 -0.22112501329236137 -0.15257352790987513 -0.75385520560395569 -0.095023725139418175 -0.1470160928096404 
-0.46283406534189864 -0.34494725280469679 -0.15711582763258719 -0.69163132482438516 -0.23855839951552996 -0.2212554118961117 -0.25881868615513187 -0.73023240309164261 0.067697404009581394 -0.1277974327046961 -0.55127855810110082 -0.6106096880098153 -0.14870806931323338 -0.13186307112599815 -0.79230293627628812 -0.60889092898466879 -0.26671009305410909 -0.64291622543842397 -0.0036292724944738909 -0.601495419984996 -0.61523282839654769 0.037190054535549591 -0.59075141112719731 -0.66354656808914825 -0.15399410288016185 -0.5282218986323044 -0.17505325975926989 -0.24720922269958087 -0.28222778950322097 0.026634459224295508 -0.59612905262855542 -0.19140812692576309 -0.13478639983530943 -0.51746783455277878 -0.034588469103009604 -0.46753858999300807 
-0.61047818438148793 -0.38484340955450058 -0.47329755417992725 -0.11465576037155005 -0.34951791864872328 -0.43906767709801281 -0.39253970057703558 -0.37670422124926783 -0.35640184927389845 -0.32899116224519043 -0.11340559881133709 -0.33680505077765105 -0.51563037993074712 -0.38602446335396956 -0.17654609773471375 -0.7711184142531502 -0.65912725373073611 -0.29986270721019459 -0.18518738642304905 -0.34995182456214208 -0.45698124006671598 -0.25264553904736464 -0.54301356121013356 -0.40529007521883437 -0.44161907226704583 -0.36302623505716258 -0.35892667740177642 -0.61390732352802524 -0.67549873085352574 -0.60214772381715465 -0.9931938143645257 -0.31417348609081658 -0.43230120153318558 -0.38118461249099972 -0.64418390942946413 -1.0224179546682828 
-0.27261142594413601 -0.21663297583078303 -0.37749201701360535 -0.31911783007185307 -0.42154411047692564 -0.47597527422451275 -0.45466795506288316 -0.010974457454007134 -0.33025714874511847 -0.3702660512441604 -0.28506876413921417 0.098953602305723212 -0.41300911039947835 -0.46311691526398163 -0.36588561559693494 0.099800278116736876 -0.053903294953930661 -0.034788499521938882 -0.33229265030356808 -0.12342572210342648 -0.1480451179955462 -0.37522426268898657 0.1209689250149814 0.055148994584388704 -0.12373980658137487 -0.27241187255447674 -0.35267424035823597 0.067269328862574196 0.20960156090440371 -0.39908183186233998 -0.33492350169109775 -0.3832835108525719 -0.39222646835987568 0.057806091565805788 -0.49762145127220719 -0.44098871658536509 
-0.21544798829786302 -0.29603977498568157 -0.30345723088584725 0.19482367225506683 -0.3019417858040927 -0.32316556657463202 -0.3063149288144823 -0.40758749143349676 -0.11753296288432963 -0.24966180317027814 0.1275388621202139 -0.23599053147857527 -0.26909533213931269 -0.2534397721392459 -0.23243540466322168 0.24457470992395633 0.23462838060239724 -0.21674141887659731 -0.24712650954580609 -0.10766350726127463 -0.048017732719139533 -0.24853110904941611 -0.35665142708178266 -0.10766073464602538 0.13895509694031796 -0.32869311286090408 -0.22832872224678022 -0.22334596450295363 0.25660961899248269 -0.26869327602183624 -0.097688331046337382 -0.30632279355308323 -0.28812261980126092 -0.11745288367083483 -0.33117913610041849 0.1576881034011379 
-0.00064068536241126094 -0.35031428464331982 -0.21812800249309514 0.3688490170546988 -0.39941253936795762 -0.23026784282213719 -0.33541171744216036 -0.37212844252746929 0.083545221430978353 0.035325153605491273 0.3561586742000652 -0.31997521489702024 -0.22349210381359264 -0.30884379655127775 -0.047887889998186127 -0.36320581451540546 0.096856265783804255 -0.25600704993938145 -0.2442109172913573 -0.10600325387107862 -0.083939487376460745 -0.32760541492767786 -0.29111660648895471 -0.3814544263166435 -0.40408868916606699 -0.20849068979936264 -0.30553215413628437 -0.29746699961562867 -0.061637135400444888 -0.3174588983234326 0.1214346607116959 -0.41176737399321134 -0.37189785275919268 -0.32651196279071348 -0.23638833788713889 0.28865868539293726 
-0.053125513158540055 -0.29690112984507677 0.086454049116525614 -0.37575663283654986 -0.34234381049230544 0.17909434146865236 -0.023246803577234132 0.47540655140533483 -0.29207548717339515 0.43380698412149599 -0.086031524572241364 -0.34149613550987962 -0.24618298290531745 -0.30807328260428557 -0.16462390771152205 -0.34079691662886979 -0.17798155618201819 0.017140272974841456 -0.2633452280592381 0.34750199491401323 0.2609028641520369 -0.24238958900254523 -0.3366126275554287 -0.33172663440907202 -0.28521660659738685 0.47663755664996105 -0.32477311484160581 -0.32958331749758507 -0.29341088749255007 -0.3581775967373404 -0.20794003247734061 0.047695290747135279 -0.21516532329128218 -0.30018777397324514 0.53058048884280684 -0.077209484084097002 
-0.39741772098629913 -0.65802518070126104 -0.25985758676707388 -0.88198192384056029 -0.16730112143495637 -0.41341593382949182 -0.18192717902049879 -0.1185241309738113 -0.89376892383850859 -0.30376168430958411 -0.84471108854457577 -0.36790546855911721 -0.23287706705783745 -0.1980058568342497 0.085266243855213614 -0.52990965910742771 -0.34970962869949318 -0.31195627076546179 -0.23439425239096029 -0.23578532925493884 -0.37730930071306862 -0.81187665114590257 -0.24308132570129842 -0.3036745230581756 -0.85684882093616221 -0.26967173946182393 -0.35962765265269009 -0.30266775601400209 -0.80986470311583181 -0.072220253544306459 -0.48676215049083038 -0.21007696163021108 -0.12066836350559688 -0.24622782769034504 -0.20700655538155935 -0.29209919559149056 
-0.26298726815928358 -0.29573595093832433 -0.13482180436784749 -0.3908519614466669 0.075138763067480713 -0.19180322314480802 -0.11256153339928768 -0.48360136341518234 -0.45847896593432902 -0.10497928508295637 -0.3675103713055215 -0.31052212151017761 -0.11464832965716572 0.063825327615194119 -0.14605176165273298 -0.12595745927467222 0.15728834063410865 -0.40078594673303825 -0.077376344533662308 -0.38483742680314298 -0.34822232037176842 -0.36604682180621156 -0.34364816478495663 -0.12556112873060982 -0.35150551827861826 -0.15864113721492637 0.26998532062085173 -0.35294134534767097 -0.017039637608544524 -0.16361577448115464 0.098373092862759137 0.31926126733558419 -0.073903919850302438 -0.21115156872388949 -0.14846437077821012 -0.14582032182198615 
0.20819758793789669 -0.16359132590670311 -0.080180994812938611 -0.36389652528915262 -0.02441252458922236 0.23596169953569951 -0.23544668599377705 -0.40898962103837272 -0.19639157904563984 -0.20200994931996225 -0.37322648600257241 -0.37993928586551623 -0.1118734270076735 -0.2526660915118113 -0.32773569397689112 -0.12102123803061733 -0.14742911530798319 -0.39051480806891037 -0.20583153300099641 -0.39905108763929259 -0.38010879740353998 0.0090467848520496968 -0.33913141597146856 -0.14850333487789638 -0.14599704435983679 -0.050637919901900419 -0.36810866612984222 -0.24182294028284829 -0.12695745900274921 -0.19062971508041548 0.2628006229949984 -0.0052042694236669462 -0.20105879709609228 -0.33941056248850038 -0.11916271473914004 0.12584786597271319 
0.10664862479425187 0.11890829482061575 -0.14692406208929007 -0.24237513909738775 -0.12933386174198377 0.3833861130182985 -0.23804306272440787 0.23257062216808222 -0.16197080401320568 -0.12256171220897659 -0.25737459913321337 -0.24059655850164405 -0.1883243932674265 -0.21662785912185162 -0.28714421504808263 -0.045024735529723879 -0.23388926477417951 -0.40262259185673543 -0.18644302425890905 0.2363609524851262 0.39084461838161172 -0.1087405801458658 -0.38352348807633835 -0.24566357821459464 -0.21151169547397311 0.13346593695697867 -0.30104124733256721 -0.20675690295287594 -0.1709343276839142 -0.17529237833948902 0.14400865847636229 -0.12710093628874292 -0.1931213081197343 -0.26860563730519166 -0.19036889108850372 -0.077173636971474766 
-0.17624982886348861 0.0036757243773145572 -0.30850981197517102 -0.39479187028668222 -0.37730277978663601 -0.16642923470747123 -0.43381327266388992 0.27867282267489257 -0.29846100517941748 -0.28412340937987424 -0.34702142751116855 0.10102676754592101 -0.37864961020096372 -0.44599091604122404 -0.34538358517289774 0.12343142292950623 -0.29237795180791631 -0.1309287723296863 -0.29814891735699733 0.060303375194242143 -0.053827540926911874 -0.35844788990273752 0.10694642283718088 0.054950262080210276 -0.32924500926344036 -0.057953280246738355 -0.35467169385406488 0.069955900335201146 -0.36399923070442408 -0.35573463683089274 -0.23774538245804377 -0.33551952650709155 -0.35925997826240602 0.14104836691034819 -0.45020375202118251 -0.34949316503368139 
-0.58996844329968023 0.02544609357956425 -0.061963190832628134 -0.44248067127284085 -0.33600173258092358 -0.51681230113630316 -0.37245539149227386 -0.36740398572310151 -0.4085008448948943 -0.23566004032417659 -0.41021712820075545 0.097178306887808139 -0.48788053461756387 -0.28618372145550142 -0.42643373177150806 0.099203086257628748 0.043065991862170826 0.076159666557311226 -0.19808849606862527 -0.5338637923358186 -0.37236983183273131 -0.47273985856745027 0.12766266230656209 0.034658234687188642 -0.45588248820634664 -0.63201931137473821 0.069582348776742506 -0.13520386936263654 -0.28458147382700222 -0.30322727534567923 -0.0013011104793652717 -0.11950507688729699 -0.40044509430971281 0.1123066899133921 -0.43507048896388484 -0.38429801857438534 
0.068225898801879958 -0.36965229493745044 0.18619445546440469 -0.34590996428956383 -0.073430193259924947 -0.37344802685654016 -0.11002996619924429 -0.4036645981867798 -0.35010441853194663 -0.046158701931138184 -0.30429105356833297 -0.39190101346685724 -0.31904452736937189 0.059464831783147862 -0.35292835284981522 0.52721180083778374 0.22255607008333481 -0.29792682224789263 -0.11393212781938721 -0.37176137600525172 -0.17205084254971034 -0.29586972990210375 -0.36277984850767275 -0.20690244391834681 -0.23393844721025112 -0.42410287020986459 0.12330975058752629 -0.41059835309816184 -0.026331927955182376 -0.14069913003818865 0.24292119357126057 0.16811747487777789 -0.21684190174456935 -0.17082686253100809 -0.29613507823115209 -0.1119537985452842 
0.46906043420949567 -0.23044781901938727 0.05518516496560899 -0.22322820037723426 -0.15404876570318204 0.11294594133350298 -0.080620233917264972 -0.14070625792963259 -0.19167253439659751 -0.21699557403423303 -0.21389382469457757 -0.21363469212267927 0.092485627516166249 -0.13887614676298826 -0.21863521420557644 -0.28332745680563554 -0.22721534343311386 -0.095420351658768693 -0.1374507267539172 -0.12298107533978625 -0.049357467542566813 -0.11115065938352035 -0.22720832216793702 -0.24387741284524184 -0.16224796510947564 -0.11428811650291237 -0.14621210406129609 -0.2647072644381816 -0.14955200143452763 -0.12504543275770977 0.42818777965820592 -0.051394841485679868 -0.14350980917841616 -0.22503505511354971 -0.16904884828975719 0.28232551936086342 
0.22209268265294255 -0.21814776872539093 -0.21682160616472096 -0.19329009275830217 -0.19500986525758682 0.50132232464371662 -0.098539276309523152 0.30638592686149496 -0.14699815802835056 -0.090031866600352992 -0.20445222208554151 -0.15201295383194491 -0.1534813021589955 -0.22113437199839536 -0.21386930719527555 -0.25403470808907552 -0.20009413356726385 0.073089981878715959 -0.19087446259421859 0.53694839373630066 0.4128291060570668 -0.16861859746655919 -0.28912839328820661 -0.18501147063276208 -0.22896202259913864 0.55261864200227306 -0.24864949542582299 -0.32171971640322811 -0.17838649222877667 -0.17322170261722858 0.056484545036708612 -0.11613652799944998 -0.17567385989330617 -0.26927812839484949 -0.18953224718734288 -0.12332539330324911 
-0.47169927060860611 -0.41130187151640324 -0.32254880468114838 -0.85044620235108304 -0.11669264329335284 -0.36689750947907124 -0.33370906540466355 -0.078114650590644319 -0.79347716357149412 -0.18025385161933094 -0.8211146820651577 -0.32792841969907094 -0.193394939126632 -0.21439352665848371 0.12577487316111161 -0.76097737535186938 -0.29231151581633275 -0.2679638052573769 -0.18331516967027955 -0.20284126558004772 -0.28895156157687119 -0.76636802359972023 -0.16045183065092589 -0.25522212519754067 -0.87492108773587041 -0.23111050238126413 -0.29709060986704255 -0.59867062072329302 -0.80548617769283148 -0.16571773801617359 -0.27785374540443231 -0.33865988576006728 -0.15893391063153001 -0.078771126505143271 -0.32891559280494259 -0.30253142454569032 
-0.44873942093778485 -0.014759387771069197 -0.003182232505445041 -0.52949977674899051 0.047547486260208743 -0.36131103901603834 -0.069252885645942078 -0.65245504137040533 -0.69195023052874138 0.039730949844538829 -0.50858773399625856 -0.46393700809123672 0.089104670478588152 0.13195422201183152 -0.3411134384041643 -0.47274167975522791 -0.04437572337492765 -0.47523300739066854 0.1094731070060526 -0.46171794532364518 -0.44200509436889157 -0.35115709075023349 -0.30592268702132569 -0.25318190853995343 -0.50860241263434303 -0.49216929361967665 -0.0015489886235524118 -0.4355237131915824 -0.27135631811235006 0.19502438927580318 -0.41454080879791722 0.020792771801732123 -0.08894930192441157 -0.42721772495837368 0.010745201792820109 -0.12418112126901658 
-0.11145668755053739 -0.19640431200709957 -0.18229452127610291 -0.83646445160663518 -0.3320021368418572 -0.34277292285055028 -0.22482666897385284 -0.83110440979606881 0.057123134986431651 -0.20748337970256167 -0.87065419216487827 -0.75316978599078488 -0.23619108939942154 -0.22492614707969297 -0.76272130290246043 -0.68793528160702055 -0.36373435423567041 -0.72170981636751164 -0.079078903478243312 -0.69700200470047768 -0.65979091630083142 0.0010206522761895837 -0.63904875560947472 -0.69900151293231494 -0.036127680432636887 -0.65175670022322241 -0.37436598630465279 0.073127077454888112 -0.17603066968985531 -0.042767441094142856 -0.64244070482326898 -0.2422797948373796 -0.17441970853839414 -0.78652718865421933 -0.11780401643942225 -0.1576146257713622 
-0.42033273385136305 -0.072208883214626374 -0.42115707806687214 -0.70999356673099545 -0.13427120706090301 -0.28913168812181816 -0.3114543816865864 -0.4737580070826069 0.21829683993390422 -0.2100009387313484 -0.76191413715242262 -0.56374187010423571 -0.34962094945570843 -0.26511157325258317 -0.68061496187947168 -0.54385040278270003 -0.6175197816479262 -0.54860239433421043 -0.23191948472448418 -0.51608828283929364 -0.22644234190729057 0.12739159544829812 -0.62877590055056842 -0.69640824194351136 0.057119118164716078 -0.60683761981711992 -0.48957172170522811 0.078773424649478146 -0.097273421154196918 -0.065185742998909599 -0.4969435587802174 -0.2696825172731519 -0.11202498528444223 -0.35278753654139539 -0.085034082747044271 -0.25828444731864691 
-0.51919718317714636 0.11422622374377286 -0.34999412479589875 -0.38572360691478014 -0.27727791436800919 -0.28166451555219096 -0.47143854842176408 -0.15369368168845604 -0.32617398811191428 -0.29117315986396702 -0.37376839608517215 0.10813213675982104 -0.37097472786190044 -0.42147224723670584 -0.38767217738169285 0.13444646082383324 -0.24640784210752092 0.095793648361259073 -0.20811449225679168 -0.44141421534887421 -0.23825286207081608 -0.29732868449053085 0.14059221439201292 0.061120568736139129 -0.4252618669362494 -0.59896601730333388 -0.025827180538077657 0.019075965136846101 -0.37307418513597196 -0.28844885838010931 -0.088434277357833602 -0.26143864623033164 -0.365068339734053 0.153973135298346 -0.43674783537465256 -0.39031360240211704 
