svm_type c_svc
kernel_type linear
nr_class 36
total_sv 69
rho -0.006581811804448663 0.0075190702339695192 -0.013143695742596846 0.00074646440799064351 0.045728410007632239 0.0010845878010776466 -0.025268473656213732 -0.01595370391091112 0.016218341443230158 0.0048133303972634663 -0.013856176019767973 0.023953098373301663 0.0014123575142678535 0.11124490634944388 -0.026038961005717277 -0.021185896720291791 0.019777947974930297 0.22984487548959143 -0.032703121617259051 0.0034925810272322787 0.062878658749390789 0.0062608218559157061 0.0084515517198831564 -0.00015986764477449178 0.0079572103149418844 0.0091559782094376135 -0.0060011246891221101 -0.018746571332610571 0.016773933801900689 -0.011168406027888348 0.023456098356020163 0.0029284673509983152 -0.023670679800791638 -0.015174180035215848 0.00023806104040990927 0.012366495255355355 0.036982339654428979 0.012498728801360845 -3.3437585721163288e-05 0.053350346224265627 -0.00042534421041140469 4.1404344609752286e-05 0.017165139988405166 0.021999751929120483 0.018312165451059258 0.042459735106951051 0.00097671074329430674 0.10268407951211682 -0.00012118243584291477 -0.00099613664756859066 -0.00022435905511497545 0.14073629590503345 0.0020289586999898738 0.015455010017874341 0.072496363491565172 0.013205328020588354 0.0059553571994078501 -0.00032282580515730075 0.013451517951124252 -0.0002321295665408396 -5.3501880989736961e-05 0.0040787035454587593 0.033099499349165798 0.0056933440310889044 0.040031195368237238 0.026882877506850703 0.0095322113631583858 0.026522905080554448 -5.4469706886994818e-05 0.089133482825540775 0.04858771213924893 0.055081151993331481 -0.01463662135207993 0.02068469617339095 0.045586708043538808 0.013149981654506954 0.0027154467890993217 -0.0073705709301777698 0.065617200549823909 0.0015341770941579014 0.27705038932090287 0.012161667912191289 -0.042674931628884617 0.0097054267874545942 0.25274486249487338 -0.0034619776987599082 -0.0064171909464103196 0.065561188808741122 0.0081345555701447213 0.00036604457343895891 -0.0078076075083909815 -0.017451404142588528 0.00040568054833738413 -0.017112612630312319 -0.0056312047839043849 0.043750304608472151 -0.010041185727120381 0.0060462281148823934 0.020417380176032833 -0.014966237297823475 0.074070035916864382 -0.039031940905015376 0.00027015888748692601 0.01817649583104965 0.022472332055751183 -0.051822818751329179 -0.096905785638352684 -0.0085852197914845947 -0.14309270955682998 -0.024141298509758859 -0.049107738546074482 -0.023622564193525764 0.12289686446174598 -0.023171600932102413 -0.0010837888210075697 -0.01465484679092738 0.1310767979508167 -0.053153204071188655 -0.014524757325559714 0.028115359112187523 -0.027148807879014133 -0.037938013022057571 -0.0026366273919803422 -0.022841777290102189 -0.014532003028026475 -0.023345817738770456 0.033283339218160873 0.010508945959533543 0.0066948555272535485 -0.040701735889834965 -0.033917169841139433 -0.032284057537809614 -0.038975980782354355 0.028053415105765183 -0.0981534609973711 -0.0096978741526810575 -0.026735447353057069 -0.029601410241825912 0.0040526224017534253 -0.0053390077103996174 -0.00056173833679951102 -0.065155403885064925 -0.00094652321961387819 0.040273778083377454 -0.008486037326123172 -0.022434474879666655 0.00078350726135136169 0.13767311129299023 -0.011667131797584005 0.010347160565279618 0.060384042488601457 0.026073699943051837 -0.038782534208210269 -0.02389918208712984 -0.013746113233891985 -0.14480062511061517 -0.018566226552148169 -0.022756417139422856 -3.5981390887800189e-05 -0.00059066108746064216 -0.0087680887060067984 -0.01620141868785303 -0.01829965648048584 -0.0156865936678275 -0.044716154795244656 0.12636840811187539 -0.082567168232142163 -0.00038204681253969821 -0.056837588009830714 0.021144167009579901 -0.066118449398249887 -0.0001671474375243287 0.07401621518182365 0.057073076203974261 -0.048036847095976609 -0.065898862041748704 -0.043162245659444917 0.22974329648614572 -0.051281047105008311 -0.041613037032134259 0.091794519198125854 -0.015112193722992235 -0.035171919867501511 -0.046801354847110926 -0.061294200155809865 -0.0053396890637132429 -0.07265156427456386 -0.066214185241550691 -0.017617315785308726 -0.066191096044518574 -0.013878857212900768 -0.03203264121406986 -0.06459483641607798 -0.050706690886415329 -0.087649377417369723 -0.048043134870852253 -0.014624108280694015 0.00034866253070890197 -0.03052582752128763 -0.016090910504877379 -0.1052059839377079 -0.068999116689080819 0.10353355888052654 0.0049991343200106609 -0.0017116528665261921 0.013858317958320066 0.22844276548152975 0.012620862688379197 0.0090578107408137206 0.053389341124106475 0.022128311363284008 -0.006651397487847612 0.0071997690214229207 0.013283666714885359 -0.13277861455200488 -0.040436086559634155 0.005233779049727447 0.012651167976525182 0.0065082343333082611 0.034269211757298759 -0.024863425348117581 -0.013693291457277247 -0.0034257293316298249 -0.0010737984609785478 0.01874808691464756 -0.017483402869944858 -0.032277029790508491 0.0086873693097163918 0.046981400439444071 -0.0037199183099559849 0.2277964125915854 0.020095365012480066 -0.012090246616729666 0.0070859917629480431 0.15620408257925483 0.035293006104873091 -0.018310165898568709 0.061962109099410724 0.030885256871068328 0.0025838324004804998 0.014441246584759556 -0.0088208378717701975 0.0077551861028442 -0.015516327613506053 0.011129936550129921 0.013562270443015315 -0.0026959919866371349 0.0062506516577105504 0.018183424551411181 0.01748774804833679 -0.017256489901195562 -0.012642777809536898 -0.052165054896980499 -0.090861688006461869 0.0095440848002592889 -0.039396820836050138 -0.0089276609014908859 0.12297615446615721 -0.0078348177563864578 -0.044234658049093045 -0.004899930901998667 0.11237359576022728 -0.028582259687098901 -0.010591412934431806 0.070180905807197685 -0.0036449713706661288 -0.017585512608610868 -0.025450208792595973 0.0023828133240573974 -0.019413213399056363 -0.0047562706603216931 0.023078417807528635 0.042035984456499254 0.0014965716094804552 -0.019204554411939769 0.005307732534072105 0.00073274930159070867 -0.038556338695057535 -0.013372207188876228 0.020053886946955847 -0.014424934995556651 0.067073578929419356 -0.018432811454303619 0.15227222540074997 -0.0089113622449890229 -0.022666246415143098 -0.02149555619916858 0.20634703575423233 -0.0039725759176807238 -0.012813328404183965 0.063534488474658479 -0.0013338668292703294 -0.010184642969974943 -0.011344463093095669 -0.0081475989753338682 -0.020138761500324006 -0.016429741347946891 -0.011762766571717931 0.027690968095860701 -0.0072174595183737995 0.041667682550646165 0.062775277678220456 -0.010497881932922556 0.045098537865427106 0.00050052936689226613 0.013434837347201843 0.021628415197391476 -0.018686124220177902 0.16134127738603868 0.0096080622877095945 -0.0012444507319788745 0.028638976067378686 0.099683753728959629 -0.026929275448990167 -0.011641110143422834 0.052364585786177871 0.0030495018899592114 0.0018664758760838309 -0.012828632481508445 0.015126514380872189 -0.019753470529065672 -0.00025017689827738776 -0.00023202437795721842 0.021877637059993581 -0.0099185517436454866 0.020759019851806258 0.02763700523071887 0.0091684323543413729 0.028743689847740953 0.028658139924745803 -2.7277263126901374e-05 0.0011796246164170743 0.062582915554234647 -0.012995145536500722 -0.00062122531670172343 -0.034632742010861271 0.12870192028267435 0.00086708454465760456 -0.014003529896575754 -0.0079008252892412544 0.042409602671550889 -0.031882298589494901 -0.0003341290804901309 -0.0054785264615135679 0.0082950079686038205 -0.12680757557493702 7.6525704021834784e-05 0.021064141847636896 -0.015351602642651598 0.01230991845717168 0.017312592456310678 -0.057295381755813724 -0.0053552618685094866 1.0645938631093088e-05 0.058592086855121898 0.11424591863355989 -0.014513717035529115 -0.05067680205947056 0.00076916865154466726 0.22033744285489812 -0.026134678467125562 -0.027519958113101269 0.041728502659956333 -0.011186627365954945 -0.025129181553508441 -0.017639468601590387 0.009779017238567958 0.00011258577148776094 6.3184148121370187e-05 -0.031281278512893071 0.0053889266067859952 -0.0077443788271552034 -0.04763854663497747 -0.031337365845194989 -0.034933346622171187 -0.03252965603761445 -0.0045032709242409583 0.1265574586025188 0.010087228492796358 -0.0015523215706487736 0.012929656010268463 0.15260286738627521 0.015410702482221017 -0.0011332177769147744 0.084492808763053651 0.026397379604827478 0.00038883052954182445 0.0013667708072143813 0.020917852320921165 -0.040192889548289493 -0.0014067547984812911 -0.0052233466410376902 0.021233730679585307 -0.0014753640980076366 0.029356774537366986 0.015179575390651475 -0.0009774129415178745 0.010166646010109054 -0.020363696572933951 -0.09481842442729814 -0.16774958375157403 -0.12951352937278224 0.093137605493660236 -0.16550222949594579 -0.13313975930965535 -0.0089241006200468462 -0.086967034265558851 -0.14544630354648455 -0.076146464027902289 -0.12446496340948487 -0.1019163586942895 -0.078001248708326518 -0.089538446395826352 -0.080668237391777906 -0.096113550849261625 -0.10122780593126494 -0.15549985255584517 -0.082657509772429041 -0.21693901657184161 -0.12171644116696125 -0.011149892108383179 0.046951638084505587 0.14998776481601753 0.021408105114895996 0.017684934009782747 0.050035735794137302 0.022866486829215042 -0.11720622598513596 -0.00030473429075228431 0.027422785929295253 0.004929914299599744 -0.029079363545625219 -0.00026145480598368251 0.019789202328157965 -0.041418232601974206 0.0058051686325522487 0.0072336088597687431 0.036806224576323987 -0.014217016848812885 -0.00014641689362900057 0.027834062493734563 0.21157993069751443 0.00048309143739611038 0.015814924279379732 0.052830543146644982 0.029331209566776106 0.00084521039789842156 0.0006845895604836727 0.00066626970605887514 0.0095233581109033221 0.00063834533123285908 0.012287066496630033 0.058709276293258929 0.0079644821561851761 0.071433440286169839 0.044085042499026394 0.018124582746827669 0.054809491673027545 0.0012064744021715867 0.1340585355593614 -0.032401661593887091 -0.053901979428137334 0.013164302348153549 0.10298364428106262 -0.042230844954880234 -0.016309849413164327 -0.07780392153300203 0.0067177244386291482 0.00047013909069537618 -0.020883418001544942 0.0016062620296111449 -0.029739814561524719 0.014050313101270289 0.0030115257741289434 0.034658108345425626 -0.029473092192486283 -0.023317401912620255 -0.17297144907814627 -0.13660264770899208 -0.091147372328927362 -0.11460372615874199 -0.23434530329744108 -0.194139570150302 -0.18753834396130958 -0.25537479213336012 -0.15124083869142935 -0.17589584410361067 -0.19003923054731342 -0.14378854533390376 -0.17039487243126378 -0.16274080079589567 -0.17144932694679119 -0.24038471654234347 -0.22104748119464648 -0.0025909927450540079 0.052878622601418665 0.024312723120012106 -0.034639988629001417 -0.010836969341939486 -0.0061596345381208723 -0.010147852056085937 -0.022872717649538531 0.017936427683101205 0.016044066081118993 0.013709441496974785 0.017631053010356747 -0.014100069435827265 -0.0016250270206193658 -0.024395407890316065 -0.0087206464996525263 0.021353364673484192 0.050517141262959198 -0.017041976721451916 0.0049380683666358834 0.02645889556565939 -0.0077418260706185061 -0.0064560349820042551 -0.00041155488185890682 0.016234869363819533 -0.0093139019287880789 0.022941494506927673 0.021292928686462292 -0.0010376089982108887 -0.015418992258997621 -0.011469632721676712 -0.014965653436508899 -0.042212981469038624 -0.024920213155674494 -0.049277857214266446 -0.08595695024684101 -0.0025474007412334704 -0.035819103678653638 -0.027460081272192162 -0.081537391760528058 -0.053496846843988317 -0.044744659159245422 -0.0011456441205323353 -0.050856645298931136 -0.023189289300889242 -0.080234429611199184 -0.024923701590656776 0.0074072747767970938 -0.026986087273106585 -0.066774101812117861 -0.0025416036415899842 0.017844068079967704 -0.046465754308093465 0.010526407464848495 0.0034906885609990819 -0.046638695856940166 -0.0085545845194149907 -0.017654631154075492 -0.0076596515773728309 0.046410835450119634 0.0065385788887905054 -0.012283102420576272 0.011642869149905944 0.022184381840991863 -0.00027959295504058508 0.026190275602243945 0.014561490006339472 0.030532534511112749 -0.00042106320441559486 -0.0001078224233456021 0.001743345258466912 0.0069986960571300659 0.00035879833986585119 0.017702085211537578 0.025613358247172743 0.00021801710052415935 0.0080980024422429853 0.0067926954733785625 -0.018584441002502648 0.016962741200853226 -0.0014062455540430391 -0.0096426366435692426 -0.023900032067645904 1.7208355506281858e-05 0.018868876936672975 0.017626776106116404 0.014798124679928252 0.0069042913651460071 0.0064477279423353438 -0.007011519206655153 -5.3904531553516932e-05 -0.0096633442937044071 0.0036062774169569427 0.035504660765540798 4.0779023514514456e-05 0.045272233476174421 0.021246385047142782 -0.0082107274088212296 0.024526010834501205 -0.0079912616366343281 0.0010687355163592584 0.0070214233902271342 0.024644299008486317 0.028151809051573582 0.018433290216056959 -0.00031984815789298793 -0.00031912846523396432 -1.9333278542976728e-05 0.027464254045778482 0.0011256049414642422 0.023543081676107636 0.022213195678008724 -0.018149899958704644 0.013436965934531189 0.040465819390465757 -0.02229778892166304 0.017013773363154953 -0.016791720033637124 -0.018878487978734405 -0.022469608586820868 -0.0317015979362235 0.0061544444397342458 0.010487058000206193 0.023113561714955804 -0.0090792236646388691 -0.01149989381767807 0.193027248753051 -0.018571635067147221 0.079894205512515207 -0.034143441729566404 -0.010469841527541298 0.061541115053149492 -0.015949437624682313 0.00948334997078293 0.00010427219649226938 -0.028163120887855463
label 1 2 3 4 5 6 7 8 9 10 11 12 13 14 15 16 17 18 19 20 21 22 23 24 25 26 27 28 29 30 31 32 33 34 35 36
nr_sv 2 1 2 2 2 2 2 2 2 2 2 2 2 2 2 2 1 2 2 2 2 2 2 2 2 2 2 1 2 2 2 2 2 2 2 2
SV
0.071836648413238738 0.80385038523923869 0.41935519165514512 0.86764546273879462 0.63028476553227042 0.99249284442254293 0.49539419045957489 0.40622713387627946 0.80121376741362793 0.46391772633804274 1.0923374894983959 0.8853381515810087 1.0188075967879466 0.88043896324247561 1.062694702367408 0.26615464266522587 1.1921494488837492 1.0486467435840863 0.84647263321522459 0.26918908535934133 0.76933015604549904 0.58451140567645865 1.2255742853661264 0 1.3837008464326246 0.97291587726756967 1.5275286074914518 0.42544474687966399 0.40618673937473748 2.0432299688549374 0.60958838086501266 0.56807686593979656 0.29617720223149419 0.81541861417851003 0.79688776858345101 1:0.067390352 2:0.0018667497 3:0.0056002494 4:0 5:0.29608154 6:0.29608154 7:0.04455575 8:0.0031443485 9:0.069278874 10:0.16060738 11:0.072117366 12:0.0946135 13:0.074430637 14:0.29608154 15:0.29608154 16:0.055820081 17:0.0092874672 18:0.13968891 19:0.29608154 20:0.0018740554 21:0.0056221662 22:0 23:0.28797102 24:0.094597943 25:0.013484482 26:0.047165234 27:0.29608154 28:0.29608154 29:0.062423371 30:0.10243069 31:0.12696438 32:0.22398311 33:0.076766022 34:0.010942629 35:0.18747357 36:0.29608154 37:0.22516915 38:0.059388001 39:0.0515568 40:0.10770032 41:0.26926029 42:0.10987794 43:0.015662575 44:0.0019676762 45:0.19793016 46:0.26926029 47:0.16864762 48:0.0082658064 49:0.057987142 50:0.26926029 51:0.057118207 52:0.033503778 53:0.015998298 54:0.22787768 55:0.26926029 56:0.04310238 57:0.072532989 58:0.25386065 59:0.26926029 60:0.0037412408 61:0.00053329597 62:0.099665016 63:0.26926029 64:0.26926029 65:0.059621245 66:0.029446768 67:0.20657802 68:0.26926029 69:0.024551438 70:0.023638479 71:0.081263594 72:0.26926029 73:0.2376935 74:0.1479197 75:0.077056982 76:0.0067735598 77:0.25203714 78:0.058231305 79:0.25046834 80:0.11965074 81:0.1874658 82:0.14365508 83:0.20246576 84:0.25203714 85:0.0010890255 86:0.07596755 87:0.036853965 88:0.25203714 89:0.11481238 90:0.13897544 91:0.1576954 92:0.066538349 93:0.095522165 94:0.084064566 95:0.25203714 96:0.12668319 97:0.24503741 98:0.16753252 99:0.18963642 100:0.042732365 101:0.17985597 102:0.25203714 103:0.081964619 104:0.25203714 105:0.098531365 106:0.25203714 107:0.10989872 108:0.05773421 
0.9128120583900764 0.081360054946212512 0.2486593152524626 0 0.4922630520274181 0 0.47970499944078787 0.25636444980614931 0 0.16034565691221284 0.27312029607297855 0 0 0 0.33380657052115831 0.77775045521656694 0.34316824555246456 0.31749783751576993 0.89407024677634372 1.380909513742022 0 0.87838389663434546 0 1.327789112769066 0.02017221718296049 0 0.066846598356023149 0.32526452504347336 0.53797786066645858 0.11955855213835954 0.12065925141145764 0.1492750989752199 1.0214648181461079 0.17926656200666299 0 1:0.032414805 2:0.0041759103 3:0 4:0 5:0.30176318 6:0.30176318 7:0.052370511 8:0.0082993899 9:0.03449716 10:0.069080882 11:0.058609821 12:0.079363488 13:0.034026451 14:0.30176318 15:0.30176318 16:0.049985517 17:0.0017345065 18:0.048971392 19:0.30176318 20:0.062638648 21:0 22:0 23:0.26625389 24:0.12835377 25:0.082120284 26:0.16388105 27:0.30176318 28:0.30176318 29:0.16834559 30:0.14339857 31:0.092778377 32:0.16728593 33:0.059708036 34:0.11757808 35:0.12283275 36:0.30176318 37:0.16825324 38:0.092778951 39:0.080102533 40:0.043498714 41:0.2832728 42:0.1168089 43:0.017296633 44:0.00021536194 45:0.12732463 46:0.2832728 47:0.13377382 48:0.0196079 49:0.017721565 50:0.2832728 51:0.099287011 52:0.043647904 53:0.025036857 54:0.26041582 55:0.2832728 56:0.13441236 57:0.1572614 58:0.1282535 59:0.2832728 60:0.0057500401 61:0.014497999 62:0.060893696 63:0.2832728 64:0.2832728 65:0.080256075 66:0.051025502 67:0.10842134 68:0.2832728 69:0.013304587 70:0.032318212 71:0.12481051 72:0.2832728 73:0.23723042 74:0.14691615 75:0.018491458 76:0.010417876 77:0.25126317 78:0.10354137 79:0.22176194 80:0.15014052 81:0.20112918 82:0.13576016 83:0.20761219 84:0.25126317 85:0.0084189763 86:0.077348545 87:0.083792172 88:0.20491949 89:0.12743373 90:0.13338965 91:0.15981431 92:0.059421189 93:0.040554211 94:0.15626815 95:0.25126317 96:0.069831774 97:0.25126317 98:0.21268931 99:0.19467863 100:0.027577577 101:0.16110013 102:0.25126317 103:0.22309254 104:0.14859359 105:0.0543136 106:0.25126317 107:0.14224555 108:0.044194635 
-0.98464870680331518 0.84790002952757526 0.74523475109513715 1.1764383845148787 1.0427315950931519 0.92507494337133689 0.91184407007685797 0.93618548902447452 0.77718751726742352 0.83780073317965931 0.90585037852285821 0.9757736633169074 0.97133889210262436 0.81210538024149148 0.89249512798132291 1.0615091273992476 0.91763050444177219 0.62198536403948068 0.83498697414447398 0.89476655285142337 1.0408427096711212 1.2077223959732692 0.91987004497345892 0.79368673263466916 0.84807504547381363 1.095804129950567 0.96934407534637812 0.61374477136669636 0.84502421232726455 0.87107611390854522 0.82618763829458297 0.83469082205230094 0.84555957341107701 0.86163792715577325 0.66413520196195153 1:0.20782527 2:0.029050296 3:0.076377094 4:0 5:0.26658306 6:0.069785513 7:0.12977366 8:0.21387821 9:0.26658306 10:0.18680899 11:0.2160061 12:0.26658306 13:0 14:0.058522057 15:0.03172069 16:0.09298078 17:0.073311068 18:0.18077633 19:0.25203744 20:0.042112812 21:0.10089977 22:0 23:0.15811761 24:0.01610435 25:0.26658306 26:0.2403385 27:0.26658306 28:0.10784002 29:0.26658306 30:0.26658306 31:0 32:0.022869529 33:0.0073201586 34:0.17291872 35:0.16469979 36:0.14874743 37:0.35992903 38:0.24482095 39:0.35992903 40:0 41:0 42:0 43:0 44:0 45:0.35992903 46:0.35992903 47:0 48:0 49:0 50:0.096465744 51:0.056674004 52:0.11674011 53:0.11764439 54:0.35992903 55:0.069376297 56:0.28654993 57:0.35992903 58:0 59:0 60:0 61:0 62:0.0084597655 63:0.053931914 64:0.044582553 65:0 66:0 67:0 68:0.027845692 69:0.025760911 70:0.069687203 71:0.10822804 72:0.096369117 73:0.26711881 74:0 75:0 76:0 77:0.26711881 78:0.075959742 79:0.091588713 80:0.14358307 81:0.26711881 82:0.26711881 83:0 84:0 85:0 86:0.26711881 87:0.14028926 88:0.14835572 89:0.18574272 90:0.26711881 91:0.12517066 92:0 93:0 94:0 95:0.10619491 96:0.045010094 97:0.095623866 98:0.15613845 99:0.20108947 100:0.24166392 101:0.0010233209 102:0.0030699626 103:0 104:0.18440139 105:0.22101186 106:0.26711881 107:0.26711881 108:0.26711881 
-0.20570890853990784 -0.68003227885920492 2.0810184074078562 1.1271184389790636 0.3325070975437398 1.0891714749976167 1.637238214164813 2.0660911887296987 0.72843964216750701 1.3120216285257607 0.60982779145754695 1.9110018023490989 1.1421379344577292 1.7969651219472333 0.80498712834654906 0.7075343222214614 0.73641688681904649 0.058477585943867476 0.8149062728664086 0.26674514970193025 0.7642864632032903 0.59057920481700676 0.947717418860205 0.36982971614396187 0.26695740244355742 1.128096787880372 0.55717949305540981 0.5862069610474494 0 0.51632440391323386 0.22310149275402999 0.765787252573634 0.54571915936184145 2.6282357518410242 0.68714759899184552 1:0.26768714 2:0.20560844 3:0.26768714 4:0.17183624 5:0.025305131 6:0.00049407047 7:0.0071662907 8:0.0034767659 9:0.25774997 10:0.26768714 11:0.10921133 12:0.019535761 13:0.018671118 14:0.02005144 15:0.072926588 16:0.21289977 17:0.16499113 18:0.26768714 19:0.09476956 20:0.10839263 21:0.26768714 22:0.26768714 23:0.26768714 24:0.0074110571 25:0.046530493 26:0.099721946 27:0.12056097 28:0.09521389 29:0.034544736 30:0.046544608 31:0.10091466 32:0.26768714 33:0.26768714 34:0.20743518 35:0.052124985 36:0.08224646 37:0.085675716 38:0.1148032 39:0.21451029 40:0.016553519 41:0.0038667088 42:0.088953666 43:0.26855296 44:0.26660141 45:0.13831244 46:0.11041021 47:0.22978494 48:0.26855296 49:0.076661423 50:0.010173179 51:0.015437457 52:0.14808884 53:0.18083291 54:0.17663692 55:0.12685061 56:0.08557637 57:0.14341198 58:0.054461248 59:0.15004729 60:0.26855296 61:0.26855296 62:0.1101601 63:0.11398526 64:0.09780214 65:0.16166677 66:0.26855296 67:0.26855296 68:0.26855296 69:0.051867787 70:0.12734061 71:0.086541623 72:0.11747456 73:0.22981149 74:0.14689621 75:0.20727487 76:0.032325417 77:0.026341403 78:0.0040102121 79:0.016673522 80:0.14756498 81:0.26756433 82:0.21193413 83:0.050662991 84:0.0023144872 85:0 86:0.021348272 87:0.041433953 88:0.28975147 89:0.28975147 90:0.2731556 91:0.059571698 92:0.060688566 93:0.2034927 94:0.15031706 95:0.28975147 96:0.041433953 97:0.03069347 98:0.023322567 99:0.068617001 100:0.16344814 101:0.13790685 102:0.047037601 103:0 104:0.28975147 105:0.28975147 106:0.28975147 107:0.14376505 108:0.092622399 
-0.67950153164554339 -0.16786775066837034 0 0.038521848589202566 0.9085451298706082 0.52456075067878105 0.57824932302602161 0.058290083311233462 2.117181892205112 0 0.16203815257986132 0.59206637084928748 0 0.80384792940223304 0.03399595972806687 1.1546226905564567 0.35290439863426837 1.0253851345038907 0.33931476245595715 0.63606347803372998 0 0.23486930451902818 0 0.55039836705139233 0.63068799095820027 0.091907631617538649 0.27096553098396814 0.74218703353262072 1.2666779939132484 0.30831934575780678 1.8682608033262358 2.1961608074535084 0.3232435292035315 5.8134890100300769 1.0594718829294538 1:0.26501733 2:0.2652218 3:0.27035454 4:0.19252019 5:0.01455023 6:0.00050247239 7:0.0025794511 8:0.002841369 9:0.1751999 10:0.18201585 11:0.13866746 12:0.047035962 13:0.020172751 14:0.040754169 15:0.027489247 16:0.23033109 17:0.22887091 18:0.19970559 19:0.09333805 20:0.12236794 21:0.27035454 22:0.27035454 23:0.27035454 24:0.007537086 25:0.015467256 26:0.07903821 27:0.13584153 28:0.11231118 29:0.037677176 30:0.10153086 31:0.09315189 32:0.27035454 33:0.2641153 34:0.22924815 35:0.067502536 36:0.10953412 37:0.062596783 38:0.12982476 39:0.17008662 40:0.060375139 41:0.0240997 42:0.027407996 43:0.24928497 44:0.24928497 45:0.10548172 46:0.16604015 47:0.24928497 48:0.24928497 49:0.15380682 50:0.029466344 51:0.0046506119 52:0.16461377 53:0.1022475 54:0.074134357 55:0.10533149 56:0.098601259 57:0.23268606 58:0.083176725 59:0.24928497 60:0.21140932 61:0.24928497 62:0.18539314 63:0.13005748 64:0.088053316 65:0.13829997 66:0.24928497 67:0.24928497 68:0.24928497 69:0.023672113 70:0.18232644 71:0.14962265 72:0.12776518 73:0.22525209 74:0.22584198 75:0.11298999 76:0.058182523 77:0.040027805 78:0.0043823752 79:0.093654551 80:0.12095667 81:0.16459259 82:0.14285153 83:0.13109969 84:6.2628671e-05 85:0.00043935914 86:0.019384641 87:0.045279182 88:0.31136343 89:0.31136343 90:0.17480622 91:0.069117628 92:0.044041451 93:0.15457676 94:0.25597674 95:0.31136343 96:0.045279182 97:0.049824521 98:0.033146851 99:0.077533096 100:0.15111625 101:0.10041805 102:0.0084963134 103:0.0065903869 104:0.31136343 105:0.31136343 106:0.31136343 107:0.1573358 108:0.095142476 
-0.01238373798823553 -0.23079687996239734 -0.5030902627443522 0.21493992625734948 0.12533822921492005 0.05782207735750481 0.92013567378207839 0.76283619357253041 0.16188086281262501 1.1058833831863577 0.26542444255260683 0.85151262449971954 0.12699021895147578 0.73943746094655149 0.12084869767748983 0 0.26104810788371269 0.033689206255745306 0.33928134226101297 0.11956284237591332 0.12827543189298876 0.1744510266250805 0.23400688352398788 0.065534848542602248 0.20798210354709806 0.10767274230056202 0.12778604857728249 0 0.090154001111516155 0 0.24252851750722287 0.47333494950600646 0.36209470999098875 0.45220456719810426 0 1:0.22804889 2:0.21350135 3:0.27891925 4:0.0065950537 5:0.011431971 6:0 7:0 8:0 9:0.20232458 10:0.27891925 11:0.0089534521 12:0.018356988 13:0.00043967023 14:0.0039103394 15:0.17888409 16:0.24932043 17:0.091419026 18:0.27891925 19:0.022252571 20:0.15534489 21:0.27891925 22:0.25995415 23:0.27891925 24:0.0065950551 25:0.022358155 26:0.076045051 27:0.063638143 28:0.029498635 29:0.020038888 30:0.060707405 31:0.10442455 32:0.27891925 33:0.27891925 34:0.27891925 35:0.11851499 36:0.026636826 37:0.16036591 38:0.12473652 39:0.27059683 40:0 41:0 42:0.27059683 43:0.27059683 44:0.1438688 45:0.17157385 46:0.20685944 47:0.21423683 48:0.27059683 49:0 50:0 51:0.10048764 52:0.13942076 53:0.058636911 54:0.19245197 55:0.078153342 56:0.20625401 57:0.27059683 58:0 59:0.10028781 60:0.27059683 61:0.27059683 62:0.1253462 63:0.032327857 64:0.061834022 65:0.27059683 66:0.27059683 67:0 68:0 69:0.052624442 70:0.074543558 71:0.0223474 72:0.0082276287 73:0.40296426 74:0.15421827 75:0.35800672 76:0 77:0 78:0 79:0 80:0 81:0.40296426 82:0.40296426 83:0 84:0 85:0 86:0 87:0 88:0 89:0 90:0.40296426 91:0.023507657 92:0.17767596 93:0.40296426 94:0 95:0 96:0 97:0 98:0 99:0 100:0 101:0 102:0 103:0 104:0 105:0 106:0 107:0 108:0 
-0.65563076891937222 -0.51443787113273987 -1.5779281446635038 0.60166029494718798 0.65829563211864794 0.82409213316261376 0.63067510171694385 1.8974505695311958 0.85367571564310307 1.4028605848057434 0.35893889565223031 0.54735068089432171 0.61186226305056868 1.1169760051296513 0.60691595865465309 1.4027896272509246 0.57951079640745617 0.54444874906493446 0.68220811430132022 0.64369567335083022 0.59801318680458015 0.55434894373008703 0.54274786460633373 0.88159083148309103 0.43739426399026471 0.67329088825727701 0.45666765894754208 1.5164240450289637 0.6038837722604905 0.65191083606749467 0.63441739867640445 0.66043082869709491 0.38987721843142903 1.2008538130148152 1.0645155223545011 1:0.25010061 2:0.20400654 3:0.26715907 4:0.036216795 5:0.048663087 6:0.010963393 7:0.060010947 8:0.020579446 9:0.21801032 10:0.26715907 11:0.033704579 12:0.066114664 13:0.019290509 14:0.037175439 15:0.076340191 16:0.21069777 17:0.099677019 18:0.26715907 19:0.031461053 20:0.1370727 21:0.26715907 22:0.26715907 23:0.26715907 24:0.091819458 25:0.096332215 26:0.15599646 27:0.10630539 28:0.051964913 29:0.046476983 30:0.11303276 31:0.23464167 32:0.26715907 33:0.26715907 34:0.22085947 35:0.055025574 36:0.042102437 37:0.17101969 38:0.092170879 39:0.19370013 40:0.0022952151 41:0.0043780943 42:0.092711799 43:0.2775006 44:0.19444722 45:0.18673117 46:0.19195172 47:0.2775006 48:0.2775006 49:0 50:0 51:0.016089661 52:0.17401342 53:0.10737424 54:0.1360534 55:0.13567756 56:0.26426381 57:0.21179725 58:0.034428228 59:0.12585692 60:0.2775006 61:0.2775006 62:0.098325677 63:0.020534994 64:0.16638796 65:0.2775006 66:0.2775006 67:0 68:0 69:0.054059107 70:0.10999438 71:0.03492498 72:0.0072416933 73:0.31577119 74:0.31577119 75:0.31577119 76:0 77:0 78:0 79:0.10500847 80:0.1859768 81:0.31577119 82:0.31577119 83:0.31577119 84:0 85:0 86:0 87:0 88:0.15740965 89:0.24351004 90:0.31577119 91:0.078708112 92:0.24885787 93:0.31577119 94:0 95:0 96:0 97:0 98:0 99:0.016410075 100:0.023127565 101:0 102:0 103:0 104:0 105:0 106:0 107:0 108:0.023127565 
-0 -0.066688048935651195 -0.42258382459872545 -0.31277912729538293 0.58408378593600552 2.5676506304556619 0.16208705254073921 0.36114822763894733 0.11986942185137839 0.18041864227093499 0 1.0551957741400622 2.0029087408345072 0.2806702762478534 0.043554997440565957 0.12861091300428601 0 0.59739315416186667 0.18179935770930511 0 0.556258879892783 0 0.3261419649198038 0.18328609331540308 0.076462648407773989 1.2825096956927955 0.10695496604539537 0.23842133156605935 0.20335936716665218 0 0.33831193765972167 0.40910010924813789 0.10689080686360918 0.41441161312940339 0.42282211119766799 1:0.3093791 2:0.3093791 3:0.3093791 4:0.0088063823 5:0.053003408 6:0.033006594 7:0.021209806 8:0.0055016251 9:0.21703675 10:0.3093791 11:0.029812539 12:0.020224493 13:0.00058709219 14:0.010527128 15:0 16:0.00057401729 17:0.00019133909 18:0.3093791 19:0.034245752 20:0.2738744 21:0.3093791 22:0.23386429 23:0.3093791 24:0 25:0.049528338 26:0.1085193 27:0.086474232 28:0.0013242452 29:0.075438686 30:0.23784415 31:0.087959707 32:0.22655739 33:0 34:0.004341986 35:0.0014473287 36:0.0011219967 37:0.41460443 38:0 39:0 40:0 41:0 42:0 43:0 44:0 45:0.41460443 46:0.41460443 47:0 48:0 49:0 50:0 51:0 52:0 53:0 54:0.41460443 55:0 56:0.015497799 57:0.046493396 58:0 59:0 60:0 61:0.0077296756 62:0.0025765584 63:0 64:0 65:0 66:0 67:0 68:0.29565939 69:0.41460443 70:0.20983584 71:0.049603343 72:0 73:0.29162958 74:0.00019863098 75:0.0005958929 76:0 77:0.0077273617 78:0.0048846961 79:0.01550863 80:0.07352113 81:0.29475948 82:0.13282222 83:0.012975217 84:0.054252103 85:0.10751975 86:0.044633646 87:0.050469216 88:0.29475948 89:0.29475948 90:0.29475948 91:0.0052499683 92:0.0031510964 93:0.0094532892 94:0 95:0.29475948 96:0.29475948 97:0.10225347 98:0.019925091 99:0.0069802008 100:0.11988366 101:0.12763159 102:0.055533055 103:0 104:0.29475948 105:0.29475948 106:0.29475948 107:0.1935287 108:0.072443299 
-0.86764546273879462 -1.1097503355792275 -0.74305646296954064 -0.50382109390915453 3.756432040270548 1.1565397442977716 0.83031236397138397 0.57254401968895141 0.98513839383493562 0.67558405189562498 0.97460242109271245 0.94989085073637303 0.099969842007201201 0.58920805932769571 0.79184045397143987 0.8124979405370889 0.77138388818856019 0.22109146913368596 0.56374151932920791 0.64137892269924202 0.80042637704664354 0.76645918424459936 0.62142302136883643 0.56466755830556115 0.76124483720723146 1.8301850420654806 0.8546268736314957 0.64895799241374252 0.5470561452052497 0.9083087669224732 0.56554709799530467 0.62631394234597115 0.72888178735304165 0.6479199501302797 0.74350046540374193 1:0.29936296 2:0.29936296 3:0.29936296 4:0.045294829 5:0.037649833 6:0.16881321 7:0.061745889 8:0.013986806 9:0.20690967 10:0.29936296 11:0.091209874 12:0.077717245 13:0.012276866 14:0.035034787 15:0.0016052151 16:0.013603783 17:0.0044583227 18:0.29936296 19:0.060129013 20:0.20033105 21:0.29936296 22:0.29936296 23:0.1754614 24:0.0016052151 25:0.047069632 26:0.18236856 27:0.14403817 28:0.048737746 29:0.051726285 30:0.19075403 31:0.29936296 32:0.10512663 33:0 34:0.003766957 35:0.0029757486 36:0.045393385 37:0.41938812 38:0.0098620597 39:0.029586183 40:0 41:0.06441991 42:0 43:0.021878162 44:0.007292721 45:0.41938812 46:0.41938812 47:0.01592664 48:0.047779918 49:0 50:0.13639195 51:0 52:0.043450229 53:0.014483408 54:0.41938812 55:0.039472252 56:0.010301046 57:0.040925451 58:0.070309572 59:0 60:0 61:0 62:0 63:0.039472252 64:0.04695132 65:0.0046939882 66:0.014081964 67:0 68:0.31480914 69:0.11718228 70:0.35157827 71:0.11162484 72:0.04695132 73:0.27096969 74:0.0055090813 75:0.016756253 76:0.0016065743 77:0.078216434 78:0.021950159 79:0.033739261 80:0.079745546 81:0.27096969 82:0.16587047 83:0.012227012 84:0.058296371 85:0.1878698 86:0.10491939 87:0.20139852 88:0.23968184 89:0.27096969 90:0.27096969 91:0.043937374 92:0.0082039135 93:0.019447079 94:0 95:0.27096969 96:0.19362025 97:0.22732922 98:0.076526806 99:0.048879657 100:0.18063881 101:0.19773605 102:0.038685262 103:0.0019378986 104:0.27096969 105:0.27096969 106:0.27096969 107:0.18485016 108:0.11367907 
-0.55740750519497329 -1.0427315950931519 -0.48343062166895856 -0.55528361345683253 -4.3405158262065537 2.6178764787899151 0.72150566584947196 0.79661754983213662 0.46368525694183077 0.82535392882550518 0.80255872361318414 1.6913562504167976 1.8151563421249184 0.81409378948351874 0.63348747484509305 0.45759590005029399 0.60034077100954697 0.24599890699102792 0.51178746841611589 0.32159235836484185 1.1059407659661049 0.59231746844923405 0.96833430064383852 0.44392958143626332 0.6978225409151434 2.4788021448423807 0.75625209358098688 0.39734738331213848 0.36870001014894427 0.66015108265315259 0.52279428013314222 0.62606498664537191 0.58018751606853947 0.66269351749186534 0.45881362038011103 1:0.28603041 2:0.28603041 3:0.28603041 4:0.0076170051 5:0.1111803 6:0.15604034 7:0.026167126 8:0.0026262223 9:0.19125433 10:0.28603041 11:0.090842322 12:0.087031364 13:0.0017577705 14:0.14302659 15:0.0014837601 16:0.0074388548 17:0.0024091171 18:0.28603041 19:0.048720602 20:0.23688631 21:0.28603041 22:0.28603041 23:0.2544179 24:0.0014837601 25:0.040151559 26:0.16745116 27:0.10981548 28:0.0254342 29:0.040017363 30:0.11332429 31:0.22773208 32:0.28603041 33:0 34:0.0034819387 35:0.0027505951 36:0.01854316 37:0.3557007 38:0.0052711861 39:0.015813559 40:0 41:0.11901808 42:0 43:0.027169457 44:0.0090564843 45:0.3557007 46:0.3557007 47:0.0052918154 48:0.015875448 49:0 50:0.1768471 51:0.039306767 52:0.093101442 53:0.048864637 54:0.3557007 55:0.022462195 56:0 57:0.0014082378 58:0.0098792147 59:0.3557007 60:0 61:0 62:0 63:0.022462195 64:0.025740061 65:0 66:0 67:0 68:0.3557007 69:0.13474962 70:0.30796927 71:0.22823042 72:0.10500677 73:0.24544978 74:0.0023806919 75:0.014748177 76:0.05335911 77:0.22227195 78:0.03941619 79:0.060347185 80:0.09303847 81:0.24544978 82:0.13733177 83:0.021713374 84:0.085868299 85:0.17541227 86:0.23436011 87:0.070979603 88:0.23307692 89:0.24544978 90:0.24544978 91:0.014348306 92:0.0021821784 93:0.025752928 94:0.13473867 95:0.24544978 96:0.13313675 97:0.24544978 98:0.2133449 99:0.091417581 100:0.064595528 101:0.069467843 102:0.13136411 103:0.24544978 104:0.24544978 105:0.21350943 106:0.24544978 107:0.20626684 108:0.11060604 
-0.56514031236471518 -0 -0.75762160574538939 -0.22835024787673558 -0 0.21395324528703505 0.54865745310351721 0.03026262997455156 0.73976303350197758 0 0.36434955409148251 0 0 0.11899540891413504 0.37817284106045573 0.53444097700050397 0.33545668448278521 0.92849012881509496 0.45642379126797761 0.5303979800344637 0 0.22440626575221467 0.19177616674232217 0.4121433083627995 0.53207982328329839 0.091139980907454163 0.43339041077092155 0.71685617729355666 0.36389550951532718 0.52955509972443671 0.28826978762545247 0.26968178835371881 0.42230237207200239 0.4012764010226943 1.1926645928386235 1:0.23964643 2:0.32038084 3:0.32038084 4:0.11554028 5:0.028015746 6:0.072059795 7:0.075458504 8:0.023037821 9:0.036061194 10:0.25504994 11:0.18197992 12:0.056078002 13:0.037888322 14:0.039247207 15:0 16:0.00045710488 17:0.00015236829 18:0.15589657 19:0.088857956 20:0.12785783 21:0.32038084 22:0.32038084 23:0.32038084 24:0 25:0.043300755 26:0.16749559 27:0.16587698 28:0.11668834 29:0.020266524 30:0.073848605 31:0.23233765 32:0.32038084 33:0 34:0 35:0.001578852 36:0.11361857 37:0.21571539 38:0.0044105272 39:0 40:0 41:0.049312051 42:0 43:0 44:0 45:0.21306638 46:0.24303043 47:0 48:0.012085835 49:0.084785804 50:0.14320773 51:0.069445468 52:0.28170049 53:0.14402685 54:0.27511892 55:0.11664867 56:0 57:0 58:0 59:0.42845678 60:0 61:0 62:0 63:0.11664867 64:0.133671 65:0 66:0.0064338376 67:0.045135319 68:0.42845678 69:0.031566124 70:0.32288924 71:0.25430924 72:0.22266927 73:0.098792188 74:0.00055505114 75:0.042813614 76:0.24537818 77:0.12199833 78:0.065595463 79:0.22634338 80:0.20624603 81:0.17922312 82:0.068195254 83:0.0053461385 84:0.071979918 85:0.24537818 86:0.099675506 87:0.050964821 88:0.24537818 89:0.24537818 90:0.21395843 91:0.065144576 92:0 93:0.035401445 94:0.24537818 95:0.24537818 96:0.034050267 97:0.24537818 98:0.24537818 99:0.16240233 100:0.067346029 101:0.020740911 102:0.11605021 103:0.24537818 104:0.20175798 105:0.08667805 106:0.24537818 107:0.22087105 108:0.14877872 
-0 -0.30933945685920278 -0.070506923718925987 -0.16475298243820627 -3.0528767965648234 -1.6504048958400093 0.29206198421598645 0.26104752242331813 0.082112235801876127 0.30607705926015694 0.062697223919444628 1.6923245915581808 1.7239298888491426 0.062542523882602535 0 0 0 0.14986535983576507 0.015760931786456198 0 0.9334278217787354 0 0.056623982232017901 0 0.028165029638964091 0.84800512972472442 0.18118659392216399 0.056575267495678427 0.05845179731678711 0 0.042648934413320294 0.30524259086145239 0.052907230239034889 0.19128869147029851 0 1:0.29045427 2:0.31629989 3:0.31629989 4:0.1291139 5:0.0026240703 6:0 7:0.0019680529 8:0.00065601757 9:0.18826222 10:0.31629989 11:0.028379483 12:0.025983928 13:0.0099701425 14:0 15:0 16:0 17:0 18:0.31629989 19:0.02862628 20:0.16413878 21:0.31629989 22:0.31629989 23:0.31629989 24:0 25:0.025000267 26:0.088763714 27:0.07428173 28:0.0011575872 29:0.016621139 30:0.064689294 31:0.11020306 32:0.31629989 33:0 34:0.0037955411 35:0.0012651804 36:0.00098079187 37:0.40741664 38:0 39:0 40:0 41:0 42:0 43:0 44:0 45:0.40741664 46:0.40741664 47:0 48:0 49:0 50:0 51:0 52:0 53:0 54:0.40741664 55:0 56:0 57:0 58:0 59:0.40741664 60:0 61:0 62:0 63:0 64:0 65:0 66:0 67:0 68:0.40741664 69:0 70:0 71:0 72:0 73:0.31253994 74:0 75:0 76:0 77:0.001686351 78:0.00059512729 79:0.024847575 80:0.012119174 81:0.31486127 82:0.23224826 83:0 84:0 85:0 86:0.0073075215 87:0.0089269094 88:0.31974825 89:0.29590434 90:0.26706806 91:0 92:0.00030994363 93:0.00092983083 94:0 95:0.31974825 96:0.080136478 97:0.033017129 98:0.0071980208 99:0 100:0.080766767 101:0.11493812 102:0.025154565 103:0 104:0.31974825 105:0.31974825 106:0.31974825 107:0.21645834 108:0.016769709 
-0.99249284442254293 -0.61573548651213417 -1.5432253019574718 -0.71716122808191241 -0.67131357818861004 -1.1814248282369413 0.75071487552511518 0.64002931522020934 1.0151197341339984 0.44548626817615716 1.0795581255322722 0.53047127834938068 1.4243828226048572 0.92855431793886034 0.96760401176394872 1.0370808905282376 0.85928058368123128 0.97467373845654293 0.85845722119719958 0.70371554754768384 0.31332897741174398 0.81017536972433501 0.9797790448426994 0.88758273792854814 0.92617463226823393 2.2727156792447332 1.0180267836715022 0.90542974222858918 0.73429995880096344 1.0285035260845927 0.93881967124931376 0.7932687860240083 0.90375148382480952 1.0937051711364105 1.3523006095413939 1:0.23435144 2:0.30260125 3:0.3150796 4:0.10248645 5:0.015962135 6:0 7:0.0026765033 8:0.089409895 9:0.18094686 10:0.3150796 11:0.15411532 12:0.014280879 13:0.01466406 14:0.040067777 15:0 16:0 17:0.14587778 18:0.3150796 19:0.054400831 20:0.090970829 21:0.3150796 22:0.3150796 23:0.3150796 24:0 25:0.037028525 26:0.079874679 27:0.092734613 28:0.087788828 29:0.010111713 30:0.04502295 31:0.10824104 32:0.3150796 33:0 34:0.0074114571 35:0.0024704859 36:0.08764039 37:0.33778965 38:0.17737232 39:0 40:0 41:0.047661509 42:0 43:0 44:0.15055886 45:0.32168534 46:0.33186537 47:0.23564738 48:0 49:0 50:0.05461666 51:0 52:0 53:0.21074058 54:0.3169063 55:0.11513906 56:0.0019874482 57:0.0059623448 58:0 59:0.42407846 60:0 61:0.010267024 62:0.0034223413 63:0.11513906 64:0.10011049 65:0.0093260352 66:0.027978104 67:0 68:0.42407846 69:0 70:0.030325722 71:0.010108574 72:0.10011049 73:0.2111759 74:0.14464398 75:0 76:0 77:0.031797238 78:0.019496594 79:0.06580092 80:0.17962338 81:0.21956789 82:0.15282668 83:0.13905549 84:0.11754155 85:0 86:0.012426721 87:0.1662146 88:0.29716772 89:0.29716772 90:0.21831715 91:0.077460311 92:0.0072439522 93:0.016632617 94:0 95:0.29716772 96:0.11093938 97:0.063594684 98:0.020210598 99:0.079012245 100:0.18600027 101:0.25088277 102:0.12836842 103:0 104:0.29716772 105:0.29716772 106:0.29716772 107:0.173903 108:0.099609427 
-0 -0 -1.3253364137635064 -0.4332326556309658 -0 -0 -0.065576438715579499 0.86082296700208083 0.95401089838200326 0.49317035975897533 0.14547620747068415 0.17273884152022351 0.045134462445028709 1.6115214934075131 0 0.1119139481194847 0.60972753909299748 0.39029446315076771 0 0.30151398738018909 0 0.10411159082013768 0.076254928279557585 0 0.47637532351240491 0 0.16773636050916599 0.095295687063796333 0.23687141983763693 0.026553971995515239 0.75014132495013985 1.0795742642747272 0 1.2125412606623704 0.13003727949302099 1:0.27051938 2:0.20936698 3:0.27051938 4:0.10937171 5:0 6:0 7:0 8:0 9:0.2006405 10:0.25654182 11:0.0045224829 12:0.0051348619 13:0.00043601051 14:0 15:0.0065401597 16:0.27051938 17:0.20125213 18:0.27051938 19:0.023768023 20:0.1220331 21:0.27051938 22:0.27051938 23:0.27051938 24:0.0065401597 25:0.022172051 26:0.075412065 27:0.063108437 28:0.059662379 29:0.083567053 30:0.066110954 31:0.031415798 32:0.27051938 33:0.27051938 34:0.27051938 35:0.14488858 36:0.021810206 37:0.089928657 38:0.094443314 39:0.2360509 40:0.024141971 41:0.036676407 42:0.0048873695 43:0.2531963 44:0.18339111 45:0.098837659 46:0.18491656 47:0.16066663 48:0.2531963 49:0.12295945 50:0.22693837 51:0.00032582463 52:0.071663901 53:0.025988482 54:0.1638478 55:0.2047572 56:0.18318981 57:0.15698957 58:0.031039674 59:0.15931328 60:0.17668231 61:0.2531963 62:0.14232926 63:0.12737082 64:0.2531963 65:0.12497342 66:0.20441468 67:0.2531963 68:0.2531963 69:0.0088144811 70:0.06827537 71:0.12260363 72:0.2531963 73:0.26316801 74:0.036927935 75:0.10044505 76:0.14223352 77:0.20563893 78:0 79:0 80:0 81:0.25703907 82:0.30067563 83:0 84:0.0060866312 85:0.042699568 86:0.1014134 87:0 88:0 89:0 90:0.30067563 91:0.23924151 92:0.010880638 93:0.093199492 94:0.30067563 95:0.30067563 96:0 97:0.00077898579 98:0.17586382 99:0.30067563 100:0.087388411 101:0 102:0.045566101 103:0.30067563 104:0.30067563 105:0 106:0.021073777 107:0.11300991 108:0.15104444 
-0.97509918990036282 -0.91184407007685797 -0.89015112342732827 -1.1175781198680566 -0.99239941651212316 -1.2701631189529892 -0.97720042102552207 0.33872045575898363 0.49396864220337533 0.93539431109969451 0.95677011323043915 1.326109864827103 0.8373689764594322 0.57676153080777959 1.2289687194583343 1.004901042930354 1.1240509805247332 0.46331867617633649 1.9461717999744639 1.1494239683980931 0.67106267816310261 1.2008296861924805 1.3712794243498898 0.98703287488676916 0.96169116966285662 0.92940682126846386 0.79739202345173554 0.89495378245952228 0.52583359311192102 0.93959459410450463 0.25742078715843442 0.24220085268488062 1.477845706783429 0.61477968525044568 0.89502311343269469 1:0.24154493 2:0.20252219 3:0.27276036 4:0.03458206 5:0.012025911 6:0.00048396373 7:0.0029801838 8:0.0020591405 9:0.20968817 10:0.27276036 11:0.034350134 12:0.064239956 13:0.0093732402 14:0.019641265 15:0.17828879 16:0.21343966 17:0.095506258 18:0.27276036 19:0.05376865 20:0.13017324 21:0.27276036 22:0.27276036 23:0.27276036 24:0.007259456 25:0.055145122 26:0.086728387 27:0.092858277 28:0.089000523 29:0.13597141 30:0.085469075 31:0.086280786 32:0.27276036 33:0.27276036 34:0.27276036 35:0.099936545 36:0.02329812 37:0.16894552 38:0.073512226 39:0.15626201 40:0.066923507 41:0.013197147 42:0.1817843 43:0.23156548 44:0.13256398 45:0.18126975 46:0.23156548 47:0.12434703 48:0.23156548 49:0.23156548 50:0.13457659 51:0.029106194 52:0.091128469 53:0.042904098 54:0.23156548 55:0.21171446 56:0.23156548 57:0.077239454 58:0.073713914 59:0.14130628 60:0.23156548 61:0.23156548 62:0.10667105 63:0.097316548 64:0.23156548 65:0.14151266 66:0.12944932 67:0.23156548 68:0.23156548 69:0.032425337 70:0.086772934 71:0.14405333 72:0.23156548 73:0.29587504 74:0.040234927 75:0.062778026 76:0.13029012 77:0.24672085 78:0 79:0 80:0.0010173513 81:0.29587504 82:0.29587504 83:0.1118214 84:0.0093591558 85:0.050982226 86:0.21124105 87:0 88:0 89:0.035398081 90:0.28825471 91:0.23231523 92:0.0061106379 93:0.053409431 94:0.26328373 95:0.29587504 96:0 97:0.072161123 98:0.1344595 99:0.29587504 100:0.10109169 101:0.018812392 102:0.068796314 103:0.23876759 104:0.29587504 105:0 106:0.032981444 107:0.066538647 108:0.13011293 
-0.66259158368242876 -0.93618548902447452 -0.40004917857733152 -0.2052219395005227 -0.84150999311955987 -0.77908159562300949 -0.54367216612977864 -0.55819597080322625 1.0752254027068966 1.9225180801555919 0.6011595124750182 1.54742025812151 0.70719757290189256 0.63448158010320466 0.45469493163520586 0.80328910800135733 0.53200290735172695 0.40829071711897647 0.46310783762876229 0.57769176698534896 0.87440894810921166 0.67417663754871704 0.51315997909901157 0.31892832082260736 0.54904112864470511 0.53623944469045903 0.59154911700121759 0 0.98416122547846008 0.62053589935672904 1.5287877509573882 1.6710119701346575 0.56572923136160969 0.87856679887320077 0.41183264747591308 1:0.28424245 2:0.24757397 3:0.30050418 4:0 5:0.054996882 6:0 7:0.049166616 8:0.016388873 9:0.24695443 10:0.30050418 11:0.046704706 12:0.097133234 13:0 14:0.078787982 15:0.056286361 16:0.30050418 17:0.20954426 18:0.30050418 19:0.01589164 20:0.28982565 21:0.30050418 22:0 23:0.019576091 24:0 25:0.069147192 26:0.023049064 27:0.013405773 28:0.01628322 29:0.049069278 30:0.12984152 31:0 32:0 33:0.025584709 34:0.30050418 35:0.26011506 36:0.059357379 37:0.12340648 38:0.084310003 39:0.20825586 40:0 41:0.048589267 42:0.08250352 43:0.29382339 44:0.24055237 45:0.17834853 46:0.24590698 47:0.25548762 48:0.29382339 49:0 50:0.042126752 51:0.019039275 52:0.092789359 53:0.046173949 54:0.21684913 55:0.067274392 56:0.18458439 57:0.23408841 58:0 59:0 60:0.0375016 61:0.29382339 62:0.29382339 63:0.075245634 64:0.10975261 65:0.29382339 66:0.29382339 67:0 68:0 69:0.0086542154 70:0.1056875 71:0.066706493 72:0.025919752 73:0.30817804 74:0.10209683 75:0.21847177 76:0 77:0.048002496 78:0 79:0.11520491 80:0.058722306 81:0.30817804 82:0.28219455 83:0.033475842 84:0.10042753 85:0 86:0.068231963 87:0 88:0.30817804 89:0.30817804 90:0.30817804 91:0.037544254 92:0.12628536 93:0.26459068 94:0 95:0 96:0.012132701 97:0.11695568 98:0.052750543 99:0.023281781 100:0.0112369 101:0.017303081 102:0.051909249 103:0 104:0.033020061 105:0.18199052 106:0.30817804 107:0.30817804 108:0.13260198 
-0 -0 -1.7243320934636004 -2.4550648236032035 -0.092182254208338782 -0.047798584183678612 -0.35740467151374872 -0.64134745195783815 0.48320936017298677 0.88374304309809171 0 0.41998290020934342 0.068305091400391801 0.76713035579195832 0.16390768511937137 0.4249040708908921 0.1982409424751094 0.11994351634810961 0.32019626207677654 0.10196329109521335 0.1113138458692637 0.022458560473955447 0.14487258791676991 0.49836745890612355 0.081792538907676293 0.22606871590204614 0.030169589222942661 1.1609927994084224 0 0.029481518616048759 0.13425621386736672 0.45472809322836139 0.075828694033361496 1.2216152292580966 0.6233534932810797 1:0.28568012 2:0.27831236 3:0.28568012 4:0.0077287797 5:0 6:0 7:0 8:0.0041644066 9:0.28568012 10:0.28568012 11:0.13243727 12:0.017749701 13:0.000515252 14:0 15:0.022789754 16:0.28568012 17:0.25403449 18:0.28568012 19:0.029393146 20:0.27190191 21:0.28568012 22:0.20908542 23:0 24:0 25:0 26:0 27:0.011054162 28:0.046414342 29:0.018857753 30:0.052453429 31:0.01393903 32:0 33:0.15268762 34:0.28568012 35:0.17970981 36:0.064025626 37:0.11583896 38:0.1189908 39:0.18925983 40:0 41:0 42:0.028184259 43:0.28882632 44:0.2739073 45:0.15425566 46:0.17979097 47:0.28882632 48:0.28882632 49:0 50:0 51:0.0065040593 52:0.16459058 53:0.13175929 54:0.12689073 55:0.12500754 56:0.14607608 57:0.22816205 58:0 59:0 60:0.1888299 61:0.28882632 62:0.22514749 63:0.10624354 64:0.13255379 65:0.28882632 66:0.28882632 67:0 68:0 69:0.043576133 70:0.16532114 71:0.061985858 72:0.057951979 73:0.31775221 74:0.24940977 75:0.21089521 76:0 77:0 78:0 79:0.022430774 80:0.15896177 81:0.30519342 82:0.24392115 83:0.088243902 84:0.002971977 85:0 86:0.0042182035 87:0 88:0.31775221 89:0.31775221 90:0.31775221 91:0.0325661 92:0.129833 93:0.27935925 94:0 95:0 96:0 97:0.039447077 98:0.013517543 99:0.010737064 100:0.01005481 101:0.0015830684 102:0.0047492054 103:0 104:0 105:0 106:0.31775221 107:0.31775221 108:0.013374831 
-0.54318473752416452 -0.45442241556813062 -1.1957085533915426 -0.55957786678251209 -0.47881789220209103 -0.25479275333883916 -0.31552513152950912 -0.26301627151656443 -1.5584347628798834 1.174483823472559 0.24075227945052635 1.6816410184248725 0.37087477842810551 0.8361914013188001 0.11891980831621042 0.32770697475649319 0.40738277648580706 0 0.38618284685981014 0.3279387887486232 0.69917123490143152 0.3894989480835771 0.147645247031613 0.25399309296320582 0.48948834248705841 0.31688585038296757 0.37141685679136821 0.15823922852208011 0.82668602830285576 0.39957212531102249 1.6544354070893961 2.6735133226542778 0.2082456419236734 2.1877773514404617 0 1:0.27131519 2:0.27131519 3:0.25315151 4:0.037954677 5:0.13870397 6:0.078628413 7:0.035679769 8:0.061538473 9:0.18711835 10:0.26847437 11:0.069451451 12:0.018230164 13:0.075420469 14:0.13701694 15:0 16:0.17134212 17:0.27131519 18:0.27131519 19:0.057703145 20:0.18119916 21:0.27131519 22:0.27131519 23:0.1609644 24:0 25:0.034777358 26:0.0870011 27:0.062778555 28:0.02256521 29:0.027803428 30:0.093100257 31:0.26458955 32:0.056403704 33:0 34:0.19051456 35:0.27131519 36:0.16032176 37:0.045462728 38:0.040431071 39:0.16987307 40:0.27243653 41:0.064733267 42:0 43:0.19378899 44:0.27243653 45:0.2046726 46:0.020689281 47:0.10572184 48:0.27243653 49:0.27243653 50:0.018690282 51:0 52:0.094700806 53:0.079491392 54:0.049473293 55:0.0077842306 56:0.029105708 57:0.10080834 58:0.094645068 59:0 60:0 61:0.25876826 62:0.27243653 63:0.27243653 64:0.014424233 65:0.093726702 66:0.27243653 67:0.27243653 68:0.20634431 69:0 70:0.12103862 71:0.27243653 72:0.17375162 73:0.13904606 74:0.037756935 75:0.13274702 76:0.13663167 77:0.027284438 78:0.007071299 79:0.14987305 80:0.16484068 81:0.20824794 82:0.13688749 83:0.0050300211 84:0.038522467 85:0.16438544 86:0.086466886 87:0.086378142 88:0.28710335 89:0.28710335 90:0.28710335 91:0.012385727 92:0.0405371 93:0.16890472 94:0.28710335 95:0.28710335 96:0.043124735 97:0.06166948 98:0.048720114 99:0.030531829 100:0.091091059 101:0.10251549 102:0.025738301 103:0.0063438951 104:0.28710335 105:0.28710335 106:0.28710335 107:0.23619005 108:0.10030683 
-0.25802902988946347 -0.3227651016992929 -1.6499129809810762 -0.45597871167321596 -0.62618992348422298 -0.9486555371049693 -0.78170683840636557 -1.1849632690688141 -0 0 0.45093482412213653 0.20360888294548124 0.48035223573768759 0.64721191300185965 0.61463075256429622 0.82885701472327089 0.51887315000732182 0.91151236945392022 0.49120796047895421 0.5597202787699902 0 0.34683814637468191 0.61279449424110266 0.3819291708699849 0.4872861958335592 0.70176839724443241 0.3415471422192774 0.74021378678991723 0.36873232209833906 0.32244835396189836 0.49634467949523098 0 0.45227584605438303 0.5219269088520978 1.7844218662758251 1:0.26268068 2:0.26268068 3:0.26268068 4:0.03925427 5:0.075766921 6:0.07922361 7:0.037826844 8:0.014806815 9:0.17753924 10:0.26268068 11:0.080343157 12:0.079395048 13:0.067820758 14:0.030335588 15:0.001391142 16:0.13410981 17:0.26268068 18:0.26268068 19:0.050184548 20:0.18272807 21:0.26268068 22:0.26268068 23:0.26268068 24:0 25:0.055029623 26:0.11268368 27:0.085613579 28:0.029332617 29:0.080122195 30:0.19007267 31:0.26268068 32:0.21856272 33:0 34:0.17402276 35:0.18981495 36:0.088965878 37:0.05513519 38:0.028126517 39:0.1347177 40:0.27489504 41:0.014467523 42:0 43:0.23041999 44:0.27489504 45:0.22711244 46:0.0063167224 47:0.080149271 48:0.27489504 49:0.27489504 50:0.0163747 51:0 52:0.098991871 53:0.095640652 54:0.043941081 55:0.0052751969 56:0.025644904 57:0.077184878 58:0.10305054 59:0.0088430597 60:0 61:0.27489504 62:0.27489504 63:0.22347805 64:0.03651223 65:0.06911274 66:0.27489504 67:0.27489504 68:0.15615578 69:0 70:0.13311826 71:0.27489504 72:0.21720409 73:0.047533076 74:0.037513703 75:0.14418948 76:0.222023 77:0.035660252 78:0.020505777 79:0.061219499 80:0.16143717 81:0.13282296 82:0.086305387 83:0.013878368 84:0.056131963 85:0.10169987 86:0.06295497 87:0.17196929 88:0.28342617 89:0.28342617 90:0.28342617 91:0.082588285 92:0.039314635 93:0.18568835 94:0.28342617 95:0.28342617 96:0.1234296 97:0.045460489 98:0.051764973 99:0.10700324 100:0.17573383 101:0.12582457 102:0.059223995 103:0.078349225 104:0.28342617 105:0.28342617 106:0.28342617 107:0.16051133 108:0.14337364 
-0.26594631741670571 -0.31938488741829557 -0.017886662017636897 -0 -0.31624839004405997 -0.52663066465724118 -0.20193432059423624 -1.3930537037568786 -0.020178353870094763 -0.21841697548039463 0.76564777158516051 0.37601217119389746 0.34100526056894387 0.28474845947605482 0.77418957908201591 0 0.948516269234293 0.20716269997258732 0.48345726605458222 0.67749230495457602 0.45183197184079604 0.82437787589125611 0.84850507630234095 0.40022901404349615 0.81589498593475063 0.3263104045242271 0.64892885909249054 0 0 0.41369440618194236 0 0.061010651553345091 0.73459024021195618 0 0 1:0.32326585 2:0.26768231 3:0.32326585 4:0 5:0.14248757 6:0 7:0 8:0 9:0.32326585 10:0.32326585 11:0.011554985 12:0.01993034 13:0 14:0.1847485 15:0 16:0.19468388 17:0.093813129 18:0.32326585 19:0.016236816 20:0.31349429 21:0.32326585 22:0 23:0 24:0 25:0 26:0 27:0.013286893 28:0.025378635 29:0.012010696 30:0.035049781 31:0 32:0 33:0 34:0.2879836 35:0.10823342 36:0.032532796 37:0.22473343 38:0.089468181 39:0.13901618 40:0.079204127 41:0.091101617 42:0 43:0.24816751 44:0.16978617 45:0.22324793 46:0.24816751 47:0.19668362 48:0.24816751 49:0.20896265 50:0.1043959 51:0 52:0.23426047 53:0.098277457 54:0.24816751 55:0.076770365 56:0.15371145 57:0.19665495 58:0.050889138 59:0 60:0 61:0.24816751 62:0.20857623 63:0.039830275 64:0.15039293 65:0.24816751 66:0.24816751 67:0.13895556 68:0 69:0 70:0.24816751 71:0.1295791 72:0.037031792 73:0.38834414 74:0.14065228 75:0.19183946 76:0.15888168 77:0.25468519 78:0 79:0 80:0 81:0.38834414 82:0.38834414 83:0 84:0 85:0 86:0.29185092 87:0 88:0 89:0 90:0.38834414 91:0.1239991 92:0.23531404 93:0.27288499 94:0.10887141 95:0 96:0 97:0 98:0 99:0.034192506 100:0.037205283 101:0 102:0 103:0 104:0 105:0 106:0 107:0 108:0.037205283 
-0.35831706583354994 -0.51841584576136379 -1.2941349665081237 -2.5087439679921015 -0.53975430412249992 -0.29872326416826406 -0.54962900684207772 -0.035510967101791177 -2.7860827693835888 -0.95606684799216424 0 0.84001237154289632 0.35628649972428283 1.2188517862294663 0 1.0372823296783171 0 0.2618927688580055 0.47398496474136781 0.11690210202698895 0.39441006895183811 0 0 0.30109606662732469 0 0.4066268846489749 0 0.94437726983381842 0.65094956874466825 0.26026575684547376 0.90100211883389947 0.99709830385173215 0 1.1545691647440286 0.92719062057445933 1:0.31783202 2:0.27720341 3:0.31820783 4:0 5:0.1375922 6:0.0063624694 7:0.10410108 8:0.034398049 9:0.27480015 10:0.31820783 11:0.046140984 12:0.088821307 13:0 14:0.16237134 15:0 16:0.18011327 17:0.086111888 18:0.31820783 19:0.016004022 20:0.31820783 21:0.31820783 22:0 23:0.0065846085 24:0 25:0.12474144 26:0.041580476 27:0.013135232 28:0.019586662 29:0.051049668 30:0.14984225 31:0 32:0 33:0 34:0.27623752 35:0.099395655 36:0.023319004 37:0.21776479 38:0.088118196 39:0.17139754 40:0.06574589 41:0.065437727 42:0 43:0.25878093 44:0.17406543 45:0.22405326 46:0.25878093 47:0.22004734 48:0.25878093 49:0.14464094 50:0.031887058 51:0 52:0.25339431 53:0.11710756 54:0.21924609 55:0.044534776 56:0.12423434 57:0.19327374 58:0.077172115 59:0 60:0 61:0.25878093 62:0.2112128 63:0.017639188 64:0.083924331 65:0.25878093 66:0.25878093 67:0.16977867 68:0 69:0 70:0.25878093 71:0.12991159 72:0.015135727 73:0.36899367 74:0.24305314 75:0.31717753 76:0.094807379 77:0.11403908 78:0 79:0.076199412 80:0.12425147 81:0.36899367 82:0.36899367 83:0.13767233 84:0.036521524 85:0 86:0.12583806 87:0 88:0.067530669 89:0.067442805 90:0.36899367 91:0.075336635 92:0.2146755 93:0.36899367 94:0.11128433 95:0 96:0 97:0 98:0 99:0.027414475 100:0.035275199 101:0 102:0 103:0 104:0 105:0 106:0 107:0 108:0.035275199 
-0.10148100953142872 -0.32873424658050282 -0.056822293682493238 -0.18352576330857648 -0 -0 -0 -0.67995649086662924 -0.14493787974250652 -0 -0.54622868035780414 0 0 0.34527683330219872 1.4374115112103978 0 2.4680900959392376 0 0.88014614550927139 0.39977003536250055 0.12680148178017775 1.7899499601626041 1.2795265200686441 0 0.92127123910082065 0 3.5357177327006655 0 0 0.86564558899440391 0 0.006340390703977003 1.1048713924638864 0.061794750943091468 0 1:0.17972389 2:0.099172108 3:0.23942776 4:0.06348303 5:0.29050362 6:0 7:0 8:0 9:0.16628267 10:0.2623722 11:0.003860048 12:0.0077075735 13:0.0042322022 14:0.29050362 15:0 16:0 17:0 18:0.26147613 19:0.29050362 20:0.17036498 21:0.29050362 22:0.014649931 23:0.18988869 24:0 25:0 26:0 27:0.26914403 28:0.29050362 29:0.0069428668 30:0.011120945 31:0.00097666215 32:0.29050362 33:0 34:0 35:0 36:0.29050362 37:0.23213559 38:0 39:0 40:0 41:0.31336126 42:0 43:0 44:0 45:0.23213559 46:0.26601064 47:0 48:0 49:0 50:0.31336126 51:0 52:0 53:0 54:0.26601064 55:0.31336126 56:0 57:0 58:0 59:0.26168296 60:0 61:0 62:0 63:0.31336126 64:0.31336126 65:0 66:0 67:0 68:0.29986987 69:0 70:0 71:0 72:0.31336126 73:0.23213559 74:0 75:0 76:0 77:0.31336126 78:0 79:0 80:0 81:0.23213559 82:0.26601064 83:0 84:0 85:0 86:0.31336126 87:0 88:0 89:0 90:0.26601064 91:0.31336126 92:0 93:0 94:0 95:0.26168296 96:0 97:0 98:0 99:0.31336126 100:0.31336126 101:0 102:0 103:0 104:0.29986987 105:0 106:0 107:0 108:0.31336126 
-1.2639767760399458 -0.57711613194235545 -0.71504365035491513 -0.44083757489626069 -0.97460242109271245 -1.1669082777046667 -1.1422553494517167 -0.42228982983449409 -0.45622163273251171 -0.69168710357266294 -0.21941909122735634 0.80006387302616189 1.0701209575292336 0.39019438754705182 0.81129821558912252 0.73813252995581857 0.45876816888511512 1.1433146186137289 0.41897850752123561 0.86100879852737322 0.68272613252856262 0.57453312633546605 0.70171810100565146 1.0780299529358759 0.57968208220000306 1.0659414024330447 2.4586566640806859 0.6807466945521411 0.55798323768301494 0.81607802299508636 0.58699064000843304 0.58228837179736315 1.5830784144907881 0.69385798071253846 0.72019843521644644 1:0.16827732 2:0.11382601 3:0.28279591 4:0.058801085 5:0.28279591 6:0 7:0 8:0 9:0.15569218 10:0.2456618 11:0.0044145617 12:0.0096116895 13:0.0039200722 14:0.28279591 15:0 16:0 17:0 18:0.24482279 19:0.27968964 20:0.15927882 21:0.28279591 22:0.026727762 23:0.28279591 24:0 25:0 26:0 27:0.2520023 28:0.28279591 29:0.0068441271 30:0.011566646 31:0.0017818509 32:0.28279591 33:0 34:0 35:0 36:0.28279591 37:0.22305231 38:0 39:0 40:0 41:0.30958384 42:0 43:0 44:0 45:0.22305231 46:0.25560188 47:0 48:0 49:0 50:0.30958384 51:0 52:0 53:0 54:0.25560188 55:0.30958384 56:0 57:0 58:0 59:0.30958384 60:0 61:0 62:0 63:0.30958384 64:0.30958384 65:0 66:0 67:0 68:0.30958384 69:0 70:0 71:0 72:0.30958384 73:0.23586065 74:0.0010843148 75:0.0040265196 76:0.0054268651 77:0.28184068 78:0.1381271 79:0.019689357 80:0 81:0.23586065 82:0.27027932 83:0.02947576 84:0.10003091 85:0.081402987 86:0.28184068 87:0.28184068 88:0.05840975 89:0 90:0.27027932 91:0.28184068 92:0.0004928704 93:0.0016571286 94:0.0012523535 95:0.28184068 96:0.050729074 97:0.0072311861 98:0 99:0.28184068 100:0.28184068 101:0.010441756 102:0.034003031 103:0.018785303 104:0.20245393 105:0.13532531 106:0.019289976 107:0 108:0.28184068 
-0.72062498768768835 -0.42115089472373063 -1.0319811046775693 -0.18650839959357235 -1.8122725403832265 -1.6913562504167976 -2.2227958699075616 -0.59872809596431997 -0.072924969887562308 -0.9944690189765043 -0.45059766552725433 -0.80006387302616189 1.3939105856371241 1.0404863163227898 0.54326394336070272 0.43776763633191645 0.61704503163120794 0.99911582881388694 0.43536119839709608 0.4098469090669688 0.60708623293251163 0.46890937633250307 0.67033399499857471 0.23512100711173889 0.83963742481063297 1.6955797188292419 0.83468826835177756 0.44704137199112942 0.40825177545086083 0.64946518296036959 0.31295251206586666 1.0483740862727677 0.47698809513205087 0.86214381428076181 0.86846979209390029 1:0.28164241 2:0.28438023 3:0.28438023 4:0.0074645411 5:0.044361956 6:0.027977334 7:0.027555134 8:0.0078557003 9:0.1825507 10:0.28438023 11:0.028794538 12:0.029827569 13:0.015306835 14:0.11423439 15:0.045284893 16:0.13064323 17:0.041396026 18:0.28438023 19:0.013492265 20:0.20676468 21:0.28438023 22:0.28438023 23:0.28438023 24:0 25:0.020466086 26:0.084812209 27:0.057762612 28:0.00017143162 29:0.051399089 30:0.17915939 31:0.18112384 32:0.18588251 33:0.058223434 34:0.28438023 35:0.19672756 36:0 37:0.2708613 38:0.032574363 39:0.10651883 40:0.061704956 41:0.23617977 42:0.063885793 43:0.13290146 44:0.041264955 45:0.2708613 46:0.2708613 47:0.035015985 48:0.11224492 49:0.050488889 50:0.11144241 51:0.014742875 52:0.017839937 53:0.0052461363 54:0.2708613 55:0 56:0.098386079 57:0.2708613 58:0.24696837 59:0.26977739 60:0.082138874 61:0.2708613 62:0.20729451 63:0 64:0 65:0.095275976 66:0.2708613 67:0.2708613 68:0.2708613 69:0.018955125 70:0.093187027 71:0.030161686 72:0 73:0.31059277 74:0.0038109031 75:0.011572783 76:0.00098266616 77:0.0031587067 78:0.004880846 79:0.020293413 80:0.029598258 81:0.31216297 82:0.19232951 83:0.015610313 84:0.052578695 85:0.040322252 86:0.033782009 87:0.050429437 88:0.31216297 89:0.31216297 90:0.31126541 91:0 92:0.0081862537 93:0.0316456 94:0.049716331 95:0.31216297 96:0.16562076 97:0.039800599 98:0.0057466794 99:0.00020979089 100:0.016522415 101:0.032806061 102:0.098418161 103:0 104:0.31216297 105:0.31216297 106:0.31216297 107:0.17497705 108:0.019669279 
-0.16471316389332033 -0.55462276859317683 -1.4710870685208171 -1.2123549058004688 -0.19281408449320853 -0 -0 -0.90012061038300639 -1.8944781884432911 -0.89078088239384956 -0.76542687720953939 -0 0 0.60107940147097949 0.17142390479616948 0.77129508139789571 0.2067600264148807 0 0.47579610656084609 0.31181936618464245 0.41446184684428861 0.28113528022440065 0.18220890202890119 0.61084483910686582 0.0021126303711839212 0 0 0.53669779986164101 0.98259239463783299 0.091256672874755543 2.0119800452042642 2.1624931190524581 0.33232368800723389 2.3939613792024668 0.24972177950335506 1:0.27601215 2:0.27601215 3:0.27601215 4:0.09559615 5:0.012821196 6:0.03024585 7:0.01653187 8:0.016118024 9:0.20785089 10:0.27601215 11:0.085448459 12:0.039896958 13:0.019950958 14:0.050848216 15:0.22140533 16:0.12132929 17:0.13082303 18:0.27601215 19:0.047440268 20:0.23220462 21:0.27601215 22:0.27601215 23:0.13616125 24:0 25:0.021096222 26:0.038676582 27:0.027707215 28:0 29:0.036971692 30:0.12740575 31:0.11568688 32:0.046098728 33:0.23508264 34:0.27601215 35:0.26933247 36:0.052583069 37:0.25542787 38:0.067521892 39:0.18213533 40:0.071764857 41:0.13632429 42:0.26187497 43:0.10790727 44:0.070126504 45:0.26187497 46:0.26187497 47:0.060803894 48:0.19036813 49:0.055817105 50:0.082821064 51:0.073886015 52:0.016876403 53:0.0031958173 54:0.26187497 55:0 56:0.15177649 57:0.26187497 58:0.20761652 59:0.064019561 60:0.26187497 61:0.26187497 62:0.23901458 63:0.042203858 64:0 65:0.15104787 66:0.26187497 67:0.26187497 68:0.10940712 69:0.096603788 70:0.084634289 71:0.028305834 72:0.0028135905 73:0.30614838 74:0.0071615363 75:0.02148461 76:0 77:0 78:0.00067081396 79:0.023108581 80:0.033078458 81:0.30614838 82:0.20782705 83:0.01463541 84:0.050237533 85:0.04441601 86:0.050143205 87:0.010062209 88:0.30614838 89:0.30614838 90:0.30614838 91:0 92:0.014261781 93:0.052192956 94:0.065997265 95:0.23249651 96:0.23416926 97:0.057393435 98:0.0083893351 99:0.00023109013 100:0.020488521 101:0.035169885 102:0.10550964 103:0 104:0.30614838 105:0.30614838 106:0.30614838 107:0.24812528 108:0.023954872 
-0 -0 -0 -0 -1.9989879521547014 -0.73716014836724153 -1.533891269778987 -0 -0 -0 -0 -0 -0.63902427843619869 0 0 0 0 0.50864197453466642 0 0 0.86061541461255198 0 0 0 0 0.40557557113388337 0 0.11693731589994298 0 0 0.032039579135707326 0.046461177998039935 0 0 0.13905121417120697 1:0.40741664 2:0 3:0 4:0 5:0 6:0 7:0 8:0 9:0.40741664 10:0.40741664 11:0 12:0 13:0 14:0 15:0 16:0 17:0 18:0.40741664 19:0 20:0 21:0 22:0 23:0.40741664 24:0 25:0 26:0 27:0 28:0 29:0 30:0 31:0 32:0.40741664 33:0 34:0 35:0 36:0 37:0.40403825 38:0 39:0 40:0 41:0 42:0 43:0 44:0 45:0.40403825 46:0.40403825 47:0 48:0 49:0 50:0.0049324483 51:0 52:0 53:0 54:0.40403825 55:0 56:0 57:0 58:0 59:0.40403825 60:0 61:0 62:0 63:0 64:0 65:0 66:0 67:0 68:0.40403825 69:0.12700488 70:0.018103939 71:0 72:0 73:0.26532453 74:0.0008145441 75:0.0024436323 76:0 77:0.016504113 78:0.012325823 79:0.087414265 80:0.081033774 81:0.29631773 82:0.12307104 83:0.038801145 84:0.12472972 85:0.097821437 86:0.046512526 87:0.04581742 88:0.29631773 89:0.29631773 90:0.22891439 91:0.0047764196 92:0.0028668665 93:0.0086006001 94:0 95:0.29631773 96:0.28495857 97:0.11244888 98:0.02505861 99:0.0054463889 100:0.12151283 101:0.18415259 102:0.1461017 103:0 104:0.29631773 105:0.29631773 106:0.29631773 107:0.18012378 108:0.043062072 
-1.0188075967879466 -0.97133889210262436 -1.1421379344577292 -0.73885248200204434 -0.10389063068700677 -1.0779961937576765 -1.6144214416750124 -0.88250343890446092 -0.77550266430228432 -0.85122701416579305 -0.6972917602932267 -1.0701209575292336 -0.75488630720092564 1.0393281985736247 1.2475057087428134 0.79854155553542705 1.032571550436125 0.6752527312618094 0.97259605890490131 0.72626783628757985 0.91871694396873815 0.86961791016184198 1.5399604406194178 0.699247298411801 1.1557752409511368 1.6210279840180093 1.3262210110788712 0.57441869012989943 0.67165638938441574 1.2543073959116153 0.72856633973517548 0.72162478389847518 0.79104042648519257 0.97660122251044923 0.75569270453510562 1:0.39870667 2:0 3:0 4:0 5:0.14517288 6:0 7:0.011946024 8:0.003982008 9:0.39870667 10:0.39870667 11:0.031656392 12:0.011434464 13:0 14:0.095075488 15:0 16:0.016184885 17:0.0053949622 18:0.39870667 19:0.027364206 20:0.0038357775 21:0.011507332 22:0 23:0.39870667 24:0 25:0.0058838157 26:0.001961272 27:0.027364206 28:0.059973396 29:0.011010099 30:0.033030298 31:0 32:0.39870667 33:0 34:0.019643366 35:0.0065477891 36:0.059973396 37:0.40473065 38:0.12670884 39:0.02132347 40:0 41:0.093099289 42:0 43:0.016477162 44:0.069035731 45:0.37375247 46:0.34302786 47:0.22787714 48:0.024649123 49:0 50:0.11751705 51:0 52:0.025533436 53:0.18467879 54:0.31690559 55:0.060715202 56:0.0071924655 57:0.021577395 58:0 59:0.40473065 60:0 61:0.026854446 62:0.0089514824 63:0.060715202 64:0.053328682 65:0.0090450877 66:0.02713526 67:0 68:0.40473065 69:0 70:0.014449778 71:0.0048165927 72:0.053328682 73:0.21350326 74:0.070423968 75:0.016242914 76:0.0015573556 77:0.088398799 78:0.010984587 79:0.070860095 80:0.20530966 81:0.28385174 82:0.13551663 83:0.027131073 84:0.10723556 85:0.2164135 86:0.10053965 87:0.040831797 88:0.29163942 89:0.29163942 90:0.27185223 91:0.072659463 92:0.0071121217 93:0.016329926 94:0 95:0.29163942 96:0.099927522 97:0.07486634 98:0.026732668 99:0.075576313 100:0.18360722 101:0.18941116 102:0.0321448 103:0.012022949 104:0.29163942 105:0.29163942 106:0.29163942 107:0.17485641 108:0.090588719 
-0.4683103007287141 -0.41584410641547404 -1.2702403576348169 -0.75288386031094912 -0.1966688354343733 -0.21863156533613406 -0.60752639174346368 -1.1604337699965994 -0.66610524339343979 -0.66840996740120251 -0.65688266795971262 -0.51440700467278777 -0.5327852329904621 -0.61017906996400606 0.52203766624361947 0.65682233189840122 0.84615585637172508 0.43769281118334752 0.82525882101763537 0.61066236474127888 0.2053398685609962 0.59748379397619156 0.55775993779851551 0.29601514690423464 0.81150899394286669 0.34260823722062317 0.50328592203316591 0.24164584493834526 0.49255054729967634 0.46782070615757437 0.6219882034583204 0.81784005603222754 0.52529077381265388 0.94997735106103054 0.39851699528441098 1:0.23682745 2:0.16400677 3:0 4:0 5:0.040006015 6:0 7:0.0017120322 8:0.14192253 9:0.22322078 10:0.21140541 11:0.14230414 12:0 13:0 14:0.039023571 15:0.056951907 16:0.35910413 17:0.3538149 18:0.26003212 19:0.065475091 20:0.0045411391 21:0.013623418 22:0 23:0.35910413 24:0 25:0.022448977 26:0.0074829925 27:0.065475091 28:0.072070904 29:0.0096522309 30:0.028956693 31:0 32:0.35910413 33:0.013142748 34:0.35910413 35:0.19431308 36:0.10061709 37:0.10394072 38:0.17521089 39:0.2248494 40:0.030002255 41:0.011717755 42:0.075403824 43:0.26862881 44:0.24448079 45:0.10627705 46:0.14934035 47:0.26862881 48:0.26862881 49:0.06934341 50:0.01551839 51:0.017400881 52:0.078525528 53:0.1456663 54:0.13099241 55:0.063845731 56:0.086279765 57:0.21989772 58:0.10746895 59:0.26862881 60:0.017400881 61:0.26862881 62:0.21868835 63:0.090777412 64:0.075851649 65:0.16285287 66:0.26862881 67:0.26862881 68:0.26862881 69:0.0040155877 70:0.1080588 71:0.050350484 72:0.060674496 73:0.31256711 74:0.25956196 75:0.18835473 76:0.026231049 77:0.045264293 78:0 79:0 80:0.17577055 81:0.29920202 82:0.33656409 83:0.17053981 84:0 85:0 86:0.058689401 87:0 88:0 89:0.019850727 90:0.24605863 91:0.085741259 92:0.065467671 93:0.17181376 94:0.12538654 95:0.43581206 96:0 97:0.027357053 98:0.009119018 99:0.077240102 100:0.096727647 101:0.013298239 102:0.039894719 103:0 104:0.43581206 105:0 106:0.032587096 107:0.010862365 108:0.096727647 
-0.41212866251376162 -0.39626127382601739 -1.3305726937146494 -1.1035296057652537 -0.67320950014117587 -0.71445763306151966 -0.38357045007799934 -1.027849254218693 -0.73550669250172318 -0.81499334691945724 -0.84671757774580847 -0.2210642161764628 -1.1087804848033074 -0.42914912860961868 0.3594705577006701 0.65872578237116963 0.52574777043909515 0.46408571884125288 0.63241490776227238 0.45823888482312419 0.49656441226042031 0.32141326641902485 0.59334721556528203 0.4046747045362728 0.35173638095335974 0.60517063666515358 0.2213302650833989 0.66625467465158505 0.39552809070954759 0.38144036223409794 0.5861176889565356 0.83764649408038439 0.26879877578548217 1.29585223639699 0.60585639767813959 1:0.27440625 2:0.0080137085 3:0.012286912 4:0 5:0.094824277 6:0 7:0.014778018 8:0.046769403 9:0.27440625 10:0.27440625 11:0.13912846 12:0.012334998 13:0 14:0.13206138 15:0 16:0.27440625 17:0.12506174 18:0.27440625 19:0.016519669 20:0.00031420533 21:0.049796574 22:0.27440625 23:0.27440625 24:0.27440625 25:0.04159065 26:0 27:0.016519669 28:0.014663966 29:0.0047130799 30:0.073726058 31:0.27440625 32:0.27264941 33:0.27440625 34:0.27440625 35:0.14066985 36:0.014663966 37:0.13710406 38:0.15178482 39:0.1722841 40:0.0015358907 41:0.087969929 42:0 43:0.28137645 44:0.18652216 45:0.080388531 46:0.22235391 47:0.23142679 48:0.28137645 49:0.0066555263 50:0.11590324 51:0 52:0.19354761 53:0.064515866 54:0.18134201 55:0.0063716774 56:0.065268606 57:0.2212998 58:0.19738823 59:0.070944518 60:0.075609073 61:0.28137645 62:0.21100552 63:0.0058425749 64:0.021017116 65:0.18059166 66:0.28137645 67:0.27560499 68:0.18129408 69:0.11559007 70:0.24506766 71:0.076196939 72:0.018724341 73:0.26849315 74:0.2069951 75:0.20509151 76:0.0035212741 77:0.15216529 78:0 79:0 80:0.02725102 81:0.26849315 82:0.26849315 83:0.17898738 84:0 85:0 86:0.16383572 87:0 88:0 89:0.16171449 90:0.26849315 91:0.031280681 92:0.08192274 93:0.26849315 94:0.26849315 95:0.26849315 96:0.2417994 97:0.053188019 98:0.006240224 99:0.030067632 100:0.025302151 101:0.008410506 102:0.073297232 103:0.26849315 104:0.26849315 105:0.26849315 106:0.076402232 107:0.0096176984 108:0.025302151 
-0 -0 -0.40174822588000625 -0.0030936619790577105 -0 -0.27311459256474202 -0.089876703648547676 -0.82002271883922839 -0.26189501487065087 -0.73355056088050674 -0.59447376834813803 -0.63441391462641405 -0.15308738524898616 -0.1900285695213626 -0.62589378937032047 0.18967993212877382 1.8815070753915779 0.62010047259862744 0.11470464126523111 1.6182616740073685 0 1.031155930998177 2.8292772502127095 0 2.0230011648260664 0.00064267049090773951 0.56343486587278946 0.32716041942897772 0.021663150526767413 1.042113422578971 0.41916612544408638 0.31426268926273948 0 0.39798806617227905 0.78935342238626094 1:0.31656128 2:0.0037432604 3:0.012523486 4:0.0090757357 5:0.11353301 6:0.0095494706 7:0.0013612312 8:0.082159162 9:0.31656128 10:0.31656128 11:0.00056830182 12:0.017809302 13:0.11297724 14:0.31656128 15:0.036190484 16:0.023830522 17:0.13065362 18:0.31656128 19:0.080742732 20:0.03298248 21:0.017945139 22:0 23:0.31656128 24:0.14324205 25:0.020418467 26:0.0054772771 27:0.067815498 28:0.28825584 29:0.12423008 30:0.0027244315 31:0 32:0.31656128 33:0.22937834 34:0.083608173 35:0.034578137 36:0.22476271 37:0.20954925 38:0 39:0.013994298 40:0.098174252 41:0.28159925 42:0.044417303 43:0.031216566 44:0.14882401 45:0.28159925 46:0.16908847 47:0.0028767108 48:0.015006942 49:0.10527825 50:0.28159925 51:0.059784401 52:0.064812236 53:0.16358173 54:0.25434029 55:0.28095657 56:0.078972645 57:0 58:0 59:0.28159925 60:0.13267955 61:0.092285126 62:0.071269482 63:0.26164064 64:0.28159925 65:0.11473688 66:0.00026744418 67:0.0018762023 68:0.28159925 69:0.098070033 70:0.088161469 71:0.093490191 72:0.28159925 73:0.12038548 74:0.030318262 75:0.022810481 76:0.16002244 77:0.31616315 78:0.039986391 79:0.077796891 80:0.06662181 81:0.12775575 82:0.19541359 83:0.1033767 84:0.027269127 85:0.19130118 86:0.31616315 87:0 88:0.0048064678 89:0.0016021561 90:0.13332443 91:0.31616315 92:0.22324438 93:0.0013254408 94:0.0092983693 95:0.20838395 96:0.051411074 97:0.079707578 98:0.054982308 99:0.31616315 100:0.31616315 101:0.31616315 102:0.0052305488 103:0.03669389 104:0.12803413 105:0 106:0.0048252787 107:0.0016084262 108:0.31616315 
-1.3965012728885664 -0.89249512798132291 -0.43723486219460972 -0.72467099435308524 -0.83539545141200577 -0.73854572334080681 -0.87772730811540101 -0.40894600061910585 -0.35670760188392636 -0 -0.1797158107338778 -1.6142958121731061 -0.56160046290788612 -1.0574771392214508 -0.25561443457396915 0.64419402713674578 0.86473733787226181 0.38822047430057871 1.7202905395073451 0.2228024237412799 0.81368454108693089 1.8732975926398867 3.9766121891174837 1.1246355078217281 0 0.97567353618242447 1.4658052370361192 0.41906950812886862 0.5378492102563508 1.5377840765533921 0.15741124988065666 0.23530211911009924 2.1458590654190206 0.38034976938976123 0 1:0.29049543 2:0.0029875836 3:0.0089627523 4:0 5:0.1217525 6:0.037366886 7:0.0053264704 8:0.059048772 9:0.29432842 10:0.29432842 11:0.0082432842 12:0.027948158 13:0.022577384 14:0.29432842 15:0.13093823 16:0.018664615 17:0.11434101 18:0.29432842 19:0.10166608 20:0.043732051 21:0.042141106 22:0 23:0.29432842 24:0.23404235 25:0.035528611 26:0.0018600812 27:0.084520273 28:0.29432842 29:0.11495405 30:0.043440789 31:0 32:0.29432842 33:0.29432842 34:0.055471096 35:0.0076227342 36:0.26914898 37:0.26167521 38:0.0074028652 39:0.027300389 40:0.035720475 41:0.28150529 42:0.068682306 43:0.009790333 44:0.042930532 45:0.28150529 46:0.23091087 47:0.0071424972 48:0.016832456 49:0.0707388 50:0.28150529 51:0.086053446 52:0.040222473 53:0.14668362 54:0.28150529 55:0.28150529 56:0.079513408 57:0.0052987249 58:0 59:0.28150529 60:0.14516594 61:0.020692708 62:0.0033439447 63:0.26008129 64:0.28150529 65:0.075684719 66:0 67:0 68:0.28150529 69:0.11064015 70:0.037514754 71:0.051908724 72:0.28150529 73:0.13743283 74:0.060654487 75:0.014557606 76:0.10212603 77:0.29060555 78:0.03450245 79:0.081977673 80:0.20708172 81:0.20995122 82:0.23094538 83:0.089092411 84:0.021878503 85:0.15348434 86:0.29060555 87:0 88:0.026358433 89:0.026817979 90:0.18826565 91:0.29060555 92:0.28133544 93:4.8742564e-05 94:0.00034194387 95:0.26802588 96:0.044360291 97:0.06625852 98:0.083739951 99:0.29060555 100:0.29060555 101:0.26574162 102:0.0013186248 103:0.0092505515 104:0.066696838 105:0 106:0.020501005 107:0.014319889 108:0.29060555 
-1.0439050978817928 -1.0615091273992476 -1.8621570127779181 -1.4027896272509246 -0.94110885354137497 -0.99203687705079779 -1.0370808905282376 -1.1168149910498386 -1.2281931788922495 -1.1565639894797641 -1.0372823296783171 -0.73813252995581857 -1.2090627177298121 -0.79854155553542705 -1.3155481142695706 -0.83387395926551966 0.91259922881465383 0.89737052931220673 1.0374973621280521 1.005857659878884 0.57022912058891184 0.84288041043379258 0.85640037510495226 1.2876128842578851 0.71987060618272491 1.0766643922533075 0.72274649107071931 1.5737167513021535 1.3438117470744184 0.8951453450929856 1.4751059857129507 1.4122442845271885 0.96606167271017918 1.773133538423622 1.408775170079507 1:0.0830971 2:0.15579981 3:0.24193548 4:0.04990606 5:0.078722157 6:0.1077387 7:0.24193548 8:0.1508595 9:0.083642773 10:0.13002521 11:0.24193548 12:0.24193548 13:0.01617758 14:0.17350581 15:0.10520961 16:0.24193548 17:0.1403925 18:0.073283523 19:0.064665228 20:0.090268046 21:0.24193548 22:0.14740761 23:0.13392624 24:0.00097925018 25:0.24193548 26:0.24193548 27:0.17156282 28:0.17683035 29:0.18076451 30:0.24193548 31:0.10392909 32:0.24193548 33:0.051349055 34:0.24193548 35:0.10531379 36:0.13844454 37:0.15424849 38:0.23414719 39:0.23414719 40:0.0033902994 41:0.11192401 42:0.16584964 43:0.23257945 44:0.085363187 45:0.048607178 46:0.180455 47:0.23414719 48:0.23170915 49:0.0036163195 50:0.021410424 51:0.23414719 52:0.21144639 53:0.10742944 54:0.05462943 55:0.16667014 56:0.18292929 57:0.21177341 58:0.050854489 59:0.23414719 60:0.22248225 61:0.15000173 62:0.039429314 63:0.097747341 64:0.14734642 65:0.23414719 66:0.23414719 67:0.05424479 68:0.17438005 69:0.23414719 70:0.18523994 71:0.042103637 72:0.050875038 73:0.20287941 74:0.22958858 75:0.19296001 76:0.0090860547 77:0.06622266 78:0.22958858 79:0.15669315 80:0.15313178 81:0.11917261 82:0.13632332 83:0.11489755 84:0.089272715 85:0.13123326 86:0.11960422 87:0.079378664 88:0.22958858 89:0.22516187 90:0.15907927 91:0.18225348 92:0.22958858 93:0.20703577 94:0.062559634 95:0.22958858 96:0.22958858 97:0.11159879 98:0.027648827 99:0.069692396 100:0.22958858 101:0.22958858 102:0.030303229 103:0.0054860744 104:0.22958858 105:0.22958858 106:0.22958858 107:0.091024436 108:0.10921834 
-0.51087001095369355 -0 -0.74916185074939223 -0.51909507980562941 -0.009811755434301692 -0.11171879626265661 -0.12425072251104927 -1.1716485658281737 -0.56417973414029088 -0.92625592649312893 -0.62777617974971878 -0 -0.40725869507888179 -0.11602481085783538 -1.0322734834136473 -1.0617506075148746 -0.28519239446521777 0.34325745059032436 1.6427119784735158 1.1528900349478539 0.099943298425135135 0 0.49759585778189069 0.13639907018769573 1.6013426713167385 0 0 0.51234006808294241 0.39237516338619111 0.56000308328347848 0.5377284805271032 0.50815023057732067 0 0.81841303393652509 0.54486731162914803 1:0.27274463 2:0.00053329684 3:0.0015998906 4:0 5:0.27274463 6:0.16840081 7:0.050325472 8:0.055011187 9:0.27274463 10:0.20814112 11:0.0035730014 12:0.010719004 13:0 14:0.27274463 15:0.0081678173 16:0.086725734 17:0.14589456 18:0.27274463 19:0.27274463 20:0.0018769898 21:0.00563097 22:0 23:0.27274463 24:0.058583971 25:0.01010558 26:0.013982645 27:0.27274463 28:0.27274463 29:0.0055440674 30:0.016632203 31:0 32:0.27274463 33:0.18488222 34:0.083915316 35:0.16567661 36:0.27274463 37:0.084946208 38:0.0073906626 39:0.02449071 40:0.016266543 41:0.20939909 42:0.0099037234 43:0.083050393 44:0.15708289 45:0.16294768 46:0.2236592 47:0.13355029 48:0.19945681 49:0.251311 50:0.251311 51:0.00066024828 52:0.006826547 53:0.006922937 54:0.17740168 55:0.251311 56:0.007211843 57:0.021635527 58:0 59:0.19504583 60:0.251311 61:0.24999291 62:0.251311 63:0.251311 64:0.251311 65:0.1478074 66:0.17726883 67:0.14800878 68:0.251311 69:0.01786159 70:0.047652274 71:0.028855152 72:0.251311 73:0.24126647 74:0.12818687 75:0.062098186 76:0.15945691 77:0.27215418 78:0 79:0 80:0 81:0.17215773 82:0.27215418 83:0.17754166 84:0.011609564 85:0.081444621 86:0.27215418 87:0 88:0 89:0 90:0.25277194 91:0.24880716 92:0.13789099 93:0.072580434 94:0.23191217 95:0.27215418 96:0 97:0 98:0 99:0.17390081 100:0.27215418 101:0.11808592 102:0.034249835 103:0.240273 104:0.27215418 105:0 106:0 107:0 108:0.27215418 
-1.02444768348252 -0.91763050444177219 -0.34015943470392251 -0.32146382448553951 -0.7615721327542585 -0.8240786592296756 -0.73502986117018199 -0.56212995378955677 -0.16606411568654533 -0 -0.32074008948457422 -2.9268582648243529 -0.41654636296720682 -0.91654673957828969 -0.3396301433971729 -1.6844938057489651 -0.62740683434943612 0.76653602123914355 0.98807867643910563 1.0132622595198353 0.63046239016998995 3.0723913908086189 2.4544309395703423 0.81987148681655653 0.88480195165759079 0.88687608250784011 2.4835091544830066 0.21901092629471364 0.2362819114179199 1.103709049063029 0.13105778521704123 0.19316819146659142 1.8652342736873386 0.2862584101681277 0.24844771267753826 1:0.20176595 2:0.00049339171 3:0.0089818602 4:0.052626595 5:0.29211888 6:0.10793893 7:0.018874031 8:0.13145027 9:0.28001824 10:0.17902941 11:0.0033056431 12:0.010417041 13:0.0035084398 14:0.29211888 15:0.029761089 16:0.075818032 17:0.13153833 18:0.24370316 19:0.29211888 20:0.0043823044 21:0.01487807 22:0.0121446 23:0.29211888 24:0.15247943 25:0.02355257 26:0.11507083 27:0.29211888 28:0.29211888 29:0.0035900902 30:0.0021113751 31:0.00080963998 32:0.29211888 33:0.072702877 34:0.037396621 35:0.059242766 36:0.29211888 37:0.15054581 38:0.021863164 39:0.053746536 40:0.022077145 41:0.24293114 42:0.014075815 43:0.11432697 44:0.057789698 45:0.15976691 46:0.25937086 47:0.15029767 48:0.24529102 49:0.13502462 50:0.26653171 51:0.0048146737 52:0.021039356 53:0.0067843492 54:0.21435528 55:0.26653171 56:0.051864762 57:0.034840398 58:0.0064897453 59:0.26653171 60:0.21113724 61:0.15809157 62:0.042664994 63:0.26653171 64:0.26653171 65:0.13203509 66:0.19528826 67:0.11716969 68:0.26653171 69:0.072220102 70:0.084863074 71:0.024856143 72:0.26653171 73:0.28601149 74:0.049695708 75:0.074077442 76:0.085489556 77:0.28601149 78:0 79:0 80:0 81:0.26990715 82:0.28601149 83:0.015278453 84:0.012294374 85:0.08624877 86:0.28601149 87:0 88:0 89:0 90:0.28601149 91:0.25653878 92:0.031371322 93:0.068766087 94:0.14013675 95:0.28601149 96:0 97:0 98:0 99:0.24746481 100:0.28601149 101:0.042402353 102:0.014651808 103:0.10278688 104:0.28601149 105:0 106:0 107:0 108:0.28601149 
-0.35972408499675745 -0.23713845388219668 -0.4895233437874541 -0.30564996230427394 -0.56433991429544417 -0.55806033895837304 -0.65779798807226131 -0.27871735733289177 -0.25991236144102248 -0.34650416559556646 -0.24234407445671763 -0.15389487834875279 -0.64400247108707531 -0.91365321161383384 -0.54596765082034249 -0.2228634937133637 -0.38436488649959782 -0.21456884918441349 0.28958717407307055 0.17132294522947966 0.3096573522841074 0.13819544294360947 0.42803956523462677 0.29777460445163495 0.28641602739603522 0.71568969179222841 0.1809521992464326 0.36678038368937432 0.40838533602888266 0.17848353671153069 0.37538977201333779 0.38617734555657962 0.22400179129720399 0.41781218174787593 0.4519350472143252 1:0 2:0 3:0 4:0 5:0.077328928 6:0 7:0 8:0 9:0 10:0 11:0 12:0 13:0 14:0.09773279 15:0 16:0 17:0 18:0 19:0 20:0 21:0 22:0 23:0.68027687 24:0.21513908 25:0.030667046 26:0 27:0 28:0 29:0 30:0.0098771481 31:0.069291189 32:0.68027687 33:0 34:0 35:0 36:0 37:0 38:0 39:0 40:0 41:0.073699504 42:0 43:0 44:0 45:0 46:0.085087404 47:0 48:0 49:0 50:0.065058209 51:0.029224135 52:0.09376172 53:0.066874705 54:0.10731567 55:0 56:0 57:0.028005058 58:0.19646396 59:0.54648387 60:0.13144791 61:0.018737268 62:0 63:0 64:0 65:0 66:0.066472024 67:0.46632144 68:0.54648387 69:0.27261475 70:0.038859922 71:0 72:0 73:0.15441178 74:0.0008651542 75:0.0025954624 76:0 77:0.020667071 78:0.037220832 79:0.14878011 80:0.1341241 81:0.20624416 82:0.12155131 83:0.039417773 84:0.13306372 85:0.10389938 86:0.051697247 87:0.05423246 88:0.30272958 89:0.30272958 90:0.23940088 91:0.0011945709 92:0.0033714392 93:0.025549024 94:0.15013793 95:0.30272958 96:0.30272958 97:0.11960752 98:0.026615577 99:0.00071159616 100:0.13641803 101:0.17877059 102:0.10552062 103:0.0057037664 104:0.30272958 105:0.30272958 106:0.30272958 107:0.1913154 108:0.053092897 
-1.0064204961030987 -0.38484691015728406 -0.59433937666030412 -0.27248799301640575 -0.25414470900010844 -0.61642869684774981 -0.46674111022004677 -0.57489578199421232 -0.26832187202606361 -0.56500820385835371 -0.22671139437387527 -0.98941974026497592 -0.35511335772681168 -0.27024149418264204 -0.35581087920425797 -0.78545745318584237 -0.51300564281260896 -0.89522462264505442 0.63895208387328595 0.80497027079068817 0.23025595273791902 0.83402522558389147 0.57056808568429962 0.62616967210612307 0.66442115173390781 0.42156020960574553 1.1763546037066377 0.41848399033169115 0.48630588299527328 0.91316539426153287 0.44174914176294872 0.39896322913588494 0.86886425295374603 0.62173858414479455 0.46879067189540757 1:0 2:0 3:0.0010901631 4:0.0076478259 5:0.23338118 6:0 7:0.00046678694 8:0.00015559566 9:0 10:0 11:0 12:0.0032200166 13:0.022589393 14:0.18549845 15:0.0092851371 16:0.0083253561 17:0.0023339347 18:0 19:0.15569483 20:0.049327888 21:0.078783646 22:0.14728366 23:0.4266513 24:0 25:0.032459546 26:0.049035467 27:0.16059029 28:0.32708511 29:0.033638366 30:0.099180058 31:0.4266513 32:0.4266513 33:0.13927706 34:0.19365805 35:0.057934925 36:0.31304058 37:0 38:0 39:0.00088285911 40:0.0061935242 41:0.18331903 42:0.0085384212 43:0.0051223892 44:0.0013017594 45:0 46:0 47:0 48:0.0012739762 49:0.0089373291 50:0.23963641 51:0.00056922808 52:0.0011879744 53:0.00036894457 54:0 55:0.3012332 56:0 57:0.020048048 58:0.14064313 59:0.43030921 60:0.12807633 61:0.13919303 62:0.040312126 63:0.3012332 64:0.3628976 65:0 66:0.024867855 67:0.17445555 68:0.43030921 69:0.0085384212 70:0.021976763 71:0.0069198846 72:0.3628976 73:0 74:0 75:0.0020247861 76:0.014204487 77:0.11798837 78:0.0070202374 79:0.014453256 80:0.0044841846 81:0 82:0.0092314985 83:0.004946515 84:0.00069258403 85:0.0048586866 86:0.090141729 87:0.19709292 88:0.30215275 89:0.19366671 90:0.015205711 91:0.22926362 92:0 93:0.042508084 94:0.2982071 95:0.30215275 96:0.084754087 97:0.11863448 98:0.035517734 99:0.22926362 100:0.30215275 101:0.17173538 102:0.084946655 103:0.1115802 104:0.30215275 105:0.30215275 106:0.30215275 107:0.15788154 108:0.23977512 
-1.5720038385624324 -0.030500689256876438 -0.33379662381421965 -0 -0.34899648732479743 -0.7729584548520102 -0.48231392178564758 -0.64789104946144338 -0.014159153315588778 -0.30718187810209102 -0 -0.58841676113105479 -0.24497450275135702 -0.29634087765837619 -0.24219127524446935 -0.50485885364753891 -0 -1.1831779500712933 -0.43017792084981138 0.93407900001559119 0.1399447027106191 0.84920508803412054 0.66804875452346402 0.82675385868447837 1.5980339348425143 0.40544548843810641 0.46883807023027746 0 0.40845974507153848 0.057739604672422604 0.15569506138605005 0.30191462017812637 0.95341243809433407 0.49020366259324372 0.13352502981338982 1:0.2035735 2:0.014431364 3:0 4:0 5:0.1333479 6:0.18013123 7:0.025676845 8:0.040453494 9:0.21920271 10:0.26042673 11:0.086150892 12:0 13:0 14:0.26042673 15:0.26042673 16:0.04777037 17:0.088055268 18:0.26042673 19:0.24018735 20:0.17107007 21:0.037648149 22:0 23:0.26042673 24:0.26042673 25:0.06204864 26:0 27:0.14497811 28:0.26042673 29:0.20545428 30:0.0049372502 31:0 32:0.26042673 33:0.26042673 34:0.055244431 35:0.031065106 36:0.26042673 37:0.20860314 38:0.080596097 39:0.033510793 40:0.015073583 41:0.24127781 42:0.24127781 43:0.088426806 44:0.094882458 45:0.21458156 46:0.24127781 47:0.24127781 48:0.09035527 49:0.14983708 50:0.13613181 51:0.17905083 52:0.09914881 53:0.065925866 54:0.14943692 55:0.24127781 56:0.068917595 57:0.034571279 58:0.021652194 59:0.22502771 60:0.15251897 61:0.024698181 62:0.13522981 63:0.24127781 64:0.24127781 65:0.13364637 66:0.11919755 67:0.24127781 68:0.24127781 69:0.057841912 70:0.013153486 71:0.22067563 72:0.24127781 73:0.30073756 74:0.30073756 75:0.042990495 76:0.15532827 77:0.10277167 78:0.010995187 79:0.019808253 80:0.0060803145 81:0.24383631 82:0.30073756 83:0.12253871 84:0.0029445786 85:0.020657113 86:0.044546835 87:0 88:0 89:0.041028075 90:0.30073756 91:0.19826137 92:0.088988639 93:0.10092693 94:0.30073756 95:0.30073756 96:0.0025373509 97:0.0097078076 98:0.16222738 99:0.24456877 100:0.058285214 101:0.005361537 102:0.062070154 103:0.30073756 104:0.30073756 105:0 106:0.024013763 107:0.034883369 108:0.071208738 
-0.16853904142913584 -0.80448628488759755 -0.82042441150814616 -1.0214894565623331 -0.39654438971371558 -0.19525280483208335 -0.39190423119800827 -1.2982807505130207 -0.76914494638995001 -0.57020892923667321 -0.95744223079595003 -0.71070789189945227 -0.6661828022065851 -0.67625518124652517 -1.2154824535354385 -1.3301363271250375 -1.0374973621280521 -1.4476127048413283 -0.4983613370965449 1.8044141365811281 0.60721292245078795 0.82945699460660405 1.2667998859426151 0.40325635340851951 0.364334203975828 0.37523739949594864 0.73941623556528846 0.82826968183231264 0.27557314688413576 1.345832444970863 0.52388266537569839 0.43232515783991166 0.65965064185089872 0.77329941518315437 0.66013306389675019 1:0.26885542 2:0.000276323 3:0 4:0 5:0.17272446 6:0.054666523 7:0.079581127 8:0.03185248 9:0.26885542 10:0.26885542 11:0.027297763 12:0 13:0 14:0.26885542 15:0.19356158 16:0.08844085 17:0.028785391 18:0.26885542 19:0.17769602 20:0.099258162 21:0.051106423 22:0 23:0.26885542 24:0.21079029 25:0.16633913 26:0.045430668 27:0.12831219 28:0.26885542 29:0.23062065 30:0.012521221 31:0 32:0.26885542 33:0.19681801 34:0.16497502 35:0.075936928 36:0.26885542 37:0.23697357 38:0.04866752 39:0.019204319 40:0.0061975755 41:0.23697357 42:0.23697357 43:0.099154212 44:0.052885655 45:0.23697357 46:0.23697357 47:0.17368837 48:0.1226352 49:0.1106762 50:0.061112728 51:0.20004877 52:0.10363868 53:0.052274089 54:0.17540757 55:0.23697357 56:0.12873508 57:0.022653116 58:0.010286367 59:0.23062944 60:0.17756632 61:0.039650675 62:0.14175285 63:0.23697357 64:0.23697357 65:0.12607069 66:0.20582131 67:0.23697357 68:0.21715233 69:0.072518468 70:0.015345341 71:0.20181064 72:0.23697357 73:0.2930764 74:0.2930764 75:0.077520534 76:0.09606567 77:0.067882232 78:0.0097879013 79:0.017633282 80:0.0054126885 81:0.16896936 82:0.2930764 83:0.2016065 84:0.0051951599 85:0.011072239 86:0.054504257 87:0 88:0 89:0 90:0.2930764 91:0.2804614 92:0.14765181 93:0.16900869 94:0.2930764 95:0.2930764 96:0.0022587464 97:0.0086418781 98:0.14426014 99:0.2930764 100:0.073447406 101:0.038710333 102:0.034997445 103:0.22300757 104:0.2930764 105:0 106:0.021377021 107:0.05373067 108:0.078831472 
-1.0688081349989369 -0.46956527557587452 -0.2102790271044899 -0.1642134549829469 -0.390397852171601 -0.21785403254220959 -0.19071497195139608 -0.14092717800762103 -0.048901911789560451 -0.1031651893164412 -0 -0.16825521854469466 -0.067984784466195339 -0 -0 -0.80875101104772074 -0.31434527206778867 -0.34787428570158346 -0 -1.1355020196739281 0.28656822645189545 1.0830757762266017 0.7194885361714819 1.2329380016114135 0.18703774428381581 0.48217600308851499 0.10797647109077786 0.4679461560180716 0.39896274804479109 0.15519942705263556 0 0 0.76626748139763756 0.32437585775002648 0.44616102847889172 1:0.16360182 2:0.0027987361 3:0.024411026 4:0.11787593 5:0.18517822 6:0.1103939 7:0.033156291 8:0.24757719 9:0.24757719 10:0.10468145 11:0.031146199 12:0.050723039 13:0.24757719 14:0.24757719 15:0.11702014 16:0.087255456 17:0.19020411 18:0.18614207 19:0.24101843 20:0.1071426 21:0.034939028 22:0.00029562597 23:0.24757719 24:0.24757719 25:0.071894377 26:0.076282531 27:0.22619671 28:0.24757719 29:0.24757719 30:0.0099422392 31:0.037642688 32:0.18132344 33:0.24757719 34:0.10762827 35:0.10091655 36:0.24757719 37:0.11003592 38:0.085839048 39:0.062836848 40:0.26974165 41:0.26974165 42:0.17125005 43:0.056003578 44:0.072445907 45:0.095666945 46:0.10830425 47:0.083525151 48:0.0685395 49:0.16827364 50:0.26974165 51:0.26974165 52:0.070755176 53:0.094951905 54:0.12408703 55:0.26974165 56:0.26974165 57:0.015143867 58:0.10623881 59:0.11135992 60:0.081789039 61:0.043374971 62:0.14648561 63:0.26974165 64:0.26974165 65:0.14708441 66:0.057919454 67:0.092547603 68:0.12937282 69:0.1172802 70:0.01671773 71:0.26974165 72:0.26974165 73:0.18647854 74:0.19047908 75:0.078312621 76:0.11628024 77:0.24993086 78:0.24993086 79:0.041355267 80:0.022133879 81:0.097728625 82:0.24993086 83:0.24993086 84:0.030706439 85:0.1154673 86:0.20634718 87:0.14399584 88:0.025167223 89:0.0017629192 90:0.20759217 91:0.2495984 92:0.097271465 93:0.099580929 94:0.24993086 95:0.18358451 96:0.026744921 97:0.00440025 98:0.24993086 99:0.24993086 100:0.15152423 101:0.078538314 102:0.079939753 103:0.24993086 104:0.24993086 105:0.00024293945 106:0.01593872 107:0.14898336 108:0.19351387 
-0.58129046410242646 -0.42520127727554885 -0.69252960063117042 -0.5990450607437966 -0.25098107052764096 -0.63413630585709602 -0.51300057559628776 -1.3100107777706613 -0.63075314629100177 -0.7844938782021722 -0.79439440698156494 -1.0925236153451792 -0.65368149078541593 -0.72626783628757985 -1.068901249564403 -1.0323130867009276 -0.69151238781109536 -1.8182780087661059 -0.97629321602016783 -1.6029911169227915 0.3128818128966781 1.7488139882023503 0.90141082411326301 0.041252120611102061 1.8250243529621959 0.20641735948238887 1.0680177013772347 0.31628984855696202 0.28433065767530452 1.1919786004760402 0.67972478293673588 0.6573003339032738 0.83094390284497632 0.64671737176333011 0.25625880161781023 1:0.18553811 2:0.0031494428 3:0.023000365 4:0.095071658 5:0.18008047 6:0.038311776 7:0.063004993 8:0.25065824 9:0.25065824 10:0.12850738 11:0.011010745 12:0.057719372 13:0.25065824 14:0.25065824 15:0.044043116 16:0.13751453 17:0.14408872 18:0.18244871 19:0.18760505 20:0.09701854 21:0.015142566 22:0.00030993987 23:0.25065824 24:0.23581873 25:0.17497565 26:0.12302828 27:0.17794865 28:0.25065824 29:0.24839656 30:0.006776189 31:0.031456284 32:0.25065824 33:0.12857796 34:0.21329255 35:0.12448168 36:0.25065824 37:0.066086419 38:0.036766808 39:0.047627825 40:0.27527913 41:0.27527913 42:0.094062477 43:0.064236313 44:0.050376654 45:0.064084686 46:0.11033176 47:0.073544808 48:0.084911846 49:0.10268895 50:0.27527913 51:0.27527913 52:0.053448819 53:0.039794698 54:0.10413022 55:0.27527913 56:0.27527913 57:0.0060683163 58:0.042571079 59:0.18912551 60:0.035994645 61:0.070481367 62:0.16285604 63:0.27527913 64:0.27527913 65:0.16498284 66:0.091848165 67:0.14941993 68:0.1735189 69:0.051847201 70:0.0073905704 71:0.27527913 72:0.27527913 73:0.23128222 74:0.12170465 75:0.080392405 76:0.14674293 77:0.2565572 78:0.21886109 79:0.041018758 80:0.010377946 81:0.17435907 82:0.2565572 83:0.2565572 84:0.01421948 85:0.071938351 86:0.20862158 87:0.10236634 88:0.05560939 89:0.01367252 90:0.24233906 91:0.24771276 92:0.078951605 93:0.12013619 94:0.2565572 95:0.1923943 96:0.014869068 97:0.0081837224 98:0.21120857 99:0.2565572 100:0.17560437 101:0.078466073 102:0.070595428 103:0.2565572 104:0.2565572 105:0 106:0.017911861 107:0.068925269 108:0.16708501 
-0.51430429736097194 -0.77830084013823775 -0.28088752324293625 -0.19424975994552529 -0.74667402722081078 -0.72518482976800536 -0.59706861052944626 -0.32728306166072435 -0.37444441751267032 -0.38945080247966274 -0.49186915477274856 -0.80952761430874032 -0.66482539956255826 -0.74923954163436335 -0.34715834403282009 -0.64340293539505899 -0.27747760046203518 -0.65728440509690733 -0.41385302422501885 -0.49273325733764428 -0.49630291213363842 0.71100964920991649 0.72768181736701387 0.54596642157571151 0.66384709395148844 0.60319091491685695 0.9655849188911042 0.19754268256936569 0.23095314760203806 0.54486071550428306 0.23454835140297001 0.28062218208682954 0.59584347663525072 0.39824029639893893 0.15189341869132036 1:0.44229379 2:0 3:0 4:0 5:0.29869694 6:0 7:0 8:0 9:0.44229379 10:0.44229379 11:0 12:0 13:0 14:0.34228519 15:0 16:0 17:0 18:0.44229379 19:0.038078014 20:0 21:0 22:0 23:0 24:0 25:0 26:0 27:0.038078014 28:0.043634668 29:0 30:0 31:0 32:0 33:0 34:0 35:0 36:0.043634668 37:0.45819259 38:0 39:0 40:0 41:0.30818641 42:0 43:0.0060530342 44:0.0020176782 45:0.45819259 46:0.45819259 47:0.0035296059 48:0.010588817 49:0 50:0.22596642 51:0 52:0.044017125 53:0.014672374 54:0.45819259 55:0.039733551 56:0 57:0 58:0 59:0 60:0 61:0 62:0 63:0.039733551 64:0.045531794 65:0 66:0 67:0 68:0 69:0 70:0 71:0 72:0.045531794 73:0.33229142 74:0.0038324906 75:0.011497471 76:0 77:0.041415334 78:0.010541113 79:0.069627903 80:0.02887442 81:0.33229142 82:0.33229142 83:0.0072674095 84:0.021802226 85:0 86:0.056262817 87:0.15811668 88:0.33229142 89:0.30662245 90:0.33229142 91:0.019212659 92:0 93:0 94:0 95:0 96:0.017495513 97:0.13191921 98:0.048212815 99:0.022258395 100:0.013055532 101:0 102:0 103:0 104:0 105:0.26243272 106:0.33229142 107:0.33229142 108:0.058741555 
-0.2550258586845271 -0.26254186953288333 -0.48339893996035393 -0.5320388587520436 -0.61001122971861577 -0.3807559361980995 -0.64968818866103306 -0.34377961650237837 -0.61127837646580507 -0.30972043242176883 -0.35437288601988565 -0 -0.35672268021424186 -1.0300928169469268 -0.35474593678859651 -0.17028160569187187 -0.29275152012687672 -0.073121283498217907 -0.12606028079700762 -0.25442436782376288 -0.10314712721493519 0.040350373603983247 0.16108682742719332 0.09001615111113262 0.16560907728482349 0.38042899244890227 0.0026507272694601897 0.40283068919969617 0.28822329213235581 0.37313648164306429 0.38235889034077025 0.35915932520903748 0 0.33574753982891797 0.4737109504527699 1:0.49654123 2:0 3:0 4:0 5:0 6:0 7:0 8:0 9:0.49654123 10:0.49654123 11:0 12:0 13:0 14:0 15:0 16:0 17:0 18:0.49654123 19:0.043682825 20:0 21:0 22:0 23:0 24:0 25:0 26:0 27:0.043682825 28:0.050057378 29:0 30:0 31:0 32:0 33:0 34:0 35:0 36:0.050057378 37:0.47927651 38:0 39:0 40:0 41:0 42:0 43:0 44:0 45:0.47927651 46:0.47927651 47:0.21471891 48:0.13131408 49:0 50:0 51:0 52:0 53:0.071527943 54:0.47927651 55:0.045061514 56:0 57:0 58:0 59:0 60:0 61:0 62:0 63:0.045061514 64:0.043954909 65:0 66:0 67:0 68:0 69:0 70:0 71:0 72:0.043954909 73:0.29634356 74:0.14269526 75:0.088441521 76:0 77:0 78:0 79:0.13121651 80:0.197054 81:0.32042843 82:0.17583616 83:0.13998283 84:0.20468563 85:0 86:0.0048134625 87:0 88:0.35936037 89:0.35936037 90:0.20989916 91:0.010093016 92:0 93:0 94:0 95:0 96:0 97:0.18375619 98:0.061252058 99:0.010093016 100:0.014012161 101:0.054849204 102:0.16454761 103:0 104:0.020858336 105:0 106:0.35936037 107:0.35936037 108:0.014012161 
