solver_type L2R_LR
nr_class 36
label 1 2 3 4 5 6 7 8 9 10 11 12 13 14 15 16 17 18 19 20 21 22 23 24 25 26 27 28 29 30 31 32 33 34 35 36
nr_feature 108
bias -1
w
-0.4725327534946866 -0.24095886727492852 -0.38348243697949508 -0.07970559316189596 -0.24157197076831999 -0.34375327409485484 -0.31060691087937065 -0.17206047462788043 -0.33941297364520601 -0.35541253365567843 -0.066374621517873933 -0.33084574488135515 -0.42062643367542696 -0.24743049604923148 -0.097802848056930458 -0.46667814500415716 -0.48903674374862866 -0.17883862535546069 -0.25103586035372122 -0.27447631216921387 -0.19119915687497896 -0.26124717404147196 -0.33313532462344386 -0.24311675968899682 -0.38487093127316951 -0.16719080222181137 -0.24704136030394699 -0.4576583575160883 -0.43241096174473426 -0.43147625342703466 -0.57508531732494794 -0.33301573445994159 -0.26656008757783617 -0.27653369626483365 -0.45986622918763653 -0.59472482360218004 
-0.37069649793892595 -0.42998439654682541 -0.22381808735903053 -0.44059537856519027 -0.14034757187404662 -0.21125951892074527 -0.20148008481620067 -0.39573051257511777 -0.098003027690341304 -0.13020352859034101 -0.32552435555608944 -0.38506148400504819 -0.1452671150563061 -0.086287658880450577 -0.36471401130717873 -0.39667057696893915 -0.28333713378566816 -0.39000950961919967 -0.054706761362467951 -0.40362161277094932 -0.36545971333869248 0.012644432457815635 -0.33978758511835694 -0.42038359331658282 -0.17578536695922961 -0.43458159713852273 -0.11381644804079911 -0.26804333313984852 -0.30854542448583605 -0.032965312668303506 -0.42947459668111432 -0.11245309340108116 -0.12902003163828868 -0.40728129629907656 -0.10582114714053101 -0.32445166225391497 
-0.32396156247612395 -0.43409641247978781 -0.19076175122933978 -0.50722837552321098 -0.2189049355876293 -0.22374126962461086 -0.20004984978331961 -0.53279983658407204 -0.082178013407645301 -0.20634035980704818 -0.43466111175360223 -0.45445674384052143 -0.22555418341339806 -0.14900907955835505 -0.49940444387682098 -0.46461875822023901 -0.20631271923205285 -0.44093668241379658 -0.11064793919502143 -0.4695945974606559 -0.39440480850180692 -0.033651969460224515 -0.41163654794975885 -0.47680728091343777 -0.10315690991836134 -0.48517061350379059 -0.26150389209137315 -0.12379150142513494 -0.18709540886476572 -0.10192824967229555 -0.50289823813510626 -0.17363388670704799 -0.18654507478198187 -0.46954431252204504 -0.17987992517583695 -0.15326629221794508 
-0.10615651389506361 -0.12315080564030785 -0.10934717310872208 -0.1128988577462558 -0.086829703938976863 -0.074689775069779002 -0.085890867550322519 -0.11999179639948845 -0.12626778953756562 -0.10353639786549122 -0.10418370889321493 -0.129583035621301 -0.06785761912822845 0.074806244483085094 -0.10405694446697848 -0.12121569585257429 -0.057870735413055603 -0.061252503887997148 -0.076698777984060759 -0.11425260577196332 0.023225338502397448 -0.11588120383237699 -0.11690056774057864 -0.12046096320417801 -0.03430555936988991 -0.11851190046878454 0.086421060339042066 0.16810278616877378 -0.011512617370476709 -0.097070073174180441 -0.12958209864572398 -0.058342336845018133 0.045738629986914921 -0.052779796166206594 -0.12822894090997286 0.17216516706260723 
-0.42233293760979385 -0.016101586242983766 -0.16785547888903252 -0.28767207377469145 -0.2178217046910407 0.019955115674686111 -0.30824803008456353 -0.19417325936557028 -0.29428063797220255 -0.30288674196733617 -0.35351240270803308 0.017360267042006029 -0.33168904396019516 -0.39533134493352518 -0.35399733993425497 0.0067348203522919446 -0.30065686381179108 -0.050117762665115625 -0.28573673923616771 -0.26578946416055221 -0.16261572840603528 -0.25110571318720454 -0.0040811072140064467 -0.062802042693883064 -0.42050810378797365 -0.11608950367129334 -0.2488239439106992 -0.12405454270810096 -0.33867737639084938 -0.31191282754051131 -0.1674856589833694 -0.27499965559201489 -0.27593087299529007 0.0087542709162444238 -0.34174090442669558 -0.067964826399655842 
-0.16312140912699205 -0.056026269281557628 -0.16236417922395693 -0.13961767668187924 0.04542252964677243 -0.015387738794055346 -0.19313286079786335 -0.081825373803629267 -0.13990372530701831 -0.042297195546571104 -0.12859993691661392 -0.16424840181962566 0.018269596930438056 -0.076029162409542439 -0.15286712996293916 0.095639456716108323 0.0056931878875630532 -0.033847550231178997 -0.032055712366076961 -0.083800781929396717 0.0036809792347701365 -0.14277054607629766 -0.17401739324144641 0.037728491274420836 -0.13869763626677656 -0.024236064081628716 0.078491121654261378 -0.17316051594187035 -0.15301204666028617 -0.11781007585802129 -0.0032189532847124386 0.010273137087286938 -0.14406627899849869 -0.16294055939895216 -0.15403428149031484 -0.065999203257753838 
0.22906027148491084 -0.014361525832219418 -0.15102483596337943 -0.17255298263998733 -0.10018049659624584 -0.12771362070071002 -0.11157216762551138 -0.17722507068474283 -0.1781834573650414 -0.12355570602221987 -0.098724042486528482 -0.18820848504348103 -0.085144239131774185 -0.13751479896933938 -0.16627842608974397 -0.16067940360532243 0.19021755703020077 -0.14284614945335983 -0.1141613828783198 -0.15297966438734359 -0.023536864694525671 -0.17250172129467858 -0.19463588458165956 -0.14810264206551341 -0.12174242870121466 -0.1516568931173502 -0.13950661169148282 -0.12714948863720818 -0.063968993910315658 -0.093673994022987497 0.23953471252233546 -0.12234499730234534 -0.17024228355698082 -0.16777861093313043 -0.15694616921496579 0.13780234297261107 
0.1609233306125841 0.12777637382285206 -0.17399738504927578 -0.18860696512252909 -0.15798486578457541 -0.17819207204138454 -0.12551770483931995 -0.13815010768302585 -0.20209526248764939 -0.16498750904415818 0.035009451673208181 -0.19916492747223766 -0.15994810520903871 -0.16017897770390774 -0.10206514275174165 -0.052895274825515905 0.047422652692912889 -0.16493001341044622 -0.13815175951912967 -0.048719317975468635 0.11392452879803303 -0.17017731713411058 -0.18335347694216089 -0.16182714719382438 0.014622247877438231 -0.19712297757959973 -0.16851486221794337 -0.19132840176365795 0.065470389179772479 -0.15218853480547401 0.1630802102088495 -0.15179260326882485 -0.17034871504635887 -0.1930022162313843 -0.13163224833597323 -0.095119726309584554 
-0.32088542476623394 -0.057887143207111434 -0.30349214133925945 0.00032321528027467246 -0.36347182631616737 -0.34079986001075308 -0.19534835366444805 -0.085418115097483358 -0.29324588110307026 -0.39107448660942434 0.022185453446548223 -0.26147573640483585 -0.4101758437487294 -0.39165958115240423 0.0073899517433226643 -0.30183034419914445 -0.3662363337410266 -0.12239992952062424 -0.28400037076487006 -0.11243681964326437 -0.12848193796936705 -0.27327058199645227 -0.26905771572220466 -0.14870811354123428 -0.24217557932921333 -0.080122179593171181 -0.36461255136923737 -0.41505637306753224 -0.24626098559987397 -0.42519062005110059 -0.45256195823653006 -0.4136651890446052 -0.32502694824350448 -0.20464950272119384 -0.46972614914045141 -0.48512527793663796 
-0.26709281494078152 -0.42297979899975741 -0.33894777878555121 -0.18560678786841975 -0.31840031761898241 -0.31840797957779582 -0.32584765918087527 -0.28572724202692651 -0.28855939182165896 -0.31459557018803275 -0.17182452576336982 -0.41647272552511694 -0.34157836730911012 -0.30444336521347359 -0.20254896807903502 -0.51536474797839904 -0.54455959425643219 -0.44166945260668694 -0.25639539529224409 -0.48400153130006995 -0.50880180065123937 -0.26125611812384658 -0.41499906449025276 -0.3851712868154481 -0.34758841359265519 -0.2586232998685703 -0.31163618832104073 -0.31248726103209917 -0.62053760779038303 -0.59405483399666459 -0.57246137632288308 -0.49225208875489279 -0.31279318529745342 -0.37911262128995588 -0.56824850775251823 -0.73851592392571241 
-0.14946446301507357 -0.098773128618696832 -0.3333623193178144 -0.22944263090332664 -0.081292577765868665 -0.16236762608941291 -0.32724992320374013 -0.39144411979306132 -0.29574050202089569 -0.051171215853102379 -0.31741513649963055 -0.37679303590802049 -0.11887953324632293 -0.049284015477859572 -0.37567539185474402 -0.22031927548342592 -0.086839657978533102 -0.38642246612620357 -0.043219230062473538 -0.39209161573988599 -0.3600717744054362 -0.14874124786485241 -0.34804571517169441 -0.32719881655081373 -0.23284631255755089 -0.40428336653762142 -0.063565092294954675 -0.30265731802791856 -0.31158724311118507 -0.049651062585053911 -0.12144270903248182 -0.083354236784037264 -0.27378248124466004 -0.38548755753635372 -0.14120422920252659 -0.37596934239459612 
-0.098615720118698319 -0.1233411453601808 -0.23785791558965019 -0.48883450566048731 -0.30586318262794798 -0.23319573112792699 -0.22164072577861638 -0.50623374087924267 -0.20730988779487483 -0.16042417006826531 -0.43463582610164336 -0.45644156797788793 -0.16753840007554904 -0.32065628197722729 -0.47069863521579913 -0.32099090199924263 -0.19800273762397574 -0.46693336454701945 -0.14503754518628734 -0.49250386398526791 -0.38353164972062437 -0.12537690147937386 -0.43789934819040188 -0.33927039519789776 -0.12968512328111909 -0.48956300971444899 -0.45785668493323017 -0.24485829870072748 -0.13339433107267507 -0.070273226556780186 -0.070369955657491101 -0.13278195654804112 -0.27886854755690371 -0.43220162730066075 -0.2105477374035272 -0.22027452967126057 
-0.077756024887395109 -0.20301516925595711 -0.16321631380666426 -0.17532465904506239 -0.16703850825862543 0.061227163063606746 -0.1597723156049351 -0.19002366469446727 -0.19117764583092062 -0.1230970244481257 -0.15283409959671487 -0.21998297634478226 -0.12234835587006933 -0.072726524830550046 -0.14228936843622114 -0.098658099051052744 -0.17658070986103608 -0.17607884333889459 -0.1319887661649719 -0.21726577848978595 0.21604269094425052 -0.16166591670582714 -0.21329265075371565 -0.13724042442481449 0.18566303795126951 -0.18706292039487812 0.013256517465816043 0.03509949285365023 0.24265810842417665 -0.1553440054278851 -0.064917330110828841 -0.11385682476057829 -0.095321107407001351 0.067289555065966386 -0.18126149236408015 -0.0736723042802329 
-0.18105120923685797 -0.37615962756931798 -0.19068325826760518 -0.19649164285424978 -0.28406084276669052 0.027778562806721887 -0.30098653329518582 -0.038293913392632925 -0.28170021155036956 -0.37944290062962882 -0.38171998746045344 -0.015029987065250917 -0.25926722652732609 -0.40758049587087719 -0.38492670048112748 -0.020882819456576066 -0.1268942065284564 -0.096372255770638057 -0.31064876140771197 -0.1346745361525139 -0.14898009139311458 -0.24380120000977129 -0.052184415290291851 -0.097019911776688589 -0.30830477596371381 -0.039620976067234762 -0.30912987247377427 -0.03850460930284097 -0.26570713966031451 -0.3527522321324294 -0.34253180540898565 -0.32574657408709268 -0.31701401262772022 -0.039588398104892446 -0.3983201032991418 -0.36725547866372665 
-0.13952753947771521 -0.14171269043394569 -0.17153529596188763 -0.04331359964576597 -0.16288072994934474 -0.12728839382388232 -0.17374964465911094 -0.014102563547566074 -0.20740648676687276 0.19921084278549503 -0.050580611199238276 -0.1902401402933499 -0.14682218350515797 -0.16826331289753527 -0.21244300597842808 0.10741835718112991 -0.049077895353082615 -0.018421020168113849 -0.14777674147529099 0.04262127234346659 -0.045106817896681368 -0.14822984468563499 -0.192354268418475 0.082877532301128418 -0.16646060670391249 0.20652783247465081 -0.16190866560690761 -0.18469645788532774 -0.19075447270921972 -0.12143785795477074 -0.14743706115309255 -0.1520395811027056 -0.18251408265801483 -0.19281361217694437 -0.18627577114461921 0.24483748072389491 
-0.25308290332910971 -0.22040239932429001 -0.051182082498094569 0.077758258580672326 -0.33627333771172191 -0.31282838710779048 -0.34904094831776489 -0.10420413703254672 0.030049597574654415 -0.14084195306535224 0.05983916892045197 -0.31440783895841889 -0.27287245535940613 -0.30805445192047143 0.0065480066557429871 -0.31179357931731599 -0.029540127653544891 -0.14782241961870463 -0.27729865718767766 -0.13853734290285838 -0.073243651684073235 -0.30047747059601643 -0.33497524522428396 -0.18785337589530599 -0.35978792280265121 -0.30541161545753509 -0.31359406876105167 -0.30902252106671291 -0.23630561400268174 -0.28251042700994372 0.028155059249735992 -0.20186378724580833 -0.2382943364167476 -0.33894227908990671 -0.19915753798049521 0.019296291382326202 
-0.28351105948323335 -0.21569363093534549 -0.18905210966749381 0.0263473806367438 -0.31519210533015085 -0.31180269014129025 -0.1745882311087924 -0.26661800843679462 -0.09942850888816307 -0.31799291139870178 0.028367202304974342 -0.30436589576989326 -0.17520836243257046 -0.27512309872814711 -0.091799143467614377 -0.29594996719795758 -0.14144613424551525 -0.05062731232210111 -0.25578064603393852 0.1104642556766447 -0.053127388846989906 -0.27260079624150019 -0.24213220625983917 -0.2144033636270638 0.083362848959440891 -0.32594231155331849 -0.30064467384527754 -0.30574748524519435 0.00044041811899887606 -0.27308290197860596 -0.1648883939281145 -0.24972741972543636 -0.12239256743346959 -0.31258409291972394 0.086441720578516804 -0.072883296530737884 
-0.25509081631441621 -0.42028544600754852 -0.31464085209873027 -0.18972561254871353 -0.3017915201359388 -0.29818636376462376 -0.26587605794574848 -0.28779909042539009 -0.27229839321175348 -0.46755892089037387 -0.16914774595275739 -0.40961154367913949 -0.31856422936267687 -0.38934019582418772 -0.17922736646044654 -0.56546017544434102 -0.6075791701250115 -0.32084761902909464 -0.40173785563925346 -0.29178559941066179 -0.39576777413340791 -0.25029187415097864 -0.37490808462099157 -0.3529355357869004 -0.25876057161166161 -0.24365404682550124 -0.41310335198492915 -0.32567628925807618 -0.41650274327913855 -0.63639575182823749 -0.58195508269131235 -0.62279486258108718 -0.25414903955885759 -0.35677995388345335 -0.28778658195945989 -0.70893197693454024 
-0.33451638620024476 0.054246739980308857 -0.26858541856993368 -0.27235668164786964 -0.23205232160660735 -0.29532638874656247 -0.31201495156657233 -0.2331255120563224 -0.23113197418701464 -0.24001053357327498 -0.24820997603279257 0.10585820970496536 -0.21555076100956588 -0.16632765069477615 -0.29260640617089595 0.090380439583022887 -0.23259749673909469 0.050842838535035392 -0.25501412832310422 -0.33410826610151312 -0.2472802370801804 -0.28190601025640882 0.083167871666919996 0.038563053254828193 -0.1696540277749331 -0.40428901842485132 -0.10608852926790288 -0.15497162677011103 -0.21253745504592977 -0.25921693779473481 -0.089092894980112206 -0.21089771436001209 -0.045750741613783688 0.078248343716161378 -0.29845815164641992 -0.25532314785525811 
-0.29300355569735681 -0.35282887070118052 -0.20226634602194027 -0.394256033335527 -0.12316892755732697 -0.31557161357288693 -0.19448298566885019 -0.30812686765246844 0.060922930455719136 -0.18833570784336745 -0.40637920242304382 -0.34838746834108653 -0.2370464846797469 -0.18068661554774804 -0.36802916992749551 -0.36151302023909981 -0.30107213473740235 -0.3470363089600455 -0.13733971431022921 -0.29916879479719111 -0.23405080689466201 0.098669237412674429 -0.2226354160397134 -0.37335803867755368 0.017130631138263491 -0.3694847926377724 -0.2676515097294474 -0.044773998250875448 -0.035516412561645755 -0.086930321601158322 -0.38242902073097518 -0.17773728346780115 -0.0055366619776237606 -0.37329065902002717 -0.13221854957599261 -0.20806840818021768 
-0.27425614700163642 -0.39898237216796495 -0.19168391504329549 -0.524912377720959 -0.21701882560769689 -0.38597255689989368 -0.20118231168323211 -0.49945629797722435 -0.080953037460214622 -0.20817023407354418 -0.5322917176597054 -0.47261494835341161 -0.22821931804789902 -0.15593959575486607 -0.49871418590583177 -0.4838588096039308 -0.21489635931270071 -0.46692242111209997 -0.11682799746484623 -0.41084396896593667 -0.418660421938366 -0.041735584004043702 -0.37715812948837035 -0.49158155310563856 -0.11852202917656855 -0.49787579093560469 -0.26737885052803573 -0.024366751419806466 -0.13992987501749374 -0.11334968671629658 -0.52313442310834213 -0.17457735772960895 -0.18496570474773855 -0.48995681847043454 -0.18475667950247163 -0.15632023419492225 
-0.27433522998175719 -0.303505934271732 0.051451428960870509 -0.31486988082937289 0.048781021078210585 -0.33353410353694318 0.067152467282102224 -0.33499380754314578 -0.36919587706461737 -0.033670996980497442 -0.31061318717355085 -0.26031353016559949 -0.0017916102259766939 0.11423288867273564 -0.31633111923016394 -0.26059518616783151 -0.16295791650917196 -0.25725138612591891 -0.023745780084890155 -0.25895779017214149 -0.24445475763914726 -0.31616127643685915 -0.25502162061746492 -0.20957879351013667 -0.29033710723398171 -0.29700830204996798 0.046433090924185731 -0.24793243168084045 -0.24874927142150685 0.010822928794918167 -0.2879602503021827 0.038414112301993264 0.032269976114961949 -0.24029430777884117 0.0034313749963186951 0.0091563078307135542 
-0.36171402924308477 -0.26689328368152454 -0.40596708527181646 -0.53555210259578212 -0.28077771085391423 -0.13832417726199367 -0.4711322552514276 -0.04910653200474413 -0.48939934599112106 -0.3234301826274209 -0.48502232852078059 -0.1286662666527934 -0.32709404145298981 -0.2393169363472995 0.035922548380101532 -0.49383075240619101 -0.35553712740021953 -0.1637679817381919 -0.14856443343845227 -0.14409091829690213 -0.19108868834146861 -0.46047343670629409 -0.088126751181735241 -0.15335855054752309 -0.50265918957531419 -0.12190009244209545 -0.31636374553486296 -0.47936319886862211 -0.46162678870615848 -0.24466757963811023 -0.12743318121235184 -0.26855857486983925 -0.084090061227229632 -0.14704593128144053 -0.4375456957541789 -0.29118270657341139 
0.066625057668874332 -0.11670170414425238 -0.088536151559182485 -0.14575190149809072 -0.10958360623941188 -0.075902462845601329 -0.11334132429107148 0.26814274367842955 -0.12161477477693335 -0.066616055314458217 -0.12897008913822533 -0.16077409268477288 -0.13311388001687849 -0.12312044863657717 -0.12465281751613007 -0.16205275766267416 -0.1602650034886603 0.0186265375263341 -0.10588431647664374 0.27813806050993378 0.22854146916140253 -0.11160409912584057 -0.19662246650650742 -0.10587554849505021 -0.13576762647592916 0.31929472592330294 -0.11476162612021545 -0.16511845727819932 -0.11444258242191949 -0.12718609406771941 -0.071578211079384668 -0.11025257005021516 -0.12512782424142324 -0.1617118846130873 -0.085596329671378188 -0.046649660451331107 
0.19278139655945395 0.18235951566963796 -0.10404646752027724 -0.20652461402817979 -0.12905077620189492 -0.17587781551070222 -0.10517665088466038 -0.15525524004188429 -0.2206614881301058 -0.15229558669740384 -0.19595552285462117 -0.21665146229408999 -0.10939848255747785 -0.18321447961549062 -0.17435042012759866 -0.24004840564016006 0.15617755761847668 -0.13171520992414187 -0.13846778687582398 -0.046396710125381879 -0.011357240070685826 -0.19911581975746193 -0.22280660433520483 -0.2236102365994006 -0.17299862403655542 -0.058319145151517746 -0.21077276583806118 -0.14861775788254558 -0.025182880525166235 -0.14839034196544706 0.19141694432994996 -0.15068666620319437 -0.17358445177937284 -0.19323934076693006 -0.20519231924536604 0.19479655572664326 
-0.0073607692673971336 0.092931440191991094 -0.060486890996504762 -0.24368805927771878 -0.16173393223981636 -0.2796770931009353 -0.077037159852840958 -0.2574547817648084 -0.2593630528462601 -0.14654782405994676 -0.22537215439636563 -0.27433195005651101 -0.26454337493272528 -0.12978189346682242 -0.23540142246955981 0.26139051115424405 0.11018813682738893 -0.21659707858961355 -0.085786625274619013 -0.23452274896782016 -0.14875165604371843 -0.25528980992730727 -0.1750146675473814 -0.16706078216790321 -0.19136043105519887 -0.25443826198263098 0.070901011385519186 -0.26847783787119051 0.061866458155048251 -0.21169269651539077 0.089637181780962361 -0.023249673171193624 -0.23733790378947137 -0.25171239177728133 -0.27528526297349781 -0.091703851105127562 
-0.38335549403312558 0.035324335592357065 -0.20483072128989779 -0.30276793364270843 -0.28388734923263548 -0.38284123442040791 -0.25081975016321201 -0.31019037028287511 -0.31590384207006494 -0.23905115154209403 -0.27362131208188306 0.079885022313588266 -0.28836507389299526 -0.17675886716096237 -0.3261837950846837 0.058194206378177897 -0.088963292105203595 0.023162678581885556 -0.216433906103147 -0.38351488468962647 -0.28205393525060152 -0.32603314673683137 0.058222960872019912 0.0026678181975346026 -0.23193202219425169 -0.43673703784087664 -0.0097076894408016749 -0.26559531134110248 -0.16127423193085436 -0.28954035879362927 -0.017955151142256424 -0.13354632239802938 -0.25329610162443789 0.049942537549027159 -0.34334040360433155 -0.26752397244492898 
-0.12982907967799662 -0.25502976640059688 -0.32291120896549536 -0.33802425727050911 -0.32516189436430099 -0.05539336379538487 -0.340780719803782 0.057010242679035754 -0.28109061191153634 -0.31189124075636676 -0.26837124235956661 0.019859444783016534 -0.32188501645036188 -0.25945469323317005 -0.35744277018928361 0.015264838547712659 -0.089000214992821847 -0.22428936630374174 -0.32385932689821678 -0.038590246469124463 -0.1168063541476657 -0.32317795441198249 -0.016921943218530511 -0.04922873002958849 -0.18388617465924362 -0.22851337946406541 -0.23118916180941596 0.0019699062735375771 -0.31028511716938945 -0.34678542473513069 -0.22713557626518696 -0.28405664860378294 -0.2702587327507544 -0.010525312706500442 -0.357995724803921 -0.25273957136368402 
-0.048772798325857541 0.030570336474256308 -0.23807159888731624 -0.3351711599999686 -0.18167189418990293 0.070073406388678622 -0.24472016975740232 -0.041244344926767387 -0.18899202966689227 -0.20117611076605024 -0.33034084421121274 -0.35963663129850099 -0.24807461333557562 -0.27008630466510508 -0.32226130090587846 -0.27709706963301722 -0.092554368807604301 -0.37843819633574216 -0.21017244225154996 -0.095281720924631705 0.0028776517520753167 -0.099225114984403201 -0.29307646231160545 -0.32499094574071896 -0.094037860879003995 -0.17932764858645744 -0.2719274585825287 -0.088170646806650502 -0.14529414325552434 -0.1530166368778994 -0.024613657886878783 -0.19364880375279742 -0.1961422468484427 -0.36417510970600148 -0.21005069535177978 -0.24275231806015801 
-0.1725424971023056 -0.19738106953687878 -0.24393668314682543 -0.54156004428573701 -0.26460043337201511 -0.21867421779541821 -0.23313263909663193 -0.54355717161270667 -0.12518973831218844 -0.21604346810656902 -0.54456105172990887 -0.52864339142996852 -0.25660558151038027 -0.34106666017277537 -0.5195752943714731 -0.40366420757422999 -0.25643682859152384 -0.53727222452412682 -0.19406219538476499 -0.44872276090199942 -0.48339760108762914 -0.085288906950093557 -0.46287551290947787 -0.42999753451777362 -0.14907255664211766 -0.34369603755196138 -0.35710278723182515 -0.15649619317899963 -0.18413118744270182 -0.11867850464972013 -0.14248925894561584 -0.22964068203973131 -0.40606026437050108 -0.51796821250213709 -0.22785720427719219 -0.20608396355759065 
-0.18238365731861036 -0.36365378770310103 0.032048229822116733 -0.3396739684870671 0.0041777155164225178 -0.14116933539571075 0.016236093352138707 -0.37142861995083615 -0.38566664750460089 -0.085222075336065753 -0.32484403193099826 -0.3268799020908279 -0.055903546458959105 0.048195776716232756 -0.35178534621954283 -0.18562505328371967 -0.28326477384677862 -0.32233836561684559 0.0088244729521639378 -0.32279056429149039 -0.29712015066131253 -0.35965192323854872 -0.31581850318905297 -0.21803155553612918 -0.34341534437303278 -0.1759917725560656 -0.012006101632426418 -0.31999061584043281 -0.1898632307704024 -0.050140201381300084 -0.11235407759561719 0.038239047515553314 -0.20443772071197455 -0.19549836124483233 -0.073679137997990987 -0.14805185878365218 
-0.30442190745678499 -0.62330574911585601 -0.46211885432832772 -0.66594235536124025 -0.29029263229227414 -0.26772191118339533 -0.24971479577597064 -0.20069720115123169 -0.64679812101562151 -0.32020904761659291 -0.61128861217653518 -0.20214327960825942 -0.28446427347012798 -0.24348202923697551 -0.090808153446430381 -0.48575105579373351 -0.33927500137832906 -0.29359982677895413 -0.24454691211343943 -0.27204820048021838 -0.33135437365303871 -0.60063612076967587 -0.23131177787380749 -0.28499493772015311 -0.66975883360448107 -0.26960295286757419 -0.28674442159809632 -0.36079284433245307 -0.60448600790190521 -0.18506409801838775 -0.41457259934084417 -0.21265645574575071 -0.26523183701514208 -0.20393274062201236 -0.26922226418494172 -0.42948760565786698 
0.028592817786336801 -0.23415727551499968 0.13353467134995112 -0.2516009922636594 -0.28255954307147096 -0.22434901781806624 -0.021691798059725837 0.069977555564412833 -0.32837655078989703 0.10037325196084471 -0.25591963676230944 -0.24398473907195381 -0.077484512753299123 -0.24219766300169046 -0.24465228341691883 -0.24422542811906089 -0.27024936323121979 -0.088399142873294451 -0.22768608974485338 0.14988611281769898 0.027068284925843539 -0.22065557819813736 -0.27893845557882557 -0.1911405775872117 -0.25551018685299692 0.21113988571060222 -0.27248573084985001 -0.25299529400698251 -0.25957711712821846 -0.14518329978290578 -0.24714034983484073 0.13702516733420589 -0.028794987960245443 -0.25252225227538566 0.14885249486046573 -0.13930653181201391 
-0.23806680752366002 -0.12078592842411343 -0.085169539674586486 0.035916877834240357 -0.40073460482752321 -0.35825684664449486 -0.3516467664052445 -0.24696668926921583 -0.020888800301739049 -0.062766211143043177 0.017463679120292171 -0.33648388543309132 -0.020688353938537282 -0.33644076862828126 -0.0024453574177804257 -0.37750546696782328 -0.080614269201879363 -0.13000464818930615 -0.30207591956646701 -0.0904550052406035 -0.10907477775336151 -0.3363660286908754 -0.34532851058729874 -0.36808340762154884 -0.40655747803106029 -0.27943906081162528 -0.36516350263637776 -0.33638162714977887 -0.055552717839637757 -0.36243889745554092 -0.11513180067570676 -0.24872044165131429 -0.2271521507734463 -0.36532477337578312 -0.13189466605161487 -0.039522513175013284 
-0.28205698412398555 -0.077057423085056378 -0.19853452253301954 0.093294659088798568 -0.31205536885999041 -0.31544160043036429 -0.29917174862906099 -0.319359418875797 -0.032509527527829117 -0.25114403240702105 0.11195308807042899 -0.33413632361418744 -0.21961381792456122 -0.27606212437291677 -0.17338263220734251 0.059417876642640977 -0.19650185074248164 -0.079651688174395607 -0.2465716783016183 -0.19279364853402098 -0.1808848590727791 -0.27832971156811759 -0.083552885766129792 -0.11490471906126952 0.081568853121412391 -0.31947896926359703 -0.24448946416158132 -0.32303235551441406 0.059429069312094761 -0.28939223946869647 -0.18215379690862776 -0.28359694610761182 -0.27851784486470371 -0.26804772849126307 -0.22614192293079485 -0.032487370363976115 
-0.18255291212838848 -0.20691858325482301 -0.35632945568452562 -0.2099217243533939 -0.3733554870446445 -0.27880990562711683 -0.34440857493426691 -0.13706536974314751 -0.31588008008968227 -0.34881325369831745 -0.25515827392913548 0.010298400232301384 -0.35577921115305572 -0.28704003761488678 -0.36191919167776276 -0.0046779132978388357 -0.17844540493987143 -0.134455190912602 -0.33720470646319478 -0.12225587912266757 -0.14582063767415823 -0.34128422510388728 -0.025702166694814961 -0.062234965410425551 -0.049962010862423675 -0.31289587946481356 -0.25398419734146976 -0.010049874699128686 0.046335441030075218 -0.36362684036391507 -0.29854532323981753 -0.31035360879122487 -0.34738242559712323 -0.041873739743184493 -0.35594917578319141 -0.29662440886030106 
-0.17491614845578984 -0.070265541558628214 -0.32208093677188471 -0.32404527423140833 -0.042271883672307706 -0.15067959790364835 -0.073953173726472754 -0.32757085113342355 -0.39166869557477746 -0.41353375238216511 -0.24573728405608483 -0.33182606992966535 -0.21745145712766542 -0.16027488834380871 -0.37892079056858841 -0.25384971440422188 -0.3214282423400458 -0.46965538407302571 -0.31625654332480535 -0.44372898447459175 -0.45661563328838423 0.042787455966979693 -0.36832075536664288 -0.19592327938240245 -0.35052631982940502 -0.21969270081251668 -0.13702768235976923 -0.32572640935984915 -0.56748515482793793 -0.52056042392622004 -0.37759531175166927 -0.49614879656150379 -0.3856614236328787 -0.37727197746487684 -0.53000518481485415 -0.45004455231060281 
-0.15161326338943887 0.1678849791280855 -0.20083280969950162 -0.10485577570088235 -0.1635789286443369 -0.13412680298623303 -0.092225245701781311 -0.16156611808614416 -0.10193575804672612 -0.057666051650859335 -0.13640958329951114 -0.20572112687842262 -0.21351819224001031 -0.20907783208275424 -0.15422371402723328 0.075826581979174218 0.15719618115186265 -0.19463889821119465 0.061100151891695306 -0.12394799458559454 -0.1523545953650976 -0.19630331278923496 -0.20087552198053435 -0.060840451378574995 -0.20306034915156831 -0.15644095861044588 0.10341871423193581 -0.21226878625974205 -0.14461119786513169 -0.19206804066661107 -0.047495640600421538 -0.17470520499912981 -0.21882638866851442 -0.20818828391740649 -0.20667780667459087 0.1495474398600273 
-0.11203968100285351 0.30156145419125446 -0.1884310748032646 -0.13966551652707535 -0.27028789679204607 -0.031291793651669605 -0.26559120772576944 -0.13821465798573362 -0.032682606838503589 -0.13689889540703035 -0.11731529777047611 -0.23280612287459884 -0.23522078715286895 -0.24058722493614135 -0.09569482310016543 -0.16484601224148959 0.10345353119050611 -0.25589986300125828 -0.12576748054008491 -0.147638691090065 -0.15435081970936182 -0.22857887069683774 -0.23010200581040674 -0.080633743516857592 -0.15610787968151668 -0.24700907153658297 -0.26901974126602018 -0.21893261792567312 0.14986563818920842 -0.2172434778830844 0.15048635038125657 -0.22718749370519917 -0.26080904628008184 -0.22541536491762992 -0.23667352518608112 0.17478595015080792 
0.019575471750465454 -0.17642690898328361 -0.15182013325330906 -0.15288926562964675 -0.15265093694944318 0.078484088607681149 -0.14910483494362609 -0.15228015323984265 -0.15402871656312642 -0.12365979920514431 -0.13243253251163761 -0.18024266732498406 -0.12432321368482652 -0.13588381047239476 -0.12085017470919425 -0.060559857745033488 -0.15816824393306705 -0.1817016467546157 -0.12224337056521942 -0.032530178311627363 0.27171083057165712 -0.13148974880277367 -0.19311306019872282 -0.011510858931413575 0.25788460278170977 -0.16815966793329115 -0.12183094957016737 -0.056642536343029529 0.34573285551447264 -0.14889382844435453 -0.070928742050239621 -0.1207401189910778 -0.12795123740809861 -0.052585467594475743 -0.094309807028359435 -0.16442021256213057 
-0.07940930554738268 -0.47176448428387718 -0.29510143299784913 -0.29611997535328122 -0.29043447149376567 -0.14963400897261175 -0.23169665267569453 -0.19715455667975884 -0.20682764148075239 -0.370575313610229 -0.35793034549810931 -0.006128216119608715 0.072611118755520301 -0.3905183909836441 -0.37769947404522058 -0.10157479583789353 -0.23370186801910947 -0.089044392207491246 -0.29245527235414548 -0.34233980613580539 -0.040751565045378739 -0.152825914094466 -0.069769003278138522 -0.10339612658050326 -0.16874844454993326 -0.10330203330138694 -0.36975693603811904 -0.0092289924762617871 -0.27842365781673228 -0.35582596873930455 -0.17605633501088322 -0.33333172680008333 -0.33060907050950872 -0.063251548395210772 -0.2975018173325954 -0.37100795674205583 
-0.090053966350291073 -0.20113868221918813 -0.18951893268751288 -0.072310495149310414 -0.19651334560233677 -0.18973421378197305 -0.19109854722810263 -0.098879775905203124 -0.24119676578109644 0.24216845548386265 -0.068727103519850438 -0.21328597611150232 -0.13225310793341802 -0.17645784496571668 -0.22146225517903215 -0.047627904264944815 0.021601478500114589 -0.063730668559706008 -0.16985688481949265 -0.054252835705172323 -0.15396695556045598 -0.1595945244940834 0.14870410193406777 -0.086002523977100537 -0.19631560162577491 0.2023479605236132 -0.20007890113459748 -0.20805592757187666 -0.19758784999126508 0.12002256467602923 -0.22459105583329719 -0.07926019815895384 -0.22434568976643962 -0.21555406816566403 -0.21033921614651149 0.090080150935832062 
-0.30804475531415826 -0.35227150821743247 -0.029489713439343569 -0.0474875091957822 -0.35299520088597947 -0.35413714027335974 -0.37176611550507954 -0.054194164053611542 -0.016305479259101044 -0.04878013278656719 -0.017707913585177593 -0.31399468991938123 -0.24353469700172486 -0.31399425698988942 -0.0070409905270749241 -0.3059090959545876 -0.088230656099829288 -0.067175802298815715 -0.30112865342772355 -0.15351987187858807 -0.24955041292180111 -0.30376026347091606 -0.21123499069704668 -0.21773868996060727 -0.37227715289902397 -0.31126244756754601 -0.34991435256984438 -0.30215766357923068 -0.35434011866804432 -0.022270913509126224 -0.33255239479732124 -0.065814457693579548 -0.073807587129205446 -0.34776395243763308 -0.063203894498263108 -0.043674699093665982 
-0.18156798234969074 -0.33152830792570981 -0.049929246335379367 -0.042311737531172018 -0.22910821542359489 -0.34157165933458189 -0.25012624498961766 -0.11372887618234084 -0.091016069554445106 -0.31607399689102333 -0.11624413490433648 -0.31448254878200566 -0.25513581490716358 -0.30269429183522084 0.012340422301024136 -0.31941046943251877 -0.28879322115985151 -0.075963451774074875 -0.29096395393361746 0.025278414896096231 -0.27629115171046598 -0.29198055028410236 -0.24529068448106486 -0.25254455849105234 0.051827228918747914 -0.34367516038538387 -0.23976877707335201 -0.31248348151056343 -0.28656123550585311 0.0020061314454052318 -0.23570316679196074 0.0077903011240249564 -0.0046564036342874975 -0.27646009310219771 -0.011123924501415652 -0.28480491297916327 
-0.21987476982410192 -0.11128821836332256 -0.34910156141410775 -0.31313603052263655 -0.08523270347888072 -0.18317956740520319 -0.10787904979004358 -0.36795302047312761 -0.45777508578687931 -0.57618586505377756 -0.27972602104863448 -0.37874562575432752 -0.27750193895829889 -0.19780315926772746 -0.34464034224210477 -0.45881927315982379 -0.57781188440329612 -0.41998743822156476 -0.49234094291856118 -0.34132117865217876 -0.51559380091754869 -0.00019245003312726378 -0.38152026753973112 -0.26791247809785024 -0.16942520261316391 -0.29226243448215578 -0.27717352958123459 -0.37154824076041093 -0.58189210979542616 -0.40192887337814093 -0.39373002042187755 -0.45881541965594647 -0.25556690112563851 -0.39125469561829412 -0.23504545779019018 -0.6106402310436404 
-0.44088062328233629 -0.13711872190711585 -0.36716303395752442 -0.34029472216759565 -0.076131633455833098 -0.18834869814312985 -0.098798341347157939 -0.36756173905298062 -0.29631408047739261 -0.22895553274188979 -0.35961770483054012 -0.32195399806777419 -0.23903237262414848 -0.16917841945940856 -0.37049157143871908 -0.21869497336411278 -0.35045987092539549 -0.30098353409467177 -0.56992278014548725 -0.20738616344706412 -0.48871873843208274 -0.0028110971904445666 -0.52763436602200819 -0.2351962905379634 -0.52378222006316777 -0.26046475816811548 -0.21793614980945336 -0.30401698605321054 -0.4586698369029748 -0.54894425974161287 -0.24698831265338958 -0.49401463416897107 -0.56111538905108549 -0.52162015624406399 -0.42242523850528829 -0.24779859738351467 
-0.29057433314739556 -0.3229071499581565 0.017608545255149113 -0.015171685841590163 -0.1679562302595202 -0.32601698478448354 -0.23095930241425433 -0.053713928757152973 0.016421929967171317 0.045873585310810233 0.011953230196719612 -0.26390127710343164 -0.33404307160306729 -0.29408394981391622 -0.00016728387497253134 -0.062098253889958543 -0.0091248768483347311 -0.10731545400887259 -0.25931727378884073 -0.19638385920720547 -0.23892610509379125 -0.27413901264737361 -0.28798697165935733 -0.14691149240988791 -0.31039160775415497 -0.15489697555528889 -0.25679978506201578 -0.26538198476178876 -0.32454246008466636 -0.32919615563465054 -0.27359630426815607 -0.13276992839358651 -0.11808969642620261 -0.30396727706876792 -0.057373478347342702 0.078566302178142616 
-0.28847189609147539 -0.35282143230571589 -0.019684583366696991 -0.04472874539383833 -0.34214025511373819 -0.33554574194764103 -0.36572571179370328 -0.041852808495305115 -0.012269685700374119 -0.15601764879090943 -0.010358647149307235 -0.30080740665672107 -0.181396814245602 -0.30533901491775722 0.012774491878925098 -0.27013763883276698 -0.066331845246139248 -0.17990008159501092 -0.28030350032962098 -0.13539155324490643 -0.25131622965921724 -0.29694428131692024 -0.29168113009554297 -0.31047095623780596 -0.23442306253948533 -0.34829324532595884 -0.33979260127773603 -0.27938251890715077 -0.18149204942774269 -0.2984083334008466 -0.26218633131378993 -0.023436746716429428 -0.043614874444496181 -0.28024124657644467 -0.04066557829515715 0.021846383884495762 
0.072029195437038632 -0.20597436519511159 -0.18308876234879329 -0.19002461085332673 -0.18817480820704785 -0.19891715386958295 -0.18765257631223115 0.091530027786231427 -0.1151506299640212 -0.19713193407945348 -0.19909492566767495 -0.2365815215190808 -0.093044926259453598 -0.16684320671115049 -0.15179658120133965 -0.085932046188531244 -0.21010070258231109 -0.12388075584430412 -0.16369899729340623 0.200922486981057 -0.10296890518262909 -0.16165656859135613 -0.22962017454891961 -0.10388482002111066 0.19280094964457481 -0.20865105967244815 -0.19367313243740855 -0.15374980885412443 0.29747619515619711 0.050787813495454207 -0.19176037808650176 -0.15320758904851367 -0.20889889987890495 0.170689579649522 -0.098817753615627918 -0.20715920918255309 
-0.13386444957810159 -0.3423955978978816 -0.34391898105438617 -0.25774053825904469 -0.3122293107064058 -0.47364170403337119 -0.20515274539605419 -0.47418845273064025 -0.18536346358511546 -0.38523486287144887 -0.38912765849187669 -0.038166960192080358 0.036065372090960827 -0.42197181444676918 -0.41874711380227747 -0.14308316160568407 -0.43569457608587669 -0.13566832042135724 -0.27305438351336137 -0.15042270993936419 -0.088375664115675018 -0.1553161604761813 -0.10710261676304231 -0.1256042110210388 -0.047690110528443581 -0.13520943993104445 -0.36936092467475057 -0.053357820963114318 -0.41748349942535251 -0.32801853606213172 -0.095103777362454428 -0.37053334922444991 -0.38491776277581963 -0.098492377434977921 -0.031282196454679452 -0.3865410530229319 
-0.051624736411794513 -0.087420654907771553 -0.19205325709559826 -0.13867251328859342 -0.17198821849740764 -0.17466868665462723 -0.16300896860075839 -0.18733691774648842 -0.18912413382412332 0.25239716787379574 -0.1367995663877184 -0.2107148163009839 -0.1539290791728192 -0.15648703976873141 -0.17300345910160927 -0.076177669996954911 0.17841382750121987 -0.15430153686608553 -0.15439369780795428 -0.23001098076511126 0.26630298413640374 -0.14487190787363749 0.27344373493723623 -0.20926319471836227 -0.18723380299830181 0.18410333305708179 -0.15169096214837668 -0.19985233269710001 -0.15539965517554225 0.13876920592614878 -0.22379979261967192 -0.07205431602949823 -0.20903844072602629 -0.20099428098624181 -0.14879264445623488 -0.18216736774042136 
-0.1086194325017459 -0.035365278724430071 -0.10042613405580382 -0.095249590142297377 -0.25360945542352586 -0.24386374446096781 -0.24731440669852067 -0.034406191397221432 -0.19658368269496643 -0.049667713895100413 -0.10670099504171437 -0.21814684532714687 -0.23762491735258068 -0.21108430817513218 -0.0084478710132759698 -0.17303628637470825 0.044195876359513366 -0.23021149260957974 -0.20559888618534566 -0.22877934944882403 -0.1325565047018421 -0.20251022383282591 -0.049018592448059915 -0.21486335081187494 -0.25231810449189773 -0.097955426640882706 -0.24864208327801682 -0.21290176741288983 -0.15434039367731259 0.10485964412173561 -0.2351351042635359 0.11644631284613202 0.09722334574928658 -0.18909939010217097 -0.050621969358633216 -0.30166657772057898 
-0.029937785784522643 -0.075083373841621531 -0.21838909766462278 -0.1522911805119975 -0.022814009846759756 -0.22177145234165185 -0.29850826765949728 -0.15840518146064872 -0.25750628101515011 -0.23811864411756462 -0.12922725408788566 -0.22703838747690314 -0.26516095668477807 -0.13107443569381011 -0.11199817080541384 -0.22612295013656591 -0.12405984052658157 -0.23676675770583724 -0.22916296217420201 -0.18907097377418547 -0.18714733788030288 -0.058389360525697112 -0.17519882626201722 -0.22538400190704833 -0.11241881758912109 -0.15455649356586953 0.12433619315769806 -0.2589253015323747 0.017014742315007238 0.12543081062650413 -0.017988847969821663 0.055380378328168542 -0.024845041018181347 -0.14524678070909658 -0.10126003724929611 -0.29017860239161164 
-0.32744814309763504 -0.13035877041700081 -0.4031812980293098 -0.42317845929020614 -0.078622692704068325 -0.18533444601956123 -0.098136027723605981 -0.38873642850966872 -0.35817232664186754 -0.5761406456971675 -0.3539014350276703 -0.33308970351912259 -0.23034553502148872 -0.094464439848508497 -0.37473089514512681 -0.22264378676757024 -0.56024975268597887 -0.36688440600948125 -0.576719474035984 -0.21953922393018369 -0.49346746806948494 -0.0042740006811670343 -0.51499791998502975 -0.22834227352133288 -0.4457819122861742 -0.24605289173386796 -0.15011499252741675 -0.31728247481302119 -0.2935940960720439 -0.33628191606666524 -0.22663202804527124 -0.40882161366207265 -0.4876162594886928 -0.4819393381819046 -0.45274785432369324 -0.39704162099564233 
-0.11773693423411119 -0.34533570635832561 -0.31143368282323736 -0.37784934351844712 -0.35195818860311978 -0.14957435670172997 -0.32525257901607152 -0.016419247826546031 -0.12464231061403784 -0.19421823688604498 -0.24241772938657088 0.00067251953481958218 -0.36609953974636328 -0.2723212819961659 -0.38870231551357387 -0.099182618642356293 -0.14239858057434057 -0.25321707265910998 -0.34694312844443259 -0.10596193762741592 -0.052622340312927507 -0.33340988507023978 -0.067322225520879145 -0.073271549599889477 -0.17608054059800654 -0.096726694064961399 -0.30864043288069276 0.018562395317556633 -0.3803749250704726 -0.3779631202853711 -0.060753631835984555 -0.32635819021943208 -0.33137824007256322 -0.057281040730861203 -0.36838340778914186 -0.23633829333712225 
-0.053913575796323228 0.20181311241374919 -0.20215649846569961 -0.20379243797420304 -0.1500716523081021 0.17457238782904003 -0.22442896494415113 -0.076092364910686799 -0.057456498473793222 0.093163172625753743 -0.14270382646840424 -0.24543896601447124 -0.17721955113220972 -0.22247338062354477 -0.18386115912672407 -0.13297470095543562 0.032445800917824549 -0.15921579574086581 -0.19093272053246635 0.14305207905995607 0.19683300208117838 -0.21792477372469507 -0.26648390797927507 -0.16449617838485528 -0.23554320180281019 0.0016868527615590341 -0.21357946764287952 -0.242420879713035 -0.1654081032528307 -0.22434051889453432 -0.052425786542175376 -0.21313940263195399 -0.19978592851535026 -0.2414290186393519 -0.23480010475993984 0.025399073669553018 
-0.094351197494801226 0.2619938857878778 -0.15519321784751194 -0.16938837230124634 0.012006403293097184 0.20514444070378254 -0.2917235515538491 -0.2419896417215435 -0.093848132692492051 -0.099642809970808294 -0.10131859939451664 -0.26110257789856051 -0.1501236093605893 -0.2756899593041352 -0.11831576075234806 -0.1783398249633914 0.022770558725162683 -0.14619401518126696 -0.21928507351284898 -0.2590827898728576 -0.24393838024346826 -0.27221791493945685 -0.24337179266893427 -0.10886239082308549 -0.27050813532653611 -0.17954235124809576 -0.18282242596844658 -0.24745286962576302 0.055921114157645252 -0.252929780712426 0.10155043096383967 -0.24000764209906933 -0.2638376677007056 -0.24982221767735657 -0.26870317805165578 0.1396041101720279 
-0.14209499584805696 -0.22210372188023816 -0.14319863861315332 -0.17364329495673064 0.084387106903534681 0.076086686870286024 -0.19307289088997948 -0.17532398788211076 -0.14015692412025105 -0.18502491745060562 -0.16598760929812795 -0.19622663273593963 -0.052996770032374296 -0.17964395228090135 -0.15725924636817809 -0.013227238886485393 -0.1349899649297735 -0.10974455433746758 -0.040089698793231716 -0.15674174726718382 -0.15331156776161464 -0.18393969732756454 -0.18087985963796802 0.087416023673417012 -0.13054167442702741 -0.055882108941438954 0.1827092984121691 -0.17696921262357082 0.31387525934035904 -0.16286287593597093 -0.014483925474565566 -0.11797815803266157 -0.19193870811598718 -0.12256961351952773 -0.19463817609770387 -0.043328440845874068 
-0.31978634507628312 -0.67904704683508554 -0.52747753812094611 -0.62122821125192884 -0.38198960978464569 -0.23270578324807858 -0.1529276265555238 -0.23385316728135397 -0.59952422039032305 -0.60800285831641077 -0.55802890392038429 -0.28615944989342545 -0.31489993406708233 -0.060645241309099408 -0.21392266674762095 -0.31191611872430397 -0.33762693785938203 -0.40393638320857461 0.1382803135535855 -0.40751743480405 -0.52145962480201913 -0.63385364838054958 -0.24164304080636201 -0.33031615619737859 -0.61353096012051211 -0.34747540136136462 -0.13828653463494098 -0.40105585797279197 -0.60858909896088242 -0.29229201935488347 -0.27169618296236125 -0.38192273871860566 -0.27581811340159551 -0.25624485260299668 -0.37331713934789057 -0.51465393798245906 
0.078862367290169946 -0.26159077464783259 0.14780237172141544 -0.2737725186278287 -0.34312998108757103 -0.23212906480206683 -0.049598207066763059 -0.041169225682132327 -0.35842424937628947 0.084539502746415779 -0.2716585111317259 -0.25479368900032023 -0.044400132421634951 -0.29563166750125197 -0.25307485681679481 -0.25585869979756687 0.0052809404828463476 -0.15185526188490731 -0.097096860294136195 -0.040225627798123449 -0.24225143857062356 -0.24054152308632507 -0.17588823646298296 -0.19304847266626754 -0.28252379759778434 0.036084179617508053 -0.23560357967033219 -0.27018935013479262 -0.28305241449210033 0.031582798692193617 -0.27969318924293746 0.06293649313667507 0.060002326500885876 -0.26755578913750372 0.078613337539572933 -0.30467826105676488 
-0.26485939439108541 -0.35577070327146998 -0.039591164091022299 -0.052654515047161683 -0.39441347163817869 -0.35557682950325148 -0.34694755911810249 -0.056299343503140802 -0.024800354611882812 -0.10852638612332768 -0.02223110626709084 -0.31426068461793477 -0.016681694984666168 -0.32505978432859128 -0.0087555292786683607 -0.33112305281611687 -0.24603345996816781 -0.043330364530023077 -0.2826228592438767 -0.20627260381110199 -0.27284251022175771 -0.31103130687514885 -0.229812923331912 -0.25033728580330711 -0.38428219291342081 -0.32513484770060275 -0.33332416897498651 -0.30543641337854982 -0.25537403269334469 -0.028265627322736585 -0.33280838031363469 -0.071152777375625517 -0.081503698352998727 -0.35094333538887407 -0.073410755697922034 -0.056109071425951104 
-0.2443411423528202 -0.33332144890179732 -0.14928513885576455 -0.0010037833721325165 -0.34081164598209257 -0.34244755378692271 -0.33413262948786654 -0.14423611848544599 -0.0077629600139044967 -0.30149176429283153 0.017429474490677291 -0.35905033378438977 -0.19488820053244213 -0.29767351418814381 -0.058928973004070941 -0.18935635328249362 -0.348955579582579 -0.10729039903901724 -0.27803105055765259 -0.268775555582905 -0.25283743192084895 -0.29241590803537143 -0.036615930611348171 -0.060721406322098111 0.05618619478871871 -0.35127459680039447 -0.31764975714746463 -0.33491548832281903 0.10789320822243666 -0.15063009902832675 -0.33700360582257377 -0.22970818675094123 -0.16258738520250601 -0.10417086117131741 -0.063824924430637239 -0.28010643936395069 
-0.12841670751979004 -0.39372851665735137 -0.35173637592334078 -0.20232024997445075 -0.36857279793466463 -0.32816680978012175 -0.34528922801173018 -0.063583341679571512 -0.20878172851259166 -0.38757441278994642 -0.24764804147899588 -0.016030525043040991 -0.41080872090318771 -0.28360770280618369 -0.38631228463302408 -0.12251840532470769 -0.29045199266540406 -0.2123953030949052 -0.36338519073077358 -0.13701335767577741 -0.074845295841789089 -0.34882962603667034 -0.087151744879805065 -0.090785059263533349 -0.051495244923313019 -0.23152950628915642 -0.32604526211639046 -0.00034620329268185293 -0.094465540783405841 -0.34073839763333386 -0.14671242688186259 -0.3434813381111726 -0.36333784853962914 -0.10137636755824052 -0.34106578692263301 -0.28376801471623747 
-0.12512017293137684 -0.41419916347190633 -0.3683603953641964 -0.38342511587384598 -0.3719228854576484 -0.44350196935507202 -0.38853012400672893 -0.40291673489587221 -0.076539768464578717 0.039519871517556426 -0.24405963583156665 -0.014155877712534865 -0.3598134197695031 -0.27603512421727916 -0.4348537368027755 -0.10692755645913424 -0.26156651146123516 -0.12349714437314459 -0.38298048603485885 -0.13633527786366192 -0.08788674911904143 -0.35055026012326818 -0.10086271478603773 -0.30997576433307278 -0.24120944701374439 -0.12673514405069239 -0.38595295754125525 -0.0086620427240243335 -0.41701758296426217 -0.21072685915737302 -0.070123200958300255 -0.23913729925744523 -0.14485666351747747 -0.13192634630401867 -0.35660026947816353 -0.36166772700222688 
-0.16247076209414468 -0.36057021147679685 -0.15821570853114181 -0.18633874912681422 -0.36411038354743031 -0.33703532952112963 -0.35974886368616815 -0.29916187290377411 -0.0044857409642296174 -0.028757734876685013 0.031763344987335879 -0.29530115941559798 -0.042853382139887444 -0.31536662070119226 -0.12480262130472597 -0.2447437564193988 -0.074772368959837535 0.066470820534975356 -0.29879433872405115 -0.085320654378010882 -0.15867471101304634 -0.3073274309976583 -0.35693056412862889 -0.29835803062172184 -0.36838912084742026 -0.029576740093233293 -0.35000658222083175 -0.3280760436814007 -0.29624377907865396 -0.043387685578193169 -0.31649979760946573 -0.034207374166437078 -0.035813425761417321 -0.34335927773337488 -0.21827223414130473 -0.098213134112405232 
-0.32135266758845471 -0.38609120601671104 -0.06719778289760113 -0.081630259315228923 -0.37533924602979457 -0.34532448292978962 -0.40670124372161864 -0.074632818551509772 -0.056355621734761698 -0.066272782415897388 -0.046157641860610089 -0.32768363992823435 -0.034469318388559995 -0.33512614049903411 -0.016866946051562245 -0.21167794671614001 -0.10996532932757036 -0.0052816581977973599 -0.31803344860306498 -0.36975407828954143 -0.30235414232354246 -0.3235583807948576 -0.30795045142350569 -0.31205646043837898 -0.35318052389433463 -0.37210119940583741 -0.36482300765379044 -0.31450576707619721 0.048632743479814826 -0.24732005527136702 -0.31052389067832764 -0.072840959547589373 -0.086900746287500011 -0.30515593003576019 -0.085085172501103354 -0.034577955288320743 
-0.26660223786207643 -0.28359023888613338 0.17210712542674361 0.011310083102020229 -0.25960104038015541 -0.28159433982624965 -0.27673199083179578 0.1006322129770101 -0.083320394084601304 -0.30670205523085003 -0.35999289477080154 -0.30348238096993685 -0.10893185190164256 -0.25281758336426663 -0.023626443618530966 0.033214513472147995 -0.21767098595495721 0.10239167887815998 -0.23260175288247609 -0.050750926796315932 -0.28606848591140299 -0.23023312041789601 -0.28597705161457654 0.0074924288151806719 0.092762286906161756 -0.27276657181615416 -0.26272262663714185 -0.26261607009234622 0.17793046802437379 -0.24288772524700017 -0.24431613230544819 -0.27877625977464915 -0.32024646517970096 0.071625506163115846 0.076973445296067228 -0.012149249831055224 
-0.35863262735408485 -0.63954231119047866 -0.36687634012632953 -0.22589425785674971 -0.46614414436658624 -0.22487784620993431 -0.1390922500891382 -0.5303364121449381 -0.58991813638930046 -0.56972751848575409 -0.55869044083437835 -0.19408086254360102 -0.29688258310075522 -0.042743243601780279 -0.20613985258835188 -0.30774152758292861 -0.40829558627915141 -0.3578172947973452 0.16015405285069131 -0.44783456101272412 -0.47874504079610475 -0.625828281914659 -0.5246277877455271 -0.32066452353080055 -0.31657559930209617 -0.3054230975503428 -0.11256455891172606 -0.231475593026502 -0.40209529704183222 -0.52905425109671778 -0.26750142978675145 -0.57193253939426869 -0.5770942162562559 -0.25371362941934567 -0.47708292630969779 -0.21375973153459779 
0.089410389710466415 -0.2016961563320982 -0.2540459750096638 -0.21086246299889397 0.1266673667351336 0.0047818852127100402 -0.24671259345249716 -0.19559423443766719 -0.26536081516098292 -0.066988009387065131 -0.21610256979299322 -0.22079802341929525 -0.036333819274394656 -0.29519552015266093 -0.21092230121561151 -0.21328235957468306 0.083512254952392895 -0.21734590680565288 0.033382452213798132 -0.20898913435114336 -0.19951457539202991 -0.21794343251176462 -0.088438590043261656 -0.18025028403736407 -0.24492181729516158 -0.074691995428631419 0.12922479013139521 -0.23948834116462403 -0.24309508662504911 0.10143450511251442 -0.24866979803637679 0.025939648388089102 -0.097454108535307934 -0.22825319546028364 -0.15758006088083512 -0.12021317161646085 
-0.098713467852558884 -0.14809141131675152 -0.14235342808292895 -0.019474247977080909 0.020963399356395292 -0.2472773887145327 -0.26604626434214734 -0.08469546918228027 -0.20742505442014908 -0.20838759340825283 -0.087756910017094972 -0.23770055612049515 -0.0072617216092821417 -0.26496413678203401 0.0099724178411298037 -0.20512667079932195 -0.039780027018340346 -0.20799849965389697 -0.20499442911742524 -0.255473620434227 -0.23406749662627946 -0.24407524748152523 -0.15794339662334397 -0.16244111212975346 -0.28008074474822697 -0.24050173467150182 -0.19081105669497483 -0.23489625111923987 -0.28198818866783459 0.067544621194035676 -0.25188744392971202 0.0659586531064459 0.067852327321983666 -0.20966500950486969 0.042113622089528624 -0.2881206589491081 
-0.1543652570836824 -0.078795332448485841 -0.21320275281980777 -0.0035555729506091325 -0.15595009006340751 -0.25649272089575259 -0.23736494703190339 -0.12361310764632047 -0.23130833936976791 -0.23185222476424094 -0.15999275689812131 -0.31815799966193176 -0.17181901979189668 -0.22465039422538735 -0.13188393870711737 -0.14253349362536388 -0.22742840191201469 -0.30455548368635604 -0.21829076056837468 -0.030045886551457155 0.11330885137131165 -0.19899072411190788 0.12112031792182959 -0.16184706936359586 0.1494416585828241 -0.29529679200848746 -0.23599216350029364 -0.29895408176970062 -0.24537518036546413 0.04934473222599256 -0.27270550977866415 -0.12850177030715634 -0.093388173945969696 0.1809644354694683 -0.13044323583934417 -0.24587272128130544 
-0.082181853768094185 -0.2922515675494885 -0.27922136227958588 -0.21640532227690776 -0.31294200242156034 -0.39972293036083301 -0.34464977754261039 -0.27461157988501855 -0.21918775106111699 -0.36312197341066255 -0.2244509773316139 0.0048749688326335814 -0.34531516376731564 -0.2408905469723131 -0.37049125263227783 -0.089049245469590282 -0.34549601188703888 -0.091472752514837774 -0.34522736400866572 -0.11096550822563447 -0.055484885535552815 -0.30748002719127571 -0.069937728416562817 -0.257504743990081 -0.0054753436410999133 -0.14517385259450744 -0.3281176607052404 0.013631946779796419 -0.35934306302542074 -0.22318827728905455 -0.04391044476338124 -0.29732216249685656 -0.31998648748638797 -0.061467472712846694 -0.27289350399007856 -0.29057862577100019 
-0.60933311496328257 -0.33522251021161681 -0.31687991531496607 -0.37954775412889641 -0.32452618050517684 -0.36477558201047922 -0.28499598485722699 -0.38681274775956292 -0.31027861890980818 -0.26777264696973213 -0.30984011580489856 -0.40706506628054734 -0.3915747820673478 -0.20757437969660497 -0.18250854833056551 -0.19086180918310741 -0.38483814226740498 -0.32898387698784209 -0.60511524262889871 -0.33686155198026435 -0.45049035011532063 -0.025946346690339236 -0.47361580595679681 -0.19778218726787447 -0.66163862949469232 -0.26712956161345375 -0.42035290376892326 -0.34821952078196838 -0.29606302377000349 -0.57802692390533483 -0.24564437890832483 -0.47854957677818771 -0.57069793865732243 -0.53056676528562474 -0.3243838264420465 -0.3563658755592522 
-0.23704957585368197 -0.25824236679863699 -0.090493185366558926 -0.010509598223730644 -0.17443757405287058 -0.26031116676228649 -0.2635353254353961 -0.14907092742784503 -0.1428230587395129 0.086106905779368151 -0.096809170201156119 -0.22607919645991084 -0.28232494577777911 -0.23996420994330792 -0.061299810494414422 -0.061305227479725631 0.057268781281968786 -0.20289167837980568 -0.22326301376338184 -0.29132308884383018 0.016772016855254319 -0.22035388152436503 -0.054952448962380662 -0.073332585718037052 -0.25766506628771157 0.080208035212259998 -0.25642879944630548 -0.24512698714735401 -0.27323328900916338 -0.23849926800719384 -0.23766406706241644 0.075199023823296601 0.026824409909895638 -0.27006432945976588 0.0063952904136312678 -0.19229557257693061 
-0.20197075211363255 -0.30098542788782107 -0.019573113055206676 -0.003495375745509479 -0.31442086334645458 -0.29873731633023654 -0.314573362781914 0.0032717879682994441 -0.066080664331476913 -0.18496887868903195 0.0026992694139143219 -0.28357414471440062 -0.23853952509788179 -0.27311140289371066 0.10339161282680874 -0.2453267912155507 -0.082868140912252169 -0.25082691735201623 -0.26305165935908276 -0.2570542547529191 -0.21067295875357425 -0.26375058413684294 -0.056892900101727803 -0.30160468808638979 -0.22891104585234254 -0.29262982570473711 -0.28951677581196877 -0.26844447627836099 -0.34075783627477912 -0.056946345020098488 -0.23158014751179423 0.030536815249721013 0.0043204108811557363 -0.2487812364496747 -0.080150808062544876 -0.26362453016287102 
0.18134313985127923 -0.17195661284237501 -0.14396811398199003 -0.15089675612749581 -0.15833464868978217 -0.16630909388640791 -0.15741609765569642 0.058855438453686543 -0.11794598057450086 -0.1746181162832566 -0.1577256595587686 -0.22168515088111473 -0.12505642191938462 -0.144547163041714 -0.13297383061273554 -0.10336000398717771 -0.17601719426273066 -0.12205934695214354 -0.14909079453874163 0.21300268981721282 -0.1645767664252514 -0.13441828579685916 -0.07974508199431507 -0.11201437141200823 0.22277779190975935 -0.1979290282097742 -0.14642061137739579 -0.21352594505915029 -0.15155850988200845 0.23517666685041511 -0.10855792208038867 -0.11906229019699115 -0.19104403992878441 0.20864623336660088 -0.13439574722974387 -0.15155532090768628 
-0.01617239822901833 -0.049200408377742595 -0.30886168459228686 -0.22331405229353266 -0.31198312291930108 -0.43932917888117234 -0.29094072013861055 -0.47232527845012789 -0.1968493069092612 -0.369598772089274 -0.38718742943534157 -0.097865340468726914 -0.21491630875679163 -0.41064761518699516 -0.39183230666630697 -0.13306299015105724 -0.36146846716923353 -0.077525880453089391 -0.26438617455398439 -0.14556150049688327 -0.15312883142057726 -0.2459190452604246 -0.15832796321202952 -0.13154598315126803 -0.060497350548716924 -0.24426347697978262 -0.34172479187082938 -0.069013402891488926 -0.41576913554830658 -0.13685644425920626 -0.06666479960307567 -0.38382013393951586 -0.36136249626725647 -0.14689129023321801 -0.095877918141431401 -0.36798477815051045 
-0.15590977042142565 -0.045867616098824615 -0.12144694896168046 -0.12108649478208761 -0.10816438110347924 -0.12668093399295832 -0.03052822338578327 -0.12011580527894658 -0.15722821337096066 -0.12830651733182954 -0.091149993176092375 -0.10596181325181836 -0.075424686611793704 -0.1474571967869292 -0.13879190038280095 -0.15196812352881178 0.23090951388286707 -0.19018738629677889 -0.14311776915997926 -0.20687685534406447 0.22807103948097548 -0.14107171047924169 0.18698156245689307 -0.20014192504800565 -0.080176051072964313 -0.061588764328490357 0.025307651346252128 0.080459640386757028 -0.14976535691048548 -0.026956474340082508 -0.20331836980918111 -0.12157644578141601 -0.16445570836987317 -0.092784809415103642 -0.10873642860662004 -0.10387985217078956 
-0.36862478929540565 -0.30765335638664293 -0.1999782059362481 -0.18948300807230037 -0.15266087640217751 -0.1055085370288012 -0.14604059769284417 -0.14967016221199048 -0.067149863835116577 -0.18007055256776552 -0.11965576119734293 -0.093773121308335511 -0.15288188855909904 -0.41056528568200207 -0.44703259150706431 -0.37189350012751848 -0.27767070542779759 -0.42790977456182194 -0.38325581904566602 -0.45198163965375343 -0.34177492454054831 -0.37601982924025878 -0.32771690304818313 -0.41926470689715595 -0.062092094018688072 -0.25175614506371918 -0.24652215834053059 -0.19862777443082313 -0.13453132522854308 -0.093067934919363701 -0.42281815220889757 -0.10392561434843686 -0.25180549244066869 -0.026350299042286363 -0.29291449432735567 -0.12034417657425311 
-0.30065256217324721 -0.16632975960277074 -0.26533056911396857 -0.21639208063634738 0.013468386713413707 0.026293813483609079 -0.26319435063725694 -0.15225573013296584 -0.18391396085686335 -0.11277869906176387 -0.096920966622161792 -0.19634636348175921 -0.13708560144358564 -0.21547168364836708 -0.34904089546450862 -0.33114242810792671 -0.17229521520646324 -0.33916982768636716 -0.32516754534724523 -0.31845603528934985 -0.31171790173455161 -0.13421432843596395 -0.30799620621242607 -0.347869200009991 -0.16493104400683295 -0.23645507363097096 0.030230776506628747 -0.3046714170736225 0.03433139048360391 -0.17781423821639214 -0.14632679313961094 -0.1459432033214503 -0.15512451228492083 -0.032848644083003135 -0.23475978385165294 -0.14881704892825559 
-0.59182041522221018 -0.34142800360195485 -0.32928840395469555 -0.43906768794345935 -0.33569922460586005 -0.31722075396922617 -0.31107107083091445 -0.34302193966170613 -0.32979780803226122 -0.43572605446339802 -0.2537781259734469 -0.40120251129726592 -0.31155469819055354 -0.12772476336165367 -0.20327876190747302 -0.18708858395124403 -0.53724464954106943 -0.3599616712207987 -0.61854110006675234 -0.3187323131974793 -0.59596099793809876 -0.036310348788226345 -0.55754668524791529 -0.19417465376574397 -0.64641793314642215 -0.29105641998729931 -0.30792443756008475 -0.35171246629266872 -0.24454716532055459 -0.54410722688637037 -0.24350150756052835 -0.49281291356518009 -0.4987017359454296 -0.44142820810857963 -0.36759952469956542 -0.31475184432371733 
-0.39206013233845038 -0.18702315757189666 -0.3161629409958302 -0.38417779465491431 -0.47612547098602398 -0.49646571526429922 -0.29930469310366847 -0.39370022898211671 -0.38141463043682966 -0.3758695835229694 -0.31397926499612966 -0.48875235019178787 -0.44772261420551757 0.036815023205051638 -0.021736988452470598 -0.10876736149004801 -0.32613125186639264 -0.16734043889544759 -0.49267354221606396 -0.23715626748233731 -0.17889350036052626 0.10248179033298582 -0.17805922140177829 -0.10835236978660412 -0.52568016047159771 -0.17317045587770552 -0.44868198105129947 -0.20910706641487661 -0.3113616391466682 -0.44720543285065456 -0.15432654644203822 -0.37313830062217851 -0.42853414558592418 -0.42810154307198667 -0.33400230038102352 -0.40316597072277244 
-0.1004500700506047 -0.16974678135813046 -0.13720439340556145 -0.14013084071370704 -0.08180995938928258 -0.1248193754451114 -0.15055884744470188 -0.14184018988198119 -0.077916892048261827 -0.071543023889262314 -0.1399819330118442 -0.15756122802143438 -0.15118700079755945 -0.1023463223201896 -0.14294891943948912 -0.01169924779906943 0.025075292237566764 -0.15389096418223511 -0.1359898201525698 -0.21942582233897887 0.22105459558399915 -0.033865288543708842 0.21448781291116814 0.085118571509302812 -0.15676138317075985 0.21502016036374444 -0.13279442234204963 -0.15555666567448964 -0.11063581817764884 -0.12872740228420287 -0.1646299654317884 -0.03196623586661438 -0.075217220473716054 -0.1934406326620704 -0.10029427860625043 -0.13235319293842146 
-0.029790588683257825 -0.15272154861216791 -0.13683490048152497 -0.15533133907875349 0.016515574444293198 -0.024627562097900298 -0.15918287086445915 -0.05899490602230513 0.038542119979767267 -0.086892611355291582 -0.15630997358090698 -0.050082674480856439 -0.10529310741494273 -0.13880487966062938 -0.13230188287322325 -0.15613855654617376 -0.026351194817734038 -0.089066634142339465 -0.13023377512270962 -0.095922469642648667 -0.086017150154150887 -0.1173941405277989 0.16033144076790937 -0.14602716133786184 -0.12051969761544937 -0.065331233930268753 -0.044236146566666301 -0.077085137008956306 -0.077999672481810917 -0.032152945392559272 -0.10399226523543098 0.011723128723404082 0.014499511297849415 -0.14079523736742805 -0.070955439882249186 -0.13188831651865324 
0.12006715254961485 -0.21159955933189006 -0.21833993396606782 -0.18017248262603569 -0.018618140565385095 0.063696619798703918 -0.22389852924360851 -0.20649563641695104 -0.19122823464380892 0.024853778231558217 -0.17303410246801462 -0.21434057689385325 0.13593101578676373 -0.18374010906344559 -0.16788090714196 -0.18223226366999437 -0.0056330374851068857 -0.14082189819085933 -0.18428949931213232 0.21494153580867448 0.012469898369643559 -0.15939668603991597 -0.046283435540920612 -0.17769332258927664 -0.023269037136404578 -0.23367724644583968 0.10908309918514457 -0.18397100389548318 -0.14716381973993176 0.15893897525204337 -0.12869540600567331 -0.22886915757469545 -0.17454973409966396 -0.1318412077370234 -0.0017770008816629292 -0.19175551278757061 
0.051879384484014801 -0.0048946366893225183 -0.25773260453855401 -0.22485008689193736 -0.17887447753311037 -0.34270223500305347 -0.34444588286933342 -0.42312635485806144 -0.12660507540996871 -0.2810941893147994 -0.36259714786264408 -0.0044358654120068234 -0.28701557592940008 -0.28172480230156494 -0.34218564591616296 -0.33014818917375305 -0.24121652194540022 0.011381281375804984 -0.22371787183606789 -0.073748518054857326 -0.06846879254234832 -0.31042445149657277 -0.23895137105124237 -0.10179294986225415 -0.28077000396657459 -0.37958183982343691 -0.23223027406789301 -0.10055245486270892 -0.27622827147902346 -0.114880892512262 -0.014379765089412817 -0.37708131458964911 -0.21578311837880734 -0.28132258669046789 -0.087734248751520388 -0.27286580553407302 
-0.18713338025598578 0.063966664418896285 -0.090113182225834323 -0.093710346202896824 -0.06394303075607953 -0.11018299404733406 0.10577478720252416 -0.067353929142354163 -0.16756376656340807 -0.12960279095592533 -0.036951642480757621 -0.057224236175202399 -0.077666567321163865 -0.15027173478812733 -0.12896313430440431 -0.17342434735984502 -0.036954770432169645 -0.16946017704997257 -0.14293316275996187 -0.16861123674455153 -0.0080486232864349673 -0.15304743327047934 -0.051160201102920695 -0.16887712398560695 0.010413704447051806 -0.16670934917587654 0.071987633068116105 0.20659323857423045 -0.16199215902145922 0.01056782268758188 -0.18109574396503539 -0.094589785990642397 -0.16238087601696399 -0.036508899681150904 -0.13606689760444135 -0.046605275177001984 
-0.51491060643527953 -0.29499840515512332 -0.23024780083662158 -0.1530692874337175 -0.14911524297144049 -0.13499665040984984 -0.087340765325575914 -0.15745350346247622 -0.16698643159760154 -0.21977625738244824 -0.14124884162353632 -0.036290998856885179 -0.2070565763640477 -0.49012449299658373 -0.52046926569294016 -0.46119579653732651 -0.23434646917344748 -0.49378617345752429 -0.45021053095242863 -0.50848616612831088 -0.42055693110768594 -0.45021612739585781 -0.41805395048868704 -0.48137817749396938 -0.14118184669108477 -0.46946719290004174 -0.13844371937607561 -0.091680428806133391 -0.16359092184525539 -0.1732894369957553 -0.49294908846024527 -0.16256291037093576 -0.18774516981172287 -0.10713681232456165 -0.23780900441866035 -0.13280477096742724 
-0.44011478771904211 -0.17954126354912656 -0.21197216945974837 -0.10399615053302692 -0.086044372412273071 -0.071527037878615557 -0.080705771002194823 -0.10853516204780927 -0.17343255857472129 -0.14535387469782973 -0.12562051371630142 -0.19700856173522965 -0.21940052456470077 -0.39778076174284094 -0.46863126888172751 -0.40959607111039514 -0.17488070419374649 -0.42600466482163279 -0.40119937390044352 -0.43542473571168866 -0.40248520495671991 -0.37853303333394045 -0.39448100585606005 -0.41790826564832645 -0.12051719670232461 -0.40979566058772382 -0.072527872872920077 -0.31598075449108343 -0.12113216906983039 -0.27871237914120955 -0.27361442178051298 -0.14943385462289127 -0.10239245485155031 -0.033402941582129683 -0.21159429071377081 -0.075181597347767734 
-0.51322405477129174 -0.28894545594563209 -0.398542229643219 -0.40170764697012973 -0.38938702389234098 -0.39281905781334026 -0.32845168657202284 -0.41072005993310051 -0.45829636064026291 -0.37537201439925522 -0.34982784655161731 -0.54701639297134574 -0.43714679428781283 -0.063480480445459689 -0.11649091793773604 -0.18138948605915386 -0.41071470206150368 -0.23806223297216511 -0.58217705900356786 -0.30817724096337701 -0.3745171824274362 0.014219930936085458 -0.2436806527487953 -0.18336162409335016 -0.59909281773551692 -0.27950709307024979 -0.35447768942447944 -0.29269563033403373 -0.29994011626814948 -0.54349503918286846 -0.22791529907226976 -0.4092764581584768 -0.38931961993434661 -0.4306681388227967 -0.35650801540905763 -0.34809527504838089 
0.043060405596534297 -0.21315833452927235 -0.34017722708029552 -0.29205158088596095 -0.35113618050570994 -0.38204948240017905 -0.34562613033867845 -0.39866086859426275 -0.26113340582442968 -0.15752887501527463 -0.27791276809170912 -0.0040359672641291826 -0.2862483697991966 -0.2750798934235269 -0.34474120544745596 -0.19342972441215228 -0.11418890750283267 0.0092186555539206152 -0.32703355833473047 -0.13081924778499707 -0.09019564869337153 -0.25614924909269443 -0.1031274670736579 -0.29518737850615506 -0.25195716381389149 0.0088707059733400782 -0.28393651524639846 0.020712865509344973 -0.32521525845494403 0.023501908214329965 0.019804077063362967 -0.17955714704820877 -0.17615003779154478 -0.27533638417254441 -0.27061446094733849 -0.33964297994134013 
0.026477287503540593 -0.26880915049886411 -0.19803702413671545 -0.19321636926107941 -0.29132268687403129 -0.27145149900362214 -0.27613686476786037 -0.2192871565453447 -0.070969010827381496 0.045479700602720274 -0.058035449835212784 -0.19355322671054456 -0.10128574914268833 -0.24036203032185574 -0.11369189853812621 -0.21086395482609516 0.032164671800744019 -0.17556331402671849 -0.23397946704027056 -0.2702919411418005 -0.12672795184195798 -0.23107854329350344 -0.11822004164283512 -0.22626809004109111 -0.27547750549811112 0.086825095151581516 -0.24277817073154659 -0.26576634838923069 -0.26134759521524953 0.051213205314084541 -0.12222061290489118 0.098644665129780942 0.097441304846512075 -0.26281460809946544 -0.14511894365573014 -0.28609143449298913 
-0.32220832299023244 -0.3354555412519476 -0.058155365108793218 -0.053929286745298378 -0.36390316688536467 -0.34317735727206039 -0.35113940222698847 -0.029031398590610408 0.0023425578873774514 -0.1752699477683996 -0.028759500193506152 -0.31809851256869281 0.032406996773112685 -0.30470814648617667 0.064334700736838307 -0.17843124554007972 -0.091420062099361599 -0.27879909832299066 -0.27235938297924855 -0.3290021971455519 -0.21194173523999554 -0.29108486355094326 -0.029075574045351112 -0.29935586047086771 -0.26608436317118728 -0.34434021772179718 -0.31029924171361423 -0.29992640345853 -0.28285207064187728 -0.15183112699373799 -0.152661281919835 0.0037150289654478141 -0.024898105888854719 -0.26110340692049822 -0.072420541462574026 -0.29141615227106016 
-0.27495873593963799 -0.2916120321003623 0.12956299364927665 0.031097105933907247 -0.27089373293554359 -0.295732405360841 -0.28444800626936306 0.10302333400697689 -0.21494152598380079 -0.30033381191417174 -0.34095280539688932 -0.340925300017349 -0.22822533125849179 -0.27867461319609305 -0.06613964391963624 0.1046989134470649 -0.20817246669362205 -0.22470716921141259 -0.14873207219314566 0.053698021870630407 -0.20536383696229182 -0.23388235601287913 -0.039841545531234736 0.00083863508525152438 0.091478947110802705 -0.32323665255884526 -0.28045668091910281 -0.31265689161717419 0.049363840167016115 -0.19859955872311272 -0.17773551395653917 -0.27434785762608921 -0.32314807593032946 0.072759289189801901 0.11518051683578863 -0.20703121397829377 
-0.63407843925927687 -0.56736785781116372 -0.37433801545081052 -0.31332547795906796 -0.41057233890761752 -0.36857542169862356 -0.35055049636464342 -0.46985420448271187 -0.68032106420135963 -0.39966634778652638 -0.6484250824379707 -0.30182552185007666 -0.59274557354529989 -0.21102097630138036 -0.18824921785724502 -0.28122038649313025 -0.39320558265296807 -0.31886706250613828 0.1909596563923904 -0.37089674355161822 -0.40593920127671423 -0.66783690427637787 -0.55463989471224218 -0.28200607693134655 -0.30430813134467366 -0.31686854938999981 -0.39513101844257675 -0.36790430262688073 -0.27637133121957813 -0.57887559571572622 -0.3058789940677506 -0.66161148587651819 -0.48827976965737158 -0.37764935265660121 -0.42584618451352824 -0.25432056846069701 
-0.17066519160558535 -0.23618459811425471 -0.020600055285372655 0.016988817552648 0.090301716307363847 0.099668588108116504 0.0025065605994496901 0.071590108816850698 -0.35615742516075044 0.081222609194246315 -0.25502392781343342 -0.24313329618483734 0.091534074433467408 -0.18430142011306 -0.29582966166038194 -0.25596358997230512 0.032939514790748754 -0.2602990751347139 -0.19951708286318523 -0.26544389015405623 -0.23842213296593226 -0.27087032230038821 -0.22746948211151818 -0.26748366268273865 -0.24414400722559682 -0.15459031271885751 0.08619636288557482 -0.22539341279596428 -0.092630998454654709 -0.25995883783384532 -0.27361751435853376 -0.30842003970462806 -0.048150466454466537 -0.13270983692092042 -0.12819360881411435 0.026868024568583407 
-0.31765374011424902 -0.29769745556384586 -0.17676961511038358 -0.16161679796657269 -0.055462609107325672 -0.040789979033445528 -0.0064841379294725537 -0.15712196961342148 -0.071719193602237608 -0.14507269099049699 -0.060707028729218314 -0.003988745679840343 -0.10536318069947272 -0.38103513953617146 -0.45618570327497804 -0.3293633768610883 -0.35920874858124274 -0.40485036403428931 -0.36558493290010441 -0.42126341061597961 -0.36387380344459491 -0.39327433333978024 -0.32329428746503519 -0.3911989730553086 -0.22014791062161004 -0.36852919722246053 -0.19692844760715433 -0.40407754727815498 -0.067736626976318867 -0.31811547209794572 -0.40040048254142235 -0.062880116229652103 -0.1068275810732532 -0.13442801160392356 -0.20868389934898329 -0.092661138416660321 
-0.33595831199492965 -0.091062806798657026 -0.24168763149880307 -0.26735952986179856 -0.10066871538374865 -0.14152567514624542 -0.17528687473968774 -0.26645303582255919 -0.079617886699154594 -0.17756536358201724 -0.074312046695876072 -0.0761145155412455 -0.15562713559926594 -0.29509694674025688 -0.32340455487389796 -0.2019522594592128 -0.35460470199753685 -0.37980942437471377 -0.28066539130960921 0.049420713381503736 0.044754502843960833 -0.27650341028296249 -0.059402237593727154 -0.36743627031269849 0.039677270836883417 -0.34826082876480724 -0.23643949669923922 -0.37576857321516621 -0.17242409438983547 0.049684773318024421 -0.32408067202007085 -0.12560702617915001 -0.22441472225839532 0.046117962483574533 -0.25658064774543787 -0.21900028379202513 
0.029136232663411685 -0.10113966015538103 -0.31849707669409 -0.28949065925425127 -0.32441431300830464 -0.35241893151294212 -0.33719244676972437 -0.39543936497414411 -0.31857716536250708 -0.32642798880655877 -0.26092349167633327 -0.044888577917498486 -0.25712043999475925 -0.28477313341951804 -0.33588274224539716 -0.14773910810419746 -0.30149778699903229 -0.041120593616528332 -0.33379275088090821 -0.089112235595072711 -0.10861635070328787 -0.25841438567576375 -0.10912817932408611 -0.35272935340582112 -0.0048124987211636706 -0.07365225796643983 -0.26720663122121646 -0.010020073461610133 -0.34305199335594988 0.04682857368941272 -0.00210615709620386 -0.29739659732991885 -0.32576567043450227 -0.078519966581881526 -0.2638016614260229 -0.31757073563081012 
0.11625529438989299 0.01259606091530451 -0.22125888879462927 -0.17012645508522981 -0.2291757327809307 -0.25508139570756971 -0.22898907073045491 -0.20101306770142183 -0.31059597127345995 -0.22068625392257873 -0.2913013685099185 -0.17654588192772602 -0.12522024244558458 -0.29654406282767459 -0.29101119524280344 -0.33412196278573991 0.020274841858627934 0.10278520041630618 -0.29950523918052607 -0.25838148677059153 -0.078305637803681022 -0.18859949668211465 -0.13145501930602088 -0.29154728036208871 -0.26949476697306485 -0.037929011445108581 0.056174285653104096 0.093991766641695104 -0.25011267491223516 -0.094824746942731325 -0.028754281111265174 -0.29487544352412065 -0.29223236008400072 -0.35096806243557999 -0.13625393813363115 -0.25336476328494717 
0.19163448541926092 -0.22849598533817225 -0.10686280581244004 -0.045106466065690437 -0.026436881381300587 -0.047454726525643288 -0.075997176029341973 0.02035983274702638 -0.13775662474854652 -0.1017455237739683 -0.21266917230075066 -0.16331084959242151 0.019952495876988413 -0.21211326524307131 -0.19144820172176644 -0.20980292801007774 0.15264344597499369 -0.1940728697308659 -0.19735774615267615 -0.24137803812698394 -0.016109579664424965 -0.18229491258339281 -0.00099765174587973906 -0.17663129365944163 -0.18665166252641485 0.044551086151822537 0.18976354656084687 -0.1902240190405208 -0.11616793074477653 -0.12112530696423747 -0.092332151820296166 -0.13397319361801913 -0.16762598465121795 -0.21665710888402684 -0.091489071108822845 -0.19256459108803756 
-0.19000521692855613 -0.18850014280331254 -0.074000472246963003 -0.1421929712834607 -0.056266495947496262 -0.0072272609871965677 -0.11145692842227693 0.028568257376840225 0.035069735384899339 -0.13775872352204743 -0.20405126221886138 -0.072656895978462352 -0.15112271626687868 -0.15097743421775792 -0.1622121556488193 -0.14906399580145729 -0.1773009743458468 -0.18207307743295612 -0.13737526331536812 -0.08928552152279659 -0.037800665091945768 -0.16083068659609928 0.18653525763616349 -0.13966740737347588 -0.076257410677923881 -0.15966938386040833 -0.12844789776192828 -0.18542394337683704 -0.081011067283124807 -0.11298334426361524 0.0012796474110624979 -0.0071001452938831274 -0.060557712326060671 -0.17351612336451802 -0.038914096757825589 -0.12328389585921334 
-0.15976117882006516 -0.18536567162121412 -0.11050004801035664 -0.086632992313018811 -0.16116498665543694 -0.17978953600816747 -0.17736551121154812 -0.0992254620394913 -0.1639433783876105 -0.15983855720972734 -0.15423597629632799 -0.24753733007954198 -0.17428577405275278 -0.087789529428339064 -0.16776334303110504 0.13842655581042582 -0.18788444433199622 -0.23918256107695754 0.0097896569589462079 0.18018625877419064 0.17732309590577894 -0.14695589456751088 0.17209729192318679 0.043361918234161141 0.075654364656142725 -0.22629315147074094 -0.17018857753523445 -0.23559493351811184 -0.1763059299831306 -0.12786110566287162 -0.12546829118799793 -0.14508188539345646 -0.16775978379230438 -0.071704338672432422 -0.069667288809864156 -0.15956949796701958 
-0.263378788153525 -0.32981070708950128 -0.40291063884447798 -0.33767031354731086 -0.3846516867610813 -0.38593645521355963 -0.34057195550578739 -0.52418827830197046 -0.54115188648258827 -0.39729754739934803 -0.5558859425761965 -0.51956810392575115 -0.64725606317712558 -0.10916899841735288 -0.11284305803740101 -0.18991184004170863 -0.30235020636838361 -0.23527181383418699 0.27061703890819649 -0.30225465218634906 -0.27365062266160023 -0.5824183524686789 -0.27846114622197332 -0.19099906018069826 -0.2959892933575286 -0.2465754360243565 -0.57026378606983152 -0.57880700639708293 -0.44072265186736359 -0.46075022437869906 -0.49722244390480874 -0.57814820697788327 -0.4361774417450402 -0.26458632962714962 -0.36458243437608678 -0.20438022069336892 
-0.33860182782724396 -0.0088607575878353797 -0.0087277904502500985 0.0087079252305060761 -0.046295788950391333 0.017000883923343778 0.02321725225653444 0.012014257620611805 -0.43771830684052837 -0.090340163606521445 -0.23582016010752643 -0.29766724715543874 0.012942227492629205 -0.16781733141395197 -0.37031061036447882 -0.32114276499698824 -0.045153981398503552 -0.32240209683236187 -0.18294453504356312 -0.32564924444544791 -0.30784811816550839 -0.33485361033416794 -0.29992026484759304 -0.33554065257267818 -0.29738578368946406 -0.10964566822590723 0.0057957731150276807 -0.27863763628099225 -0.046011870609330062 -0.3710940866096103 -0.34243330829276764 -0.32656436890961094 0.055683211376358378 -0.12095706091033963 -0.14279881015420937 0.048244240265849808 
-0.46736694857007444 -0.07589813832704384 -0.20623306143210207 -0.14011666208867987 -0.12936564329710923 -0.11907489465721664 -0.067670364713329365 -0.13787901342501901 -0.13708142687712241 -0.18751331623977036 -0.12721165506559026 0.0026374422329954552 -0.17207515622496899 -0.41569554316131196 -0.50886688818059689 -0.42035569049350746 -0.20610763726540055 -0.47648193846403503 -0.40649921322165999 -0.48110187499581569 -0.42966216085679343 -0.44615221531516597 -0.3665309197386955 -0.46446830860038257 -0.10227654360029573 -0.41887289274001088 -0.12263584355566981 -0.46032255825922797 -0.14706942371941192 -0.43461480079117748 -0.47064062314809096 -0.11430321489463487 -0.15116962841523612 -0.083013133345886322 -0.19889382878020409 -0.11842853607611374 
-0.43601109396630616 -0.0075966655757073696 -0.26612259697228557 -0.22790438720220771 -0.09336824127230206 -0.11539737258388461 -0.11582596872281305 -0.25650638188661934 -0.051218576591512938 -0.19346906509134451 -0.038315056687206771 0.013010135376559467 -0.2711313411764914 -0.38289354651677637 -0.43865239916153437 -0.36742019782696012 -0.38159354418763591 -0.43379380091259595 -0.35744208860549925 -0.090154749927275249 -0.22645114341449654 -0.38429714980385787 -0.3040213483057938 -0.40789011130877273 -0.18310553575889216 -0.40602297981442081 -0.2673934215291362 -0.42082874706660645 -0.071521201360401937 -0.069440290942322111 -0.38580213009166908 -0.065384130492240275 -0.17611323661332062 -0.19424483866041564 -0.23468466860197584 -0.15718650657084265 
0.11033401066821198 0.060546403438068788 -0.26643556989709383 -0.25640630961109656 -0.25978831258631097 -0.25948376891789793 -0.25469723779243869 -0.30379614000883931 -0.27990829703560866 -0.23752421405186566 -0.223664209297495 -0.056559072124108142 -0.22567525011368361 -0.28100899364358539 -0.28344766905856744 -0.32616726020028952 -0.19663704493201759 0.097547579791111561 -0.29078220460894943 -0.05447477282137244 -0.097638262484042435 -0.1860539984094487 -0.16971887764665694 -0.31379004828150103 -0.20212741970966641 -0.19963370965232943 -0.11618006251463009 0.085831781682079264 -0.26876454079076584 0.081100107528239027 -0.060808898412702352 -0.25075557983800922 -0.28196370909829016 -0.31151739087249281 -0.16519928461511113 -0.23400102637848713 
