solver_type L2R_LR
nr_class 36
label 1 2 3 4 5 6 7 8 9 10 11 12 13 14 15 16 17 18 19 20 21 22 23 24 25 26 27 28 29 30 31 32 33 34 35 36
nr_feature 108
bias -1
w
-0.37089005174830142 -0.26296143606493655 -0.24201535822579193 -0.21103056568912226 -0.25796771690175807 -0.3092412668610609 -0.32412972134746465 -0.27254735995836826 -0.4894567836571358 -0.30098952788243949 -0.48788767032249009 -0.4773372718152224 -0.34065477989016713 -0.032244718593571094 -0.1399279104674791 -0.1451525880771784 -0.43990801203465119 -0.12286266048672309 0.12350467551622915 -0.24828746634774607 -0.19735519887290745 -0.46797917697205405 -0.23196233084573312 -0.10693424307514098 -0.35915989139133858 -0.22905932330171633 -0.23028301780073948 -0.47801047524519569 -0.22639754735566364 -0.41165502333609011 -0.48348440035313894 -0.5189557396159149 -0.3707595639252812 -0.32557195541902673 -0.27632199239675254 -0.25693187897757036 
-0.38597649955558999 -0.37047594173932979 -0.14169516946290553 -0.054834873708205209 -0.02020168904737198 -0.0040815133937430782 -0.028331704662698451 -0.026854121317709763 -0.11403588936215361 -0.088532705297143813 -0.17067315826655136 -0.15292795199014148 -0.094602993192631102 -0.45927381852261667 -0.47281657625661555 -0.3650996185425151 -0.25500123617026915 -0.38779787489443573 -0.18005985492253884 -0.38011640318846379 -0.34339255278618336 -0.39798654168512088 -0.34103396478310932 -0.39924674723525394 -0.15823311083420705 -0.30070669615584161 -0.019564324751806469 -0.36509916642435358 -0.061877175722031968 -0.4070816497716398 -0.38625392618271448 -0.19039716629452133 -0.077383749360187964 -0.14901076158888799 -0.10304114531930574 -0.051241224608128653 
-0.47362967468680045 -0.36955451863994637 -0.17556113980913587 -0.14260913926238147 -0.084906203200063313 -0.065142889633100692 0.0027920119453180535 -0.12375344824265294 -0.10283870655239677 -0.18602277874252543 -0.11724454350281276 0.010804012813269367 -0.18428468194520592 -0.48839585786287687 -0.53699089654272991 -0.42837225543119822 -0.19406746236662309 -0.46758992066772564 -0.4440888064648767 -0.39115816772876866 -0.38149463267198386 -0.45823824378268829 -0.40106758094503692 -0.45937310042399027 -0.088642072422902687 -0.45682054819672779 -0.09126630683646425 -0.47024535814215229 -0.13084003070396888 -0.30247009164798222 -0.44534660706329754 -0.13870008120067986 -0.14474556160840557 -0.1144248118560595 -0.20034066557034544 -0.13005099785468677 
-0.19946656184441994 -0.18534990803140644 -0.13686544720096094 -0.18361594607321216 -0.11408894162619673 0.0072857821178739486 -0.15176067299212928 -0.1706407182217333 -0.16727359725614654 -0.13331513329016978 0.10331423569934871 0.13223586274439827 -0.013336108335236239 -0.14107135287710051 -0.16622601761824421 -0.14171996292586952 -0.13345764491861301 -0.18068109356500855 -0.13297646545274069 0.16050966522337209 -0.085035652389538363 -0.13486351012461079 -0.04841883418039835 -0.16844349695009034 -0.15707619095075115 -0.18402409878884324 -0.016247913771646274 -0.1974390542010023 -0.15856782284141846 0.25355308166470331 -0.13204472695474645 -0.00064240914067504966 -0.17511508089643868 -0.083152048066599149 -0.13009123280373522 -0.1024283867259176 
0.094987143858080714 0.021638870335446789 -0.25729609384230367 -0.24424737162601198 -0.31595680827908884 -0.34145281900238206 -0.31493437377210826 -0.28290839971903153 -0.28192495890483421 -0.34412920733956909 -0.30540366926577023 -0.14636146407255471 -0.3588619515693478 -0.15342944671714664 -0.28803467970088054 -0.2773817654014108 -0.2774305102274503 0.049649631692731323 -0.35146028592645978 -0.13516653004652934 -0.077105789090849683 -0.079755594101501653 -0.18492432924494215 -0.38834627909657782 -0.36602081772484374 -0.065051524225214777 -0.14618073844125645 0.086297743171001709 -0.27175975609699848 -0.083574708206459958 0.0048023679292838687 -0.31874983507598653 -0.29638431297225865 -0.36465677890457804 -0.13899611498074846 -0.28215483459972868 
0.12229177776433801 -0.075625502387189764 -0.14867808217664777 0.00044105984951498607 -0.025827879437034337 -0.15569043811924838 -0.089908042853443434 -0.076599830985028691 -0.17500625207660372 -0.0099206162065492466 -0.16667815439050004 -0.10277139660696882 -0.084655288755829977 -0.18536732136240927 -0.17811260335109083 -0.1742425233174609 -0.014009896248352574 -0.14562936715010849 -0.16069090622949925 -0.19564939947714535 0.039436602481552625 -0.14064282836943989 0.0043158860393456766 -0.17971633827522643 -0.18381740124328247 0.17331630420018018 0.12606371082308609 -0.14564230689994365 0.0088074034869434631 -0.12883873204592053 -0.10498656314480578 -0.040243216218450929 -0.17791600561415452 -0.19495520253650525 0.061684742386592474 -0.15489248851795798 
-0.10584113502866428 0.027771823499126103 -0.11222513645131528 -0.11282326936901182 -0.073484685064525643 -0.11625549234275648 -0.040187431096467011 -0.058214232324719249 -0.16328313721929791 -0.10402155397918203 -0.059771545678055142 -0.1133277147574793 -0.10321346717147752 -0.13910748882895543 -0.10088225471596883 -0.16357515467565384 0.23659858661853075 -0.16136523927063132 -0.14141135438169056 -0.12019122282036054 0.066459719012211191 -0.12971107158865325 -0.0066122288117446987 -0.15774821557171231 -0.095509339975513446 -0.12427242044543338 -0.10730884647877371 -0.15986460912288872 -0.090579160955971516 -0.039882650402818395 0.040674095205510387 0.038617788453445316 -0.074130042006119098 -0.17464435052309613 -0.13664815160866273 -0.15457351340881995 
-0.12673346301571028 0.11432909819830421 -0.14453578341162662 -0.15995807734816955 -0.14433723377457133 -0.1850708050969925 -0.14144592963074309 -0.18712880119970882 -0.17274150888027684 -0.18137824485090709 -0.15520579909245757 -0.23460540735328461 -0.16877307030898903 -0.18855591430287019 -0.069787216239131811 -0.089645385749582196 0.046047629904133865 -0.2087472569613979 -0.15055331115340873 0.10053839985797504 0.083466020853713879 -0.14900247719962392 0.17903026059302224 0.040793321376156724 -0.03288435623282971 -0.19869478630961376 -0.19278996768101886 -0.24657971697061126 -0.18105264029916923 -0.10868693578427717 -0.091343225321656854 -0.074736154536767352 -0.1634931633056699 -0.079410972351861148 -0.12192451151553978 -0.17416844470764969 
-0.26001786319233627 -0.10878116924998484 -0.24934229827375037 -0.30122769356667595 -0.36905587647467486 -0.4041547051000377 -0.36739414685568833 -0.38703983750979853 -0.38474384329112782 -0.44516388199300577 -0.40599689084218588 -0.43805129599145365 -0.46175393815819316 0.053870409059755348 -0.020484068594493473 -0.086737883061756685 -0.33691424274008003 -0.086750921748259616 0.203832708543494 -0.071322323960385445 -0.1353549051853784 -0.38921069200981506 -0.1165672400460261 -0.032497817822313958 -0.2426401980902026 -0.14417673215295232 -0.360859290915019 -0.45008175773905507 -0.28813731209291893 -0.30204855466283054 -0.38378861719899549 -0.39378202482298885 -0.40360088986234266 -0.22404379387928636 -0.31529531370848446 -0.34312176701293656 
-0.49769739432769616 -0.37346852453127205 -0.29235052892806479 -0.2250991195092997 -0.26100788565815652 -0.25149022188918252 -0.18865857150866944 -0.27540265495115845 -0.59178052191677977 -0.24877394301932224 -0.57732970852992782 -0.46814747328527773 -0.24786237003302247 -0.14040727734362049 -0.11562166342443191 -0.18821652637017375 -0.44366454396899624 -0.27478019031077738 0.028143735427582365 -0.43350643813143264 -0.45434039543802046 -0.55196523750810256 -0.52753915525141715 -0.15321579299117405 -0.32719984917280748 -0.22534630321373228 -0.29054344722800068 -0.3539656280631715 -0.21053402975078139 -0.51304736269341333 -0.17759544924533965 -0.60665390604429537 -0.52368091076331091 -0.24260660807466072 -0.3507004214649504 -0.2342403953813163 
-0.23971019262761564 -0.017453741220104863 -0.2245556329730054 -0.1209926686743332 0.066836708042098306 -0.012573769626992099 -0.10242843209944708 -0.094110910339164855 -0.27693523619957655 0.016073277445288491 -0.14973103800487544 -0.20716813426157002 0.014480910680231843 -0.22002208951758501 -0.36990564445082807 -0.30318234730352239 -0.0044256485486835985 -0.31726813902291179 -0.22595210375159933 -0.30833964760753296 -0.27966180897123161 -0.32701653023564015 -0.26311212372906284 -0.3426026920813926 -0.12916862976376187 -0.19160208237123447 0.05906426017617649 -0.30329207821184395 0.015968710405930481 -0.33595256891284758 -0.33597111719374179 -0.27513661809882689 -0.15561553318812002 -0.21826464778528815 -0.13996311411920467 -0.10935805102077925 
-0.3201678026028818 0.0019277041564478778 -0.3013087643377701 -0.31048133488509999 0.028744456449636795 -0.090597039106307897 -0.079294385877752976 -0.24107314993075571 -0.090329499845366867 -0.16109272324696192 0.017137889724384178 -0.042828809662264253 -0.058832969781689025 -0.40950756018268708 -0.42172801409668248 -0.32066458168016521 -0.095769116697206016 -0.38915683370266263 -0.3741675596423607 -0.30296056226942591 -0.2942073040156466 -0.37416943641473027 -0.29342896303860005 -0.39453591873787369 0.0032837315440580979 -0.39001614804542339 -0.28507133003231844 -0.41656667768609523 -0.16656511606709462 -0.29394410763642259 -0.38138510898725292 -0.082088381800741142 -0.15909854903438853 -0.11193297029100106 -0.28877574509600329 -0.16808643195664552 
-0.23881977429211973 -0.23987294482901045 -0.19232193184310351 -0.20799798569405153 -0.15101609449053113 -0.097236046204656951 -0.18089918828888418 -0.22856389867232588 -0.18460153266353541 -0.1604112022309184 -0.03704347470100975 0.027220161814458334 -0.067773334054723383 -0.1802225703086181 -0.20841658617665682 -0.10350709460713135 -0.22328761930004021 -0.23125603562857128 -0.16159808157050551 0.16316406000974379 0.1058217265169366 -0.14290551173397298 0.15298964700930739 -0.26065384956096205 -0.056852743718758814 -0.26987976004420777 -0.12000697223087586 -0.24420311573657147 -0.20694928373711613 0.22733728998551508 -0.18572960853276982 -0.14935706420233164 -0.20151953541233725 0.10533626398947007 -0.16416194829693673 -0.1548820618680504 
0.0040067111997725523 -0.37761001237232483 -0.31188550449696345 -0.30742889425337 -0.38557873106653007 -0.32916586450037771 -0.34636923164041061 -0.42829178206916069 -0.22623019938705208 -0.4258853090168922 -0.31094569402894934 -0.09682192786718917 -0.44311620381520811 -0.31848725119093052 -0.37377253846443637 -0.071436702348463291 -0.15786110912503049 -0.076539479574417243 -0.37993326362478719 -0.073009624455151148 -0.17385886601736258 -0.17779420064390558 -0.1695222817470261 -0.34633027820785606 -0.1791167760948604 -0.054509244559796895 -0.30450959894365548 -0.025766355534760983 -0.38315687345490096 -0.083451088420023981 -0.0038694885057845279 -0.36909893381453113 -0.38568085524272666 -0.12657264286797354 -0.16565874954569201 -0.39404261302210941 
0.038393843788825606 -0.19995354476636534 -0.26947430248125986 -0.20746733815565174 -0.20829595563269729 -0.2296073646039323 -0.19663818562724553 -0.25337509385105267 -0.14496332549811314 0.16167601662490752 -0.040616959904909516 0.031851513565717561 -0.10322680877278784 -0.20949977963863822 -0.069346573409317144 -0.16252031867634881 -0.12188323852827582 -0.16524469142368528 -0.17920004067171416 -0.20769010364562773 -0.088415009237747408 -0.18390026881380828 -0.1101292112803022 -0.16923399200189088 -0.22743633704830904 0.13936146846007524 -0.19145764726426545 -0.091698993404250098 -0.20565546017964564 0.11317716604516763 -0.14818257671370091 0.1909808165737793 -0.028373734053794737 -0.24738733850058856 -0.19928935624636396 -0.24365646494241394 
-0.31973007545947141 -0.22113129539662327 -0.044515350585036653 -0.049954764667502094 -0.36824651302046163 -0.36738659994238609 -0.35118257839346173 -0.027692739991263843 0.025013388961933895 -0.1577428105918956 -0.018875822778886553 -0.2947911013111334 0.016127322794555476 -0.30960070339835488 0.017585842562092315 -0.29677221679314186 -0.084305727286742058 -0.26819547146855915 -0.29847103485656823 -0.38969722356280695 -0.084311332024565644 -0.31931586545568708 -0.15083366798275144 -0.34614058492460426 -0.32499547605514706 -0.30007050430841825 -0.3413028179258778 -0.30601828843373119 -0.3115504717339922 -0.047563572763508095 -0.18782539422727845 -0.042868804653897259 -0.036548322518828363 -0.36492209531674952 -0.10193208077334984 -0.1209521441035212 
-0.37709792051486124 -0.26151520603408601 0.0059555644292515024 -0.12541992763515866 -0.34336541340083976 -0.36791381444361321 -0.35321994033283205 -0.045781177662414116 -0.081233330709591753 -0.35713684642300814 -0.14105351613644188 -0.39612279222535157 -0.12354556341436002 -0.3412087419334584 -0.08174838936802363 -0.20660917141666893 -0.20213175048331264 -0.21492510384631069 -0.30911368445637577 -0.11094417399552726 -0.24076578394637521 -0.30513631309273681 -0.066261993958863036 -0.13720718676700686 0.042064237428394463 -0.24575220026978498 -0.35570339287161845 -0.37649003514039658 -0.18093959657107264 -0.2081632291804002 -0.16406656410543385 -0.066967638045086805 -0.020491237815601797 -0.00014913686814765946 -0.044466182004197448 -0.29124437340666171 
-0.53788661087780554 -0.37714882150718371 -0.20521541199332236 -0.21870313459886132 -0.46302908130684917 -0.28625325682607822 -0.21320718880109812 -0.31945427205565152 -0.536455006395961 -0.6031579466895679 -0.501797278561395 -0.48280102489290666 -0.44714297020533672 -0.11402310335833973 -0.11585195770852585 -0.21120717546101184 -0.51847838044427863 -0.21705796381125339 0.051131578381885562 -0.25521757885391583 -0.43050982956811179 -0.53369134805313612 -0.39207128572482947 -0.16851675913869213 -0.170845720341289 -0.30278320639707079 -0.30909901249607696 -0.37961669285917765 -0.26049525316173316 -0.48024705609260221 -0.15231850477629769 -0.49360735012376855 -0.54390603551281014 -0.26790802959672838 -0.22512187682302784 -0.2404501653196004 
0.1790938035916757 0.059140170946168628 -0.28140964846830052 -0.19367156352793569 -0.18191953446474199 -0.22484727140008157 -0.28205149103383198 -0.23300175457052349 -0.22750030894536949 -0.18734097131281108 -0.15591241350563742 0.010857226007424135 -0.29003573067757593 -0.25514518533321073 -0.19615150890762451 -0.21991231031604955 -0.24901731667049637 0.078730604301604376 -0.25673477732444533 -0.15288646944186682 -0.061037217147601061 -0.2518352838018087 -0.19518688087498556 -0.28145223233718247 -0.26562460870389493 -0.31206353125589137 -0.10857669176668894 0.10428906202050311 -0.20011127792591948 -0.12399059866250363 -0.071802532093425714 -0.27562302057062033 -0.29003949269838336 -0.24162378264060272 -0.20618355895255377 -0.24371820836647068 
-0.38445758502929139 -0.31466062456791699 -0.17055247131989057 -0.083000604971592548 -0.03814743821384653 -0.16548460169689691 -0.066551667703625084 -0.060391677027169029 -0.17657172704014068 -0.18394018589232919 -0.16559677984447962 -0.094901066126868328 -0.21122974382282519 -0.36026644276260572 -0.38428184017375511 -0.28084982797107083 -0.29305873584669029 -0.36714442055102425 -0.32615137267442962 -0.36408141452630849 -0.21851571555333585 -0.33094316923414335 -0.22043377449947754 -0.36041088069573263 -0.0012940821649799553 -0.35469577691535392 -0.13740096235631308 0.028551498521185791 -0.018141721424605524 -0.091377338846075434 -0.35160403227671305 -0.11761760669444102 -0.16187299412525727 -0.049953002612382461 -0.11418382117618217 -0.13698624877419263 
-0.53347029756118247 -0.38120187398691491 -0.21668096120009353 -0.16846619193514847 -0.12751602670592638 -0.10949497562901941 -0.042309898885103836 -0.15687684477533986 -0.13910582882506481 -0.22377534624444925 -0.14349820024260879 -0.049501229689817863 -0.23327217756004712 -0.49051172779813806 -0.53874683937997259 -0.465723141635772 -0.23833226474006577 -0.50431358804520532 -0.48099210612367388 -0.50796993526764644 -0.4113994260829808 -0.47618699934249992 -0.47830072240667754 -0.4972699109047205 -0.13311600543103849 -0.47973669098377419 -0.11871419506060758 -0.13074041209880985 -0.16595146850215184 -0.15401772044426129 -0.46535281099486175 -0.19119064671076158 -0.19087761769154057 -0.12557191298969725 -0.24536991036721018 -0.16315993157876993 
-0.2978093489529719 -0.31818318549607244 -0.018710248806409566 -0.26630485863059306 0.096374349167350229 0.090562080586148591 -0.21729851718291673 -0.055198183565513169 -0.17581248313225234 0.0093353939029254211 -0.23770189748278148 -0.12181397805993946 0.051341794565180648 -0.17814055477044274 -0.12931563387341058 -0.27351222359744071 -0.14224541310791081 -0.2879852099302499 -0.31685388549641769 -0.26205458121794067 -0.26456520991270682 -0.24898260469341671 -0.2560156862562657 -0.29234474525849102 -0.31856852429059385 -0.30082553726311251 0.10687621686938099 -0.30232767840056723 -0.14128851293745631 -0.2443396205351222 -0.078915634551882025 -0.04435794567390864 -0.095020245407146584 0.019019518672575935 -0.20429986470829709 0.098804942716507957 
-0.63663730260612406 -0.42793392758322679 -0.40842347920791189 -0.32740200828649768 -0.4635880696330833 -0.48056806068342012 -0.23318274441660469 -0.46279528971965239 -0.26882329775777764 -0.50898585278721797 -0.36313372463227789 -0.52101965274216133 -0.68912208502592598 -0.17157360570139021 -0.22803604966389548 -0.28706140052596452 -0.55515389094425038 -0.33411543014689837 -0.68839900206602611 -0.31430735155086537 -0.33735700144859954 0.13407849466750732 -0.32844531938835875 -0.22257431750785694 -0.72787995142789541 -0.31454283145029321 -0.47292885109585403 -0.29154915646701685 -0.2907035564493668 -0.63160670699745936 -0.24836143090038079 -0.548778704220661 -0.33539562344164459 -0.60812456806993498 -0.36916701022956777 -0.54295735414635649 
-0.2016576578347162 -0.15724329852565644 -0.11076469409933186 -0.003138883226653301 -0.15732404703437078 -0.17403862541390705 -0.15770772251253803 -0.16563708757142143 -0.16969033392537972 -0.099511863309601864 -0.12155030250394197 -0.17286668380330589 -0.15927921727875258 -0.092719540671091977 -0.19154839092056533 0.038726106992606708 -0.19525643567089149 -0.018264424995836255 -0.14997967001594575 -0.22596288430565115 0.18575422678929404 -0.0022026731539821227 0.19066335846844151 0.043545141916567574 -0.18312168635509984 0.27753099024367039 -0.16830158791677721 -0.21935688520595531 -0.094085156709163537 -0.1573556364801742 -0.21031792223135212 0.0035509337768513168 -0.13840825587468997 -0.23172118762645072 -0.065729312764382861 -0.15551921337539448 
-0.095143792382355305 0.21404670005039628 -0.17335121358098807 -0.14079281991677339 -0.092129363733034056 -0.14923585565531206 -0.11593530171277031 -0.066041358478111323 -0.1697450547812944 -0.11348389440183895 -0.10115548589638039 -0.14642082809022869 -0.18194714474490992 -0.096978115461293507 -0.1512239054068423 -0.15615087028778146 0.20013661092136037 -0.11527992735763876 -0.16974172480560082 -0.13741648382472904 0.082395197799459849 -0.11661315435500098 -0.015877308349007305 -0.13898385813036543 -0.16268867593134806 -0.097744984119854647 -0.15578541682319874 -0.1750386406353604 -0.1277756361224098 -0.085163473682206808 -0.15169555153765898 0.086383188216720086 -0.12363887757448903 -0.18838285652739314 -0.12571804070888895 -0.15742482816549758 
0.18573456198024843 0.12385029558358478 -0.2291024644985854 -0.18811702212892112 -0.082767290433402599 0.02279052979923258 -0.20404588879096389 -0.19346654817282408 -0.21127843990228531 -0.058655768705331637 -0.17575174544266997 -0.21585515332374058 0.013078877942083542 -0.20314663500125665 -0.20768658645814425 -0.20515976755767104 0.15341186347180888 -0.15919991280973084 -0.20965957955711018 -0.0090249211220854008 -0.1249223214418103 -0.17837106552757728 0.0048676428507979401 -0.17461377211099277 -0.15911690497227124 -0.23786041249692988 -0.046340566852713996 -0.21231296969997557 -0.20209426724084137 0.16731390345786365 -0.14219051041085076 -0.13213344638797422 -0.161701522599634 -0.15837838422572401 -0.16034193463889693 -0.14288528962691727 
0.13813419036697422 0.040651285861364066 -0.33487946467967555 -0.25237470214466762 -0.22045198163231669 -0.12715285526922723 -0.32545254925887057 -0.35057604313425234 -0.26084111771538909 -0.16952825077348349 -0.17993366324346674 -0.073963018844791437 -0.19437270614320526 -0.28597797545482667 -0.23248996098580474 -0.27000034017165359 -0.10283889718805719 0.081250584047392493 -0.28909417952635558 -0.055615980182800402 -0.12297249144841914 -0.27632298381019782 -0.17662412544266437 -0.27682617088957123 -0.27144188269212927 -0.33688583716707587 -0.092555847396982388 -0.053465753796226013 -0.31407353018338763 0.069055432313589044 -0.045051109150679579 -0.33279034192671941 -0.30190220708350191 -0.26149895663685541 -0.26749401875016998 -0.24868321020538808 
0.090708947555988101 -0.23803650336400112 -0.2810287082637597 -0.22839669939602109 -0.29023453045051789 -0.32238882426287668 -0.32107247105604952 -0.34417445684674719 -0.31487618370541354 -0.21509176396476512 -0.21144674348657375 -0.024035766926489854 -0.25009322902554337 -0.27787170838896447 -0.31992170924020497 0.005771710791539369 -0.092761067940811709 -0.19151946634428163 -0.31705551923856018 -0.14553265691134926 -0.097642136231552323 -0.29621581436916411 -0.091330067351797967 -0.23908918750456395 -0.24205441036194131 -0.18256184310330992 -0.25312886486587616 0.060830086757228181 -0.2438742257953331 -0.12218306714475946 -0.0069288625894315115 -0.31214805262712719 -0.32404386565644178 -0.11293068654642643 -0.25044156741457202 -0.33348509644888108 
-0.29195353999067297 0.10371838131252846 -0.21249080654013128 -0.18077876792773423 -0.099771770746890712 -0.18660803329189285 -0.14317241109416085 -0.17888686550816851 -0.22272644476184225 -0.11836862474666097 -0.092387525589635672 -0.19037957730963326 -0.12145241920827034 -0.28254860087702122 -0.29193424718229122 -0.19336784843206267 -0.029926926149640251 -0.32657816456585154 -0.25780226172272913 -0.31945073506719857 0.076966848287388145 -0.23903854457320423 0.10275446635272659 -0.32956385768295055 -0.048500152740038951 -0.042147080312442062 -0.17949031638948273 -0.078944483612665733 -0.047303791788669489 -0.14764648112010501 -0.30648595468118484 -0.15561906733602573 -0.23119923254673111 -0.18440245122055834 -0.13220021713010705 -0.21049405133213489 
-0.41040485358543394 -0.062550944859446067 -0.27632537015568337 -0.24069015720366257 -0.094873042429614002 -0.13703384823986564 -0.097643360303269269 -0.2596178265118223 -0.26513654792151681 -0.13969503147044074 -0.038139216091424316 -0.1862561743863391 -0.14093231992199906 -0.43150597930765883 -0.47034977919780552 -0.4367860474243897 -0.16679626068541217 -0.45269030749244021 -0.43804359732391185 -0.44560044657035647 -0.37245604589352188 -0.34906926743630562 -0.4415761556011864 -0.44954611425460062 -0.070020701826330647 -0.16880835596124769 -0.2631938302780315 -0.24068347683180394 -0.08469921727870855 -0.20237570791789966 -0.41180228844413042 -0.14994035000314979 -0.28068806752549941 -0.058956256627072788 -0.222319226407037 -0.19548729273047002 
-0.28028636269960711 -0.30672132742253971 -0.2106813029078779 -0.30632874778548996 -0.053167037321926999 0.070830439124106817 -0.2935010013626026 -0.13841099157161604 -0.091632848111573531 -0.003575999640732251 -0.22807040674184684 -0.10544691731804316 0.065054085749530574 -0.20127601424523375 -0.11960884723246225 -0.29070161530322924 -0.21260075248241378 -0.29967618545842828 -0.3133067673957271 -0.25379341865551214 -0.25731499137459818 0.037101627501815518 -0.25040712874298265 -0.30350658870282465 -0.31606373499576623 -0.27328810551854443 -0.018471254849831822 -0.32580939578283769 -0.15091589101265887 -0.21426756876047326 -0.055209843720100078 -0.1804408948733493 -0.23418412759735383 -0.0030836982994033348 -0.27652982705139995 0.11074832274500741 
-0.71184082143178362 -0.70481986760574766 -0.45741531265376068 -0.4190464146049101 -0.43572063544472156 -0.38085352632449559 -0.33292333069455315 -0.4216198826329749 -0.38255965293397143 -0.41468361460739039 -0.37279486756305147 -0.33941594700289357 -0.42862527000507422 -0.24125075333839455 -0.29973974928386732 -0.33116370062813055 -0.4617958225161668 -0.38341057846679694 -0.75410110372783135 -0.35896460703377953 -0.58672576146111544 0.062826548063034948 -0.50428402515846327 -0.27099473849259265 -0.77082347318912581 -0.36529538292632502 -0.4128157871822784 -0.39767841010222177 -0.35352704421126313 -0.65179369378300711 -0.30234221173490383 -0.55433565945999841 -0.40395449176719705 -0.6610474339906901 -0.46669863031686815 -0.3592430444890275 
-0.28627592976405158 -0.26562546218033822 -0.18863863273152046 -0.037841076139907434 -0.24249031871724458 -0.27498615560956258 -0.24898343395032463 -0.11757361444883727 -0.23129458485416188 0.12417027043360365 -0.11989969040262691 -0.10592175999489696 -0.29672754525815931 -0.091809623898860784 -0.098597824975906634 0.053478327018995325 -0.26023155139330273 -0.16500971167105377 -0.23698665682035674 -0.30322003950642268 -0.014025718976235847 -0.22546657026692715 0.01439983545333166 0.19338638983066828 -0.28186832857812605 0.070579859367757597 -0.2675804372575224 -0.2681753517556219 -0.22541657419579991 -0.26274644500814931 -0.29322347237619084 0.0027792764832857992 0.027566146178598955 -0.33395508238376065 0.12353657596074641 -0.10127958997306243 
-0.32571267718310953 -0.088326906300962044 -0.033562858639395496 -0.051932533907395662 -0.3625946491547859 -0.34167718425517607 -0.35451214815816268 -0.035201324251937872 0.039261105787616539 -0.059055301412616494 -0.032889679892666064 -0.31182721126183371 -0.28526747625221871 -0.17823016661267324 0.080527236097578378 -0.22631206323780292 -0.079897337617502714 -0.19994394602386659 -0.31046780474970481 -0.37667696575645854 -0.11209536800937646 -0.30689895417204432 -0.13087600055642815 -0.30643820692776536 -0.36019517821362618 -0.27556365936902172 -0.33809955226414085 -0.32713500412772778 -0.36875716935810182 -0.27078184634550778 -0.30700467128844156 -0.01501204304981091 -0.022768455789858259 -0.37134669177990937 -0.091386917815841087 -0.10700622302130465 
-0.047695713515404428 -0.10324163958905762 -0.038225408268719355 -0.12081420493272714 -0.31427784098009071 -0.32197429954451162 -0.3203467012103618 -0.045813270983056313 -0.10541940394560374 -0.26097027581342469 -0.18975358462596975 -0.35152967957891823 -0.30056349640859126 -0.26939254779488803 -0.10801997004970777 -0.27766126332938801 -0.2522213996018991 -0.16270805011512993 -0.28809977772965123 0.086718048470325437 -0.29893129318997635 -0.27611054693315662 -0.12978778168486224 -0.29242569509373667 0.083019937718344344 -0.35696446471939131 -0.32234168896571269 -0.35138262300219636 -0.35127024415010916 0.018804461543692225 -0.21834860190999625 -0.0016792834647951119 -0.021184689327118238 -0.040179492375817166 -0.13539949613343982 -0.27678266700249465 
0.019596292830970544 -0.22799236538097101 -0.23182227134854436 -0.24044133889248301 -0.36773927990410166 -0.37520052792866815 -0.37272028485765801 -0.38045719861136906 -0.35128104549867628 -0.32046104947526166 -0.22533031058276329 -0.072090013190938607 -0.29694466033899425 -0.31852040213528499 -0.37858800549740873 -0.06253928918997749 -0.22506848747569586 -0.14097905874509026 -0.35751152840845374 -0.049927645226230673 -0.15981785702102191 -0.33530857558479443 -0.1914076675877748 -0.24204648569222145 -0.058368140238802824 -0.34626965386305025 -0.34018434779615381 0.004745399321013366 -0.36402379472097146 0.0050109604749343489 0.015012680085600954 -0.2819460197285556 -0.30406704884147434 -0.12624429638251664 -0.29748098239607712 -0.39287952929258541 
-0.25939531156179396 0.0076856657879014216 -0.4090102429507258 -0.26890921368275467 -0.39925671922828415 -0.099980700392901065 0.06430970716081498 -0.38486380809661258 -0.42937149243620054 -0.41228322902115672 -0.39845940870969893 -0.37881710525305157 -0.14694359685386363 -0.043558546923727084 -0.28802387764230736 -0.14942459393798088 -0.25751186426022687 -0.26158356087365686 0.0076771323657167032 -0.42120130751149859 -0.38575020657017828 -0.44166653045334697 -0.38793245053644776 -0.10420945564528185 -0.35393370016083164 -0.19388025726844521 -0.10187343120132838 -0.26916601979366322 -0.35536173574864055 -0.30232208673624206 -0.11197053415470416 -0.27308302482744123 -0.39907529097073663 -0.19124028761158857 -0.42684459346222781 -0.26473586965201074 
-0.00016515622363675765 0.13775683521596424 -0.098361217578368673 -0.14244347947770145 -0.029240957284152193 -0.22497309258373732 -0.22299363167961028 -0.113713525817896 -0.17910367008346925 -0.10948973363632165 -0.1232645820773757 -0.19081644292037936 -0.050971216061415039 -0.077555594379478301 -0.084184080415969295 -0.18695823620403815 0.13120827219752423 -0.2062262331645324 -0.21526402011951951 -0.20250504460303903 -0.17965044165174857 -0.19004957796710453 -0.12345867572684573 -0.13559122265247989 -0.16130956034282284 -0.10374742965048463 -0.032534616674279752 -0.19190097501364878 -0.12319741384852219 0.061484372490885425 -0.16666282746752367 0.13301131143924971 -0.045688530638476464 -0.17662905026059966 -0.1131172708020423 -0.24958358010763973 
-0.16323955989824054 0.26358375266741968 -0.069376290531524512 -0.08171591422776453 -0.079765993700071147 -0.29053626910627794 -0.29354127410788888 -0.11037490194157816 -0.10945758990805068 -0.28898925215818905 -0.079661142393760029 -0.25423554456772757 -0.025540272104831632 -0.26444616105118612 0.024925808795781303 -0.19606974825079196 0.04936767590569844 -0.25228974087084816 -0.2538793127176231 -0.2437949716864421 -0.21008067803022676 -0.23219330223740861 -0.17797247095271354 -0.17810376235853942 -0.078133778204918736 -0.27331357310934706 -0.24325086086095379 -0.25564279681931579 -0.28541082388033368 0.041628438293565273 -0.25063607245499198 0.050731485902319018 -0.063247437876310347 -0.1098675104001557 -0.084885922602507324 -0.3288790858159733 
-0.10371384510766886 -0.22153960843087978 -0.17695747354064145 0.021366014263148818 -0.15575872173601757 -0.17912923890000071 -0.16641193110866531 -0.11571185188616519 -0.086664407430211074 -0.1908784807435247 -0.2069346230230745 -0.241937877500356 -0.19313742985448776 -0.17739904591884156 -0.20140474983741408 -0.088347349742087619 -0.20989002235875456 -0.078261983176905303 -0.15176671478446152 -0.16908937960405587 0.20259040793522018 -0.13626021773054289 0.24446321378302471 -0.17133722176013894 0.12590488027725655 -0.25908130757632364 -0.18096882531314551 -0.12604613754892327 -0.17875490509403524 0.0081304356371967989 -0.13119135857812744 -0.089344100254177147 -0.14366357720666881 0.16243366471688525 -0.15411612940550229 -0.17860455548648121 
-0.11159391463470951 -0.45283164212167165 -0.28594260210823447 -0.33554012279202799 -0.32422275422206709 -0.32207252330256642 -0.32148482199883022 -0.35484328250796104 -0.10378625513986005 -0.39488540137020089 -0.27186004893663007 -0.017184290533247 -0.42472775508705152 -0.33488890964417867 -0.41174402756778516 -0.13430777479554404 -0.25656606453477876 -0.060714196895789635 -0.35742111117100628 -0.078251028759486044 -0.087162086485979992 -0.28039853149489063 -0.090652022878555671 -0.22688825492838696 -0.028409693921321234 -0.079831408389831937 -0.35422376708726788 -0.0029473665553609953 -0.39154910860991116 -0.29060866100122967 -0.076270802554642331 -0.32744321278671307 -0.3379969732715683 -0.11661861739483548 -0.15649931187582483 -0.3947281343819577 
-0.098064698093645264 -0.21395674061097636 -0.26467106094003839 -0.22774209960780589 -0.19130476025038809 -0.18858565677336284 -0.17737929656528728 -0.25186460339976208 -0.076989956445014704 0.22215644640680163 0.018890253394705417 -0.092126110701664196 0.0049406600869228443 -0.19112306470143911 -0.041292803102524769 -0.086300694796674585 0.0086500118546856981 -0.013945382349516687 -0.16428761117982407 0.16273089746806874 -0.057049922645628588 -0.16989904572969974 -0.21681023289579957 -0.149424636432754 -0.20243346312820268 0.032758009281488643 -0.20057613929286902 -0.16192024311522302 -0.19714575470052162 -0.042932533212237736 -0.15859221260396572 0.10451164416641709 -0.06136100944774231 -0.21505246994889651 -0.19774674251327581 -0.24161366515521654 
-0.31832075954299022 -0.34135087378669643 -0.075777344950577669 -0.024540068485021303 -0.32066360939654842 -0.30107132792127478 -0.35790471231624166 -0.050328507933734709 0.0030679849714055907 -0.029440917378597203 -0.0096863574521243584 -0.2946311652792144 0.055897573075002774 -0.2736335823472737 0.0062230858583063649 -0.257430886643299 -0.088600079208474181 0.070848260626136444 -0.29446521996398761 -0.32861682394003389 -0.26828037782797071 -0.31721795334784114 -0.28157297701164474 -0.32495902161470153 -0.3833205560048985 -0.3142154330856145 -0.35438215784915289 -0.29261436583952388 -0.08405509917183758 -0.15675643951163748 -0.31010703741979884 -0.1106126804430423 -0.065247018436346588 -0.33894058821548256 -0.033398657047911381 -0.01894156891234262 
-0.31614286013460952 -0.3031426621699661 0.007602094170371115 -0.080616983218964294 -0.30038202198268671 -0.30727593194975417 -0.33256167239690337 -0.13177406039185252 -0.035799870416917595 -0.29556888813468302 -0.022601348448305046 -0.31700708778747777 -0.0065223472137607291 -0.23557155079794512 -0.061438589282575985 -0.13911393455675131 -0.25153397613656669 0.078549994948618834 -0.27469276661579023 -0.1748382380428648 -0.29627384775087745 -0.27897337370016917 -0.26969659458183798 -0.21841337736316815 0.017823229732538085 -0.30041374848332614 -0.2105625324217463 -0.28173016338760287 0.08297823602838772 -0.26100018312940743 -0.2405978310511673 -0.22545940570174311 -0.12491916204125728 -0.093906829887134849 -0.0026730819086258537 0.0054821704189494825 
-0.41347081664402435 -0.012066989102408249 -0.34501080260829936 -0.25578689357381129 -0.50679775648820635 -0.14093310728957867 0.015094131352674477 -0.41811995540926711 -0.4307666764508345 -0.51896327373987117 -0.39076682963305109 -0.4264838978575462 -0.14893192820264869 -0.13214297996162047 -0.27804559710664029 -0.14703462075085569 -0.47297888488882878 -0.10873015161422114 -0.01867426181382574 -0.35930427844828094 -0.44437102451013077 -0.46552179361838086 -0.46107649450195531 -0.16439291982677107 -0.15479919473543477 -0.2582846617731222 -0.11663556541963403 -0.31126484825592554 -0.093990297567409453 -0.45055710553465145 -0.15243521489667242 -0.43832563032856897 -0.4806010878753284 -0.14224947608101399 -0.34877389023309724 -0.28385783528671288 
-0.22626095526050322 -0.13682924991457068 -0.29025288750623435 -0.54901220248855143 -0.30358900192121818 -0.20686141228490978 -0.034056925500617487 -0.22704756417164745 -0.57722984304950042 -0.29021081019697231 -0.48358558114574485 -0.46007094762275946 -0.23041898859071369 -0.060051160087294685 -0.27932787342521143 -0.43482709785802021 -0.38804877853896708 -0.48009377815858645 -0.10395267576341481 -0.31660103456302402 -0.47278702973866804 -0.55308849205405375 -0.38800758315613548 -0.21069136999910121 -0.54386587389582774 -0.21849590233620036 -0.15065174735112255 -0.33921102193499647 -0.61783742069982606 -0.24706071672303881 -0.33848203056499859 -0.22107668715556017 -0.22656620738345515 -0.18632588944431122 -0.18710960357257156 -0.46504045992775045 
-0.010208615630174311 -0.37559118541943398 -0.030212145306056214 -0.12577662903581582 -0.36273004310110174 -0.36750839515889128 -0.34791449296954419 -0.058025816204934633 -0.10653230856291358 -0.03728644072661548 -0.042621400939497511 -0.33069772823284649 -0.022727839144682491 -0.32385557782113594 -0.015502986459555591 -0.34273863780303676 -0.10115305101656012 -0.12814425586435257 -0.30746749382273098 -0.11229995420301297 -0.27779511611161245 -0.3177372860613038 -0.29232831059506587 -0.2135629366220787 -0.34552646140945548 -0.091277935606560723 -0.35509490228563351 -0.33212722613661388 -0.33255875454742284 -0.0070716941793884823 -0.2912678253423876 -0.055623859244458319 -0.069588674107942547 -0.35453782182246052 -0.032891276114565222 -0.11155026053253729 
-0.29278642578216174 -0.38551067430528557 -0.06239833151758048 -0.058209041988612036 -0.39420700610492376 -0.38360380205488337 -0.38324000892741061 -0.089283053567771622 -0.033352840848789145 -0.18533999062324585 -0.041765363849784014 -0.35209502647401181 0.021098727534430255 -0.33813993183000318 -0.025787855480976323 -0.32145260312073343 -0.12569801364028096 -0.1643010494713816 -0.32159677275544057 -0.15716327296636212 -0.27458281330719858 -0.33860253552146913 -0.30446677514949883 -0.2214966457710405 -0.1910212540129845 -0.33544988661749592 -0.35665628991403264 -0.33431211930436405 -0.11548947496706942 -0.060154650919255849 -0.36298255281404385 -0.081027056731698799 -0.10676449595360819 -0.29081455878621176 -0.073685197204449271 -0.071944504336536916 
-0.02151214014254876 -0.25642372471193253 -0.24283778117893409 0.14212546614379859 -0.22284586530370742 -0.23898151383846533 -0.23724910428970658 -0.14110582552478701 0.075507745496867743 -0.26261125631815679 -0.24137303084522738 -0.31909809914590964 -0.27820522671434095 -0.23174190593932359 -0.27450630273128424 -0.098883558503087526 -0.27890612071796206 -0.031772550814004631 -0.20448331141668993 -0.17093164983313225 -0.13900950536705398 -0.21049751943581882 0.070693055253028728 -0.034886194059402298 0.11916017728522064 -0.29249082932538573 -0.2507981925820611 -0.21862075701957506 0.1855094254843829 -0.12737183689925818 -0.22336988874533587 -0.14711447004279085 -0.15454097896468885 0.15343214664820881 -0.22220814961036797 -0.1744476310549736 
-0.11986287695527226 -0.31477404072979803 -0.34610136538179237 -0.39773331233932968 -0.32931905412298396 -0.40925540311249542 -0.33432377991598417 -0.057947226504911319 -0.18488442114041984 -0.32069490471843498 -0.1656230032343253 -0.037489394040635775 -0.43695846923176668 -0.26497121051081235 -0.39859052859370697 -0.16548685932497662 -0.44711927752228009 -0.092618720865375231 -0.36238125627958451 -0.10409777129519819 -0.10815680416240042 -0.34781761510567627 -0.11509387042180452 -0.09616376574691686 -0.038887048802081041 -0.11285556911671404 -0.28487898077245 -0.014799435423613345 -0.42430998127682051 -0.41869195805273463 -0.12359730263244798 -0.38068102478156446 -0.27281447381826657 -0.14910925795331914 -0.31980833529208758 -0.40845265889292498 
-0.06478732919602205 -0.10980382090922036 -0.19336137090875608 -0.18964398525427267 -0.18305034138631243 0.31128809362800042 -0.17282936149671829 -0.043659191228929084 -0.12755287615895494 0.24550698601084939 -0.11522294268589592 -0.20419065927045504 -0.14551001987946383 -0.19000155396308693 -0.18178472937873386 -0.054440649771953481 0.17930091478247717 -0.23461065077100815 -0.16049286887786007 0.24665925869778038 0.26514091933402373 -0.14909668763482892 -0.23768029966436133 -0.083372315363804406 -0.1846631344552927 0.0623867146960927 -0.18855205042221995 -0.1996613460944123 -0.18165827042100438 -0.19828210409285837 0.030519188143965866 -0.18789630793273238 -0.19036269706461489 -0.21481709460925044 -0.16651442378120621 -0.20389323544040602 
-0.099256840989723788 -0.048174493154389715 -0.16124285020434287 -0.1962829752335892 0.044373551157236409 0.25348846402617503 -0.27437541278633609 -0.23160051346884317 -0.14351837485224059 -0.091664745076342438 -0.022012389500281317 -0.22566059997392909 -0.17357421398525752 -0.18400238166620481 -0.16520769370713642 -0.097209317232488726 0.08338619338312539 -0.1644362096886666 -0.178869090377033 -0.15057644088291344 -0.13839416240814092 -0.21361432025225444 -0.2193855716962877 -0.086384302791964573 -0.24057819480833059 -0.041057327598966242 -0.20404989049034372 -0.21356344815532627 0.0068276274474128448 -0.22665208017322094 0.098168568361983705 -0.23987821191411124 -0.24549188465423211 -0.23775396972451199 -0.22111966913362299 0.19916841805500632 
-0.038577075938122582 -0.038642890243960011 -0.15656303689404083 -0.18671236153695556 0.012753896248008628 -0.00062079523480162947 -0.25988430109444455 -0.21921695488575879 -0.17195068303462099 -0.19367097359996563 -0.11775022269885024 -0.20920987863859003 -0.17023248866208626 -0.12985290307013872 -0.10197217111203478 -0.017851746785190078 -0.048327821230627399 -0.18587245955412579 -0.14013642558756831 -0.20761906803570093 -0.17888462524517676 -0.19653000082362562 -0.1510789512417666 0.0052423990500537615 -0.11286891041650118 -0.13905534476230336 0.17391782861557725 -0.20925728243288419 0.24325868019310798 -0.19591729925716886 0.097812604384419868 -0.17692801010807843 -0.21866949945535802 -0.19869325114800376 -0.21918034634198205 0.025484967758958418 
-0.24303196785050538 -0.10519914094150014 -0.31149271642394771 -0.50355792906619989 -0.18654346284085649 -0.18676709872967995 -0.020763309650672791 -0.23775187094430322 -0.52571377806646391 -0.5271155175683091 -0.47603261103861011 -0.4402423484973178 -0.18827803033245633 -0.043289494141471124 -0.28771205954372014 -0.30402682017188332 -0.55315299771287929 -0.5649211268688602 -0.086283618936613779 -0.40902104210129125 -0.46194779323554952 -0.53622521211219731 -0.36140228280618142 -0.17459814294903028 -0.46673449930551753 -0.2151458790713574 -0.11071904712262201 -0.31709402089170796 -0.23676932326326894 -0.21032082912952135 -0.21785606776227784 -0.30191042043537031 -0.2050368220748843 -0.16942708864399583 -0.3440065146973536 -0.52471356353138487 
-0.061647645602640327 -0.32106626110125663 -0.28884321554222475 -0.24321245718237405 -0.34033247355971907 -0.37161282078371344 -0.33641780221179313 -0.34194199929248431 -0.34600572460678414 -0.10548938223456934 -0.28444806233935188 0.043986968505953704 -0.019462520022723539 -0.271679962307316 -0.3622265691069772 -0.05633785282458139 -0.13534511168276026 -0.30942064420717708 -0.32216779111803645 -0.21700005698104555 -0.027175836079821623 -0.31117743072637966 -0.030717802372053224 -0.28644216397862998 -0.1653621977338508 -0.057899004930227295 -0.35302891075328752 0.053171396948363987 -0.32217527930481921 -0.019110337996924767 -0.099478760007194647 -0.2525833025623952 -0.28914270689765958 -0.051747245349325323 -0.28010607114102676 -0.3470021383602292 
-0.18772349598661786 0.1718184673450098 -0.15393084026218828 -0.16324297369633409 -0.21716930429555614 -0.23934636120332595 -0.21342427487325094 -0.12290056011556835 -0.18756012350757251 0.090986354799372671 -0.18047649668206245 -0.25682185599992541 -0.21718023854747578 -0.21519200534770458 -0.13375256907077984 -0.12814388258810544 0.00081476423889740614 -0.27754842756033649 -0.20526029183806699 -0.25380151490185027 0.15472784215883459 -0.18186132532275448 0.18882587888899061 -0.26370347499237967 -0.24065781854163498 0.029931163122238688 -0.22944146434688267 -0.21120090934861757 -0.12380097434953927 0.14302263669113877 -0.22960116614808454 0.04541603835710787 -0.09326502457553168 -0.26663546811770372 -0.14024199832897336 -0.2505268668114834 
-0.16397605607759758 0.27733512018025586 -0.044634337935948058 -0.094135639552564432 -0.28311277933424978 -0.23729920400037413 -0.27889349801505309 -0.01194421824344238 -0.13516365411032544 -0.2292901290280942 -0.12645485762585482 -0.22023324964210131 -0.25916489657127301 -0.22576283225799457 0.069019012446862149 -0.23006515467506264 0.0079942745022002337 -0.28375527165940867 -0.24604141780443783 -0.21245101633214097 -0.25880917766016082 -0.15030710460252261 -0.2371640968502737 -0.24153243755512296 -0.23626377554909433 -0.11880278082656419 -0.26606550652386379 -0.24968874515336451 -0.089753180748173761 0.085735566176456737 -0.2137523474493799 0.063859135302977016 0.077139661408053575 -0.22738259830437732 0.0071439264725302407 -0.31736262104080692 
-0.022352280249340651 -0.20467446930083105 -0.1408188659744303 -0.18622971147279577 -0.25477686072625694 -0.049498331537809921 -0.24037412452298221 -0.11951854501579376 -0.093154193239813068 -0.2245376354345614 -0.17429286311863193 -0.1708420407711051 -0.19148282255949273 -0.24109684267478157 -0.064700111196022106 -0.19150709493854129 -0.15763960921348549 -0.20412885626906985 -0.18760746477546653 -0.19764988046601978 -0.150306543850909 0.28000356745078026 -0.079567343456432293 -0.19574952180902147 -0.15892019875201405 -0.18279649399565095 -0.05853148327801596 -0.20931995811101944 -0.11062808987995636 -0.032599991659461619 0.064146239998468205 0.11779886365606879 -0.063804542753184562 -0.12111968789546081 -0.12840586789682715 -0.17421266478349312 
-0.45906156073655768 -0.6971210025616742 -0.43473376598831948 -0.30463250345918624 0.11674412660198015 -0.33839827333921157 -0.17842209970348452 -0.48992022444397093 -0.41740359498836993 -0.67320748626482863 -0.28549759948459691 -0.21482071760823215 -0.35252862382977307 -0.16879302141324781 -0.48525344746299676 -0.32632870184641338 -0.39145219578603541 -0.28424878202697434 -0.73010411234217332 -0.29386546829019866 -0.60196181329811971 0.04505620467028864 -0.58854187954770232 -0.33311015277304767 -0.6800728857748487 -0.33461656938744488 -0.25860632573727371 -0.46146339401935554 -0.30559523125694682 -0.64585046516637667 -0.3607291265109191 -0.6635130658621492 -0.60189949160314338 -0.64739612042435379 -0.61160228563498076 -0.37947902101623998 
-0.21015813815408685 -0.20656638263321825 -0.19635343579668116 -0.089950846069555626 -0.20195428239214389 -0.22825833195907691 -0.20114388067701233 -0.12107071660823879 -0.17805235570097161 0.21245653212503879 -0.075547463099187875 -0.11559274363145126 -0.24693819202743092 -0.19596475857887055 -0.055101725520565997 0.058894430776618725 0.12093867721801402 -0.043804160167676451 -0.041172575218911399 -0.073880148615913327 -0.19064405263865389 -0.17119438161824421 -0.1975494031009763 0.099899083228135413 -0.20273806049047835 -0.048206391435161096 -0.21800059959688148 -0.19076845974534665 -0.23151767194495787 -0.21593026328204762 -0.21721937141362796 -0.13645543271704372 -0.048269844600458023 -0.22323034418575516 0.065095004891090019 0.15144926611352874 
-0.30443394757213776 -0.30264066702235604 -0.0035071615115715624 0.0052630240736235854 -0.33166514723623519 -0.28007508333847442 -0.32272756035928218 -0.019418664424751444 0.048591278301087615 -0.023945336578346264 0.023302406340468283 -0.2754973631904849 -0.24536785632982203 -0.2617666492716671 0.027930564802946797 -0.17153929321542802 -0.19315326305663796 0.020524179599661165 -0.19657286076047364 -0.18376781619373284 -0.27839635053898698 -0.28752056729362335 -0.25197401704971367 -0.274184853681741 -0.34779117669673809 -0.30250392068712001 -0.32299357029533426 -0.26879634382660567 -0.20446676427520094 -0.35404517190400536 -0.27103909546546046 -0.027374631240215271 -0.012171428694755175 -0.3161577331463975 0.018814590042609783 0.028655727251073924 
-0.12666926967983033 -0.289621703661396 0.0026848415662406901 -0.073260787673178632 -0.29785493294312421 -0.29085931026042194 -0.3047940018017482 -0.11277430294224837 -0.036112281081682837 -0.2719204290389905 -0.083280116550585204 -0.31118458071399036 -0.24637753609950055 -0.26924660375454679 -0.096034040610569693 -0.22453389833693355 -0.32610487844451047 -0.062564706773725415 -0.24011869656180085 0.12009059993934564 -0.23591985606070787 -0.26440956619876288 -0.25128420601704854 -0.27436809285028979 0.082683156753542431 -0.32169322711783738 -0.31125683472481619 -0.25910128794668691 0.085890199241498141 -0.1522324646325306 -0.2559577700118742 -0.17629867681415864 -0.086400380309035948 -0.085298236128537944 -0.11081031396597214 -0.04608543541762878 
-0.086414064458460574 -0.35219993503473424 -0.23236166343194781 -0.20862886772480441 -0.35795222871555132 -0.38442844306011875 -0.36227599622131412 -0.34774961713390568 -0.34942160705452813 -0.31954318101846862 -0.27922082574738649 0.022463170869941672 -0.010115957516625763 -0.2887020290449126 -0.38595637680907852 -0.085179729516490554 -0.26587496284047518 -0.22708916596908835 -0.33806163374520154 -0.028905573362016421 -0.054352648319846916 -0.33124359038876161 -0.11337717094001748 -0.27969319949511362 -0.025154256297079052 -0.22837978380052343 -0.38007565091882267 0.032244156855191733 -0.12915577195217676 -0.18264540190729028 -0.1054254716012557 -0.27649776283872379 -0.27002877994968832 -0.08949069121381116 -0.26636259917200927 -0.37836545015653755 
-0.090566813947971073 -0.39949111574190721 -0.35151591156603057 -0.26719187889064 -0.3985866812210459 -0.11684647813467873 -0.38607382472084895 -0.1499351542522179 -0.39339179422340814 0.044944348229557562 -0.38720655211839061 0.0012995802039640512 -0.113149818287391 -0.25724888708791349 -0.40532915463733171 -0.11127396306517412 -0.22798252647590128 -0.195577943775323 -0.36814885419683036 -0.31098508091127675 -0.063247507535859865 -0.3432762988680132 -0.071830921884108001 -0.14737216475792511 -0.12147463048138779 -0.073749089273589169 -0.38183349373684128 0.017801620662641699 -0.42345274098653729 -0.15663195178966335 -0.31210146485635798 -0.29459082341128334 -0.28834349578988305 -0.10621193246127207 -0.37164572212080482 -0.1915516443710398 
-0.23130249248859264 -0.36321055057829393 -0.078669031080584359 -0.053146803593434488 -0.33752270782937138 -0.35062908408047583 -0.3252906728117621 -0.03532447529802598 -0.068486237967233965 -0.0084873368747262617 -0.16986256870639255 -0.33750625143575236 -0.29783579839394875 -0.32287883080830088 -0.085397035834580123 -0.11683023860306228 -0.077372163129063698 -0.058123235234151562 -0.29255874387379482 -0.1602984512495394 -0.23167321990094722 -0.30037070948584438 -0.17960469533001044 -0.19038964043799875 -0.34457503287146646 -0.056334222623953982 -0.34991909980945946 -0.32015300417055748 -0.35533330773414284 0.02639490854397334 -0.32293110722217666 -0.050599216918694248 -0.05260360684592473 -0.36359193123967409 -0.058969997490616016 0.032482213763105373 
-0.19634025857614212 -0.37420691523370475 -0.04660932191731243 -0.042730518380298996 -0.38389627832725148 -0.31868867471044937 -0.36565322370639947 -0.08335182904165761 -0.020502575935036616 -0.048811486668433365 -0.032575716862268518 -0.33636371120015779 -0.2770863806006636 -0.32414811914403313 -0.031517723230909192 -0.34706968233044128 -0.12110808263414306 -0.10345987542262461 -0.31307588792615126 -0.066435922341336176 -0.29782235081423469 -0.29029238562261384 -0.33511134111954916 -0.19213639112997699 -0.28114868020092354 -0.32531411126027387 -0.35293350432601245 -0.33234590437850192 -0.31826259825993769 -0.011847647872336038 -0.34235648601666691 -0.074681315388208311 -0.10071634365058739 -0.34123475945600562 -0.06603991511630028 -0.023976757537250048 
0.086893411327538791 -0.32546488824127939 -0.11543284798592114 -0.18128082510418389 -0.3598555395352564 -0.060821991333720057 -0.34814400126204381 0.010817438789236428 -0.18373650591801746 -0.39053359880112642 -0.20843159045934936 -0.31777307984726921 -0.40079357801006604 -0.34949343100792324 -0.028722742275760681 -0.31920641554911222 -0.30287098205428642 -0.14805333293559769 -0.28598028066388614 -0.035704024870982468 -0.29611571117904961 0.013319858564584838 -0.21626500539377519 -0.18587443129237682 0.011830769023131651 -0.34654296335808066 -0.14428054929115236 -0.3282631262186243 -0.17558937331732766 -0.17028186836284803 -0.16521132723076834 0.0089492732952061501 0.02876941133713706 -0.16143083794207014 0.078428789554098044 -0.23683456685825424 
-0.41584098900355876 -0.76052104221289862 -0.41767093764808172 -0.34312076873594355 0.043529334347720175 -0.4243412790180468 -0.28430561964015044 -0.42304162613344276 -0.3499709930752879 -0.66576364452643932 -0.35144536421066797 -0.31241787570546886 -0.42170247819679113 -0.31599139105415847 -0.4619148490535806 -0.45282268640525541 -0.5517310796699616 -0.60779239591220735 -0.28254128646704885 -0.45996723866002115 -0.63499549668074051 -0.0095818850174399471 -0.32331859383078709 -0.44473112040789337 -0.54509334246246988 -0.43776920878672038 -0.35970767464493181 -0.39027637293168627 -0.83314358813370504 -0.75350165033324223 -0.46713416980630645 -0.77012574363126363 -0.42051349126481369 -0.46956031492968292 -0.66489472628544122 -0.79025310117514025 
-0.12284932384530149 -0.20323928985962891 -0.23443494871088877 -0.17152191334102676 -0.2285306765599005 0.026654640400698402 -0.28181407081829418 -0.17067399315418577 -0.18197004465904995 0.14630465003833892 -0.14338181507736666 -0.18322724440469668 -0.18353822979492002 -0.2298742057604255 -0.19632333040675395 0.051479522607873043 0.17754602713614206 -0.21874304860440213 0.31383838244580303 -0.11805669298499952 -0.14947731532137554 -0.12757149148781588 -0.19991730361733931 0.086510498454707971 -0.18977875425832297 -0.093651412144947627 0.19500808635550312 -0.2128063155914891 -0.22106584094979184 -0.21376945265474454 -0.13492169309562269 -0.12557732853493436 -0.21431828507212508 -0.21413772249888224 -0.21978637993667943 -0.072807801802998978 
-0.134151059615783 -0.13815149995486287 -0.14037474684261692 -0.1598623532741017 -0.267117395383074 -0.027013416018276417 -0.28236012253077708 -0.23891956751122473 -0.12100009100491463 -0.032694425981770671 -0.0082051927848697526 -0.20945715136032317 -0.27559040136117652 -0.26565152659009111 -0.17280862956843673 -0.096587466898894039 0.029690083289591343 -0.24152221468267138 0.12295088432576311 -0.099748448635654796 -0.23968110953426416 -0.2022250577533124 -0.21136837675231249 -0.040113224291891673 -0.23994685342970248 -0.22995800442384912 -0.081257869074726041 -0.23231469459259646 -0.0065397891854471653 -0.2174094557195361 0.18523039528208271 -0.16993916224107544 -0.23979954469207237 -0.23824247654162528 -0.24449599056975116 0.18395019516773475 
0.047470261354170151 -0.049852649014864026 -0.17120850147615491 -0.17741012338998907 -0.19784703154147579 -0.1043372635658916 -0.21011467373333559 -0.21323644653094434 -0.16249242489920396 -0.14571319271458644 -0.12096368500098539 -0.22515680900534304 -0.20402743268630461 -0.20869731629123003 -0.16789386544311988 -0.14228911968189936 -0.16589817158177839 -0.23970496905085464 -0.12016761808990221 -0.11564458302353933 0.24485203376719097 -0.16691129805689181 -0.12716602880913727 -0.06467949443366082 0.20317252672905359 -0.24281007478644648 -0.15796403079617183 -0.21524054853312097 0.232244999459011 -0.20803939278169903 0.12428781902702465 -0.17373000161196436 -0.19896064618260598 -0.21405249257683706 -0.20171688569352747 -0.012926881721089779 
-0.052877269548004341 -0.27312027567947889 -0.32577770601497835 -0.23014697701249551 -0.37249152622832138 -0.05297853447098725 -0.37318955349338623 -0.22226037476909369 -0.34408022462006621 -0.31959075735525011 -0.33948086060961735 0.029605543959302864 -0.095647266947949783 -0.23256593682849211 -0.34634739616141674 -0.08683638378344001 -0.32263708028935101 -0.32077605613586035 -0.34695553053594685 -0.29188428766976265 -0.030017481747071952 -0.32117918413147256 -0.039710022612241304 -0.13329171987354146 -0.016088678768911662 -0.086665788884436615 -0.34230654671503963 0.04096704746529576 0.088568858579228943 -0.34938567522599517 -0.20537729714067232 -0.29778055784798468 -0.29452174011689919 -0.08613900954755617 -0.34632377075931575 -0.33265482480286013 
-0.3392941927479054 -0.1736361217995277 -0.17172707229412812 -0.511513890877484 -0.3016104134738633 -0.16639129991183235 -0.15409641617676947 -0.046024550719097515 -0.52633461049586505 -0.16437637130906382 -0.47279312727066386 -0.40030719519734831 -0.23975059095590251 -0.15215829708768647 -0.054335393357318913 -0.44706845553475988 -0.27088338514720445 -0.2503590709986851 -0.23557181554235918 -0.086945654802299002 -0.24744911361839675 -0.45573572402486101 -0.35526705905354877 -0.33338780177310623 -0.50904398990924649 -0.071745112399591193 -0.19483986076796161 -0.25397398526428233 -0.52528320621652724 -0.1551609231425613 -0.46067984966850789 -0.23058212700297506 -0.12343558271096806 -0.1778884742491196 -0.12307504729475527 -0.32183651043089251 
-0.10758712778883074 -0.24831371337870312 -0.15098795022906361 -0.064496260660709986 -0.24222672682391433 -0.23086874126404386 -0.23320095953112993 -0.04165911490566751 -0.16268148227332963 0.10345937466001845 0.011915792309883648 -0.25205045140972093 -0.15350699861558431 -0.23383492583041965 -0.09993645171091349 -0.25831267706603034 0.054466351822722414 -0.075677232193387012 -0.21060790606059893 0.1131647362680782 0.028694623816294881 -0.21478827287178545 -0.26971119341693106 -0.231319855118398 -0.24914060099738794 0.068449337343559818 -0.24772694320063535 -0.24444088831183181 -0.1889392175827781 -0.20412948376121409 -0.15715472218367207 -0.20369201202204301 -0.18582630520477228 -0.2641908613941269 -0.084101681947038848 0.11247279844537773 
-0.21033642104462305 -0.28125462486198072 -0.13125063941288556 0.27244929215359132 -0.31394057914485413 -0.30220123011423033 -0.30505705116563908 -0.30676176955197476 0.049250184438778252 -0.1997636637826484 0.18932241020246576 -0.2959842160568068 -0.12510831552857835 -0.26505723754757099 -0.018929321873345475 -0.24784844365167075 -0.08462038793404264 -0.2605285203240375 -0.24962483602704844 -0.21945354286298327 -0.10995060490741661 -0.28295977610728273 -0.29268176958993553 -0.25915172718856638 -0.19579497682583508 -0.28111384734169753 -0.28759618314600899 -0.27894337270104425 0.02190768194508402 -0.19961362812898106 -0.066906879571992706 -0.29482246841217763 -0.28322842341019827 -0.27639331238467996 -0.17701950744806 -0.0048257554479130688 
-0.078065242403545745 -0.1561856654309163 -0.18234119752619143 0.06197360174669779 -0.1453345303868869 -0.16735195878201903 -0.15839418407366687 -0.16611576235260916 -0.062602650992431286 -0.16231680813933333 -0.13517153839648638 -0.19250353388946312 -0.17460611010790053 -0.14765716488544403 -0.16980406673361484 0.16552110394382821 -0.15953465778157039 -0.10229872358160258 -0.1413220497470592 -0.012594291984677625 -0.057677707331357811 -0.12939562160179652 -0.17689248903805194 0.073518493639244412 0.24198247684148369 -0.18466398739268169 -0.11824454585945285 -0.19113841982298793 0.2507316842582647 -0.13832397394576129 -0.1610561576347749 -0.14071187600147733 -0.13791976603041445 0.02484801407018003 -0.16004176954147434 -0.014994324188885154 
-0.22650403571410443 -0.033916644787159028 -0.37494514782806954 -0.40619385295493038 -0.35940140870927606 -0.39432724545537479 -0.34804865499415177 -0.064662615819614966 -0.33803591284195494 -0.24745692371285377 -0.11577989079251724 -0.017498748966701429 -0.4091003737003811 -0.28780014721250069 -0.30203629640361074 -0.029160905769290139 -0.34854286833894577 -0.050668869114486835 -0.36439728931440696 -0.1387953138570821 -0.16432378626261257 -0.34040829060918554 -0.044785904215082988 -0.059727135469701764 -0.0660152078805748 -0.25224288615635032 -0.19603247550702879 -0.069819646212856731 -0.34528801758153382 -0.41878618541212476 -0.3290968294957482 -0.36586532518253351 -0.20722472444341364 -0.090248795851824784 -0.38440557559008903 -0.37437372968244226 
-0.019027466078881908 -0.069296496682246564 -0.16661619240166936 -0.14679365724955035 -0.085443323390007264 0.25678187478966946 -0.17526923996385133 0.048174020922289611 -0.1268822298744515 -0.059348259410228907 -0.14898370952838069 -0.17598367942744747 -0.1795408479315404 -0.090929608483150112 -0.18007123244266637 -0.13403918475651677 0.21825994008971888 -0.19848609211198703 -0.044250845820920107 0.095517267524432084 0.23453851200868917 -0.13305394389338754 -0.19839072128765595 -0.10375020229788347 -0.13683499158766466 -0.048539275573103668 -0.15262219112025849 -0.073901019511038973 -0.13048574371095303 -0.12556023437973579 -0.031701034239898264 -0.10495734609484313 -0.17002507993224888 -0.18840730449058915 -0.17066548911890628 -0.16904246712942808 
-0.1423781412607884 -0.38820065495782013 -0.25915517165563384 -0.4900237501390875 -0.26010913638146321 -0.18056465418085238 -0.15209338845177212 -0.48291610466221674 -0.057924810978051071 -0.2332854460931085 -0.47977235548516323 -0.45506619271491355 -0.1468061653801794 -0.20521791997581429 -0.49560298672229369 -0.37137707296443795 -0.3167559866371561 -0.46288485195348694 -0.14563785585830996 -0.42283979132054106 -0.39472649199040388 -0.055902838744937573 -0.43283528329879101 -0.38386030087398215 -0.11238810456301161 -0.24186622817937972 -0.30415187092761953 -0.18122908301862431 -0.13182439816751104 -0.27100914543631527 -0.13996768532656734 -0.14962010111022619 -0.32776238462046964 -0.48383249667486894 -0.23917614820800229 -0.1723941607203654 
-0.0028827865355307296 -0.21055444848824292 -0.12074088324036965 -0.36721145826268531 -0.04146815754597586 -0.25866068784080026 -0.17689764817125908 -0.41082677727518369 -0.20383118450672782 -0.23778053123497969 -0.35934396373082123 -0.33883252364944455 -0.098677312781035753 -0.10902529973422515 -0.29939763216308191 -0.28934229597188693 -0.20422383673954284 -0.35926305478101556 -0.077810482737110567 -0.36749844428550793 -0.34347852361961451 -0.13885085583577009 -0.31444197795947021 -0.26760427865719849 -0.25491049036001484 -0.27548957641832789 -0.089190043395237534 -0.28335940350867317 -0.13286953097160561 -0.084744845350989792 -0.12243322782990834 -0.035507927940437313 -0.26645492160383155 -0.37309220253107883 -0.31557019706298783 -0.10232057396031839 
-0.23882275886565923 -0.19869505249725253 -0.15777938963868224 -0.51785116077020155 -0.13698683674395798 -0.20816904014098847 -0.12350814602502225 -0.050404155903159789 -0.51271880926019553 -0.30738995045403977 -0.50411018703876109 -0.41120987555005367 -0.1778530601393172 -0.20499834144093931 -0.060908741865390872 -0.43497300178145909 -0.43834033163777703 -0.3856296328670557 -0.19219326745710147 -0.17431425506670573 -0.404936993356867 -0.46169202334719206 -0.34608284044679644 -0.31714472327185123 -0.52564999559916237 -0.112790526743341 -0.23511714620174548 -0.26845208739116078 -0.4830092569144534 -0.12747948344189433 -0.39891789408634937 -0.18224102515771695 -0.14920482110166614 -0.19173361284556995 -0.14453717221501677 -0.40254287353787971 
-0.25195837360932766 -0.011172463251518066 -0.31911463439878152 -0.40161204552577612 -0.29312622253532833 -0.15238835559808875 -0.26055712480000487 0.096700668973456083 -0.35665162284156382 -0.21040512842871034 -0.38917411877197683 -0.30553716009029414 -0.31755637463746966 -0.32340707572163635 0.080293838594365133 -0.30210591569655687 -0.21588843492326118 0.035279624878409063 -0.27058887835311007 -0.018827146028455349 -0.059950105025275993 -0.31455478757026201 -0.25501204168684466 -0.19219904265502741 -0.39846143754827912 0.026021125602244725 -0.25303011121588542 -0.33390046517523797 -0.35227377283229144 -0.26928581230362175 0.011271562761162616 -0.26085975040562165 -0.13688033668143218 -0.02017849549248078 -0.13701385497734012 -0.2630410737845168 
0.15216156023852045 -0.19492277655425969 -0.11358028249810462 -0.1846513181209902 -0.13727728156879926 -0.12674284468046876 -0.11807942792174983 0.031882181956216761 -0.15983067862072553 -0.07550625845674834 -0.17041572379226405 -0.19454290953335199 -0.13103938185138939 -0.18380595407172648 -0.065963563566486999 -0.17383726080014206 -0.0096005029108698122 -0.069165109937213448 -0.090239617775486433 0.20258203528484939 0.1721809348647155 -0.14520459660608565 -0.20801916084959901 -0.1907457744278297 -0.18286681569138225 0.19820471991928765 -0.17478872532564069 -0.17334570149812537 -0.12407200943643074 -0.17046614072017083 0.1101016490332285 -0.14993930097843444 -0.17147256445295186 -0.20759367493575193 -0.18927030803421691 0.0049860978914664711 
0.21495111315427026 -0.19087185823376931 0.068801641496688354 -0.15976355339832646 -0.11484518584438874 -0.1262734054059369 -0.039513070573731407 -0.14728389918887333 -0.16957688072653795 -0.1510989193049857 -0.12228244241788855 -0.1564248291457398 -0.053849628432611797 -0.11502839342556047 -0.16164871825974905 -0.13701289872716679 -0.037982477354268379 -0.16443822913258202 -0.011632714468645168 -0.17432120035835522 -0.040436158866120356 -0.15271612672674076 -0.15995010742592611 -0.14848033707994804 -0.15463734049693756 -0.18962871614187918 -0.11096513772016488 -0.069135992359549481 0.014092967236559433 -0.13055559357458887 0.26869137810219379 -0.069217440655991835 -0.12624283110446824 -0.17059796348409675 -0.15265258510344715 0.081267232404725873 
-0.056801996711485822 -0.22420561540446471 0.04304709034928314 -0.18933593885728159 -0.11563432197123903 -0.25095540939296285 -0.063163951481653199 -0.2102857676218011 -0.19796135120895605 -0.063401514024152339 -0.17199152769087217 -0.18767809799845589 -0.25570378724804077 0.11907593407129291 -0.20270757730529665 0.12015752999388607 0.011550680596171505 -0.18669591265658794 -0.11597595542669489 -0.15494037237002012 0.0057895092413516799 -0.1850887250911234 -0.20350423832421516 0.050817115738643434 -0.03026171279942234 -0.22821913539154412 0.21140259876811043 -0.220538886466773 0.13732064333974967 -0.20258551096335736 -0.10837259450941887 0.071964001284014104 -0.16175912003835063 -0.20930048014220484 -0.21917321323193412 -0.099747804514745603 
-0.48867633247151615 -0.05201143147013839 -0.37861298214418571 -0.41638640603463406 -0.32939761540513096 -0.39656905620787114 -0.3588876506303994 -0.27743044347314438 -0.32796417332060829 -0.26807052764193179 -0.12531255132631564 -0.0025630633828266159 -0.3971320423345952 -0.27858172152869953 -0.27335795594119888 -0.022373295789852411 -0.27609505989951522 -0.036061743607487602 -0.36006494582404053 -0.39154692775791167 -0.17544608892812946 -0.35389443517187041 -0.02326578486950024 -0.056596298919047557 -0.23343254087065848 -0.45248186149878067 -0.17092637351201906 -0.15918265647875976 -0.25801455919752186 -0.32601260959959949 -0.040142723888121484 -0.33081810494166497 -0.13070215171125668 -0.076486667994079216 -0.25426540857639224 -0.29311518902596356 
-0.07333628365142629 0.09600442280566629 -0.12019124564835519 -0.090876017711816248 0.063473540309868764 0.020990572007026195 -0.13385149206788288 -0.044180905974402704 -0.075195928602344267 0.02176351903484159 -0.092241406409643428 -0.1037354227936869 -0.13128359877303736 -0.023714991736666767 -0.10739505655356615 -0.10878219368817002 0.0067336968067767252 -0.10214832604151881 0.026307870556659368 -0.022423522919260717 -0.0034898827758532455 -0.088643039986444683 -0.10659785029999386 -0.10977931178674155 -0.03320329816753112 -0.11939940487401171 -0.10342310401269937 0.028614823493691904 -0.039980756090410345 -0.014670226132958309 -0.11843211380454706 -0.015677186548826574 -0.12341242918052735 -0.11603317455427083 -0.12102748333915599 -0.11748296789354802 
-0.29087654006082891 -0.31418990047147982 -0.18493182105968842 -0.50962023467004747 -0.19673604782253856 -0.36003702701134543 -0.1433938857246079 -0.51962282248962688 -0.078740483343256382 -0.17677768243943509 -0.5056219488233854 -0.45238973267208271 -0.19202698787304853 -0.17475246356126073 -0.50790263765706134 -0.45019615528227558 -0.20973764647789556 -0.43880044477988223 -0.14970269772638309 -0.41743146861552255 -0.40596387926798544 -0.069849830328690313 -0.41832621540090587 -0.47236827037773993 -0.075702364585451598 -0.46516010044877137 -0.23464573210466452 -0.010958520929253222 -0.14909477304193824 -0.11721989533121002 -0.50231442987364527 -0.18355574130422411 -0.16242632320152722 -0.48222745426608898 -0.14532727114880109 -0.17195630363835709 
-0.30166686455630581 -0.20800231579638723 -0.14413739301716194 -0.4705160376757378 -0.14075216914438296 -0.47021485047496842 -0.14665803692917226 -0.49587931463154489 -0.06653775683941579 -0.19242315145941427 -0.46689521478643448 -0.39029429828346945 -0.13813967840238195 -0.12371572269513492 -0.46692223212205619 -0.39880551957964488 -0.17054026575496822 -0.39386436932246255 -0.10937895688835556 -0.40055981720835776 -0.38647535391581123 -0.04184857122315877 -0.3703444937932136 -0.43402299394717314 -0.083362679358294653 -0.42596886910483034 -0.25040435291473712 -0.24716124404669385 -0.14345227134760932 -0.072646629718381026 -0.46063165192619965 -0.14093723434364605 -0.15879987426920927 -0.42950264618676404 -0.12179197810370893 -0.12468649092922 
-0.41234702708379689 -0.13543511782538148 -0.28472202287099435 -0.49999457074117887 -0.1389887932991852 -0.30013474745388746 -0.26793666641949421 -0.018004810181295353 -0.42201991564876534 -0.30036960207409213 -0.48862498511438179 -0.37936206604479072 -0.33375155060430212 -0.29723479940481651 -0.032850681288458548 -0.4147070201531497 -0.3127610175575149 -0.077081466033556922 -0.28106862058932869 -0.096815129924572835 -0.12780791587816201 -0.36589160046246993 -0.33443263954243313 -0.31145912200183767 -0.50199959711247755 -0.069969936980446332 -0.2840002245785273 -0.41128726527971632 -0.42686891572750291 -0.12933366764297496 -0.11912597403679348 -0.21675914372934699 -0.14141509681301703 -0.10557773953042526 -0.21926930737152264 -0.28357230689655144 
-0.17834745932959487 -0.21370730150973197 -0.33650783491205305 -0.27022226156154205 -0.35118029170937914 0.044817146713957208 -0.35103338380810661 -0.13731658804509397 -0.31950484289587083 -0.095060514714988539 -0.36263547912138755 0.044183098188438345 -0.33124214195001767 -0.29309551040344306 -0.34751030789733861 0.034610401411314939 -0.085205065121016096 -0.12360858174245554 -0.33033250689090959 -0.22385877879559271 -0.20944048147942912 -0.29483171773936845 0.031119852835581191 0.0070357814331644787 -0.2229565133496374 -0.0010643000960889812 -0.30256600433487091 -0.0055600135102692721 -0.34200511137327377 -0.32035606351319407 -0.39844114175463069 -0.28593003349978074 -0.27203311187588897 -0.01276016817013394 -0.33504289382264824 -0.095775446484482996 
-0.18169521973603894 -0.22295965808630835 -0.15721626156707952 0.02315895055378071 -0.21308918767132329 -0.21149397700073538 -0.21033643301858287 -0.13564955523361111 -0.10174945791638912 0.14589142762137752 -0.071216467008811526 -0.23843548764262762 -0.22450223105223199 -0.22193383913889134 -0.12263536332514312 0.027762419184957129 0.097416795019244842 -0.017029260336663122 -0.19611492403452249 -0.058593884811074547 -0.099842434132632885 -0.1917890506601474 -0.25034946935737129 -0.00022021052515999544 -0.20688954389230219 0.012864149069620081 -0.21314448924336074 -0.22955507925709306 -0.21860707951984565 -0.15755630537008128 -0.058914398060977771 -0.20690748292003019 -0.17210096753023865 -0.24562160598602331 -0.16558009572562013 0.14520239632048512 
-0.20940017042738068 -0.31962840923771169 -0.17045993934616793 0.26822844833915555 -0.33565117319352722 -0.32864243866398984 -0.33094814934715067 -0.24352470072490731 0.019073585955898437 -0.12808042567897721 0.039982653383611781 -0.3216433324767356 -0.34888574684180601 -0.3072960143284611 0.066182565056614656 -0.33805750841465054 -0.10932420578114328 -0.25579195296913126 -0.28083028333299243 -0.1419863382293057 -0.14467233429528112 -0.29919106833017856 -0.33210166285065662 -0.24340303599807983 -0.21266679625376367 -0.3321421591305847 -0.3095889367316666 -0.31420467545233094 -0.21375522067631705 -0.22353580007923787 0.12432063046594589 -0.28320220874973945 -0.18294373443509618 -0.33020506866594457 -0.086240238685903581 -0.038049410225808572 
0.02599298773073782 -0.23280057792341174 -0.18975156582583558 -0.11265410539646473 -0.22628138711126891 -0.16624215401316414 -0.23420100671672789 -0.043735743600584846 -0.16876737992534449 -0.27301600271887372 -0.12929080457247805 -0.23610829455185034 -0.2737547522270849 -0.22974312834848637 0.032950385046376103 -0.21459805885424418 -0.16993372162452913 -0.10070348871504745 -0.20582596508742834 0.18999507369342847 -0.020177950253269766 -0.15350545523945033 -0.2506757419377994 -0.058296198948749017 0.16963085017182863 -0.26713789850564917 -0.12089062531455402 -0.24821037507493293 0.17138545744786021 -0.23073661190829117 -0.26491587846068332 -0.18437658645175153 -0.044515321838030593 -0.18042087296362455 0.07925055833403373 -0.10739094987288691 
-0.4331668605731136 -0.62238773690880533 -0.45848098795924974 -0.14060860608008258 -0.40444711541379452 -0.43911364812422343 -0.37022774511683826 -0.37689794307462393 -0.37641935204760563 -0.56823406916169927 -0.067970126144526202 -0.31232033790698949 -0.3934455447810678 -0.44919542784372724 -0.36119082922833012 -0.66844233312289003 -0.48464716497258309 -0.39085202863426194 -0.3482907167769595 -0.42279528677044609 -0.47250100914184096 -0.29018669182294565 -0.3505087326272423 -0.40515850347327786 -0.41498578757185317 -0.38118122749455097 -0.46944851030041629 -0.40740236306174243 -0.656815971231267 -0.77754645458855554 -0.64827901030284574 -0.68418847666017346 -0.39708351825758836 -0.38706027412354038 -0.48636213490017849 -0.84818837510466871 
-0.072045982449176205 -0.321227777314054 -0.3400983982994143 -0.30485962693543145 -0.083859707052762439 0.011501264638306849 -0.42105848759798153 -0.22482056000813372 -0.303560284409783 0.023881440281149698 -0.30641248919512187 -0.2851743772552372 -0.0072631383620873208 -0.017824445782912278 -0.15633160734553786 -0.20409283407800516 -0.0186564799648955 -0.30809424753151293 -0.0039277433972161073 -0.32245542305420027 -0.28848573515571635 -0.0089761246514995976 -0.28520952498320001 -0.16897688493886917 -0.279974570210827 -0.29695264236536567 -0.015743371817677293 -0.32923118957219433 -0.33601383096821019 0.019939068869198016 -0.26379598188414571 0.036683040381557855 -0.11153733028934891 -0.30884373469625714 -0.18371161325768579 -0.39427808329952319 
-0.12521807471538815 -0.3888771497471577 -0.18457212281228469 -0.41821318440131977 -0.24340384333010859 -0.20288711106263202 -0.18770736980376737 -0.4874751410256411 -0.16598915751499443 -0.14727616274901056 -0.46915664348441705 -0.44459222530591591 -0.15899751253872504 -0.19707662322514077 -0.48276650729506965 -0.36070249556447392 -0.4138604174765157 -0.45478283232356803 -0.14579942521216493 -0.46493961546885176 -0.44330685676543002 -0.087176195318962715 -0.4205130453612832 -0.33726744194466191 -0.25409089180407374 -0.46396203221883181 -0.21968401854938568 -0.14568161854741785 -0.24661645600662299 -0.093421096228525208 -0.052068138932278428 -0.14786231538268127 -0.15846642591236065 -0.47261043812580145 -0.13508157552831371 -0.23533915185562565 
-0.020724438851928029 -0.1002407323454813 -0.097071701053415435 -0.2825114927134238 -0.19894842217152439 -0.2108159629990658 -0.131691774938895 -0.31981929597823922 -0.18012256345855349 -0.16955886211755092 -0.28875586537193204 -0.30072749561258971 -0.17433030166589567 -0.21305722854276396 -0.30615425050213729 -0.27336790866227811 -0.32923437489261265 -0.3078079313890193 -0.11913498015317477 -0.33001523683108064 0.11273234366872814 -0.13428968003577285 -0.28047837483962823 -0.22412773292121133 0.10091935950781858 -0.32292234600234831 -0.17296695653355112 -0.15168558693545178 0.081476048008407465 -0.12558388457999883 0.01415028701191294 -0.1084498726604875 -0.21105975787167244 -0.33810923988329666 -0.22318306276499614 -0.12560269872204693 
-0.11955328971005549 -0.11994203389774009 -0.2962172866492655 -0.2892794948591127 -0.35016912634536629 0.015616187950901056 -0.33638629034036049 -0.20826916511652582 -0.32401909874861001 -0.31415785217475173 -0.37162401619083402 0.026925544322282512 -0.36984364020876609 -0.29574292110418915 -0.34545692829982855 0.020074916209289764 -0.29916711392259249 -0.27437096569974162 -0.33576252721895045 -0.34609879837411478 -0.1089070657404133 -0.31532663678038458 0.00948327292745277 -0.095203710061415425 -0.061231706108520467 -0.11580501213256252 -0.30266123490760627 -0.043859773103812283 0.011324339977346705 -0.33943317954041435 -0.36953225561843883 -0.28487145135112457 -0.29685564518631757 -0.046895158638636511 -0.36937616934932704 -0.24045777100299448 
-0.4029885705179484 -0.095726085727690174 -0.41924583613558636 -0.39268060468157612 -0.25970771724825786 -0.11055790912981792 -0.45191796062226203 -0.28728590565265966 -0.36336320993920601 -0.24861239438671778 -0.39297547379206144 0.024225783273333787 -0.29378470644635657 -0.19006722803359236 -0.37442864218595528 -0.0087143379770696638 -0.069170949865917639 0.00015623456487449863 -0.26698352970868061 -0.34449769723604706 -0.33434043311941325 -0.30089914253046657 0.012154974247994344 -0.052282733221430726 -0.41435530033682638 -0.20839460677325805 -0.14310209244336486 -0.21385497648484714 -0.37296049430582995 -0.32911496279167651 -0.19080687646829375 -0.13068969273611816 -0.38312936929190017 -0.043594490528003689 -0.41677723595312605 -0.049392110183227582 
-0.058375834658153491 -0.28249272635620903 -0.23767138560026177 -0.21862743416277755 -0.045674066397892399 -0.022485753869752139 -0.28430478646470025 -0.22115935483249427 -0.22421820618564309 -0.060122427580472607 -0.18906102032723818 -0.24888703668183432 -0.032951367760767729 0.059012697026416053 -0.22668728239710273 0.053437191333674285 0.11978171629537296 -0.077164992526657289 -0.040180733520658964 -0.19458191230344729 -0.12200811231393055 -0.21559059666609634 -0.18661775434127559 -0.088364660293821506 -0.23368282294449569 -0.10898480538172822 0.063421290222057961 -0.24660078329505522 -0.17913668871545857 -0.23640051914584542 0.17666185938706463 0.048026736654759816 -0.25012347328647389 -0.26650385835671569 -0.26836835632907352 -0.15236509719354804 
0.19011639484092741 -0.20147813253687485 -0.090295365232053768 -0.17907718084732938 -0.12215670861449919 -0.16914574419077927 -0.15770461795037791 -0.15498983483612039 -0.18313365711078466 -0.10423401360149633 -0.089364797930633691 -0.17204517432147395 0.001272460918467832 -0.15323591406042539 -0.079676849581642603 -0.19558231690411168 -0.17061878957688895 -0.17586654966204754 0.055881853534345376 -0.12519111878215064 0.046435054989769776 -0.11596299614242842 -0.18278377657893885 -0.1985301265589163 -0.16086149753355952 -0.20703311680009334 -0.12197965601127056 -0.13670264620369629 0.074066727255645295 -0.15414371842119362 0.24419114329100486 -0.084769500680928062 -0.18238346476166548 -0.18795281268156025 -0.19480582510324521 -0.023660759360332923 
0.13544931904379617 -0.13919077558520634 -0.094245654828327724 -0.16543624454171416 -0.10816388246755987 -0.13220230488822018 -0.11470896705907131 0.093422935570550467 -0.14100310649230291 -0.13631126894489801 -0.089552421257299619 -0.14600861343787586 -0.13188277101597048 -0.12653221522173816 0.049052077004821899 -0.078343668892145266 -0.14455291204580459 -0.11114835498137178 -0.11475236829965552 0.29815704170698792 0.24655993197874074 -0.10436304512095611 -0.18048224427034379 -0.054516538135747014 0.088253507058863423 -0.1807730244170743 -0.10050506212407519 -0.15888940783096081 0.14235337934730261 -0.13959311418639997 -0.18137713118994239 -0.12769426428096495 -0.10999977734138973 -0.16990577396742859 -0.14123599247037849 -0.096614788427437731 
-0.41836734092352645 -0.39614582923465297 -0.33848228817220299 -0.068221921025711299 -0.38870978335147627 -0.58940000629234601 -0.22005823187296847 -0.28535803463834508 -0.2697545176249142 -0.51090338390575041 0.0038394392229496544 -0.22310080943605545 -0.43274967662089314 -0.55783950432721896 -0.26497685383609004 -0.43159912043207294 -0.38236173299507192 -0.31283419657565881 -0.39626563281133576 -0.33891424808501419 -0.36656104401039113 -0.3163604458826238 -0.24699469758620365 -0.31163766604157156 -0.33558521816532672 -0.28393464547530589 -0.397771721578631 -0.59361469899157759 -0.46738804489510177 -0.67414585110851655 -0.72655174052431348 -0.56395721338522986 -0.64211792452306438 -0.30677915776188147 -0.59132626654636355 -0.72267240160139246 
-0.25466593348790112 -0.052472958289015388 -0.31182079914552174 -0.32779288724073119 -0.01699642887342492 -0.0056398540523978878 -0.39434590871510572 -0.30794588981464605 -0.23914784759700042 -0.00039220768773933021 -0.33453155033865034 -0.28751360965736916 -0.12594189434765107 -0.0089515632379589833 -0.11429241321468188 -0.30130927528077256 -0.046123421981711321 -0.30411120809523795 -0.056775220895364943 -0.3217468185090957 -0.29841950561380476 0.039640032276333427 -0.28516155095581108 -0.34101637882194447 -0.2569135299816282 -0.35548650955916222 -0.16138548488512519 -0.33024101043719334 -0.32866406935400677 0.042542380157024481 -0.35826423275638342 -0.0085851924234877624 -0.045291439803996893 -0.31625839244997117 -0.16649951927974688 -0.41856753737645913 
-0.24876052530112341 -0.15151899432845825 -0.20696568612430877 -0.51435942115574806 -0.22655404187088549 -0.22181973207341965 -0.17307933383337526 -0.54762219065303919 -0.094249261292176312 -0.20040886612713163 -0.52060440933725471 -0.47247071140800173 -0.22003574029039499 -0.20430141468579496 -0.49881086016162768 -0.47203112217838133 -0.23978256457810543 -0.45858554815982167 -0.1790704239442768 -0.47392951892353374 -0.43096803898813535 -0.086580621154618717 -0.44113915229188483 -0.49570109852442212 -0.097442046533523508 -0.49175171170914994 -0.26907851695681395 -0.037767018535841509 -0.17265600111239615 -0.14725863244216339 -0.51498919580751035 -0.20987886590212987 -0.18619651568946685 -0.50895049041179619 -0.16838148560996236 -0.19316618214872705 
-0.23553122134998808 -0.019024333597853164 -0.058762332890844211 -0.39735295020255956 -0.15401300425573103 -0.32137234071991294 -0.029981052408268063 -0.43602317720175271 -0.037258807777909478 -0.23819299930254242 -0.39871711712538338 -0.36073720225710687 -0.17997317468430085 -0.25404397358505082 -0.4222982926203549 -0.35771492662322962 -0.34232594254764837 -0.35490099730220293 -0.14026496944140571 -0.36736202674427731 -0.2074461956525743 -0.059273622361310119 -0.34832533768441304 -0.37972856528736143 -0.15759759644072996 -0.38646745802093241 -0.25121934362878473 -0.011264166712957525 -0.25424872059843551 -0.018469856280871319 -0.40470621231373971 -0.16315616503159788 -0.063109110399291346 -0.38895108480589602 -0.062808709790692419 -0.080887987845661313 
-0.31753649226673414 -0.01424373958327607 -0.29124718603159866 -0.37344634991261327 -0.27415902791673225 -0.14219070143386778 -0.27804373832338897 -0.27817258959294422 -0.29663736492172021 -0.28539588866710169 -0.36979216173445478 0.044921011273324811 -0.36369402964774145 -0.32476533927565104 -0.34112307595134961 0.026455253127303038 -0.24570731882603702 0.010564162268388817 -0.30998731626596504 -0.36504821291656708 -0.28234624793956886 -0.26115814866964787 0.033911614807759657 -0.0083350740759414177 -0.36782885444391017 -0.28699165218615713 -0.26637404050152363 -0.1121946294505505 -0.31177135045175736 -0.25738413903684909 -0.22938370277089104 -0.22463261828620321 -0.33115815067709004 -0.018524356349138953 -0.3787896562460808 0.077440635047090201 
