solver_type L2R_LR
nr_class 36
label 1 2 3 4 5 6 7 8 9 10 11 12 13 14 15 16 17 18 19 20 21 22 23 24 25 26 27 28 29 30 31 32 33 34 35 36
nr_feature 108
bias -1
w
-0.43508285395607493 -0.22228301027958378 -0.29297648265361953 -0.19598374817122574 -0.24230784065720043 -0.2291409398724755 -0.21644981777984937 -0.27222147271882641 -0.43691555605223387 -0.27289923481154016 -0.38915358808662814 -0.42605782656290475 -0.30913627547050543 -0.017694271717488805 -0.1037190749730684 -0.14289223144113042 -0.40569115272619133 -0.12286805667210179 0.15301771084377774 -0.31327506076535494 -0.27432308076333667 -0.46305978185265445 -0.22925399594141535 -0.061681446643774666 -0.27893626772562419 -0.11982609143889245 -0.29635383325622877 -0.42922013826504185 -0.13843783842434418 -0.47123572221847215 -0.49809591171034168 -0.50370915622848567 -0.28108277456384634 -0.36535679001320187 -0.26325014559900506 -0.27442865679146855 
-0.35662314449328825 -0.3383232688468894 -0.066890139829070466 -0.034357806046015217 0.020376055135826816 0.027011751358217595 0.1262497271913447 -0.072172808288180401 -0.067589830846349383 -0.079383119058796081 -0.010023631990928421 -0.14679058038826995 -0.061732774303774843 -0.40400899279597652 -0.44204129421799349 -0.33943289408220323 -0.24170378963935868 -0.35649653389088382 -0.35969519415357865 -0.35088027742300582 -0.32892124633631609 -0.39102564137237222 -0.32980276272208481 -0.36094786726733946 -0.23315627984248316 -0.35255077818851621 -0.0017273934727970841 -0.34279537206765975 -0.012978807061616294 -0.39070048913198829 -0.35875654962264619 -0.19756183145600653 -0.065164931947835361 -0.1843050595710917 -0.097721522328567734 -0.046395469556189096 
-0.45447761545976079 -0.35300579603562443 -0.16187421332505744 -0.11770187829021381 -0.079511562830369489 -0.052153661065749458 0.058587758477967281 -0.096955487651889063 -0.080234357465211209 -0.17118392575562949 -0.080470442334825698 0.041324496891165824 -0.15131212241915437 -0.45523346640542006 -0.51096297550102654 -0.42399342231408121 -0.17785069260439224 -0.4460760086767373 -0.41292259492105821 -0.37082793721111873 -0.38837350365928103 -0.45114416445393968 -0.40309098468199628 -0.45011264118948185 -0.081194608573295482 -0.43550271891324183 -0.2879063774002526 -0.45107229209273558 -0.10800440323488775 -0.32778617788265968 -0.43531843686878685 -0.091763296909986053 -0.15693290341936145 -0.056854858803591451 -0.19710717060119859 -0.12735261392172478 
-0.17871104889223877 -0.17535894824363427 -0.17200709079240445 -0.1074804047503506 -0.0334842976162791 -0.051194513797357066 -0.047179927364098526 -0.15897769764731018 -0.14750471369090098 -0.093872920626445353 -0.072553922096043846 -0.0086577674431406928 0.00608094629733424 -0.12205300625286268 -0.13671429912013697 -0.11878969432467927 -0.10214095434352877 -0.15615889293704041 -0.13643124714068716 0.11717626189751529 0.031355195864816617 -0.11893884833907759 -0.090921216784136921 -0.14255515603273999 -0.11344943088122499 -0.14759715648876456 -0.034765203249327178 -0.15458024978060936 -0.048935317083165966 0.24012775888012952 -0.1173904254285397 0.06806938188462705 -0.041464300790532427 -0.057184087152003342 -0.082042502434852949 -0.11324877056410775 
0.021346018756013167 -0.0069935242141787052 -0.30320614414674368 -0.29819077226624124 -0.36013658572118801 -0.31703287966121807 -0.30454740063220814 -0.27300970918029616 -0.32443055652715841 -0.24367647220214567 -0.29631528543678232 0.020855394165306393 -0.3488907867985902 -0.24748251366957821 -0.31398153796844391 -0.3519916628392577 -0.30315215064046219 0.01697434634786682 -0.2934280906197223 -0.17006661070641427 -0.061267037402646711 -0.10635585274796928 -0.12496089718381277 -0.36070963635048392 -0.34388531372769376 -0.12802926531791636 -0.13725753002114688 0.064445115528850391 -0.29637799298953854 -0.057816152282947994 -0.027689233659152025 -0.35343830894483802 -0.31800717578670301 -0.43916673149137131 -0.2230424029960468 -0.26936696907542151 
0.30070288641321097 -0.1247273452984996 -0.15367994558351697 -0.13798882774381363 0.10461526701158529 -0.11588357135494699 -0.14865862323037857 -0.094311858053835337 -0.17711969768036742 -0.027901289692256317 -0.17387141379203422 -0.22443792050855449 -0.083272040102351508 -0.21166268835295013 -0.18961242123730465 -0.15380727090008448 -0.048746910938968158 0.12496001579388523 -0.20230297053369151 -0.23756554060032839 -0.04737838755414607 -0.17262221747934983 0.050293108812624422 -0.20906585600992367 -0.19394478811851482 0.048925844763166471 0.25601195222868967 -0.21882042892996217 -0.14930541319348262 -0.049281962824180174 -0.14897983569038287 -0.093931726618280476 -0.17028871884661942 -0.22116289800468994 0.036514831173048018 -0.16395211617003241 
-0.042498012506976296 -0.014907403245863355 -0.12699702109340349 -0.087024179056127735 -0.012826822370033226 -0.10799483860611624 -0.15108799602192571 -0.12480163522060404 -0.13100083867808024 -0.15959684404834273 -0.17425914035961465 -0.14630635543129367 -0.071888057514474704 -0.17875408074794252 -0.1686762476328062 -0.17636953534667343 0.20638790770300539 -0.12310391569180622 -0.15326027156128516 -0.19650603675455841 -0.07296750618813172 -0.1517269110159212 0.084635818121130038 -0.18350929167839955 -0.12771925982206445 -0.1154850810258687 -0.11048365113310062 -0.18456856179274519 -0.1542226158250059 0.011715638694854332 0.0097354909646928129 0.1317297774594656 -0.034940533540039904 -0.054309715503228308 -0.14280966613889451 -0.15580059283988754 
-0.15132632800523771 0.11276150169707627 -0.14647188094809757 -0.089542399178529672 -0.14896917824830838 -0.17521083657253869 -0.17924310524152332 -0.13242797788177418 -0.15612842181944422 -0.1958105934142863 -0.18973287821162083 -0.23995677679853794 -0.15178831984853133 -0.0093292191247298824 -0.21541658868058289 -0.12019382334252471 0.045630735964972788 -0.13227367731234568 -0.19545617260288009 0.22765448221656789 0.17632427600986031 -0.16219227290202859 0.16995598934520545 -0.053886447026401177 -0.05343299920180699 -0.25193071078703738 -0.2086425981853342 -0.22898200194969848 -0.17213801262089548 -0.14857159698878555 -0.054334475983785407 -0.088174443662003665 -0.11123309066788642 -0.11553439036652553 -0.084394514627877684 -0.17238604486932363 
-0.35223950136401733 -0.062608045563232503 -0.32610831635129001 -0.20153341539737007 -0.34772173661664113 -0.295420581712946 -0.33950069283473239 -0.30802356008519399 -0.36211146092180813 -0.35529874151427338 -0.39522620674779141 -0.40040543415977031 -0.43780033396223333 0.069969458593575853 -0.025920627133523295 -0.046660430890323353 -0.29585578471674084 -0.093391762196660275 0.22671701320428519 -0.038723133475604014 -0.074875956079429706 -0.37819718721568363 -0.10895789832327793 -0.024605909462458213 -0.10984387343749953 -0.07734710586464924 -0.42476227745015932 -0.39096019713254415 -0.34781913998954495 -0.39490971307682771 -0.37540165634580758 -0.38977220306090005 -0.35458467023385298 -0.27955192188648331 -0.29883159135252862 -0.31244643334163869 
-0.49196191627568603 -0.33264258516158146 -0.29151320208791232 -0.2449622083981742 -0.17238493915950043 -0.22333843514929114 -0.12884838704404536 -0.34871697872271784 -0.54491735544988507 -0.17891784511509964 -0.50884411611386815 -0.31486180578212353 -0.23567066943808501 -0.12024840448026698 -0.16085664695314011 -0.15552581730861026 -0.40023866788846041 -0.38624918298534527 0.065192252631173522 -0.45994671949263183 -0.48689912166903965 -0.53906003728322383 -0.47849125958367228 -0.13242234726383922 -0.22124108094629541 -0.17870438217581278 -0.23538816009957414 -0.39830270273327445 -0.26986940139484505 -0.47133834303916927 -0.17246230259477416 -0.56889550780174425 -0.39853213585672437 -0.21601477777919845 -0.38187352004979319 -0.24085160541186101 
-0.2086972904079071 0.0078934728247936781 -0.077064409738734602 -0.15933756067672689 0.1210181420559574 -0.018158341328958306 -0.088235548141470166 -0.1321343242914636 -0.29114025539358196 0.035545955538196818 -0.10424925951561462 -0.22272961082641227 0.051128058664176232 -0.32860826403889809 -0.32239736656381501 -0.27464883834380244 0.017876436602156036 -0.2902485094070526 -0.29247616935854598 -0.28419720983188973 -0.26568831544952187 -0.29440233684024542 -0.24607801138430174 -0.26993256252410158 -0.24650749086172111 -0.19016619636190363 0.084349121534203805 -0.28471709988799726 -0.0030724224928662999 -0.11053336159437863 -0.30331869826052016 -0.27098668505225182 -0.035964992994385332 -0.16100879002148735 -0.10607685517746865 -0.054090086931494155 
-0.29591615816258149 0.015624111968185334 -0.18343123789894239 -0.25869808903168717 -0.014601813125810523 -0.079960937743356802 -0.23244089570869886 -0.15673332777998197 -0.19836369055536107 -0.059453945421069743 0.037051156361921106 -0.19483456377946834 -0.03622429419144136 -0.34331505776380505 -0.40146857721287538 -0.32403539370933104 -0.079881139299689222 -0.36363114282880948 -0.354065348450534 -0.29947474704816596 -0.28487391814467217 -0.34366603928350392 -0.2714125633965575 -0.32295254924905381 -0.054903515311190254 -0.34620405060437798 -0.25684005420609946 -0.37014474976443834 -0.25131411449694208 -0.045830503449760758 -0.36258476048400684 -0.1104085402440687 -0.16827757516933806 0.012412474126486252 -0.28973813407928423 -0.060880251464267142 
-0.20592238685852945 -0.22481014346813136 -0.17150173069852281 -0.16424421711370951 -0.068032321426378037 -0.13346468588533764 -0.14150240284842233 -0.15790082024058275 -0.1837918813998983 -0.098360930610669181 -0.14420385359651555 -0.12965840460964639 -0.049069441050448678 -0.17284329601218038 -0.17459741318238442 -0.11362368972973937 -0.19176909796919628 -0.23828104849959039 -0.17583007309019885 0.16860917831796621 0.14850065510698482 -0.14316275561991523 0.085084381901895448 -0.19994848212898195 0.21945885838407336 -0.21567982735927965 -0.068703291628346444 -0.2279080169577328 -0.18320973871766127 0.16891892799478569 -0.16841559734333977 -0.14602387506529599 -0.13159491303243129 0.21042258917605966 -0.11561108160326594 -0.15339688271349836 
-0.07519686642143851 -0.42212588128415313 -0.32538734763706623 -0.40063623478018828 -0.34289157458181468 -0.44516342570781031 -0.30478409817201108 -0.38014117609692932 -0.29178424446793744 -0.30115924394531474 -0.26952844780070201 -0.10081847571723809 -0.48141269102755063 -0.30877402826364303 -0.40941394228969025 -0.10020784603496044 -0.19757141787066512 -0.098108030320440173 -0.24181957683280325 -0.088037205789136749 -0.1752464996952309 -0.17170506268638641 -0.17910984438661212 -0.3305598751606868 -0.27328066679935709 -0.093835560202431431 -0.20914705641576434 -0.04001785711430908 -0.42893740374414357 -0.062823140581615741 -0.042178882772238628 -0.42697139014844365 -0.42859308979203237 -0.20119459581891866 -0.21317755209214515 -0.41633045603309443 
0.1838153498059544 -0.19828520446638934 -0.23296485078330714 -0.17936037158198373 -0.22855350939150851 -0.21852503008977597 -0.20353686875823684 -0.25137023246159218 0.036041878892389086 0.17699252298640858 -0.15878178851081937 -0.21204553484972491 -0.097542435062089344 -0.21076835645044956 -0.21220340799612478 -0.058544778080557851 -0.10961446587999804 0.017982057755864752 -0.20507171813708117 -0.21032457037962896 -0.1609247375612716 -0.17889465564819956 -0.12027088500294988 -0.089818513252275467 -0.21135003468885638 0.19751309236620948 -0.13402004564501618 -0.21728210435538461 -0.20592552685994256 0.11855362058559679 -0.12132137999314413 0.204388947175804 -0.028228805277966479 -0.21674850684241831 -0.092663735372188749 -0.23433166059708072 
-0.29382780519003254 -0.23729988326811308 -0.075643528286074235 -0.071145368017505248 -0.39345589152544275 -0.38014659096189124 -0.37228100534526737 -0.063839983051357477 -0.0041942457108558656 -0.10988992108943828 -0.029483571138939461 -0.34916074956059923 -0.0029933641866830346 -0.34314360326460758 0.12024192459237082 -0.30068943838619105 -0.10040807217535139 -0.16604917189591004 -0.32982731031532947 -0.43124496284474934 -0.23664084063296731 -0.34421892425065037 -0.12458194787712501 -0.36958400872807057 -0.29518517027288388 -0.24483236584300275 -0.35032657161506719 -0.32984717259002333 -0.33636912414498915 -0.1262562562226843 -0.18644991820556925 -0.024562768656322904 -0.069543554655921908 -0.2880848627519409 -0.12950087470424129 -0.22601007965585906 
-0.3767174652106785 -0.25701719494584901 -0.020454606980863849 -0.019684960692211588 -0.38208187707949021 -0.38652465718160078 -0.37336094542870601 -0.013012232620440607 -0.10875742179376728 -0.35301209478455564 -0.2137810486608375 -0.39743836322312032 -0.14263689591004747 -0.32828605256654603 -0.1015989428871467 -0.24211477146271865 -0.21775368144894747 -0.26329535056627901 -0.33358259892243658 -0.079645814979664317 -0.1821970551786726 -0.32867747799616454 -0.12257300200618922 -0.088792319415082199 0.017841324445207106 -0.38507799967585282 -0.36635676429435826 -0.36241398215895693 -0.00062988824170432224 -0.28216633345781217 -0.14877375716024699 -0.17285458343504331 -0.051928747593409721 0.0097630274388637844 -0.06467118495318519 -0.19219000505901282 
-0.53775686276985324 -0.33383284576297556 -0.19679676821253905 -0.15376974886248809 -0.46055822423303572 -0.1903475712967464 -0.20151137851800716 -0.17248172197703854 -0.51235480733725758 -0.33886932535090719 -0.57734435343416846 -0.32979999104736124 -0.49625060363926105 -0.10154207371250357 -0.17199831270519739 -0.17941636382152965 -0.48870899877348917 -0.35412958074146017 0.077422164774466867 -0.26847950422777439 -0.40439633120277768 -0.52150841732264142 -0.39024297078730197 -0.15897891820635754 -0.15986041304643975 -0.19587907136617239 -0.33868116476875376 -0.40449164468424681 -0.20646779605584464 -0.52731611617136476 -0.12863738993120971 -0.54171401212140724 -0.48797806213819989 -0.231218232590888 -0.19262098026961205 -0.23295295782774586 
0.10866140989414989 0.025205710397499553 -0.19695534545836688 -0.28314924241045386 -0.13511593279585143 -0.27508880655113521 -0.258407755484099 -0.30592128739980784 -0.26418445077979663 -0.25506826245224351 -0.10102073406152669 0.0068653238910554269 -0.32899333871931108 -0.23391748745315866 -0.22100050986695916 -0.24465752255977913 -0.27239771629004139 0.080495980327034061 -0.18458996595922428 -0.23944489350569093 -0.12503922081746463 -0.31072267403417014 -0.16143820581718199 -0.2258454479902117 -0.2034162937712394 -0.36554611171162049 -0.10656054865978799 0.093544613512990954 -0.21796216695948892 0.045556744507417229 -0.16500761732447874 -0.3624870930848702 -0.29071462735169401 -0.33131758670219591 -0.1610054856412064 -0.21632003502613226 
-0.37719121257844085 -0.31350508037608832 -0.15066982933203438 -0.14346069737588599 -0.11483145175845973 -0.10980483277975099 -0.037019888579261431 -0.033824569845505768 -0.06461899496649684 -0.21095984667832365 -0.11627407724817729 -0.03208708253213121 -0.1968414714189162 -0.33433702411519045 -0.368494035456436 -0.22707227574561947 -0.29622320577600392 -0.36267503695317682 -0.34023021041586121 -0.36729198172717104 -0.22970619296140521 -0.34706496291287053 -0.23132849403918132 -0.37025049881531658 0.012209433338802027 -0.30668037889709843 -0.1394751519337733 -0.077872853230858213 -0.10921801147533991 -0.08827912680022218 -0.35578358511726704 -0.095523709681008179 -0.20306589375265224 -0.028374117197536922 -0.18868581684768632 -0.059621538260773481 
-0.51812649029916147 -0.36289317362654561 -0.20127679735334883 -0.14918071517637366 -0.10983747579057669 -0.10932746585284381 -0.0018237884340808821 -0.1296589298197782 -0.11648315239827248 -0.20999853137214483 -0.11489776724990161 -0.0065846496243187379 -0.19937192195422501 -0.39298234594297082 -0.53944831326430231 -0.46870929919136128 -0.21974655064961623 -0.49108648636909469 -0.49112033237041453 -0.48514971830420506 -0.41642996191759091 -0.47667460550944651 -0.40893605822936629 -0.50902067706393039 -0.13250405503581172 -0.45011302726107832 -0.20396634224159566 -0.089981368333526962 -0.15191772785796381 -0.3755108079797092 -0.46473630861205739 -0.12645467564755306 -0.18946313435835321 -0.11580353560679255 -0.23388231892506317 -0.164338964794392 
-0.30153523961438411 -0.3018555793083591 -0.27323574321723593 -0.056026126296397596 -0.11270939382727418 0.11489578016020333 -0.1790216119241449 -0.24910330915176526 -0.25829403077928159 -0.11449861471555987 -0.036735856469901039 -0.24068267423705741 0.056962300962586171 -0.0015031977563598219 -0.34132968261559266 -0.28266335939066711 -0.13162681983312338 -0.28429994921858737 -0.31788840799949381 -0.17326319429836989 -0.26701460043088204 -0.069766894752938707 -0.25972846562101848 -0.30216506910113627 -0.33605372311371517 -0.27068425291653325 0.06954240766891584 -0.30886465830218418 0.10361851099108049 -0.30866981881577948 -0.070444710471370089 -0.26032954718788803 0.086450540828639968 -0.2079760031540876 0.041210249611992655 -0.061731076435849228 
-0.41663805429348272 -0.42722996758706039 -0.36765850503005804 -0.33670740703948837 -0.30202195470418686 -0.59439047138105394 -0.20962183485383382 -0.37907711782725634 -0.25560855185106979 -0.40814351499390422 -0.29962012186273018 -0.48459467626459879 -0.66604603606623825 -0.16951572810328341 -0.18835968304039663 -0.30642583812649338 -0.58038911555775541 -0.32915624087194384 -0.71611557759058198 -0.33097704824511531 -0.3453618810049548 0.063710165153169754 -0.34696342425164234 -0.27770959551776858 -0.71113770304580737 -0.34224246123190089 -0.59204745390069635 -0.28291873129753681 -0.41626988797269654 -0.61743345756560952 -0.25296907264142748 -0.47265382419197127 -0.66558145228746735 -0.60096011062044341 -0.46027226908756341 -0.40269173233542493 
-0.071801473781538797 -0.17133902718243202 -0.14821424677256423 -0.14784913039383477 -0.14604137254356819 -0.18653789109127547 -0.18008118276569429 -0.18652806312317177 -0.12799613108079408 -0.14852356607018158 -0.17082193416877373 -0.23294788350591181 -0.16681487694989794 -0.023084198690085184 -0.066539895829669737 0.16303388512979991 -0.20009648815082567 -0.016319070274304067 -0.18091790002033079 -0.24401152283899591 0.21232430190136728 0.034249252467677301 0.19762371612489441 -0.077152638898971851 -0.17581311318243442 0.25046252377116685 -0.15381415958568043 -0.22464065420521406 -0.16036393135313132 -0.1761695323959164 -0.21644546270234138 -0.010003006042092585 -0.093175358181252818 -0.2297221042279787 -0.052713951568054598 -0.15561704868035375 
-0.15351013719923731 0.21541549345565655 -0.10287929972102192 -0.10026840728429771 -0.13010023237471505 -0.13410076405360283 -0.17980311508296229 -0.18166868672459702 -0.1270248401357188 -0.15725959662884156 -0.17660305199785051 -0.17761916352411197 -0.10505387335642874 -0.15206344870906691 -0.15701008855713705 -0.12279429013424252 0.20848073140025158 -0.077640607362454664 -0.17527693789182838 -0.19952143785380907 0.047725112452554272 -0.10617701952227865 0.022665619431011832 -0.17141327197115222 -0.15242804627467743 -0.057836584956909083 -0.1555620798070631 -0.18117157826981276 -0.14048419737082526 -0.14186380768280113 -0.11967961852067044 0.20278327089545745 -0.018576326521979283 -0.036179900038183242 -0.13801329404574064 -0.10259894130066914 
0.095082592504148605 0.11478778177830318 -0.22692059870944431 -0.18057315248508415 -0.11906690903915354 -0.097897714791033347 -0.2393046067678696 -0.23676451065575493 -0.209193368913275 -0.070380096021933375 -0.21604556725799112 -0.24661427568991243 0.028973958466586149 -0.22516605319796107 -0.22035440508828094 -0.23738662424518156 0.14343646353350709 0.030222247519159456 -0.23234409558034508 0.086344724662010999 -0.015973087116836017 -0.19154749548478087 -0.12544267505399645 -0.20940293054260639 -0.15122395191334276 -0.24850391234840444 0.011184232235329611 -0.24606347708987841 -0.18580769373892686 0.013961952780084622 -0.098839100972479541 -0.10352372890735279 -0.13228567545669764 -0.13473100918710224 -0.02529894898153601 -0.13722643891360545 
0.073338707904982287 0.018205438699314309 -0.24506598579693825 -0.30853018920112396 -0.16113171921077973 -0.24568633685747113 -0.3457505893324771 -0.38050159604956896 -0.33498214981734264 -0.21790032083504288 -0.18477742738371608 -0.088233210806598003 -0.22164704338727742 -0.25216773667841286 -0.24801855687378396 -0.33934508088786741 -0.1125807272237037 0.085309689370290126 -0.21049817134063337 -0.056441981033402068 -0.097490710800652275 -0.32708419016765683 -0.18213070006775001 -0.222674697163567 -0.19613409680189417 -0.41608206285120969 -0.077558510299125916 -0.0075365237885941169 -0.26609269305825367 0.0086119108857645073 -0.104525611346394 -0.36027242753355504 -0.29796782243868991 -0.32302112396674859 -0.1228780144687277 -0.22668237756300655 
0.0066888112707511257 -0.28543197368564216 -0.32223302057574099 -0.30359998352471673 -0.20972673132533162 -0.40072121638661362 -0.31120494910489288 -0.42311060368123393 -0.35993570341559089 -0.3286744277292919 -0.1780348029454715 -0.025734918590496328 -0.29799717674434312 -0.27830443745981259 -0.27319282157064856 -0.018816717127998456 -0.12746350607758469 -0.3056191226469922 -0.22830383102547674 -0.15998122367020726 -0.099998812662701428 -0.37143321146854874 -0.10258248138697681 -0.22344278766202169 -0.17003834705904147 -0.19930435398657378 -0.20247225766307023 0.055155274232361398 -0.33423419800457121 -0.065661856358039325 -0.03155961729146034 -0.35481938237556548 -0.35120294087636361 -0.1581890558323398 -0.25319337402536501 -0.32910306530189054 
-0.25239976585775553 0.10070546504517548 -0.16613376962340892 -0.20463199460887507 -0.09127592377340725 -0.13972673545728506 -0.19435882233458843 -0.17616350251598395 -0.22516267800127027 -0.12722506525559715 -0.15122345508518337 -0.16970001542918695 -0.11588061920604759 -0.25838358702417974 -0.26588539374750453 -0.10050050100684688 -0.02332794058470351 -0.32911342154318096 -0.27816691345420519 -0.30900471817594932 0.050389754336082115 -0.23459656454965769 0.099713724024497088 -0.32568163072147038 -0.11380623016628524 0.0080059251838437463 -0.051209370180179979 -0.19708776191694821 -0.095765654583167062 0.0076890973593019248 -0.30266770254689268 -0.16240411948540803 -0.1877076159742519 -0.083268174275690415 -0.17848018748140015 -0.13123365378058649 
-0.34213417895798559 -0.040063495828553002 -0.16647229618485637 -0.24207335855156339 -0.1533340637352669 -0.033433519314237554 -0.29900937088762503 -0.16176138958758499 -0.32842674281155793 -0.17008293170232486 -0.21637158959297731 -0.14934390859178526 -0.079968822363282843 -0.32150285714771937 -0.42338657613330932 -0.40633622033809258 -0.11595060450535201 -0.41412599149793344 -0.42198302487219963 -0.39999989345150383 -0.35797604989869575 -0.30682973599980912 -0.28761398237241309 -0.42275959082071174 -0.038753529576059646 -0.22966313179987055 -0.1413310221156113 -0.29394961780068229 -0.098715925089088552 -0.091648417088361342 -0.35424640706520183 -0.10097188759186287 -0.15491408257992448 -0.017937832066143772 -0.32387311897297266 -0.057646808418509277 
-0.26424354708113862 -0.30065579353559529 -0.30189030475270356 -0.17614736193503386 -0.1792970468224527 0.12346157969230361 -0.27314762244371016 -0.26100549837568071 -0.34483378407637788 -0.12782370385954209 -0.15126907603229209 -0.26652192359391558 0.078789887043521259 -0.18698184495201481 -0.30355076998589015 -0.28749030680847015 -0.19550184798667339 -0.27650714972835555 -0.30404996742352097 -0.22915072732687919 -0.26148191892595113 0.13823653392319368 -0.25606464337643531 -0.29656374742284225 -0.28462089823335024 -0.14611025323980087 0.10130167026327744 -0.32591012516026019 0.05783925419764404 -0.14676050904785201 0.12096865700016605 -0.26932596350846127 0.050843106966807369 -0.15673042634107329 -0.11579956554378543 0.00022019242474983548 
-0.61990883585637491 -0.69650253328910217 -0.43201538301362341 -0.39660720179920073 -0.3808508821890581 -0.36999144896890929 -0.29363470456468016 -0.42981360335969548 -0.32054639064978169 -0.43694316733782362 -0.36011734277273061 -0.45903408825203218 -0.3922876504001172 -0.22782864006228679 -0.22878075924800723 -0.34153698112336117 -0.44340482635875023 -0.42249925966470703 -0.76409918150388656 -0.35546097505616858 -0.43297238822048884 0.014398624108913785 -0.45697809477367912 -0.31198543250247368 -0.7715469382208261 -0.37600132776392703 -0.38379326171190664 -0.28502356654812661 -0.33201845606824426 -0.65507274544312588 -0.29505523280136081 -0.5689606680674073 -0.54684609476904877 -0.50608770468740027 -0.48542454281788699 -0.371435240891477 
-0.26257812231467981 -0.26669212277668186 -0.060374921651927753 -0.041161335637605129 -0.33435953500307863 -0.27469573842669459 -0.31999831392328526 -0.12167040216160596 -0.050292016427805217 0.062916761513885533 -0.22908086687575463 -0.3054903627506585 -0.348027935842047 -0.33096122800966488 -0.19768079909227321 0.085453343671390389 -0.29243913803415067 -0.27527037769186669 -0.26909570767611579 -0.26673794187845012 -0.15523972007872183 0.15931286401504538 -0.10218758759497773 0.2467243357720752 -0.28788905706133405 0.067592666499131357 -0.30666605135576108 -0.31558467401307977 -0.31799615476137155 -0.29891242566633103 -0.29639729097911999 -0.024999422759087793 -0.075848849485383507 -0.31470597051248128 0.040840952163507402 -0.12032100258373633 
-0.30614117084421205 -0.071960741545250381 -0.041474634034082351 -0.057640510559600913 -0.35579845015092848 -0.3537442205128814 -0.35553830358637462 -0.031322544948927819 0.025778886637523327 -0.11595968282970216 -0.011008119802107219 -0.33737716412983693 -0.27642718003067301 -0.31693921043521911 0.13083719082561376 -0.18258040574650569 -0.062430194862490247 -0.21706317082631249 -0.3120291790623218 -0.3472580412398556 -0.15566212748575392 -0.2679674314960645 -0.17021472894377604 -0.29546411597617056 -0.30624824165715864 -0.24235580460068554 -0.32223602946509289 -0.31395988071575803 -0.36079349696658936 -0.38925926257794313 -0.27408024100393036 0.030378058659932376 -0.025924912275036807 -0.31414074560883204 -0.091966211667225503 -0.20883846280465629 
0.019478294766710633 -0.087409138725750901 -0.12385229088324468 -0.12727243914352224 -0.34521799226058314 -0.32914247283551601 -0.32411805561551466 0.0019802259319093071 -0.0031703095624917074 -0.31211611070484319 -0.20689181293572981 -0.35232524867399345 -0.2899336261438788 -0.29938805871154872 -0.12828760046925394 -0.30124107348301549 -0.24206689556882446 -0.11487895525534492 -0.30502580077749786 0.10446031357194793 -0.21794353868310182 -0.29082489828884434 -0.22870824349966917 -0.25798007045089238 0.07067912486754771 -0.34296579281476819 -0.29836891528292753 -0.33510812855652017 -0.25413027353483875 -0.11330309231609295 -0.22219174089398488 0.0090676206142372758 -0.0387336704874972 0.017823154363873786 -0.12203300690464636 -0.26387902778743844 
-0.036992353763070904 -0.25278376670830011 -0.33245844001242225 -0.32489210585721667 -0.29359352865817601 -0.44017045248329717 -0.36439480728280532 -0.37888804713939911 -0.31854342994358981 -0.41914274153753939 -0.24431806244961193 -0.059858294738313521 -0.31712123751876875 -0.30010182349712855 -0.31122576612866304 -0.09932140092262895 -0.23540580383816143 -0.209270871509737 -0.25736696710168389 -0.052637077230751624 -0.14499432366342291 -0.39421508805194277 -0.14646119590483164 -0.19094014308995849 -0.054985807304306411 -0.37941218954404993 -0.3319048630121032 0.021137257483203577 -0.36436867989117483 -0.048036977940064687 -0.023951648793164346 -0.32787320505137846 -0.36915639645621484 -0.12426228776704847 -0.22698310758238807 -0.34798241480868902 
-0.25869842555311101 -0.00024361030023723612 -0.41053693315544942 -0.352154129384324 -0.35624298563904261 -0.069830086975491742 0.0026673234941780393 -0.43217907393161364 -0.38869970992325287 -0.3645929908105407 -0.3884691917522386 -0.2643473177797836 -0.14895018377097885 0.0027435734157633608 -0.30657996704482265 -0.13253274372499296 -0.2574812825172465 -0.4022480340633664 0.01380388077399196 -0.41196528679092137 -0.43221127564801176 -0.44996079221228358 -0.3466221803556091 -0.11224685982192287 -0.33502650496404163 -0.115696108086768 -0.029742673337194422 -0.34550644680252518 -0.38549704561287235 -0.13908872427405738 -0.094620865255458195 -0.26208272030819113 -0.36756085901231572 -0.22200635922576714 -0.4495734865347713 -0.36602489609604832 
-0.035288745029654282 0.085790937138364498 -0.17452542911435129 -0.08427964595336393 -0.015562939914075202 -0.25703958408975403 -0.28394344693835177 -0.1922173362130101 -0.10061682501759003 -0.14618874436670867 -0.18018786418095339 -0.22705240228030235 -0.085371089465621053 -0.2779863775109897 -0.18450078571442843 -0.22223003056713556 0.087743219340040521 -0.1951565860702045 -0.096207915688071799 -0.19116861427098447 -0.22395225710486699 -0.21948599921631221 -0.10212921952191735 -0.16416545220702236 -0.25006501238089768 -0.094579047639754804 0.11550741089424436 -0.23073202687393335 -0.23177535219603779 0.13557906872978867 -0.19517310330610221 0.10084291789084709 -0.083876271759951548 -0.23943074413313895 -0.14837867275547437 -0.25511161194904441 
-0.19280887653499731 0.23834752572857532 -0.10631267974294435 0.019050189595734068 -0.16126482412763873 -0.29910166619135187 -0.31608324499314888 -0.14348280100374308 0.041711769807307182 -0.20302198455528706 -0.16718419740961316 -0.26575682184731531 -0.10674928548424296 -0.27391623381364072 -0.17448672029717577 -0.25061580776993492 -0.00052368837559142473 -0.21636345849945762 -0.28665068631218776 -0.23201280363506999 -0.26168322024303037 -0.27087033028159607 -0.1007679875691682 -0.18742807389732039 -0.20234789359245758 -0.29392017043183322 -0.23402016107608503 -0.27601982119139157 -0.29499009748506799 0.075851979369778735 -0.27769452279289913 0.0083102193677211285 0.072435677942184681 -0.19465591754100534 -0.10965989584189655 -0.36423918077802397 
-0.06610888895029228 -0.20777566224491426 -0.12828755630238203 -0.013514088899940897 -0.10803457053363164 -0.18169170144847555 -0.17487279103604225 0.03947530871244917 -0.070266967570410302 -0.16833057456235404 -0.15712156272114403 -0.11687325903157886 -0.18654545746474901 -0.16417843547677433 -0.18513536052472096 -0.12789689242950569 -0.19595805263815608 -0.2038725223141713 -0.16171949177926542 -0.06697111938679827 0.052772084915034836 -0.14537886518127113 0.19577173511512408 -0.080378048328299964 0.23811938091979898 -0.21345707337851025 -0.16567632346916461 -0.2188766423024652 -0.12030791498830735 -0.032145471201478676 -0.19143538329724261 -0.15492634353592313 -0.074863140187229074 0.25173309357926915 -0.13065721330827595 -0.18048022381547707 
-0.14823270599080882 -0.50552050803183113 -0.29485451658780026 -0.43333891713619377 -0.27275478986820667 -0.41196032114169362 -0.30048407597033122 -0.30295412637835839 -0.050662889488824137 -0.44713437718069443 -0.22343065295005418 -0.070866381112927673 -0.47873306082350764 -0.26816263315970235 -0.46806901241511872 -0.17583235533599165 -0.30499969802333765 -0.16874420555819319 -0.31001516829703046 -0.12711529681697548 -0.082478161834086947 -0.21514524099401175 -0.15482391326736586 -0.14138914338555639 -0.09532814163608494 -0.13874710163390361 -0.3710492257143328 -0.04300299234509037 -0.38986500079951469 -0.2784657568485957 -0.1211231225866314 -0.3398851274976552 -0.44680921148707425 -0.11809868877176868 -0.21951584632511201 -0.44811155848226447 
-0.066114343033003176 -0.19123693917734136 -0.1711514488893322 -0.16717856667476033 -0.18738379106004407 -0.1802248824036341 -0.16759989293083893 -0.20829460697210439 0.04351623485588893 0.23990424818814488 -0.11772409050147532 -0.17351507461189283 0.031665340030943137 -0.17251080730466342 -0.19855305202076215 -0.023869519788306232 0.050251044119276299 0.014870391842064396 -0.16301036271867675 0.058375619793807336 -0.025089866987617598 -0.15701871020555591 -0.19743277694443942 -0.11295277706632338 -0.17718252326155576 0.19438213488695713 -0.17026448555395865 -0.17100263370434501 -0.17679961216774689 -0.062136895090371118 -0.15544355822575195 0.19323284656971834 -0.06464696827927631 -0.15746059599093412 -0.073160128361537582 -0.20327882881487017 
-0.29360040235306306 -0.31524097833773912 -0.020056601493695654 -0.0099301064598119066 -0.34201099191199424 -0.31327272525772776 -0.33972077264278233 -0.05947340967178661 4.5242930959105837e-05 -0.022039394468956405 0.022716617747762357 -0.28809533181539726 0.076313003617281966 -0.2958808538308566 0.05387654558706105 -0.22510556749112207 -0.060189970339155581 -0.060931180250159922 -0.28082766937399206 -0.31679857373562664 -0.26078521429150731 -0.31349903682685976 -0.27957238618255542 -0.31515336266137151 -0.3060026318024342 -0.25370376971844089 -0.30280018848999851 -0.27457705262829252 -0.18239978436642104 -0.24934403625195536 -0.26807765390300448 -0.131998206675911 0.011635874080671398 -0.29261575328441397 -0.095399791135631948 0.0063457522845149078 
-0.27265665157578417 -0.26613980689381733 0.033694506157906243 -0.037051067439039964 -0.2909086937413155 -0.29955984781927614 -0.30056533331613494 0.020341732407611078 -0.13744690255217243 -0.23764272112127224 -0.041493328150702134 -0.28161401109409623 0.021941643041866153 -0.26686733979396349 0.02225693469925465 -0.096518024454347248 -0.22543589549388943 -0.07798623241374078 -0.25303219935950638 -0.21219590215707215 -0.27301340188974044 -0.26273511328302634 -0.26851359337036634 -0.16728115342900096 -0.012776069041322167 -0.24810050533761135 -0.26752772246997664 -0.26318804549266744 0.11243977717919457 -0.25436044860898099 -0.24086875235853888 -0.26198445480089011 -0.113156326836793 -0.077046108920861694 0.020503217162781029 0.0767313294739118 
-0.37587944907149212 0.015054636480554717 -0.31150443243548642 -0.29109382058459221 -0.49664887799364299 -0.096881827386583602 -0.023408033790511176 -0.29775553903212987 -0.42832690125937134 -0.44701472381816615 -0.44737063396128052 -0.29064014717915421 -0.15115336012563635 -0.011939324217900756 -0.31549919626736295 -0.13755432625883626 -0.4536735843957948 -0.36506150880640009 0.0017745930066460757 -0.39006735152616467 -0.45450300841044899 -0.46192943801321229 -0.41849328625330462 -0.12990360377900673 -0.19960482437704899 -0.16274508543414037 -0.073346099446865404 -0.36195987278749581 -0.066915235547882992 -0.47662636591333557 -0.1097755401048363 -0.3996485548698287 -0.40248733580303508 -0.12181225281168309 -0.33369106178036467 -0.1868660497441002 
-0.22986253561636377 -0.14006435319139193 -0.19228546560806875 -0.5697921092096434 -0.52276303773446642 -0.18424438065828597 -0.097359384991338435 -0.2156962095107971 -0.5152310230913556 -0.28547023323893389 -0.52910892420010913 -0.38898785126854168 -0.19695944108195407 -0.10591342263278856 -0.3212035641660414 -0.40972080515765724 -0.38234528932730599 -0.19200486587677551 -0.093442948727780292 -0.241674126113952 -0.50967412293358683 -0.5488654199648848 -0.24328132623120474 -0.22465423596464273 -0.56302816167076164 -0.27107363267701984 -0.15613115199697156 -0.42324642709121979 -0.54964192658351863 -0.20297528657531849 -0.30635486238421028 -0.22395736722442552 -0.30598372645675692 -0.28234624144576886 -0.2202187841475087 -0.5323395913357658 
-0.24089847146907253 -0.41561847071884545 -0.088247956010905584 -0.10646444103538585 -0.42181889885662716 -0.30186670657422021 -0.40822164629604368 -0.15933232096239616 -0.092115147971739392 -0.078524247024044702 -0.067573766337982205 -0.3371609340089089 -0.062114066506308234 -0.32137948705228164 -0.010624518089437153 -0.35477754125532185 -0.11969459115115591 -0.16354050972944872 -0.077961908462715626 -0.11664762996572817 -0.28670140732624971 -0.35591361676875971 -0.27098627002589348 -0.32801371577440719 -0.39800208824094718 -0.11008473238706848 -0.37889883052772227 -0.34378049372069763 -0.33249025705281554 0.03068968986721058 -0.30369901304799951 -0.06954666223197252 -0.12639541435656479 -0.36904666329025776 -0.069058349872877456 -0.1560434447851814 
-0.3165879124513844 -0.39783670007285271 -0.10195632500797269 -0.039065593097221255 -0.42163812204236467 -0.3394121978730727 -0.39715899454985992 -0.12221420035359715 -0.077750155250257524 -0.097159024738538824 -0.042242652206097117 -0.34671801456817347 -0.0036885001693608994 -0.35584409726540961 -0.011013922845187844 -0.32961634072552976 -0.14398791454634102 -0.090419063292361712 -0.34051940090220767 -0.17698570179914239 -0.24246949171970467 -0.36605702758248243 -0.21750746636792037 -0.30894363506150208 -0.31030515222352584 -0.40033103215285021 -0.35044210811758758 -0.34545439239817621 -0.052803537118667226 -0.1072831181424672 -0.38100947580940148 -0.087391648200248528 -0.068230510932486374 -0.36345788367497373 -0.097579540639131046 -0.066299870158222349 
-0.058756148621292074 -0.22549675734352215 -0.099406308996994527 0.063945575410936539 -0.20547584441801306 -0.22158906383675103 -0.214954268276317 -0.034388054906109342 -0.012053622219998316 -0.23681865262789967 -0.084941679505127349 -0.18832804083591625 -0.24230144673363382 -0.19985216775726988 -0.24367247446600129 -0.027361738405920287 -0.24166594479735898 -0.060408870221107816 -0.19173669686176398 -0.0055030397606257607 -0.20777253557583197 -0.18884117538905107 0.11466630794913327 -0.031612451742833808 0.18637337152758679 -0.24400244871063587 -0.21490637328430995 -0.24386204292439459 0.22649827006021214 -0.13484632793950527 -0.23567693163713285 -0.19555821382160404 -0.099876735148430429 0.015103107532977675 -0.18486645757199829 -0.24939066356164372 
-0.15953728939376136 -0.36484156899648251 -0.33160620014835451 -0.33074929891495547 -0.39408519548744614 -0.36555160805198644 -0.30525320548785839 -0.15444908542666058 -0.17470823612836905 -0.47652841888244546 -0.23519391646029394 -0.096294808110878427 -0.49111882331732082 -0.27278230245050095 -0.47862958175341469 -0.20333074962524877 -0.48718665203558487 -0.14472429242433454 -0.28860570223955023 -0.15122446734525161 -0.1045080840914748 -0.20611253487979894 -0.18317973629930009 -0.15949526238464082 -0.091269575441940531 -0.1841207126577814 -0.37494499608156867 -0.062699592337872714 -0.32097638577916271 -0.40893231184390649 -0.13936190302051918 -0.30827892728188522 -0.44342697099635697 -0.15108939998508719 -0.23986740920297711 -0.44832621805414119 
-0.10728419256663993 -0.13361880161977127 -0.17889175074173258 -0.19862006013890607 -0.084596523464802981 0.28994215451641731 -0.20912139538007635 0.07666370929676207 -0.15971196149858277 0.17998949296443345 -0.19285138756114609 -0.096005303579637505 -0.16234699026297936 -0.20426739302862612 -0.22893709774066512 -0.063534342102666105 0.16690736735871858 -0.21577990270915406 -0.19726762904393316 0.21009051507221632 0.27394188881128334 -0.18208211142822922 -0.058415604038571704 -0.20290334170510022 -0.21814183987216751 -0.018510703774483737 -0.22202348824584309 -0.21646300608140207 -0.20349083096367762 -0.20858143025181222 -0.089956078188288907 -0.18990513507579329 -0.19392246360337143 -0.096538729672964813 -0.18679893637082653 -0.21281330421892369 
-0.047144893105929842 -0.020982823396988533 -0.17019824916218818 -0.17151112311415043 -0.044764642645291106 0.22441629663299242 -0.2305004576520478 -0.16243840947923094 -0.19101020903921193 -0.080407848076333527 -0.048324786264819113 -0.20583667531574837 -0.12817894751548253 -0.1919591734230911 -0.0686319458116776 0.0038097682150997928 0.12178521317410787 -0.20490937776830059 -0.21096403868478028 -0.14601879222732858 -0.14922937835659075 -0.19163135620199054 -0.19651960231740701 -0.10747798352006468 -0.21450396982718467 -0.073994394426275034 -0.24996909988185706 -0.16682939422451365 -0.032916621788554035 -0.1814442618595955 0.20086948217144307 -0.20124555871794031 -0.19018457291125332 -0.20834806648431325 -0.2109337143141006 0.16634247554520179 
-0.082291123438119285 -0.035615718093441329 -0.19168774729761651 -0.17484560950423242 0.17779482414071801 -0.06443133297517134 -0.14184525153566929 -0.20076116352430187 -0.19805465137235603 -0.19502089921463045 -0.1391227752872623 -0.17166217546068779 -0.1711895491656982 -0.2191467122385817 -0.092860841068390196 0.034556745092323267 -0.053060363382875494 -0.20333285939325776 -0.20254609005857799 -0.19831578058758076 -0.19162990483987291 -0.19232151084469659 -0.15902598310104465 -0.069538202429302684 -0.14896435645387576 -0.10775888403091367 0.24096049135609637 -0.19886917650666813 0.19028175650154894 -0.11369057748637235 -0.0022049866094342313 -0.086135148816712817 -0.21047481009808075 -0.18519829855271278 -0.22612950172710486 0.11360267394363333 
-0.19424603663598378 -0.10707129570530213 -0.27302913570965243 -0.52461268206201828 -0.27160343836773049 -0.17347683242186301 -0.04269190774354182 -0.23300762404208344 -0.53313738032116353 -0.54338504616130945 -0.48945624385610842 -0.35637887176742783 -0.15624957667573994 -0.091384353060056073 -0.36862017290531285 -0.28989076788192852 -0.55429568200613721 -0.20142756292681976 -0.072180019146553462 -0.32050025300886742 -0.50459170101193884 -0.53267101005423434 -0.23719741227282604 -0.20849670133118225 -0.51111058669957321 -0.24358918199349192 -0.13776465820162676 -0.41221913732117116 -0.23685276102367506 -0.31139277347061839 -0.29078919156853766 -0.2118038223807136 -0.26650694212734466 -0.25165736896248087 -0.38770810486698037 -0.44904143251500417 
-0.11910415310055744 -0.34473016310746518 -0.37474194809976963 -0.30221167491868828 -0.27906896305025342 -0.42070657186712407 -0.33068481897227037 -0.4293113843640804 -0.36409861938356464 -0.14736831078542925 -0.22863968509304791 0.01521257465546981 -0.048011962020477431 -0.32040869318602044 -0.31142127473653636 -0.079060862163799442 -0.15514675826407051 -0.28551614057577268 -0.27779822415648814 -0.22708363323963324 0.00043364937682168489 -0.31876106361327144 -0.079842227091522763 -0.27562503393471999 -0.12915742253254484 -0.1042017081092813 -0.31749687311194774 0.057882314677757438 -0.33532567200413632 -0.14581332783413084 -0.093852718618834499 -0.26750025218849449 -0.32615082835609066 -0.041375932522942895 -0.23634138599278101 -0.32638340837115581 
-0.15946564273721259 0.15718853007721775 -0.19299362557894162 -0.13643000606358519 -0.24519762164892137 -0.24040951385832118 -0.23391973679121217 -0.15101757081428824 -0.12807286651491592 0.14897273953784052 -0.19925310919509456 -0.26442637517249218 -0.23542172460820404 -0.23604128904833765 -0.19761063673085308 -0.10657690302074395 -0.015455460907057671 -0.18465014998246787 -0.23937312599416929 -0.24734072219607631 0.12318443479493851 -0.19516332660429403 0.16432829454428335 -0.26331911789028056 -0.25820296579920515 0.0095560993766328033 -0.19414967147758908 -0.24990678663327962 -0.16165649193545203 0.15112089901539177 -0.24050380685777017 0.066463565600921981 -0.13636392651864196 -0.27794015770229386 -0.13888787463669358 -0.2409345431002152 
-0.16601448673964189 0.22735814953804076 -0.10053362287969336 -0.012605170420743057 -0.23572838784023617 -0.25029817555535877 -0.30250429873057355 0.011554838038940977 0.021281503320548487 -0.27077295223459408 -0.21677979512980364 -0.28397982659932264 -0.31474395613433953 -0.29442580461608853 -0.16627446435688981 -0.28479669380504324 -0.049317505854465496 -0.22196477107698528 -0.29752271738066105 -0.24718129588524196 -0.3135518330657992 -0.20502947159899382 -0.043442710082451631 -0.27006157923323987 -0.30539602112541658 -0.22389576333221767 -0.14987013147116979 -0.28586610832597753 -0.21277116485270978 0.070558065279286736 -0.24236865451470996 0.001592359513413932 0.036382609324848054 -0.27781661082685005 -0.057875147894223544 -0.33064247554647785 
0.057746269784506615 -0.26064348834859979 -0.22751601681482464 -0.16676809529289977 0.086185351185970621 -0.14415861275497099 -0.097327074495784774 -0.20070552538529352 -0.13332093353140451 -0.2835465287074353 -0.20961440073261328 -0.19885536717299182 -0.2401558725313995 -0.27991917231505092 -0.1999225318952155 -0.22020448911007409 -0.2026826560279246 -0.18169740872791457 -0.24049919697515298 -0.17308719988183918 -0.21676346609406935 0.091542382554779561 -0.1790103795064785 -0.21395229145272676 -0.10454046100889552 -0.17539849741358149 0.044022377567783856 -0.26748685989751969 -0.20759866998330487 0.10773051667736303 0.10378791815731964 0.065865340588548496 -0.063835754340722944 -0.11738565858622543 -0.20988488480304729 -0.21259961497617028 
-0.37279422089180086 -0.63119523106858744 -0.38344884298715265 -0.39474269187069161 -0.038421714920364433 -0.24803038241255057 -0.10428108451536446 -0.47533760547252768 -0.49444044789070157 -0.53550272694312417 -0.20257289444287813 -0.32334532555091672 -0.2399046844277922 -0.14096241834281156 -0.19525668869793844 -0.28333133329711691 -0.31481211058335384 -0.42284626525526392 -0.68534430999314544 -0.25278031019079295 -0.5573367639799407 0.13495115146298345 -0.58488534640780909 -0.28146154854606031 -0.53069118406563742 -0.3017337104962251 -0.18785102259026523 -0.25331422182636748 -0.41343892127133486 -0.60246921344855897 -0.29348844975806571 -0.62956374536304838 -0.5696121592170007 -0.47245013518733947 -0.60595479792612272 -0.33185772154986692 
-0.20928802911612304 -0.2014158779823651 -0.042879439218899099 -0.0067196597502200504 -0.25124263433347488 -0.024287076572537383 -0.22767529432096606 -0.12997640825785181 -0.055244578026239895 0.16710747342965229 -0.13754695457181826 -0.20972237667634541 -0.27267013766027826 -0.23053928494762235 -0.12458789737999072 0.056194129465758129 0.10862318310597324 -0.18131935244404024 -0.18968822949358982 -0.081133181244273336 -0.20856733157024315 0.0045519942265490245 -0.21025222456248813 0.050589664851190291 -0.20916670494487635 -0.039721292374748224 -0.23198749442418995 -0.21086417916065706 -0.25150950485152335 -0.21906436861552644 -0.20825656897734404 -0.19360317142790126 -0.15676953942385341 -0.215739157472604 0.13653113620693219 0.025456939939689185 
-0.2665833212733853 -0.29553154232738449 -0.00051360135671254994 0.032667662302238179 -0.28663253570349112 -0.28931938072002689 -0.32832696051876231 -0.01892582141535221 0.01683300087352765 -0.054519376368904339 0.032477329654550136 -0.28297055577648811 -0.25146127638997989 -0.27285740620845272 0.055565890617541205 -0.17423110302650219 -0.18920984995276283 -0.18431103404046167 -0.22519497383435555 -0.13524787188192222 -0.27895352788057337 -0.27786808477892533 -0.27047899840397238 -0.28713698123969356 -0.31609059135241868 -0.29455363876659779 -0.29176213661780798 -0.26953402744331201 -0.20165925083081943 -0.34457755433457649 -0.22653797443921231 -0.088850883990890889 0.04656421832745615 -0.30159024451078925 -0.033943762260630159 0.030057258137678407 
-0.049517004240259281 -0.24623676643609188 -0.05990719715460599 -0.13013025453028981 -0.26904052278574031 -0.27949993093301506 -0.27619575832031007 -0.0024407444469421282 -0.056219233292960351 -0.24036672894333944 -0.093162587800710406 -0.27381226901384853 -0.20654075312696316 -0.24149665651949603 -0.023754935817583686 -0.20832744854843077 -0.28158236489855609 -0.17670625936745385 -0.22412101067934967 0.088189786806722306 -0.18413215940879701 -0.24673288994555387 -0.2708134995390768 -0.22993053820291634 0.13324173307647141 -0.27868186410875262 -0.25937965339290453 -0.26928451661111452 0.098682720999745108 -0.19719367152951403 -0.24168548550837043 -0.19489725701729926 -0.081663559224472659 -0.018326893363581797 -0.094665576124143447 0.051578004451087865 
-0.10963377900911073 -0.37541819639673629 -0.35815970626200461 -0.31513266722227268 -0.29939026573509736 -0.43689524081596287 -0.35194095641400813 -0.39058261637829073 -0.34443014509142561 -0.41154049958128563 -0.25774016163006042 -0.0021681507845846375 -0.042055667818577197 -0.33466093125415808 -0.33294312502959983 -0.097049262772359854 -0.28727558964688882 -0.30598033974871486 -0.29049091067352123 -0.095700762438704276 -0.024026095260370847 -0.33496596005693036 -0.11381931024999439 -0.2588003901214424 -0.044301959794294438 -0.20763399671819505 -0.35050192599410912 0.034663794584035013 -0.081074029311883331 -0.20090049131860013 -0.12540906704459978 -0.32378235617381462 -0.33362938077164334 -0.06991342488122762 -0.19749102472919186 -0.28976029711405149 
-0.14233369698471951 -0.41389906419779504 -0.35430504128667711 -0.3602548714934023 -0.42383441939097077 -0.19707937790406524 -0.36335872207708708 -0.28487592191446964 -0.40306348279704618 0.0049733670147300603 -0.26731494192773581 -0.035803704783018621 -0.13764816497492829 -0.38676369266459298 -0.37107229160214317 -0.14445567195321876 -0.24423808321324639 -0.080592094837402692 -0.33462414182736283 -0.31254342161673171 -0.041629391157611453 -0.28531766980138223 -0.12819110581219822 -0.087328449191654986 -0.19335496087499543 -0.11421646508837947 -0.35318283564692543 0.016516494961712293 -0.30810346361637564 -0.35516887729993291 -0.29013721105018991 -0.31573271380306867 -0.32249681692620158 -0.092183624361209582 -0.3569594873173032 -0.15058930484850586 
-0.27585746416010315 -0.37203934455720733 -0.10455234624112347 -0.13590895215012319 -0.36305722970416177 -0.3443216530988138 -0.33650320241231585 -0.043666519252661871 -0.11582737600236834 -0.016529817896732468 -0.12994557932152023 -0.31360413568640977 -0.28737013572474007 -0.32746608135439148 -0.068945364335447679 -0.076565949386526097 -0.066499714407249416 -0.0028481070127775766 -0.30613544182578856 -0.19239012549572737 -0.20353428146934274 -0.31455190994345167 -0.085513430138762239 -0.15661943249838484 -0.35498698674883872 -0.029949002645244735 -0.34722593594596857 -0.32918179954397125 -0.36620222956328524 -0.025148399958077997 -0.33225815612025156 -0.073297050439298711 -0.13340658925931312 -0.35285518974749097 -0.038049557923573771 0.045999031215071901 
-0.2105134396782096 -0.40098104743469209 -0.087275818857950382 -0.026516222295387776 -0.29767409049243293 -0.37699529957387928 -0.37384237657615454 -0.098509133707633659 -0.070766330877195346 -0.087864762767533716 -0.028963671346414959 -0.35281771128559675 -0.2997647438339569 -0.34491500063760289 -0.011040089068663288 -0.36455469466559842 -0.13683517888097776 -0.1479598475004415 -0.33901139255643359 -0.082213603557926049 -0.29468002423052242 -0.33444365495596912 -0.20880535208881001 -0.20693711533531117 -0.32386231873662591 -0.38504962477063764 -0.37061290523395546 -0.34638779871489206 -0.34899339608548191 0.025528163296235331 -0.36351177628448139 -0.089198604704188209 -0.050830562868292878 -0.38449365155346071 -0.090628000086777988 -0.033179763707445097 
0.057881213699377834 -0.33017901711742093 -0.081047135368119499 -0.27705080468254956 0.40063125868332272 -0.3503897222727404 -0.24675848055593053 -0.22680550090923579 -0.088867115608691344 -0.40755719901906534 -0.16648416926114426 -0.29905657972644656 -0.41681318945562079 -0.34456215305011612 -0.0085253012690532544 -0.31033400259743638 -0.30956601392077887 -0.13939744700193349 -0.30931920432337567 0.10145548329273585 -0.31934201181377281 -0.16431712041813287 -0.28542059455549373 -0.20303203985755391 0.10024764777782813 -0.19596710486624019 -0.35179773485683385 -0.3392533754095769 -0.15687684592333426 -0.14509230486723251 -0.21323021171859349 -0.00079063068232082274 -0.07266375380027984 -0.25313382931409256 0.064278690132515443 -0.32353695882207706 
-0.39478547562498184 -0.73415555599382998 -0.41428456138199948 -0.31741207747931083 -0.15983437033034903 -0.37666795489142019 -0.2533407567815954 -0.51219795385002798 -0.4110006434245701 -0.50166404938746845 -0.30498620656242964 -0.3279710641139244 -0.37867925245046619 -0.31472625521061781 -0.42216913999449601 -0.4271012164306871 -0.55422901797314894 -0.37107876134040374 -0.28420809581912088 -0.38840780194225955 -0.66082064267700802 0.033198094846583245 -0.51313870225368718 -0.43393427861641748 -0.41616336519413194 -0.44487929526783648 -0.32207258498626035 -0.35216609566313306 -0.77799652359900984 -0.75557113451513336 -0.43696831086226157 -0.71119653978090702 -0.3889875206137266 -0.47316093779856433 -0.50368521988405646 -0.71582933345528543 
-0.084504444239073426 -0.20678778097289355 -0.25139198275778141 -0.10640761650705464 0.1105696212443127 0.093233083583668261 -0.069914539370076911 0.052088979336100669 -0.088048243088467509 -0.073270520996484081 -0.19432261525244637 -0.11834681385193366 -0.19683146768788939 0.079316255837687838 -0.21011753241217013 0.00028951069758255301 0.16803596279816382 -0.23948083177507803 0.035545919721076152 -0.17567886798568103 -0.19811491975250906 -0.2185949027826746 -0.14018253145876233 -0.088040258159013285 -0.20835010773750512 -0.095070119405058412 0.064241667353670442 -0.22448284762796719 -0.23068479825099986 -0.1921358299381816 -0.15031805723941311 -0.17602475034622841 -0.23565848443819579 -0.19949426475130505 -0.1781055415775735 -0.086553492781137928 
0.0029027300511852453 -0.15895494712269764 -0.24160097220695234 -0.19608632208064233 -0.20164707881801433 0.02967404362548734 -0.26468069795697069 -0.105592643233172 -0.22673709550350546 0.045788441270571523 -0.12346685613272404 -0.23465648841538117 -0.29067211509783253 -0.25413085193631252 -0.085124857687355143 -0.11760111859883401 0.024244828316278041 -0.27249304475354702 0.16617174868030934 -0.16780361423567428 -0.24761560438755242 -0.2241636404550337 -0.23850573538693362 -0.099105790036195365 -0.27657746182805282 -0.25459472256556476 -0.25594682533650975 -0.22357070716338209 0.19978182891815974 -0.15616082709029597 0.16665499306613216 -0.1385879518536402 -0.27323008093845036 -0.25772806046569213 -0.2478274450834701 0.13177409993221864 
-0.01735374691415557 -0.042342132073561092 -0.20261828733496257 -0.18163237657945744 -0.19865618696563736 -0.075963543962052432 -0.21445072390478867 -0.1686525834379955 -0.19021230886104751 -0.086899493364219482 -0.15583059669685317 -0.1298533204118166 -0.20516440276786901 -0.22213676254203818 -0.1326707428186194 -0.15160340527017613 -0.15501267311839248 -0.23834937132653783 -0.038420585688407852 -0.18834731389930057 0.24411792424118497 -0.17023521303816325 -0.1779795176194798 -0.1116063829561656 0.20590562734957357 -0.22724099762036684 -0.19996790944271539 -0.21542269847364484 0.22821077258834663 -0.18200841853601818 0.076687435295725664 -0.1442783060753573 -0.20677473651694353 -0.1654883520281423 -0.17212894598288103 0.044987444985338083 
-0.12285493005653032 -0.30743627706658672 -0.33217678728836991 -0.33251936163490708 -0.40054527922363536 -0.14529221686288202 -0.35250610829510598 -0.3096760691770053 -0.39016925896118748 -0.39746084089975442 -0.2375352104494686 -0.025863497938005207 -0.14212821807121259 -0.37406664254813488 -0.33867891251074433 -0.12930956710524344 -0.3658474056040027 -0.052803495129509902 -0.30417144915553174 -0.3632994492251802 -0.026092588050288475 -0.26735675212906806 -0.10743640742176577 -0.1213643246182807 -0.042791629786037566 -0.15068055979575207 -0.31970470823835717 0.020214101719291694 0.025136189516161391 -0.38875623132560921 -0.25820426027522742 -0.33502830506895387 -0.28388352259565586 -0.090251141024219023 -0.3398150149579352 -0.30496854754261316 
-0.29665404707864457 -0.16135941556176278 -0.11658597712562485 -0.52456938288775345 -0.26896609851731973 -0.15546427068130889 -0.24804479746146274 -0.051168386679128909 -0.50097701855193388 -0.15499135977338652 -0.49425257205176826 -0.32396175702598989 -0.19864479773946389 -0.16425149891510527 -0.03770282866182155 -0.40612021666873371 -0.24682540249551327 -0.16078506007106641 -0.16050589487408556 -0.092781469177219411 -0.24927902577157438 -0.46334199537325677 -0.18119301557259759 -0.25291477851067695 -0.51078192818556756 -0.12326171565247386 -0.31850765182148288 -0.33292610385247101 -0.51175986717480637 -0.33855600901091787 -0.41626787801304627 -0.20126149172677288 -0.17237799679464733 -0.22133685741356113 -0.13320282526304855 -0.39257400415599708 
-0.2373543614088017 -0.25270151111741823 -0.12474965220643071 -0.16534522634938653 -0.26613377950788886 -0.1880629414359499 -0.25397177512416491 0.039263950050192939 -0.18174981269164248 0.093807073922103579 -0.043614881326494083 -0.19864483562799859 -0.15938532360224009 -0.11609866940159824 0.013968642157007091 -0.27624778125602079 0.067660075000214176 -0.13072479846806301 -0.13880063308841048 -0.0073524375795933081 -0.02543412303315069 -0.23342679482640571 -0.25638303480964236 -0.27569207615488778 -0.25829803270347518 0.19571640766096135 -0.26046176467650667 -0.24212470401886566 -0.18438741659364111 -0.18743836599047778 -0.12823134051981344 -0.2154821374953059 -0.22719562332267498 -0.22195070011691928 -0.03570771510643312 0.10228994937135395 
-0.20355568455090337 -0.26371942161095929 -0.17109618434708257 0.04178256591915324 -0.30928850329123764 -0.28359236841715668 -0.28039170937791891 -0.30241865220976633 -0.098787734860477844 -0.1244135357801547 0.31424855410355274 -0.28619228831533355 -0.11134567576661979 -0.26147834400026809 0.094696150010023045 -0.24343777805708405 -0.064917610991695032 -0.18797977622178486 -0.24637790419227812 -0.19191223608550842 -0.015083665013102491 -0.28711840123242305 -0.28534860393452788 -0.28718603343691917 -0.2431115880739099 -0.30839441272399448 -0.26799089375804852 -0.27090503784169223 0.028925848567806039 -0.27042388508644388 -0.06906441346520871 -0.31554054424999362 -0.16173505358136889 -0.30545664929889038 -0.11973538601282094 0.016168715297130688 
-0.10369856110068244 -0.12251832002394862 -0.079988998456925461 -0.049798567281409724 -0.12672008961770054 -0.13440503233521633 -0.12220820119596493 -0.12152735060856357 -0.078998496510477634 -0.12690431976478048 -0.040598572636342818 -0.15769540913607441 -0.13528598875771106 -0.12499562665859171 -0.12775270888419163 0.2021077182695605 -0.11627047926152159 -0.10075146845302567 -0.12088009554566791 0.010696457999876981 0.015803431806146656 -0.11187403564757427 -0.12809150662780669 0.049645231693504203 0.27096487537694253 -0.14538364470359127 -0.063934612937082344 -0.15362973095744722 0.29012328355781347 -0.11538039544359904 -0.09579000919868913 -0.097661824919549181 -0.11407452574194021 -0.15052771468362203 -0.11288148418460249 -0.1406111689945016 
-0.11177986140948661 -0.078105605403303038 -0.34272248468552186 -0.093927015923529644 -0.33495413827884135 -0.39153823952378075 -0.30900430974605825 -0.18327545392108829 -0.3548771980862408 -0.4388579966081817 -0.25764150675585712 -0.088183596598404856 -0.46193074518011623 -0.31635749772487942 -0.36369553402338428 -0.013579546664103765 -0.38831491785823408 -0.12739966028731001 -0.3537508530804454 -0.12362683892832114 -0.18840503036795372 -0.29702405920092317 -0.094958036482528763 -0.11974204230442613 -0.15828270830534671 -0.41266017621985213 -0.28114582743448724 -0.098411063545720684 -0.25956194657694959 -0.36536496634714943 -0.35954593498259896 -0.32394950934083605 -0.41188067094769321 -0.06377675855197304 -0.36566839597824857 -0.39340380469342989 
0.040415519538968943 -0.10395160726589409 -0.21393554287181582 -0.1942667353397669 -0.072049435127230652 0.2001822832924238 -0.2197163240835075 0.11485038906447384 -0.097246130205080633 -0.059181564620821442 -0.20603762265068806 -0.001581463952846762 -0.2257150714201949 -0.13361720914981701 -0.20530828203521981 -0.17489951582768257 0.16996557044199706 -0.21584922562514289 -0.1805037295840291 0.021628843556654939 -0.0033010818474711713 -0.1165838875996663 -0.015115835744831002 -0.21126451566044904 -0.086784551773250271 -0.17541235055828039 -0.13267728091882069 -0.096511978614637561 -0.1457188876524271 -0.14405578188524074 -0.11395340526919268 -0.18378263697595887 -0.20940558324030265 -0.17287289377374276 -0.21132999361390525 -0.21480729625591174 
-0.09961606770427979 -0.35941325359010945 -0.15520658337127438 -0.48209439465117748 -0.28828446888397502 -0.18911729944931335 -0.24222647574218376 -0.44232068001234676 -0.030175382379545916 -0.319081144191243 -0.48821723607011996 -0.44418507631306858 -0.11414928478359319 -0.151499606489337 -0.46738928478983699 -0.29316692989922921 -0.30033598614240148 -0.47163534192807705 -0.15735593259045499 -0.40926489111111564 -0.41247687366487151 -0.036571607769566791 -0.42571119593041723 -0.37839689567924623 -0.13821414914510657 -0.34912923461608864 -0.52076139790974019 -0.053677386993435931 -0.14925998710523408 -0.19757030493779235 -0.11738315782381099 -0.27913097897298234 -0.10488738699818094 -0.48036737908382277 -0.18016931143993861 -0.12370789799822883 
-0.091204351270648715 -0.21119888408745555 -0.083703527992738933 -0.37255922895482113 -0.050990438619266512 -0.28536437575478069 -0.0066458869264665087 -0.40544373346428181 -0.22381718592703179 -0.20880892857092223 -0.36920317787294499 -0.34407283117369852 -0.090790561909132414 -0.13927025773556906 -0.27443716058326045 -0.26041370939907338 -0.20348962271964088 -0.37746161576811782 -0.12859283680754752 -0.3617046608493526 -0.34905957606339211 -0.14022481030311562 -0.28697216329844449 -0.31068606491045142 -0.20704038785675161 -0.33160359974616627 -0.046860084041697628 -0.20175756347513946 -0.10940134683163254 -0.0057320178322255643 -0.21475116297897923 -0.12013187435971702 -0.17026476956898684 -0.35752790641621374 -0.31491180538568181 -0.084509494371630453 
-0.26110220443134075 -0.22130002224346529 -0.16689764843717997 -0.55509638453069687 -0.18519769119686669 -0.2198546234332778 -0.12902523113012626 -0.10175228634887412 -0.55996263304463845 -0.27881690434541995 -0.52415207321694135 -0.37704244115937796 -0.16939446368549332 -0.2308272305284583 -0.074866839548692124 -0.40924181252351388 -0.4554006587541769 -0.27655105140687392 -0.19382573715737766 -0.11874353350163813 -0.38348722674731328 -0.4537586341653157 -0.17997157641691514 -0.27883364647433334 -0.52848440271610997 -0.1660076529182829 -0.22277235826387623 -0.37077800366186847 -0.49390486324386018 -0.17981170256592144 -0.47521821700994538 -0.17643584046096675 -0.23487630714999957 -0.27097757353176583 -0.2567757167576547 -0.40535377329848193 
-0.16572062412266267 -0.013851736195545302 -0.32947425910098638 -0.41663210658219463 -0.18983529780995287 -0.15900234708378605 -0.29853330859039318 0.075993058835310295 -0.35894715897660823 -0.22552977202708266 -0.39818441050662234 -0.10246274860466188 -0.29708664083517883 -0.3188753499103304 0.071705603471532195 -0.31936555077193013 -0.21773247351388469 -0.048240450033931799 -0.29597361643051173 -0.022770112112410118 -0.085436989486768658 -0.33771296640170362 -0.04218131690103856 -0.11606090949198038 -0.39404591824709978 -0.025093371111601086 -0.32124287689896364 -0.39229024019895326 -0.37587046536193264 -0.37899274847632503 -0.014794401655341799 -0.25993052002892508 -0.23159578134340844 -0.15903549951054172 -0.20000557979274625 -0.30087338293112131 
0.20625398309168824 -0.19596550080420638 -0.14970725147597216 -0.18744331465756003 -0.17394483819109283 -0.12441793939204059 -0.15380628775543095 0.31706594131811244 -0.17408819774373649 -0.14646547820984257 -0.18950238917781931 -0.17881108797873393 -0.15986835950383038 -0.11927157529385825 -0.22013348257712853 -0.15013391451155525 -0.014610606820461379 -0.024162859309171912 -0.14252118585857315 0.1348724974151452 0.11570836536181672 -0.15346796250287587 -0.22321809782469648 -0.19316048294673721 -0.17739914294691522 0.13555107364547789 -0.18948386695596264 -0.19177602194771914 -0.14062298175733701 -0.15295427340997153 0.14896930291002197 -0.13994471514649429 -0.097367158460214168 -0.18616098886648091 -0.16736132609456922 -0.038710011818062239 
0.22676245413731397 -0.19588389926070851 -0.001550166852321528 -0.16400104751191455 -0.13575842390969395 -0.15056415612951207 -0.093712617190771966 -0.19009188596836879 -0.19428904246025192 -0.15704001739377862 -0.17307880010457263 -0.19497630639409277 -0.12446367242484122 -0.11020235309489394 -0.16327992328409285 -0.14562835446055186 -0.059139505112475649 -0.075432388521926852 -0.089495431037571072 -0.13666417023287289 -0.0067361049490726708 -0.13609654924333148 -0.19833007176058526 -0.15641145887497382 -0.11545688133018191 -0.18290931023376975 -0.1272489198035972 -0.12207407013151567 -0.021610719878406483 -0.06582998810777875 0.24042597459358289 -0.0095741794231970958 -0.071342694762958167 -0.17786494133832076 -0.19684418940517495 0.13788125752128513 
-0.26237163453512502 -0.25725544372313686 0.13945582554907632 -0.20418285236781294 -0.033025967852437506 -0.27957513785262356 -0.078253324425230558 -0.233726845673561 -0.23202480815414814 -0.10101971204580523 -0.20025473266178756 -0.24364225361694122 -0.28637579234791583 0.076998614700024212 -0.21112969127716966 0.13626179371727193 -0.024432290194468399 -0.16932041744893853 -0.13854253435887071 -0.20967077860856151 0.039846958785755546 -0.20790369652762575 -0.25691720351628539 0.036185872845889734 -0.097466206625915902 -0.25611773105210078 0.16344098087466596 -0.24491655886644653 0.045453516169687853 -0.050971774467536715 0.031481241030770497 0.066012323522790517 -0.096765411726566206 -0.1526722914167129 -0.24934074402904924 -0.071328575553005605 
-0.48280355298899263 -0.09357662376120246 -0.35295515640004071 0.0094567514133573772 -0.22625039395019064 -0.37585788475718906 -0.25084064619474461 -0.33996320237034133 -0.40429550705826311 -0.4167017136306404 -0.21843539479178284 -0.061781037204845263 -0.4372328409211042 -0.34305856634481963 -0.23839795784452442 0.0024665990383970424 -0.31595411649388194 -0.10038486678781179 -0.34249149368178144 -0.39425854602672811 -0.21421125167827382 -0.34629224823565868 -0.071289015455262533 -0.10264302725251635 -0.33088287951501388 -0.49759263885910587 -0.1428416266239125 -0.23780754016348374 -0.31645692465687947 -0.18773001405857478 -0.078256401635150283 -0.27561552495172859 -0.42334517543176037 -0.043174885795911493 -0.41011031821102828 -0.34908292668289387 
-0.10742385537152936 0.062200419460838693 -0.18186012186984318 -0.15569794891605596 -0.01279363426071058 -0.048163976983614042 -0.17285969310252114 -0.097627529151606121 0.023003874414215086 0.10254983756288071 -0.16033219873304244 0.020524676056814371 -0.18966415281323309 -0.085560909790922221 -0.13786069032327103 -0.15823320616015896 -0.051080796482344849 -0.14274031272091844 -0.12781393984405093 -0.11125319592603387 -0.10080060675329477 0.01898607741235931 -0.14176155402299095 -0.16115003116328103 0.11859761913431756 -0.16089551405058636 -0.030734777236933145 -0.068914716181500232 -0.028892054256127286 -0.053452189579522379 -0.16576451806979653 -0.12719702551636647 -0.18634941574950223 -0.17776658679850807 -0.15639792123749924 -0.17728149050009082 
-0.33323417932444555 -0.28934051094528729 -0.16132039488804473 -0.4924730208951778 -0.18533075232386428 -0.29175036062045401 -0.10826769144163739 -0.49242524993955372 -0.068191656293234815 -0.18128969821505292 -0.49537207246191778 -0.43843799099964464 -0.16026180717927119 -0.14857227699371328 -0.45942975160685778 -0.44331864619449435 -0.18874055103550544 -0.4377353503462818 -0.097605747644186391 -0.40188686182230582 -0.38120671280549578 -0.034280667349567161 -0.43408358370002659 -0.4637745912032169 -0.10111681666447042 -0.461220496908823 -0.31254845497571648 -0.030857020698733275 -0.12954067262770075 -0.1225855003283722 -0.48361027971601167 -0.17113315720673353 -0.094395611308062122 -0.48001566827683362 -0.1402327374119032 -0.13440071565311681 
-0.37293241603317578 -0.21353920037709812 -0.13750670023928646 -0.47479399812492401 -0.1846588544117129 -0.40352664500331764 -0.082847511987421435 -0.4972921278571007 -0.065893588668309147 -0.15925586956525484 -0.47095279121047234 -0.42703737081678644 -0.1364902679079904 -0.13135046918428639 -0.41241753252131763 -0.41652693652415879 -0.17612097760628229 -0.41531696656074479 -0.077942171424312451 -0.41122303144817657 -0.38938778266659618 0.00064857038317426598 -0.36726255201237595 -0.44594898805544109 -0.11459459562680455 -0.44597851350512058 -0.13938658580498295 -0.26878119024106839 -0.17497106551017852 -0.10293143758456574 -0.46040234258974772 -0.15573866421618032 -0.099905720506556078 -0.34000358289481003 -0.11614728763393201 -0.10720732620376157 
-0.49270227401863853 -0.1571636393589653 -0.31959897830747541 -0.51872483325912566 -0.13062630030498487 -0.29434475455801801 -0.25002658089543967 -0.1078074823008876 -0.47900495077168248 -0.23394176292199217 -0.49775314640040996 -0.22509078343364444 -0.32078915162589422 -0.37260574350973152 -0.024098430842621102 -0.46231365933910978 -0.3263666425731272 -0.13907419119238654 -0.27534927737080167 -0.10322920911954692 -0.15957472560782693 -0.32318516737344849 -0.12356992318814163 -0.24748519959786325 -0.44275735454949916 -0.12121064982994467 -0.17268815328912726 -0.48923345775976779 -0.44061420082322833 -0.19560998957047923 -0.14451334216188702 -0.1978478849826231 -0.31864212829127286 -0.21664317700331223 -0.3292636263866297 -0.2996491925641333 
-0.30362034343616201 -0.23267342217097209 -0.32065483048714871 -0.26465974382945751 -0.37039915660309075 0.0039537525168880823 -0.33297624468621106 -0.18648971370593098 -0.33995762842975408 -0.16964538227982096 -0.2018147430408522 -0.011085997665477647 -0.3589595449021406 -0.34574370120940529 -0.36109141915568133 0.053487405872090672 -0.10847456387499287 -0.041344768406518226 -0.36268585840070439 -0.22361723568468983 -0.14020465178824046 -0.28386483848406524 -0.0093415517060446915 -0.040080527416595027 -0.31077011808675059 -0.019258206746287976 -0.29787036572314962 0.00096140552204720172 -0.23469275343324225 -0.37321786187809425 -0.3684373227526036 -0.30521039360486574 -0.28219058453430795 0.025814988064732133 -0.36161833227594281 -0.15588448892063481 
-0.1841511664724885 -0.21599378306555242 -0.15237850558585081 -0.12854000573474306 -0.21890189244437147 -0.17227942101751981 -0.21737348673643153 -0.080913278275834166 -0.15940046373975708 0.11677927310345713 -0.066284598388088714 -0.061120804647527095 -0.20915099823179312 -0.18951518249363072 -0.056642817333214343 -0.10192324159720911 0.12371924030986335 -0.066748685549299872 -0.19515149929886574 -0.13551333470382629 -0.10893832299085476 -0.20414437889229961 -0.22254574040811928 -0.039116619476922874 -0.21844995526145713 0.15207173760813505 -0.21593906730462803 -0.23398173101840353 -0.21841228620510067 -0.20381026727871504 0.022049113081449391 -0.20462234752990427 -0.17776281989097314 -0.14246644541502573 -0.1353991073349948 0.17938754795672385 
-0.11604473854256828 -0.27732455130271705 -0.073263764811492021 0.0020294440606879859 -0.28232162793600246 -0.31019567202881571 -0.3011405036523731 -0.099423292312830092 -0.14432003708787086 -0.11590908619016099 0.20285258409474236 -0.2955591290440498 -0.30314705896993316 -0.25947987634072989 0.079798851315964675 -0.30987717830711436 -0.051774306142364626 -0.2866104669273738 -0.25502153774327996 -0.15624355590357097 -0.066501526780612677 -0.29340000616345979 -0.30370006964638729 -0.24620842216209224 -0.20338503499168886 -0.30585521143857747 -0.28070329917543507 -0.2822503947884431 -0.20239020328859317 -0.28708291455815643 0.14023072699245812 -0.2879778765969272 -0.1524003210043724 -0.31691934528090132 -0.0061001845030168866 0.018776201140277352 
-0.038475421960250999 -0.19606245038523668 -0.12229837558528335 -0.23530100155711853 -0.03407518929853337 -0.20692255434821116 -0.20780329236613782 -0.21255200817984499 -0.017754836988132496 -0.24732091112678053 -0.084253587996789864 -0.21348022743667366 -0.24180532126890697 -0.19979045494808167 0.15925410535161022 -0.21640112897938088 -0.13103306391547445 -0.20594788262509159 -0.19127917711081804 0.24014723605831176 0.053825904365161291 -0.19247420934080267 -0.23352118431360788 -0.12215080163964058 0.18449606613242209 -0.0094424610219303717 -0.20165511701816649 -0.21536475636315397 0.20375392576926735 -0.21751909572213668 -0.22713297486200218 -0.19992186843179532 -0.064786601813394545 -0.23245863117671414 0.10639397328003762 -0.18033917411889899 
-0.40933528022891891 -0.59753838118319369 -0.4689760948122208 -0.022457018022592135 -0.41556403076991377 -0.41926262119700197 -0.36153181749260505 -0.37449956780664928 -0.3576507055640038 -0.44887440759786951 -0.11746076557758521 -0.35323953708788991 -0.38381048992897387 -0.42262832350231866 -0.3571281252892537 -0.67431508980081212 -0.48093338840058214 -0.37162946269064262 -0.32504631002661055 -0.36469529856873745 -0.44829525864124931 -0.27754300508019586 -0.59944117123615415 -0.3634359217032736 -0.3679099373972059 -0.34808697199173394 -0.394691640593957 -0.33923551512744593 -0.54326227313402142 -0.68689698896712348 -0.68528512868688884 -0.4959552481983297 -0.3406467423569583 -0.45768942027584514 -0.45987650557870757 -0.8521066356952991 
-0.09444262542531516 -0.35320063791296086 -0.34063587685838864 -0.24688295918077471 -0.022563275862340925 -0.030076382990375988 -0.24359630798450516 0.010017907872925306 -0.073956787956745415 -0.030425600846155226 -0.35586367536679159 -0.19815617139112826 -0.029517805339309332 -0.017316431973287628 -0.36377710213730391 -0.27537973188349635 -0.054202889295872546 -0.37061453929929888 -0.0011699567110263209 -0.36285334032741356 -0.33540103657878501 -0.19240916189477894 -0.27672291044463537 -0.2446849260338288 -0.29233912625898262 -0.15058512411060956 -0.018193692074379954 -0.27090898665697483 -0.35372418502021796 -0.049212920465125633 -0.32248500766265276 -0.0025234812926927283 -0.38761846710267484 -0.3471099153474847 0.013144455061222995 -0.4128657459520117 
-0.097106360381067416 -0.37677654949127892 -0.14275083796694446 -0.46701027416383661 -0.23013634855377049 -0.26807714465693444 -0.23488131593990064 -0.37164704103304153 -0.089178576708433405 -0.1612870921722328 -0.46246261174122638 -0.45915675644531134 -0.13565117910434546 -0.1606568221140347 -0.44561536279784025 -0.364412732405693 -0.40624899844653356 -0.47308214478553895 -0.10389319139393005 -0.48270333377291746 -0.38625620461185983 -0.19568362090421598 -0.44779576062471316 -0.31520960002698878 -0.18809507592931923 -0.45289762337029987 -0.38354950944713978 -0.076024298916164648 -0.12219363991554179 -0.11459393761038139 -0.058864542760957768 -0.14948699282999689 -0.15007425631063254 -0.4879057930459072 -0.19771658120291802 -0.18785472809422138 
-0.020057192518300328 -0.10746551591100846 -0.1358776835969922 -0.30020059999841608 -0.24267390889410009 -0.18650283184736205 -0.18759908848544288 -0.30104290036800579 -0.19760215709089421 -0.15551389548767233 -0.29511666162645334 -0.26623326316157497 -0.18147946960639974 -0.21919591321854826 -0.27967738504128398 -0.29087364055628784 -0.33649467436182884 -0.33406189696346061 -0.14364714003715867 -0.34350633150442877 0.00279372277003138 -0.15413300750309697 -0.23774217735723804 -0.24953750468336156 0.056673310583984206 -0.32699289522887226 -0.20763346305254421 0.011727512165577913 0.055861229198411563 -0.047888725520175063 -0.079466806471996915 -0.088957911815474341 -0.12096178650559417 -0.27770487951916328 -0.27258104045946979 -0.11940088711177008 
-0.22903066855947782 -0.13414856367292022 -0.31094628322685625 -0.27525125100504744 -0.37122289436094918 -0.0135692594341775 -0.3386443641272977 -0.25657170787173228 -0.36973657727039821 -0.31961452331623935 -0.20990851022513435 -0.030576645645653402 -0.39531829058214096 -0.3639907880210474 -0.35956459869870966 0.042712687507502067 -0.32603257251163159 -0.14159177461011843 -0.37691527155651361 -0.30541933036859387 -0.11438707604984379 -0.26569986464427953 -0.025020516319708141 -0.051841452505521995 -0.10619838473489869 -0.20155484484216166 -0.23890645286150275 -0.035148144486178305 -0.04108618373733474 -0.375267947377393 -0.42374644651795368 -0.28425168443029714 -0.27382724727791208 -0.0083022223595783443 -0.39319262679034656 -0.2845609057703104 
-0.44941431912765079 -0.10754639347868254 -0.4373004630736308 -0.23998763436562992 -0.19563711602167594 -0.10954657307493001 -0.45132870595160818 -0.30733630162198011 -0.30593737898493023 -0.22316716813244405 -0.33016449357733146 -0.011546605963722215 -0.30456076838364332 -0.12167447791540213 -0.41221512831575957 0.032260125577238508 -0.092381393981704737 -0.050864342451517067 -0.30205360784085789 -0.35354621685258275 -0.33398846483789685 -0.30887982830421312 -0.024220515891495001 -0.06940700333086218 -0.44009465020683525 -0.21046237333044182 -0.17489598896406913 -0.33732858237300739 -0.31136305993489322 -0.33578529403463919 -0.144460139748913 -0.18894506622453019 -0.34284029498728985 0.0085039182481955258 -0.37690106988475913 -0.097022009333068274 
0.10444579214091497 -0.30617213439562496 -0.25442422374816853 -0.19358800716068517 0.057353992324193727 -0.085134840512102017 -0.32746318827014559 -0.21461399466297759 -0.2247074906354764 -0.043932033209989556 -0.24234591811587064 -0.15504953818387224 -0.068731756983874404 0.1154055513719503 -0.2364403086491457 -0.033856008737349612 0.085665713900787102 -0.13089993368690919 -0.10456454278906734 -0.2378108701960448 -0.16726696271959104 -0.26019538801466247 -0.26285739088160798 -0.11110035113005956 -0.23352895554067618 -0.16375290271855256 -0.037367248905049014 -0.27451637928892347 -0.2265617304117496 -0.089024826128659737 0.13584924160486372 -0.0065836352355457903 -0.18201711291745576 -0.20783557466281052 -0.29275522423253897 -0.1799988679490275 
0.21587922834985032 -0.19268557541394235 -0.059752557305984215 -0.14685749896446976 -0.12762396684658872 -0.15921700551528009 -0.19619317705826897 -0.15131633816699588 -0.17373442104596429 -0.15022455730815931 -0.1691760804951371 -0.1974936449531661 -0.028805174555550799 -0.089730702035198243 -0.074264603472437157 -0.19731322092841802 -0.16970038691263428 -0.15893473019983703 -0.06684467001735446 -0.13478794982485068 0.078752683192207351 -0.16672725576941186 -0.2034892349728358 -0.18813877391781342 -0.041905674116835663 -0.1783982910737564 -0.15405546202748996 -0.09576913191053911 -0.033757005924027722 -0.0032626134606812034 0.23667498889715458 -0.12810691064008839 -0.049918182945685258 -0.19435936497392439 -0.19566481985971954 0.025555911782122753 
0.040996536376698679 -0.12403336311468577 -0.13036255399001717 -0.091901147551289503 -0.11592543381883781 -0.12201045749902158 -0.11310370711576956 -0.12771589667018227 -0.12154438490183535 -0.12495164484531766 -0.14179406438975431 -0.15246859149210537 -0.12266785269354363 -0.12118654268817079 0.052107968958363664 -0.11658742262843318 -0.12550497046247511 -0.099914995522873584 -0.11886002204251329 0.24926816968436322 0.26194684329237922 -0.10590196262813741 -0.17812378089422559 -0.051674453826627262 0.18086983421134764 0.013928566112555019 -0.10298497084500594 -0.14828981165432645 0.12261650090175991 -0.12334232163636748 -0.15447509225422509 -0.1054966822694751 -0.070087689592526536 -0.13907739688513343 -0.11666253154258464 -0.11473838380800039 
-0.38360562416877525 -0.3845264079765619 -0.36159185549499678 0.050161695505589021 -0.49041825209049789 -0.41699447992443517 -0.23031845789543418 -0.29083033966622929 -0.25649062715134602 -0.5428845886343181 -0.042408296788248631 -0.33837423084027601 -0.43925701988982196 -0.44121624790949976 -0.28463783748591026 -0.55887943957457831 -0.38299708184795273 -0.29350538999337389 -0.36609734460052679 -0.28462777588851712 -0.30100057897986199 -0.21991139668250928 -0.52447351385256225 -0.27692816392797565 -0.38990357192332414 -0.26090109082162749 -0.45112759785216577 -0.55450820083726338 -0.45417751114269705 -0.52413924626019692 -0.65124794246587359 -0.46411201975683325 -0.36137768595901071 -0.36162713411701469 -0.6055222255065128 -0.71234092905896629 
-0.2819956189577662 -0.048176456120157786 -0.28456325505654745 -0.32428146976062805 -0.012577708344543605 -0.081488558042877676 -0.28361218447143771 -0.28301676202381765 -0.035336309292174913 -0.0061616253604044515 -0.32003647452378492 -0.25381631148678457 -0.10312760529773272 -0.040660802632844856 -0.3224080278278012 -0.31104580027024498 -0.031328990818801986 -0.31820688232976374 0.037460881980225597 -0.31665405677910374 -0.29545524736392831 -0.043708583357363481 -0.31977971830286073 -0.31079637389066694 -0.18796926906585748 -0.29284664006934807 -0.0056559696349852834 -0.24076628813021317 -0.30035642584498418 -0.005879827107057551 -0.34478710677823532 -0.0019124812559820198 -0.30865383833076138 -0.33177444117829968 0.056470982648814179 -0.39523745204223676 
-0.33866611021374404 -0.12913867801551226 -0.18990076661821176 -0.4820607322075095 -0.22167060314405712 -0.19933249447537693 -0.14478383169000336 -0.52336368097946095 -0.091902589105627291 -0.21158614702361089 -0.46083324514566809 -0.48587143075739719 -0.1951314209232371 -0.18178664966115718 -0.47902087800447574 -0.46894453684190096 -0.2242512254931662 -0.46718527808982691 -0.13076769799088461 -0.47532280893697254 -0.36910589786082398 -0.055682869645430684 -0.47026529993127936 -0.48336656937362582 -0.12380562033124272 -0.48836697413212266 -0.20392782766364922 -0.055060241348668729 -0.18288573871887878 -0.15765877192843089 -0.50610455881671967 -0.20316542946135746 -0.12389319325786108 -0.51120995033151917 -0.1673946810206341 -0.1602194205940565 
-0.33477995799290533 -0.009701983909823346 -0.11779872411991432 -0.37563753660937715 -0.18507360309292947 -0.22943149434022767 -0.11913864993719694 -0.41395442655508574 -0.13383380716944762 -0.24168153301170708 -0.36427153689942099 -0.38815790392577715 -0.15614608303486627 -0.23933394311670864 -0.36252657846096803 -0.3665452688511005 -0.32790460097240237 -0.3649467706569211 -0.10548730901780783 -0.36729116119780753 -0.23346203731121923 -0.015607302077020633 -0.31963542063281092 -0.38376285184673109 -0.13577763252386665 -0.38235162152752739 -0.16888802001859954 -0.028633419861816178 -0.27257077752658282 -0.034285344021400183 -0.39240660888368661 -0.11950540506562486 -0.049960780344886838 -0.15186740170918397 -0.15550021664713795 -0.059674224770929346 
-0.43602384038715575 -0.01676395905196932 -0.34305372589487471 -0.23373610803759307 -0.30219923323183612 -0.13975808950960447 -0.34725442060075745 -0.29795271374841586 -0.29338293406615873 -0.26707050573835184 -0.29882850761629781 0.016481959678742934 -0.36802029687766113 -0.31312228625256527 -0.36993484016537892 0.070981466091150858 -0.25833222688941315 -0.009108048255872081 -0.33279581240368605 -0.35174978908583299 -0.29080850943979741 -0.19462518271793539 0.012322799776310546 -0.025214030518590176 -0.3621080381559626 -0.26037659419983245 -0.15905033214381456 -0.1719830592670005 -0.25734119748996137 -0.32920144224113573 -0.22478401242013363 -0.25210921135265041 -0.29277246272125673 0.039654663294358572 -0.33542433293888824 0.052153627377073748 
