solver_type L2R_LR
nr_class 36
label 1 2 3 4 5 6 7 8 9 10 11 12 13 14 15 16 17 18 19 20 21 22 23 24 25 26 27 28 29 30 31 32 33 34 35 36
nr_feature 108
bias -1
w
-0.45637581170327307 -0.22293198221480795 -0.44793381648046965 -0.040765382871798601 -0.17543061037920757 -0.29716214010683834 -0.18749383623569024 -0.15191975873157995 -0.27677743337852212 -0.31766429685153691 -0.064482135297700971 -0.34198989914607547 -0.41643285743329345 -0.30035161851311221 -0.17222904472827416 -0.46749205316514225 -0.46553234106506908 -0.12968420512764969 -0.29490836397634257 -0.18432867958545121 -0.1841701499113636 -0.27826777394375513 -0.44256346831470023 -0.23389750254451094 -0.35042670446634722 -0.11959165335812268 -0.24896748795978876 -0.36871295465812948 -0.41825353308630298 -0.30757110425319872 -0.5513427199725619 -0.21576911965445755 -0.41605498954289177 -0.29723539735139493 -0.36291150552601897 -0.58160391885598695 
-0.32080848364830616 -0.40998250682317272 -0.22102009532264832 -0.42276614376524746 -0.08744902934498 -0.086626707678351858 -0.13478374307491636 -0.30211707191360099 -0.029944958445322072 -0.090300442045439036 -0.41924852663143464 -0.3512704297106588 -0.1356370852434414 -0.056685747155162981 -0.42578133909323423 -0.37089455969964558 -0.26752627803990398 -0.35577802003747305 -0.037232031840641243 -0.38378202393327471 -0.34605676997548085 -0.053743869122344592 -0.34034303834523189 -0.42245350688246913 -0.19716898945823927 -0.40684492699313485 -0.12160723555556321 -0.19016291464331131 -0.3091959060958081 -0.042696130285633599 -0.41606916753096074 -0.077824675114097991 -0.071255147289324194 -0.38059918999585812 -0.054003993165458626 -0.31194723518222389 
-0.33350774095110924 -0.41686242799410045 -0.18085646693385637 -0.50239351356300366 -0.16371511973130151 -0.29991837163696838 -0.13755127845806495 -0.51748061116398281 -0.091077273098149697 -0.17674459893303243 -0.48264499908028147 -0.43828314196305057 -0.22342756796274482 -0.12483724953507505 -0.4868644101670066 -0.44184158930978673 -0.19588247276570703 -0.42129872632771986 -0.10090777334174726 -0.45116704686601461 -0.38176233475665761 -0.054568220001101515 -0.39820840322813639 -0.48344914969097114 -0.14994195454258699 -0.45832847224729911 -0.22448595635142615 -0.020479628273258818 -0.16449821075960422 -0.12126183100248152 -0.485272792079875 -0.15453687109974021 -0.094034740162053293 -0.44401398417633825 -0.14405535150309368 -0.14170002274432919 
-0.091181769631744097 -0.14412040137119694 -0.089874048234446155 -0.1281602526639854 -0.04914060608309416 -0.043028807162998874 -0.020163892989170637 -0.13733704871730926 -0.088707883636274895 -0.018214646739825053 -0.12351335766444653 -0.13071396600878019 -0.029649949919419889 0.083285549248552013 -0.11186660894384799 -0.12299498971146471 -0.077090228435050215 -0.1161316785038517 -0.090381110941563078 -0.12402751370335283 -0.022131961592851832 -0.054481114474908721 -0.11370781210913249 -0.13265158071427061 0.050956211448436248 -0.12158938779207082 0.005413941828465085 -0.072227615141765705 -0.0018295108063032112 -0.033714910830568899 -0.13606695752798528 0.019322954130361641 -0.11955395538069896 -0.068021125419685372 -0.15878890901951373 0.12904673965018496 
-0.4552570179032055 -0.025443771957754709 -0.38102647349754687 -0.37019262074074483 -0.30389311882428383 -0.068986015359039823 -0.40247336866322236 -0.10514304549571744 -0.20857834421781432 -0.34702018803916385 -0.37229494770946797 0.0084822923842830956 -0.31668056344395662 -0.34620332899018275 -0.29961549934325266 0.015695453860403323 -0.3191273977606815 -0.081461688359442605 -0.33621668131927029 -0.25320830038641756 -0.20977326156859089 -0.37085885157930193 0.020483402193460225 -0.074832503971919206 -0.39064631027979968 -0.1352118678415474 -0.20125436597779836 -0.020928596178383573 -0.25275409726156217 -0.34476320367938162 -0.097737047531216079 -0.3055957905725723 -0.34908668912838459 -0.0055476644997815485 -0.3238628520822856 0.090358199826606075 
-0.18601669660593009 -0.070053945901045064 -0.13289707926321256 -0.14038888050921558 0.0067939520418874317 0.062007552345002916 -0.207114359265547 -0.079523281875639576 -0.15560819683713384 -0.051417391488127434 -0.14220636119744984 -0.16183431184515201 0.052909823810277833 -0.16765733217865142 -0.17160155941463628 -0.014771319738761774 -0.012904367406036796 -0.092357955794480001 -0.0027851261244114757 -0.086551594501276835 -0.007683274087868253 -0.163187900799213 -0.16682127327952745 0.0042608326220554471 -0.16323558187456949 0.022541903070546949 0.1004769204326196 -0.18387528966575617 -0.1710904700664462 -0.096688234360301231 0.02570787256091819 0.0392756051784552 -0.17063775209365614 -0.14200389068978128 -0.16941539583974805 -0.089752496852761376 
0.21669304661448444 -0.00081169844781404411 0.042412962449000002 -0.15900241767151024 -0.13404455219268141 -0.1296951250590366 -0.16756006495315623 -0.16271662801816769 -0.12369843005051137 -0.15398394332589896 -0.14856648550072948 -0.15431320486880459 -0.092188399231965451 -0.090520284088897313 -0.17381013641297577 -0.16613106972483774 0.21268987395276609 -0.15581160835912289 -0.072601816781963716 -0.17686743215442963 -0.037296610197735662 -0.09513787953996615 -0.16367404945294262 -0.16533012444455042 -0.11770631394061037 -0.15285332669560842 -0.10322410236523352 -0.19592095090036515 -0.087938679495611904 -0.09556046636345171 0.25257211271441565 -0.12740280772224091 -0.18689100436312017 -0.16762423926779779 -0.15789222852675017 0.043692515405313007 
0.13061998593973304 0.14697142227083398 -0.02843572954102103 -0.16881397707871112 -0.1571649713588964 -0.17357635217956083 -0.15133203496537137 -0.14465800196649531 -0.14490810409920701 -0.17300561585353341 -0.14974339040616821 -0.1758382467785306 -0.15565281802895967 -0.12205239952016554 -0.015418528866767709 -0.16417093296903387 0.071085467236180394 -0.17999819156422758 -0.12493048979492809 0.081083971746454708 0.19501338743610816 -0.13809439169863594 -0.18559999990560802 -0.17897393131081785 0.051300108458086559 -0.19604514088203884 -0.14955601571738161 -0.2004819508490886 0.10721857711595296 -0.1498161951498114 0.17579581989917301 -0.15125484847958554 -0.15781449833521996 -0.19505609211799271 -0.14122159811782889 -0.112204340638086 
-0.27954537698746112 -0.027494567216253183 -0.31571791309521846 0.051670720109730221 -0.27096667249412049 -0.36679894402796359 -0.16280578666857379 -0.10719602077528799 -0.30005749155644756 -0.40046532838975846 0.036652667838006595 -0.2713339625463167 -0.40168209670136745 -0.32794180892861913 -0.010535210650935658 -0.37220870432052217 -0.31797654730362057 -0.060610529169042811 -0.31303315734483944 -0.077368016609392021 -0.073997459750235292 -0.22573034527842797 -0.36512080956080456 -0.1289396756999954 -0.19518274339258604 -0.023059981814739408 -0.30610554903303033 -0.31964800752261452 -0.17655432787197278 -0.39196760417256105 -0.42820335983338864 -0.36873453167979675 -0.35277346437956569 -0.22084758236424354 -0.42801868125539499 -0.44956622436594001 
-0.28350222093622268 -0.41896380962165147 -0.29797916388114704 -0.17489307453972117 -0.28205224231731973 -0.28602408575040578 -0.27211329649299654 -0.34023150791903051 -0.31514752489232617 -0.34696770025723583 -0.16463626896694381 -0.32994430354026283 -0.34820180926283484 -0.3142545434458005 -0.23208059092065569 -0.51154253369324154 -0.52054620398076623 -0.39854760546070345 -0.28222976541858874 -0.33222339639095777 -0.48759173667190314 -0.20579564991069194 -0.53069762073848392 -0.35370524642917733 -0.3822932511857155 -0.2554277860647125 -0.30853304400917186 -0.23750236180349979 -0.60294607788854249 -0.50829934392384768 -0.54255905639012503 -0.44530502315256149 -0.42152414697106955 -0.42666117920394614 -0.53752067463198061 -0.71085095837741674 
-0.13063457318187399 -0.081947940971874259 -0.22442680232625828 -0.36242500155619939 -0.17725928909192182 -0.049866092335536558 -0.30058522755685041 -0.3853087924754679 -0.16407782835261878 -0.031397316835091747 -0.36002950871276507 -0.33082502916731127 -0.12107362298933944 -0.18890036840267355 -0.38382223696259055 -0.25288570600956523 -0.071163830178179524 -0.35781281168989004 -0.0042972252816313511 -0.37663019579277612 -0.34214354723440937 -0.12217805519335437 -0.33841089526443868 -0.23428687873807452 -0.25941845024860999 -0.35895063375058078 -0.054361376855673799 -0.30772538153965162 -0.28704841171608925 -0.040542825476059051 -0.1136008046826284 -0.0093384946505835204 -0.26342466684039284 -0.36106936004232598 -0.12374564819903833 -0.33831027008725739 
-0.14412914919510689 -0.10650417244167154 -0.20946182697698684 -0.46378232970119448 -0.37027639074644592 -0.26655245459912585 -0.27550134851605468 -0.47827826538321816 -0.16025750362691138 -0.26876474233132758 -0.44594737967501025 -0.43045144805532098 -0.16664844808437432 -0.25704797421984976 -0.46440994741801611 -0.3098034283556767 -0.17319101132807227 -0.44420382695904825 -0.074543360128266831 -0.4720442763262549 -0.34748290879588806 -0.030452667558041355 -0.41368720206056042 -0.31134081096251476 -0.22243636988473373 -0.46064342834447897 -0.36465933629507841 -0.30256529783605657 -0.16857397364998342 -0.079270646412447368 -0.059454518623433886 -0.13024631682966578 -0.15098056588163483 -0.40693839073493521 -0.23999105044092658 -0.17190195735576452 
0.089325171435000891 -0.21199269333387194 -0.12606644942981729 -0.17933052393792143 -0.14718527064333306 0.060488754397383375 -0.14146604855950731 -0.20372241286110682 -0.14962740347154257 -0.091049292779833896 -0.16639360230212263 -0.21793186814512699 -0.069192267852872025 0.0077462950757315541 -0.1534675115095239 -0.13187171346745144 -0.1882946566849858 -0.20450050926761634 -0.13715460454763165 -0.22243899504169826 0.18874293487439392 -0.10964148715985152 -0.20920953406849802 -0.097805475577987147 0.17007251549134761 -0.19007649045849687 -0.070602200288744477 -0.19654251779972734 0.21760696283671585 -0.13518652806551673 -0.099356042268041372 -0.09255835928410959 -0.16613551356023334 0.031420957191379911 -0.20241396505685177 -0.13081069809354229 
-0.19018167936336325 -0.35919136863328255 -0.36402637267044646 -0.38174066479907837 -0.30581348057459062 0.018522139592874534 -0.3339464371623771 0.0062732075057910846 -0.23767014690432231 -0.37246139648788995 -0.27002879000675278 -0.0039822884128113863 -0.17392117134272814 -0.32358946981193432 -0.34414222315954701 0.012602000232763293 -0.12419614409291257 -0.10204157988262046 -0.34093609242546896 -0.1694127379507902 -0.14077819617166695 -0.35947533443224972 -0.0049095393623015213 -0.084983687907414701 -0.26343195518781981 -0.044319076805663396 -0.23608419997843028 -0.040089958073112796 -0.16600763636686172 -0.3923078179949539 -0.37970134989728965 -0.3449277274817184 -0.34020142817704974 -0.033702338819910256 -0.37180005335450733 -0.26004772163965872 
-0.16921368200537895 -0.15211992239666589 -0.19597647750929262 -0.11431535694003246 -0.18617202154378842 0.00049727962297935256 -0.17613594152188539 -0.030548258910198609 -0.10700383124735714 0.24159812995172977 -0.089431259272192642 -0.2049913235254158 -0.15672853676406887 -0.19426441219967452 -0.19728286108858228 0.20635175749685125 -0.051765030179658805 0.016190019990949423 -0.15569644393345577 0.036465165142641358 -0.029966883582363272 -0.16405740922046544 -0.20452800049192574 -0.055956447766598076 -0.17435464862826261 0.26138170522139148 -0.17516813487000929 -0.1992348092577188 -0.19428608064735051 -0.1240799723727302 -0.15407179406856814 -0.12784903138605547 -0.2028203357046035 -0.19405988441612007 -0.16501616315782222 0.14017482133281359 
-0.24309217754513654 -0.20988187297533106 -0.10883299869530641 0.069657833265196714 -0.35376607453856435 -0.32006540456275834 -0.33099902583249963 -0.24481068503176556 -0.0019964015082691734 -0.010477726532754413 0.062971710342904649 -0.3092280796546254 -0.24767576172708003 -0.32897581402912496 -0.02071220282470292 -0.27183512256249825 -0.03806539929749761 -0.14851114092664996 -0.27489827741205658 -0.2251479141836083 -0.11991771623326802 -0.30227535094366464 -0.3168587326580834 -0.22511865579622517 -0.35063681157437349 -0.28898664601382373 -0.31862292432201034 -0.30828337406230244 -0.30647937318222246 -0.22068805576309475 0.05146081261675025 -0.29933574045018102 0.03642687115672532 -0.31529396845013175 -0.10653787236103446 0.023182877097834891 
-0.25127762703421441 -0.22267565982014983 -0.21649546904956357 0.10526241083295396 -0.33247737959501428 -0.33605834215424507 -0.32160501672438452 -0.069478771277571613 -0.21993359342865315 -0.29504742966781672 0.013116697767816977 -0.31191066319919936 -0.023775153881619493 -0.11764298939699691 -0.00030686346471521921 -0.3274666789879413 -0.15993481283411068 -0.17821347140302288 -0.26973901827548902 0.071147296789626432 -0.051873525365305415 -0.28940266067915399 -0.3198714453541382 -0.16478715758742188 0.049148270816928567 -0.35063782919332953 -0.32287259669347412 -0.31747485966833905 -0.012688041577598274 -0.26438136922000083 -0.18035024551108872 -0.24022103357858757 -0.21118404263789295 -0.31730572485994579 0.053879883447738593 -0.10653595603667448 
-0.26827571829829922 -0.39756261375852392 -0.31212489532830556 -0.13332801347957868 -0.23158019106196878 -0.41871285974201555 -0.20905567559389102 -0.24055749100190182 -0.34109134035474098 -0.59985423979399366 -0.14877149965816053 -0.32608087167672895 -0.29399212548824694 -0.25528619286973325 -0.20735653574888399 -0.5290222206652766 -0.56017537246448712 -0.29640098282934441 -0.40285211188169856 -0.26634820687230149 -0.32784241530961461 -0.17134351365703909 -0.50914651571180303 -0.30435644184095539 -0.24901836233293437 -0.22526774340358399 -0.34096451243229275 -0.23574485375309281 -0.38162379077339398 -0.60207314736447037 -0.54314681462608039 -0.54764165774400786 -0.39322625145998402 -0.38918371799616469 -0.29056025364934518 -0.66779852690902264 
-0.33095371465442075 -0.0071825252787373027 -0.26966333167575995 -0.35072899544537539 -0.23381170911100352 -0.29255830756225792 -0.32567497619024849 -0.19536007990079152 -0.23910723012560617 -0.2190795094047758 -0.27423376360018903 0.052243717298965937 -0.208476616716395 -0.23466748310507363 -0.3141149935533451 0.061746087488379571 -0.30676106077765736 -0.030945421661311277 -0.25608286058438123 -0.35236760800646427 -0.2639918307881895 -0.29107888595314729 0.05724062749594027 -0.037463210941187278 -0.14649165936712541 -0.39682117929181976 -0.23131553022317292 -0.19682983279053715 -0.28815410689034748 -0.30882151272029701 -0.1522193074314197 -0.2305357521575051 -0.16456277995476989 0.015561327190453804 -0.3402430832246765 -0.3302125491355935 
-0.23346267031035339 -0.33043302807304814 -0.21639338426661578 -0.36156073271088596 -0.11182299748834434 -0.2787310707098099 -0.12916529852603667 -0.29298391243748612 0.089791297414332866 -0.25051544075771598 -0.3688934009942702 -0.22156328790507757 -0.26629170395026586 -0.26852822894078138 -0.34298406047530322 -0.3235305251978518 -0.27096510316969857 -0.31119273592816921 -0.11656269036657467 -0.27112697082495085 -0.22016900566997372 0.09604661343078974 -0.29436303226142768 -0.33526416356487965 0.028900142797161559 -0.32943168264612671 -0.23788388006727262 -0.0061217986239197469 -0.02353139387759429 -0.02209731780479576 -0.35625803354462537 -0.13092866320082561 -0.12027253772816444 -0.34136255470528171 -0.081489250947102604 -0.19117574469507315 
-0.27575854483577644 -0.39307830383139636 -0.19239766378136494 -0.51434826671817457 -0.17536412045850516 -0.41483286166448474 -0.14919715120525548 -0.54009180698909176 -0.10231446687918411 -0.18821794237298567 -0.50786460812377987 -0.40654733700452078 -0.23769156886200352 -0.17904779556857311 -0.48022843097092416 -0.46532038195650138 -0.20943108033155503 -0.44491927670688475 -0.11278252695590429 -0.44488716009846929 -0.38909592678657567 -0.06995744402442669 -0.4192657487853883 -0.42144894103329417 -0.1307943798918848 -0.46656403928301515 -0.20513527693838568 -0.0062715694806625743 -0.14566907483267016 -0.13861254322575065 -0.50829619453204944 -0.1661962494946114 -0.1038584409426678 -0.47012718060221936 -0.15713576248731689 -0.15312455566106806 
-0.24441565369173754 -0.36848810846935542 -0.020707352984063631 -0.36436259586609371 0.020699032905417716 -0.3698910819772977 0.035753191887099404 -0.39119318357900362 -0.36704353557924324 -0.0094136953939359461 -0.34195446160589954 -0.3195842935209553 -0.047108875728583466 0.042937488674421487 -0.20405893086761423 -0.32193044914679037 -0.2125922813554878 -0.31187491105461557 -0.045114589496287757 -0.32900526768538907 -0.30693110420000913 -0.2375443059279799 -0.29601852849949245 -0.13613995408348753 -0.084175466140093802 -0.3421545656639749 -0.024669601325401205 -0.34932333890326339 -0.27342649959167825 0.011814606127690705 -0.35833919827451816 0.01127545301656634 -0.13226624417818708 -0.284744537229841 0.020758351385530727 -0.026858144926329951 
-0.27768446573604028 -0.24258355079282065 -0.23025477928312357 -0.47227284566506722 -0.23890887666731433 -0.21497847557493638 -0.1692468706630155 -0.051138990696159403 -0.43959461302674058 -0.2477342427030266 -0.47080133347564695 -0.19796787559100038 -0.32412476857870992 -0.26085471161652668 0.011153309996924481 -0.42104141486087021 -0.30444191282383992 -0.1487734389495656 -0.33688534878890619 -0.13693702281888681 -0.17124843688091732 -0.44294134907427329 -0.024446556053549132 -0.13757616376513679 -0.40543797679593729 -0.11350669556969359 -0.14900861334708335 -0.42816902689769903 -0.43246389238145139 -0.33725724946815189 -0.11460039080878659 -0.41333928909173479 -0.05734378180936487 -0.039012305613156981 -0.36261643476627747 -0.33937727761589287 
0.066547937158584952 -0.12490764463729533 -0.071036613456322714 -0.12353299270404822 -0.12686061252679109 0.034388045789341924 -0.12162955314832047 0.21751042004901361 -0.11560992982390941 0.014390706407305862 -0.13193811172060316 -0.15853304509839278 -0.1418260307797819 -0.14254415189822633 -0.16422091974623546 -0.17424125603890003 -0.16117834869224329 -0.12627886448151091 -0.10868200227841081 0.23720382355099953 0.24355234882397328 -0.1178529287885806 -0.17550095750914302 -0.065316910438724826 -0.13878056525353819 0.30980329229200648 -0.12161787926146021 -0.16389994127756971 -0.10358581605206262 -0.12648357716873748 0.057113809664579455 -0.11691401119715805 -0.114609936348416 -0.13169463176920657 -0.077819122337982993 -0.077422595178050432 
0.18441494232782035 0.18724952463455288 0.0070154809594202699 -0.18929851145560553 -0.15611624591457232 -0.15643950034242504 -0.11158507283600196 -0.15561789629512962 -0.20792991129875638 -0.1058925819064704 -0.18580333650756015 -0.19053126597295017 -0.10405178326396204 -0.18272333579653222 -0.1844308420769796 -0.22223502547979965 0.17154830441948488 -0.1954724093271944 -0.11658556323012802 -0.16035568150501087 -0.016595064658564515 -0.10669830509976307 -0.18364896329354674 -0.20965713036920455 -0.14451939168886993 -0.10771441848052025 -0.19898179040991551 -0.22897049537579417 -0.027185133865306247 -0.1372474436862155 0.20922078869168612 -0.15035011649916818 -0.21803193483059363 -0.19596572807966911 -0.19246762215680527 0.10912582821325212 
-0.015928515250479072 0.09763804855299045 -0.015777535160691622 -0.24327850526404815 -0.216208058421966 -0.28804551985726257 -0.21213874018796702 -0.26947722874130497 -0.26762808056648718 -0.15983417144509179 -0.22846841996408782 -0.24198161622811559 -0.27591956953115482 -0.0011147770556395476 -0.24998517592094593 -0.033046909198396132 0.10702744945791638 -0.046609156683559944 -0.058141783973886953 -0.23032812802088609 -0.12634681586225036 -0.22942544703504417 -0.24239077179479368 -0.25164522371248005 -0.12143273241220956 -0.26818138817920173 0.044803888093317562 -0.28512238925316036 0.06262160561731861 -0.073826557290559161 0.083583970208135308 -0.040848538587712237 -0.23421861293253246 -0.27318841870603933 -0.28374010632951802 -0.088086348479494092 
-0.37821157385160553 -0.026207372683696599 -0.2124710788800673 -0.38848117182261938 -0.30918124491127413 -0.3952372546848239 -0.37666238820340625 -0.28235862694369002 -0.38594323760812427 -0.2277429533309181 -0.29892412000433188 0.026495718108545206 -0.30445672926744338 -0.1310910323901735 -0.35487190610976782 0.018383523237921091 -0.17269318851684856 -0.066641734617101572 -0.21482291360203903 -0.38742716207911559 -0.27841011497553403 -0.39461986109361186 0.023180040155178622 -0.083549342677530405 -0.28550057477707241 -0.43466165161552411 -0.12022950337529265 -0.28952101346884157 -0.21705573532359124 -0.29511523424211011 -0.092659278269619172 -0.21303068916168802 -0.19645568238814071 -0.016731373091150841 -0.40017035978361848 -0.32816959039369914 
-0.12062850709113626 -0.2909327345250689 -0.32985877986366657 -0.39382445990354853 -0.33536826573883105 -0.088022363333680326 -0.39333139947241752 -0.075407299709379566 -0.28634350826809601 -0.24302744705984486 -0.26812934006093525 -0.014250714138854639 -0.32418635554737107 -0.29177986304314091 -0.37009810505976709 0.00052874533052918535 -0.13565198919481342 -0.17489660591046072 -0.31109280170078701 -0.099127046865406257 -0.1586405133280645 -0.31666290036650069 -0.01767849374580541 -0.098060041309499482 -0.11223506613469496 -0.24906007508859457 -0.34019615375576878 -0.061049001184145482 -0.30742405769548214 -0.3890400532799092 -0.33114838693620219 -0.34548829247064716 -0.18313195428965814 -0.055817893896125771 -0.39551243123923263 -0.39608659099903376 
-0.13021608025064008 0.041157236233761219 -0.16973696551700065 -0.30233865630606566 -0.21364500223805796 0.086913254435744991 -0.25167179833135456 -0.25401336301002836 -0.10776292257573895 -0.18512136560930811 -0.31650297999195981 -0.23510225800103091 -0.2685213162725017 -0.32971392085454049 -0.31667010768828779 -0.25707300617678092 -0.068841350618561253 -0.35103664987748745 -0.13664278618301165 -0.10345873664414956 0.00075840290088625365 0.023971313757854419 -0.32603800728141669 -0.25910533233729305 0.01822565132073305 -0.12847524565284821 -0.29129698598948639 -0.20455822749154193 -0.14259760502367763 -0.1184779766176817 -0.090649879969522298 -0.23140026923721155 -0.2402292577660384 -0.34553360324929394 -0.24340639241393552 -0.22253532222198194 
-0.16893582712628299 -0.17215018670385807 -0.27942627533043712 -0.51228805763604979 -0.19172203722105832 -0.21783200632764393 -0.28754730525681832 -0.55723506809944845 -0.088350847274700967 -0.33057181526088453 -0.51375346289252166 -0.44761002685738155 -0.26095409720644364 -0.37021932182303341 -0.46325289498620031 -0.36458080515083319 -0.22956280543473254 -0.50472768359113696 -0.12740720841001879 -0.46365427498065193 -0.46541654987868575 -0.095218397602624669 -0.46420809015688341 -0.35201125310154763 -0.2129480997270283 -0.31444645418258205 -0.33183180229948939 -0.19530370807978731 -0.1763825252503044 -0.13904299687954397 -0.11988300701518613 -0.25850447064904042 -0.27923632766640188 -0.48025751741872386 -0.23290489663087555 -0.16240181811493143 
-0.016636662661573865 -0.41935206124898794 -0.15828086272254885 -0.38677886086453361 -0.056869018967830011 -0.18123326477783555 -0.12153770351193904 -0.42935216819903754 -0.41964780477016872 -0.13163696949553863 -0.36198318765236004 -0.37843396565599235 -0.074615630182340659 -0.0056528721488269158 -0.13121233137061375 -0.26752957108437009 -0.33144241505304267 -0.37953513943971895 -0.03844464993754345 -0.39124555430197483 -0.3637966915890089 -0.29639696060697468 -0.35708623528449995 -0.096906193884847822 -0.2198773632668721 -0.37323009183744943 -0.064735948118394893 -0.41304150171402143 -0.14831887183850448 -0.048051292677463144 -0.20300779286925094 0.0014133713621672329 -0.19449682958556877 -0.18429147825630776 -0.062214452134372253 -0.093260369833877255 
-0.34520006459202368 -0.59421734737576504 -0.25180679794373223 -0.59879538191401693 -0.2147604845612047 -0.2492973423044649 -0.18397414919006039 -0.19788117100375938 -0.62731044304444494 -0.34139369272530296 -0.59022594065204315 -0.31237428155226804 -0.27674608874934947 -0.23722411070619226 -0.12791955374663841 -0.43751439078953203 -0.30095252081264512 -0.26830102225842239 -0.22640748031168711 -0.25466130263148268 -0.32611666906291586 -0.57785783098454524 -0.15132253902629084 -0.27651839779213094 -0.59063015135721375 -0.24839498271816879 -0.26781298150619326 -0.33935979732721938 -0.58011528570525484 -0.16898313886907732 -0.39040516760206434 -0.30146268877841831 -0.12765024392058263 -0.17143692617274692 -0.43161702415842268 -0.41253687546059042 
-0.15250967701852861 -0.25554188004370043 -0.052984455227182446 -0.30408694493958516 -0.29523576456077583 -0.088312693193037778 -0.28060929544795149 0.10050968070714551 -0.18015393948540986 0.098933043836743478 -0.11815438422677497 -0.2621952144145539 0.021307471379384036 -0.19452897617713444 -0.17089920384873136 -0.26352516170045265 -0.28076874353071068 -0.061519104479863237 -0.099308180726893264 0.1515562672446637 0.076456686028152088 -0.24473097028005333 -0.28660423216061109 -0.25498092418730378 -0.27364792634746526 0.17338328655430565 -0.29281219529544683 -0.27445811913650142 -0.27742906332975792 -0.15905239319981432 -0.21972182050411118 0.14939051228561448 -0.25659056470896074 -0.26006338872081047 0.14937765854268759 -0.17151150899204953 
-0.18865765832687567 -0.10811744641772136 -0.15245921215137168 0.028259590934670127 -0.3864462794215538 -0.36807725239107625 -0.37117646116564984 -0.32761455686658986 -0.038834054196946736 -0.1092540100342495 0.027492101673321511 -0.33231351897786549 -0.03441451645313668 -0.33603500661896912 0.039638578751131859 -0.35433038445228354 -0.080481101281463241 -0.24214536159794767 -0.26630761201833608 -0.2175829940929736 -0.096536857538938869 -0.33849733040178825 -0.34151493996712895 -0.30796399750700665 -0.4014112832026816 -0.28228032561115862 -0.34808815312460989 -0.33713121413932939 -0.1015374698318272 -0.29008346664789153 -0.12565169759927378 -0.30128559784141229 -0.041275667158421826 -0.34133410960781474 -0.039768936313309015 -0.027568547232001056 
-0.2384028619206163 -0.079029959527151319 -0.25512104117858031 0.12217443973751585 -0.30903647732946138 -0.33720009153695746 -0.3081446363069078 -0.34487800184072714 -0.10341772306799646 -0.29677208110100828 0.11313240028860602 -0.33386403256393943 -0.23987881425665111 -0.28378426264562262 -0.067435477398881241 0.099113484463684981 -0.20714111448056477 -0.12966280510292363 -0.25600666346927187 -0.21943484252522708 -0.15750490645299842 -0.28747440197223306 -0.31496650371758278 -0.074266642906483576 0.049829530071690074 -0.34311248431745456 -0.27523805410084429 -0.32564670596901829 0.031962894397871089 -0.26494685540584706 -0.16953603251154914 -0.30284716533473105 -0.22354454191575612 -0.21552885280138573 -0.25991425703465282 0.029700176377330408 
-0.13811350213662854 -0.24612911958671363 -0.40460676374313714 -0.21136641842521717 -0.36857675955975888 -0.3950236509598819 -0.41378507133910303 -0.1466371992289221 -0.36157207490059357 -0.33184771311836614 -0.20310423264737701 -0.025350134063029602 -0.37528450772348948 -0.29323275427344442 -0.35217072155204437 -0.023589529569438217 -0.23372515385850251 -0.14094732884370392 -0.331550280711288 -0.128435369727457 -0.20177843817449453 -0.38352348602551889 -0.028418468280588902 -0.11768557863546962 -0.13632310147146223 -0.35660847753722058 -0.35685846149227646 -0.067952885001730773 -0.021390154852235145 -0.42437993946031999 -0.33520118804481563 -0.39097596787584393 -0.22664175520050606 -0.083409569901547895 -0.42216193226031157 -0.38607472187163461 
-0.21916009056943275 -0.05239869638896423 -0.30542507298417104 -0.36743812692075978 -0.055666290802102322 -0.17891782082976723 -0.040126664330885103 -0.35279774136031944 -0.32491356120646908 -0.42033439061005035 -0.31019019988622087 -0.24697108514611968 -0.20913552367716792 -0.096827801051787205 -0.34838775207378908 -0.2551481953479634 -0.29410126278979992 -0.47086399073276503 -0.30503756658720221 -0.31688552052341235 -0.44865784332457065 0.064747668174231707 -0.41478424896179916 -0.14505674621208411 -0.36594722468999308 -0.16601790033519592 -0.13867398509633405 -0.21958240571608131 -0.52668700097624865 -0.50163883165824896 -0.31328881995231012 -0.51128523900629674 -0.39075953567776439 -0.4092453752186957 -0.51328795393465743 -0.37737815390615981 
-0.13639300945306651 0.1815967658274035 -0.14563546562524568 -0.11008031428305572 -0.21561962131645723 0.016237089046645222 -0.23165326303211381 -0.15234165656260062 -0.14166137521679689 -0.012708966952732039 -0.1230098147681549 -0.18805350590872891 -0.1997781311009626 -0.10348266018386888 -0.14439618411235994 -0.00037350602806140017 0.17987153222782273 -0.19021847708731407 -0.0033251276233837905 -0.13668657341633264 -0.14803344685638442 -0.16685887852865602 -0.17966990202182861 0.03723600214276368 -0.18636620287596889 -0.13948404292539374 0.076145590046973105 -0.19553651226611038 -0.13617327836789228 -0.169946048338147 -0.036034844592693828 -0.16547677247353096 -0.19278557176202299 -0.18545567402273727 -0.18588653225383275 0.14763202882179302 
-0.17601949784893234 0.28466289392616761 -0.15236654024890478 -0.1028470327132348 -0.29549742837410808 -0.036481797608650855 -0.27813821970776748 -0.16845417672669558 -0.17166695870514359 -0.16753840335320069 -0.13727468843316762 -0.25473057182104164 -0.2368609935407317 -0.19520569885625783 -0.1338157527063992 -0.15765076967964176 0.088649340286223857 -0.25735623411620279 -0.049472788453695932 -0.18424638785790495 -0.11561062703995038 -0.18018001884604165 -0.23766038070664097 -0.13379381393729084 -0.1573029164883209 -0.25952800695683997 -0.30754950249652041 -0.26536079563930387 0.11911857145605176 -0.23328413967703396 0.10847444062952216 -0.22966607724733867 -0.24979246833328222 -0.24083182262572378 -0.25498964871063307 0.16243182336294787 
0.098738727860406203 -0.16617503705721234 -0.130839639256673 -0.12324571567376057 -0.14238305279694075 0.057460398707622491 -0.13933048994654704 -0.14791701177338737 -0.12639202599728083 -0.13515612971920291 -0.13218426510242245 -0.17316640509597733 -0.11457891051743713 -0.1150574877923307 -0.1269225847482976 0.0035055679158042712 -0.15250937152714644 -0.17336094402969043 -0.12507226928858869 -0.17410672745812383 0.30778034569940393 -0.11941764251384117 -0.18180292426752556 0.015997530995968554 0.27463999235776365 -0.15387183362552545 -0.12774280490969928 -0.18052260079373789 0.35610490903770758 -0.15101432079449406 -0.055526179274852074 -0.1252220339585661 -0.12514432510060394 -0.078422458989126226 -0.13644814352288423 -0.1569289530835177 
-0.1205313656253338 -0.49358104549861642 -0.40694082222732281 -0.38773639863230641 -0.29648436704232772 -0.047809720968042577 -0.27784226004448037 -0.16145162526717158 -0.34483014705143195 -0.3406436691016877 -0.29888043156278055 -0.043321884382197987 0.02269276997431691 -0.28463162330560987 -0.36324897440184295 -0.15039192786720651 -0.26835872926389731 -0.13814873882332535 -0.30766771457000869 -0.26589104065821728 -0.061758688961953481 -0.28102404602739461 -0.090224574700697988 -0.13898475499326896 -0.087677684951509752 -0.11014238889367949 -0.39090579639370127 -0.042447310762489171 -0.30310342199104717 -0.38651180048308681 -0.18678787580916703 -0.30291103876864461 -0.38424978190328618 -0.072484095237524693 -0.32150716173010097 -0.29999290902656189 
-0.14724867455457827 -0.19339465801410421 -0.20616320547624239 -0.13450134383744045 -0.19700841143296241 -0.16830154598869124 -0.17581767462324388 -0.025721553475270793 -0.079814381412878901 0.21248452397013001 -0.13754431196261177 -0.20813369840345172 -0.13054220627806146 -0.17333327987770425 -0.17240710496415265 -0.04319380710389098 0.033753599909918539 0.018781126004571932 -0.16258384007754073 -0.078401426885611886 -0.11686114892406123 -0.15891505966463115 0.1101150493803657 -0.12140433314654808 -0.19332932314948162 0.08205298184542148 -0.19682695338308764 -0.20473014238372006 -0.19133558154892577 0.11067868019944932 -0.21828950570391065 0.026638927994003275 -0.25418020591304868 -0.21016207898479214 -0.1771476713962164 0.075806421680195024 
-0.29393622474227615 -0.34760194813766526 -0.014381022075434811 -0.013106797909380621 -0.36866441906376279 -0.3535745960967856 -0.34773355344846835 -0.05489387989180685 -0.0078820421912408831 -0.055467316558824399 -0.030741485617810645 -0.31687441873399386 -0.20186840699773839 -0.33746268247721078 -0.00028235612378437613 -0.30594802732722559 -0.087128665261832702 -0.081203463077917037 -0.28992887949595864 -0.14812449514612497 -0.27138420897095344 -0.30258692595719111 -0.1743756206797607 -0.23288029355673376 -0.36770707517235107 -0.29517577734860895 -0.3514349491940969 -0.31712481077397742 -0.35917732991840362 -0.030626409863239865 -0.33303371537975629 -0.088093265096298445 -0.0041488542704900145 -0.33376615454819503 -0.043013166213065238 -0.025934581890678265 
-0.073332047034924158 -0.33182269187034891 -0.059926232435027885 -0.038755493483368847 -0.36113821806009344 -0.33615138491348479 -0.34610974213571888 0.003059713438638147 -0.098854655156851517 -0.27969767680688534 -0.064792800279370191 -0.30443103667403365 -0.11513537479553732 -0.16631586569630907 -0.020989718234414884 -0.31302380725411388 -0.29035834782846781 -0.13281460450151705 -0.28346039011036867 -0.14522361474363255 -0.27534312414152212 -0.21720739945958534 -0.26710478829461604 -0.21094357622030632 -0.056577322270236069 -0.30738617812585267 -0.2349267890769326 -0.32390552602089462 -0.27760083076630876 -0.0035679151542946938 -0.24921814463963249 0.00072835396863885483 -0.054261739776482146 -0.26854233201556871 0.017983356937190234 -0.26142356031980851 
-0.1933531240715809 -0.086930352336433009 -0.34695859958207853 -0.39999264783053418 -0.097215219170186926 -0.28029012215023924 -0.073797245071208925 -0.24773571694781871 -0.37936221065267728 -0.59738523763295326 -0.29779851671066998 -0.29305756978325259 -0.22539257786392564 -0.12478972490303135 -0.30238069119150651 -0.3995998199161338 -0.54788827228965387 -0.44553088031465216 -0.40990929155837696 -0.30647793690471259 -0.49022319449071633 0.022756560334770526 -0.45703510640602779 -0.2104420935421385 -0.248946333934011 -0.22755728908756692 -0.26007662883957361 -0.26952523702080516 -0.52619061860480054 -0.40483571668559576 -0.34468063876295596 -0.34065817196197068 -0.44982840830197623 -0.42885356751235543 -0.23758860954765529 -0.57684287601342665 
-0.50542795879776869 -0.14119286807024195 -0.39189139740597095 -0.43186785406624051 -0.12014015437164109 -0.31618874366078775 -0.083377002543884124 -0.28831727578370064 -0.3064581529974712 -0.20817860550424341 -0.3067341801680476 -0.25571942537133613 -0.25390967702399531 -0.14178525350710272 -0.31087057295756726 -0.22094535971140303 -0.35626684905304828 -0.31149928338179406 -0.5519355377979982 -0.21430825467246106 -0.50270620879353856 -0.0017066207342707343 -0.50462027599214299 -0.21931449575347747 -0.55093620122991915 -0.25202700605153283 -0.23868084789727065 -0.26121705703026632 -0.40094150530449263 -0.56453455199755909 -0.21007392299579636 -0.50157041406508485 -0.54012546660191485 -0.56770045388391122 -0.35448091618025207 -0.22407401938989768 
-0.31143215504148691 -0.3460933662472806 -0.017831099905783555 0.0096676126188676974 -0.059852349337086275 -0.29835250781485834 -0.35102526232597181 -0.077585985429688614 0.01212511750909644 -0.0073585571155686206 -0.075429262340393571 -0.31452805277011431 -0.35148672151936244 -0.22312788379843754 -0.041464827833076652 -0.078277053448594647 -0.042421627876348927 -0.14323723013329923 -0.2747054169883909 -0.067653471861381556 -0.30508325319086049 -0.2986478115925193 -0.25866179541130857 -0.16490003400816858 -0.33284861493660689 -0.086293734175428419 -0.28807383332476805 -0.31002850579345897 -0.37420441396115117 -0.36946178844091537 -0.30950840561525367 -0.22400776153321106 -0.0068185862917856804 -0.3175644749416156 0.02539386376549066 0.058734353059917754 
-0.28142594618334643 -0.3577916543811831 -0.010400297320493346 -0.019689605489136178 -0.3795455059966294 -0.31818412749595826 -0.35633085770537998 -0.053456460247758408 0.0038520762757103008 -0.057327063651131362 -0.025523902176292166 -0.31976308654529573 -0.13320525573162961 -0.25503300350444769 0.0061519406886790277 -0.2343384421073352 -0.077394758989059079 -0.16373173472069019 -0.27415693576419786 -0.14661044550012539 -0.24182603630235178 -0.29648051581068646 -0.21710845093865544 -0.34940132976888655 -0.22595099877905461 -0.32353782038009149 -0.3453384038283876 -0.30342290294317514 -0.28848612598936385 -0.34735196130382978 -0.28727138261297824 -0.14509431633645317 0.015728439063896385 -0.30984456410809402 -0.036541111773930879 0.022746051182351464 
0.12060824105398803 -0.18769781092898991 -0.11599841653520537 -0.072006374173546134 -0.17619037446551156 -0.17891130973910577 -0.16936158895187486 0.046239177233644485 -0.19193987962771131 -0.19546028752287797 -0.19748950755989869 -0.21126075419020193 -0.084345903275187525 -0.15996959759987869 -0.1858507215405471 -0.053458589792484294 -0.19502243901017977 -0.12452331094213197 -0.15804326980336172 0.12392801285287926 -0.080928693133369742 -0.147720371684784 -0.171275630335188 -0.15642148341770823 0.22848142179354985 -0.18281567936080567 -0.18556050493055726 -0.10845043507354635 0.27924598695459502 0.0086548422720166135 -0.10523245061983985 -0.096541322780190467 -0.19575905287685355 -0.023669657491256636 0.01384210494234212 -0.19880848989738947 
-0.18120850166972352 -0.37778151184223074 -0.45493205295444944 -0.41130568459688954 -0.40867204840913268 -0.45428530849680304 -0.25741649491580909 -0.31904392821905925 -0.43031012729379736 -0.32732417593377594 -0.31841708110903866 -0.073804799162114521 -0.027706418766140013 -0.28922986146636276 -0.37952012425619142 -0.19019187674214144 -0.47868999736671874 -0.19960562500920481 -0.30998002160938615 -0.17337212067692984 -0.10288353396415312 -0.18345632820832267 -0.12288238378578176 -0.12405908812158094 -0.075832274091023513 -0.19657004397000527 -0.38984839008553779 -0.0897132636471797 -0.42020135115378737 -0.20490219962234582 -0.11981633148860794 -0.27729219167442487 -0.43725601922333213 -0.10356940910924223 -0.19070053815909765 -0.31299956001214335 
-0.14322312057415709 -0.069063663054172025 -0.16204325299045899 -0.12700261097228099 -0.12563825512950372 -0.16256273953183081 -0.13947937452493325 -0.1580258785431938 -0.13589290792877948 -0.014364067471939508 -0.13985261411523511 -0.090982017913339291 -0.12893869530074573 -0.14370802835669291 -0.15377455706254825 -0.080359140290196043 0.2174448582937458 -0.17253796220057202 -0.13451296643943858 -0.2195069307285179 0.25700412157268004 -0.12746831757227983 0.29723539450797737 -0.19989949414731972 -0.1694478353646385 0.033199232893843252 -0.13577190506681086 -0.20051739134863369 -0.10283614868118408 0.14401447008689849 -0.20505699297166671 0.018196140388250577 -0.19025111164307004 -0.21238463080482958 -0.140210247289482 -0.14304804813733019 
-0.1484041484347057 -0.030463435996513744 0.014041923078880473 -0.13204664552036163 -0.22284392861859048 -0.23015618326678211 -0.22584688008283646 -0.086843366198656236 -0.032759901672771992 -0.13525438900901735 -0.12678617123209701 -0.20668610928886655 -0.22946621736148987 -0.21348255286305629 -0.15574867667013828 -0.20162487896033271 0.052598687673277578 -0.2238478266906129 -0.18992853905359905 -0.2075480627758782 -0.078286087037621258 -0.20365064040175337 0.043052346029079716 -0.2170297876101423 -0.20812800768727396 -0.075855921274682672 -0.24266024493177643 -0.22728741509990597 -0.13640570716793679 0.10416711658114428 -0.23402535485132642 0.12387169751877246 0.065546885247667511 -0.20490934694745394 -0.062583940714491235 -0.29235336372335047 
0.034181566909433733 -0.068199245686598187 -0.15058419887585978 -0.09948821187661093 -0.25537467689877891 -0.068810944271198438 -0.28738989129890929 -0.14847383123097735 -0.19780661796385882 -0.21703103453585526 -0.10477609545767703 -0.22612290368517607 -0.26708941376831896 -0.26609228215324965 -0.18085241930655002 -0.21558514059011741 -0.1016564650307227 -0.21915300332380314 -0.20783647187297305 -0.20633112479305549 -0.19180680363832153 0.010810767881033198 -0.13566494249670299 -0.22724735477460412 -0.15363184713449873 -0.15730507222158804 0.21795856915356307 -0.20279596575511627 -0.12259179442682633 0.11870636365383511 -0.086977355888046684 0.12065862662157981 -0.10986395382717633 -0.1644223049326638 -0.12800984333548709 -0.26016035810622207 
-0.3492988783323297 -0.12080705414709819 -0.39610809802607261 -0.39245675288165804 -0.11151993281427992 -0.18451840221419608 -0.077860636015918736 -0.37031172391141909 -0.39660625114568077 -0.41066237921275695 -0.27162029299573526 -0.24799878463334529 -0.2286257496854259 -0.12484388835746464 -0.31912911983013775 -0.19931347258329671 -0.54851740682625738 -0.39028820439397072 -0.54533885115557013 -0.25461065625880103 -0.48501836885410443 0.0095843922527289079 -0.50052303949914234 -0.19577614973394716 -0.50086614393915074 -0.27015317245821252 -0.059003717846028515 -0.22658684324439499 -0.31362703797264524 -0.36945927593762673 -0.19618672924088673 -0.34244041276542353 -0.5248999423715407 -0.53750512459908839 -0.50257792021784053 -0.40982620039112039 
-0.12561977383262188 -0.35755885423674416 -0.30814658369276715 -0.39407492429104302 -0.31544000906345948 -0.11150647099044396 -0.382991712571913 -0.17306129127113037 -0.21266515389419549 -0.017843333424211259 -0.20587187685276456 -0.025241193233226669 -0.39055943462210219 -0.2859080123232931 -0.39246210193301267 -0.13660598695810661 -0.16238995437406856 -0.084458005668313962 -0.34033631387592328 -0.12552896397204538 -0.059788773457326229 -0.34699697889822634 -0.08388153571476617 -0.13864922554686651 -0.15021904362906019 -0.11293334752388298 -0.41099243909526639 -0.013391387269397603 -0.34315648830610301 -0.41812075971489687 -0.13688551268547397 -0.37414436913921556 -0.22049743530716318 -0.069730626890286404 -0.37348624548626452 -0.38745107180789257 
-0.13026301196338227 0.20967183034827405 -0.18851052600845844 -0.17282010350711205 -0.1356490233503819 0.27206036715550469 -0.23396197737313962 -0.18527848145242962 -0.12038327987348815 0.20298007219292008 -0.14734697418325607 -0.23774555888379392 -0.20909512941284342 -0.2245282549643583 -0.16678612768788528 -0.13458296265784483 0.037473929681645243 -0.22969037267718276 -0.17665967790587689 0.1688573354060213 0.23335565159842608 -0.20173889127959868 -0.24751348076802926 -0.13116399168802692 -0.21724914256272687 0.016411936174276717 -0.25522893432101451 -0.24624377685538282 -0.16277699463277961 -0.21428302980684585 -0.096150317123900805 -0.20747090243209845 -0.18277143857257303 -0.2247518639761269 -0.22220530605835434 0.043552173304281266 
-0.19820896249437051 0.25447984970759818 -0.18514260346105654 -0.15884121019442532 0.047232815760856348 0.081557636836354669 -0.33295095560043708 -0.25074465627976478 -0.12239556249445832 -0.074320708262660864 -0.10875244962910367 -0.27822447948474593 -0.15062375001234019 -0.22129234527904065 -0.078238109720118923 -0.14556974048653212 0.012150294337832296 -0.2015403962698008 -0.20359971557457412 -0.21961953507752993 -0.27261417972172081 -0.24713710899244659 -0.2491035956775394 -0.1485086459102507 -0.25319899216167496 -0.13497857667968233 -0.26541150870930863 -0.28775008824991288 0.056233332393199831 -0.2565158156901734 0.082911659718009317 -0.28001403607254205 -0.27159141587876917 -0.25075983508442795 -0.27398339483740841 0.13038958955077642 
0.014481096393965543 -0.2560441600804102 -0.14546712898043565 -0.1870354906737681 -0.02336509481766217 -0.0096434519612258688 -0.28039634663683799 -0.21392415872473267 -0.20839381196919199 -0.22584523519510813 -0.18693416733001927 -0.23144375875201897 -0.0037127889343242342 0.097927661346126862 -0.12579295915676794 0.16134432474492227 -0.1715825295838386 -0.21237193404530044 -0.10003069194696917 -0.23069022251677054 -0.1952409174197362 -0.22037712656074174 -0.21898731270855154 0.080970154177822981 -0.13703283812464478 -0.19966856313038278 0.15019916467878494 -0.23957143153507074 0.27812506605197473 -0.1925756207377716 -0.046464121324384398 -0.11392783931464263 -0.214420418481088 -0.13354981130363333 -0.2295971219868678 -0.021913972782345959 
-0.3142662644319929 -0.6590564046228945 -0.33070474641358166 -0.57821306014309115 -0.28888460802484922 -0.16757667185640462 -0.13402667420395542 -0.27385973393913732 -0.59333366305215107 -0.65467676315186341 -0.54468862005120144 -0.34402686643054059 -0.32324403209857805 -0.21425751664828413 -0.30264669608733064 -0.32070723444373772 -0.32356666058976685 -0.57916970971470871 0.1870106454004383 -0.32724296744017373 -0.50939737769725668 -0.61354570560529564 -0.20387548930397645 -0.2971649672542222 -0.59747204014249511 -0.29575030038559036 -0.13474174957997143 -0.40583057563005959 -0.5928086744650447 -0.28905237023257885 -0.24645306219828478 -0.43151305893324882 -0.11362320730248454 -0.20738640754391843 -0.61451216565596356 -0.4176222470979809 
-0.030645686241760867 -0.26962681879274902 -0.033177117479688364 -0.31235102569891632 -0.32847227960261077 -0.2074594976948762 -0.30889741031299806 0.0072609397048936375 -0.11841978145250272 0.074251484514785943 -0.17786795648586939 -0.25716815276462163 0.049199560881540115 -0.1046560734221758 -0.10646725247878651 -0.27185384848210831 0.01365260402110317 -0.086787173504473875 -0.068865195020161002 -0.02918340355868225 -0.23632061479435576 -0.2615472401718959 -0.17620186969325563 -0.21756509057431528 -0.28991504637597992 -0.040170983449058763 -0.15976139614062895 -0.27906406705681408 -0.29534455178252184 0.043721686347203984 -0.2960396426982127 0.06818145082441493 -0.24274159503864629 -0.26577164112932578 0.11890546032169763 -0.27208831136878142 
-0.20598841314853725 -0.35452566349084136 -0.024632291230766608 -0.020069574202252007 -0.38144427404662057 -0.35737902695732304 -0.36902020382503115 -0.098762761627561327 -0.0093701453937268669 -0.24520537928231109 -0.030094573535779542 -0.30965780495255846 -0.015276655118706713 -0.3031857239128799 0.00028902296276784277 -0.32791609261062094 -0.23851325254788622 -0.1798000285659809 -0.24883452164989389 -0.16112125316658421 -0.27432987359175359 -0.31763135395471104 -0.28679479365306076 -0.15102429013503391 -0.39448677907282453 -0.31467347681289287 -0.33971185129668585 -0.31865450127151779 -0.085781904412544976 -0.037786748350415018 -0.33744359062698864 -0.073961917996814827 -0.0049034442582442132 -0.33307272795567222 -0.051635891131615 -0.09790957514077421 
-0.17666953790711781 -0.34440407670923218 -0.19110156566060199 0.0039582608937726461 -0.35765805144410956 -0.36271717034412432 -0.34837128685849955 -0.22227162891877714 -0.036115509059669697 -0.39247262125757476 -0.010415948350392818 -0.38800903646662499 -0.24862163517178018 -0.34097851687856673 0.0028134188971311348 -0.18413256598302241 -0.38084864147282388 -0.20445096253935741 -0.29485241674331963 -0.29361823668034454 -0.28927023240772648 -0.30080103688047988 -0.15430428340616303 -0.065118540056525009 0.035207849583717005 -0.36196278548821226 -0.35507433855306936 -0.376899861454638 0.094824823617765841 -0.054697278613260229 -0.35581269174793728 -0.2209574622212486 -0.13824138281946727 0.039533481243421063 -0.1430893048504594 -0.26178345621291749 
-0.12636969809222676 -0.41385747059398881 -0.37330469380411163 -0.19505750320023341 -0.3345079121591617 -0.38028109934534593 -0.40761110764566066 -0.17120698784037572 -0.26953479336831698 -0.3616778394256645 -0.18641682290467099 -0.050018950681012628 -0.42551884595903733 -0.31425421864201192 -0.35466581430881938 -0.17099031112584639 -0.31817580692613029 -0.12399894598008654 -0.36521354017126417 -0.1660289737960173 -0.093559751966834762 -0.3711265173567837 -0.11072446762895533 -0.090978364436198431 -0.077779518123850061 -0.24453082326749961 -0.43442878908296512 -0.040480120212522411 -0.11999628236799631 -0.34992803813454787 -0.19386990161754075 -0.36199454936613651 -0.29369482478750042 -0.10063369803218218 -0.38857186254352349 -0.42673279736740338 
-0.12311696946535897 -0.41933320811034258 -0.37495879676279087 -0.40503681467622066 -0.27373813174661082 -0.36192780913619221 -0.39463835417820892 -0.41426902195646403 -0.17196356851767033 -0.030807145271357916 -0.17523236939077033 -0.023800320943354093 -0.3997859077482056 -0.34640926218294327 -0.36767157517539728 -0.15618259439960724 -0.25738295286149748 -0.096825337877842463 -0.38089681351872923 -0.13837695016914051 -0.075702455597866647 -0.34509955120914038 -0.092060980139731435 -0.39308974930543511 -0.27233712249285252 -0.10833211086394259 -0.41697437823092637 -0.024856331362773675 -0.42888205806644747 -0.208638128071192 -0.055359329394176239 -0.12199581348035091 -0.22366133114309089 -0.13855500967507947 -0.29886835293172281 -0.41435916973712872 
-0.087691104784212076 -0.35305593664277984 -0.17093479607121548 -0.14447900635051492 -0.34527835164561155 -0.32916288664768967 -0.34420860284780214 -0.20684016164248267 0.027573474037132562 -0.039760520120127332 0.0036551019771110279 -0.32848345201536566 -0.10210002747762967 -0.33120631035654524 -0.026476257571429639 -0.2453861890002153 -0.069745907755459413 0.0081528925508286554 -0.29158030601927126 -0.056076321307462859 -0.24908584600431824 -0.30978864199883449 -0.30339709915029295 -0.31354375356250636 -0.36304043727355528 -0.024349647533762529 -0.35342819149289156 -0.33518886113133139 -0.3047387747136121 -0.084332989284861201 -0.32131236953315373 -0.031577553309172342 0.034916532183081363 -0.33388607162349615 -0.19453001255899116 -0.13325328959672805 
-0.36444301607891882 -0.38977064401754502 -0.059155380869575794 -0.061364385894327737 -0.37142876417505777 -0.34337902334069154 -0.39370095986957659 -0.088559370139534604 -0.043415125344386483 -0.084336644956526527 -0.061467209474038914 -0.34667384465882706 -0.043602936016373176 -0.30193333621854945 -0.023717158973329655 -0.26635348919293789 -0.11951134778234233 0.045285859956808033 -0.31882225624695099 -0.35532575225810525 -0.32954157452188071 -0.33333460305383084 -0.23504251442664925 -0.36025471035708184 -0.33661315791809782 -0.32984988979314867 -0.3747585512570617 -0.34071835528262967 0.012961997396839828 -0.21910954594633422 -0.31543072559082108 -0.13845258387689477 -0.035346198606163066 -0.32822848903540264 -0.081254734601231837 -0.031962268330554697 
-0.22540550021003369 -0.26676796483965592 0.14716414926426119 0.044214332526197851 -0.2545852252446586 -0.26591335936424748 -0.26712255210263525 0.11160765875063382 -0.29993859569030557 -0.29334214215893001 -0.31889027627286071 -0.28323554159453601 -0.20848220073505067 0.063032002281812063 -0.1553795198846781 0.14971441445628703 -0.19911937332071261 0.029270292418128657 -0.24164751985455205 -0.091709914482599103 -0.26211909623811602 -0.22415486581263103 -0.21842387617894263 -0.19661091965984076 0.158561143798574 -0.26687641295719117 -0.19297292345136119 -0.24425157931842204 0.20527547945352523 -0.25402791235754513 -0.20244819171027018 -0.23884930843719004 -0.30368500827567657 -0.033893621337389941 0.20399005033342837 -0.07613497527023208 
-0.31678953301171758 -0.64256322066768645 -0.41344381328819579 -0.18696290201623614 -0.53186581599987848 -0.17609056665109557 -0.13005113916470507 -0.44343446385113922 -0.59843073545746228 -0.52662238264585304 -0.60897300964455814 -0.33349645078594864 -0.36609803666991209 -0.22953725143692177 -0.23615985973642278 -0.32934588249173025 -0.42957946009564441 -0.23765645066608349 0.18075465486934617 -0.4970728629587437 -0.51141354250289295 -0.61947723346425454 -0.46110765832985001 -0.32232733793129276 -0.32544764720373226 -0.30076530910736671 -0.12687478032820515 -0.37010884516015241 -0.30557026925791053 -0.60147765413230425 -0.26863157038938734 -0.59930962505883145 -0.5641118387551084 -0.23539406090128118 -0.51106611530616464 -0.21831499842117799 
-0.042658398894284362 -0.20389223185748545 -0.18289093020831784 -0.21091833224765813 0.3100528434605444 -0.027635503501750674 0.0073921628790295157 -0.15627961663313247 -0.23953105138429895 0.00075481696690480487 -0.20252183595544748 -0.18402146240925996 0.016476427635850683 -0.19414399754367434 -0.18406044699502069 -0.20551577552300349 0.10543079936231858 -0.22341509823896868 -0.22442836969609514 -0.22662406434854512 -0.17402968971537042 -0.24053927962027827 -0.095772797738188808 -0.19861348135347356 -0.22866095938820116 0.018529054900293312 0.067535811255808875 -0.24854262322782847 -0.20055377152339754 0.10765214555078861 -0.23568053101398598 0.14681726131588052 -0.15068738157037836 -0.21892309200201135 -0.17571708650573117 -0.19459553328310766 
-0.05726333256739586 -0.12475428667616481 0.013232851423521458 -0.11333682650623292 0.062707135320745774 -0.18714274943784304 -0.23164387827998648 -0.12789868664708326 -0.08180381678204425 0.0020306476311258556 -0.12208506908640167 -0.21017154535439314 -0.037330274589352085 -0.1854866687612847 -0.10980920424953675 -0.19089342424668812 -0.014203150644037342 -0.24025111171066016 -0.21315104649557398 -0.20061081217311533 -0.22402532779163775 -0.23235323290836946 -0.14482749499230443 -0.124425864498482 -0.24166800666153748 -0.17512510341060364 -0.19916034077882577 -0.22889559334007414 -0.21654057022608622 0.083898358634250297 -0.23040587074375274 0.060372026570626403 0.084152645986681068 -0.21773529718580756 -0.027384067569801617 -0.313743784921094 
-0.04817879844678017 -0.064892188910847429 -0.17121313258532878 -0.023654339287510127 -0.16663310088353414 -0.24337537130121578 -0.24039475487033643 -0.16071731776988407 -0.17946514669559022 -0.18079069250717414 -0.1760255903130506 -0.32839262638834876 -0.1871600774511066 -0.21794803379490066 -0.17822508561347267 -0.18362770569678388 -0.22560589099109432 -0.23884818240781874 -0.21689871196025959 -0.16221998453947026 -0.021368006123626878 -0.20426507637991984 0.10445022232013108 -0.20309878423678496 0.16094900100812565 -0.2602117502259384 -0.24525351650830188 -0.16767969655684148 -0.24944150642443905 0.097923889105842613 -0.26493033600503574 -0.066905471125610058 -0.1512406285887852 0.16615638075665773 -0.15332759870566856 -0.26200374115838776 
-0.10906835418621345 -0.31164050109947555 -0.31968558521289653 -0.2641409180846313 -0.24498910645358835 -0.33721374560892753 -0.37089553372107364 -0.34750620273017602 -0.25475534074593081 -0.33712719063043328 -0.16950121702691215 -0.022175338537825377 -0.3291860035238065 -0.33006557579898232 -0.33017311529454907 -0.1275017844758505 -0.37089918492183349 -0.083083422158703832 -0.36365001531163266 -0.12565996901596352 -0.061807743306524443 -0.32119724820209905 -0.078053078662873462 -0.38366753348353183 -0.02384733965881812 -0.15881953309414074 -0.37819901787148769 -0.019296155877982807 -0.40579317753967598 -0.18625078572387235 -0.04225572127883323 -0.3425520443328785 -0.30191360918749538 -0.055927270574431018 -0.2578555350983302 -0.37630316586204149 
-0.59785590689055201 -0.31508170261854129 -0.33925678046489421 -0.42910021818563232 -0.32542174618847691 -0.42197821419655601 -0.25694954007893617 -0.33143699378650743 -0.25063372038571108 -0.30423125962871711 -0.2400062551718396 -0.3258729135308282 -0.2908513279776378 -0.13294563004017579 -0.18090584573824736 -0.17599808618188564 -0.36891952759427754 -0.39904881937694964 -0.57557417143424394 -0.31998699546131198 -0.45991942835815774 -0.026161337965186087 -0.35716450346842654 -0.18960417324133663 -0.63232328231294399 -0.1998271039838623 -0.39565674717857041 -0.4106794826202656 -0.38910072246571542 -0.57396133295453911 -0.22733704552399317 -0.35666629515248038 -0.56645544843423967 -0.56621068285248943 -0.32254271118290523 -0.43601521238000168 
-0.26773601399703417 -0.25928496827945202 -0.078679803813801116 -0.11365502323542043 -0.10458767733488515 -0.19006411861509317 -0.25872358724990047 -0.095312614639490797 -0.041785913770771344 0.011628130113799172 -0.12861026374939558 -0.27026110498413236 -0.2801922243139332 -0.25404881200126139 -0.095461874922298948 -0.10563204294732323 0.049728740429561727 -0.1589271560715293 -0.21896921443251105 -0.16497687218735535 -0.080438493982260384 -0.22713445129314067 0.057456706896263421 -0.17623655844435465 -0.26185727145861198 0.077933485740693337 -0.25959700364635907 -0.26143669655705032 -0.28009711980789276 -0.26123323467012899 -0.25554481139607899 0.026117125693059452 0.019730141717347306 -0.27402152052147227 0.069665919278797062 -0.17801910533067589 
-0.23318616060583944 -0.28938926168148499 0.04205289853966801 -0.014552854922556929 -0.31037075606897208 -0.28996200407178635 -0.29096267526779868 -0.059178642099676292 0.026978627273711083 -0.20032793873726507 -0.0054881088548625013 -0.28176913122781416 -0.17924547929945939 -0.27472950799004248 0.088099403772465765 -0.22863216551712284 -0.06692261035376966 -0.1814602398945119 -0.24326217469992112 -0.24342990529453581 -0.15004506470928938 -0.2579011706341704 -0.05239517518524759 -0.29478300422964321 -0.22123117838597528 -0.28790209878112849 -0.2701167520030629 -0.23487253580574988 -0.33879200975143575 -0.10158860739632096 -0.22131348856878985 0.03905227651140903 0.026140193303217728 -0.26788844849943738 -0.086829724098581862 -0.28353859244297741 
0.21973172642182676 -0.17885759384822178 -0.13238933227088459 -0.10825575713214296 -0.17158184664342402 -0.17627243080871247 -0.16189927115429892 -0.038726891195269619 -0.17666439253848062 -0.18334434723032014 -0.1763220100685865 -0.23108366883252934 -0.13259620615025933 -0.16063179099852581 -0.17617626633190012 -0.17728875027828225 -0.18210682693400623 -0.14059363496637228 -0.15949423867251877 0.21504358051130856 -0.10418984517575267 -0.14684534989243714 -0.039481751650836457 -0.13879588373434382 0.23317480616114766 -0.19926900883002766 -0.14450356941483078 0.026926883986148051 -0.17021721012239105 0.1932383781896489 -0.078647527587373187 -0.064271087972962798 -0.18890893971367689 -0.024949766056756018 -0.021155063302859399 -0.16474155899060067 
-0.0033988500366324221 -0.054644955992522441 -0.39921880228021117 -0.36615030499696377 -0.41964874479322495 -0.44933245099196445 -0.30199250576029857 -0.33085597454368171 -0.39574703646073273 -0.29962333026456095 -0.28942437255651238 -0.099260763131721358 -0.13002702721814272 -0.30481277927017486 -0.33464426550917747 -0.092765129676207189 -0.35723067806103281 -0.14204762440214821 -0.28324631582961574 -0.13396801452970322 -0.19186123692400023 -0.20237440792637965 -0.2155111407713684 -0.063342308069560052 -0.1302147270274423 -0.42172525699818708 -0.28747744737970049 -0.083157411795935637 -0.34451968818386397 -0.040788077673745655 -0.067309024522299102 -0.30618565090433064 -0.39901567235088964 -0.078182302801727263 -0.20739065204299773 -0.33708729112379909 
-0.18792183140776875 -0.061077121091741279 -0.14734158077929091 -0.080308063675766636 -0.061511783514044356 -0.033889594375048245 -0.097186809648928271 -0.061128667861785814 -0.051306211733208498 -0.063157103075140358 -0.17640604497094289 0.067493955132749223 -0.050107511322012611 -0.16551668621926616 -0.16943129894528863 -0.025516607572277049 0.21299626155109899 -0.22187018316307067 -0.14437460293079951 -0.22030506851897774 0.18466956311460703 -0.15039690219022361 0.12354020481527138 -0.21032157367323864 -0.12038915428643299 -0.10523422087383304 -0.089752388355848062 -0.0049243318050041741 -0.12931821771548652 -0.1029134176732322 -0.21132297189316301 -0.16645446691719926 -0.13043470355015141 -0.23321032798231708 -0.12705723410702907 -0.12596160411211479 
-0.38786548718928771 -0.29700788056781213 -0.19601774162576555 -0.10285844197541705 -0.04231531586841894 -0.14596979900375492 -0.0032904158490282684 -0.22714183082985881 -0.19106640289598142 -0.17083844477265572 -0.067908158547175732 -0.15440139509768078 -0.17702041342087294 -0.42498673607760984 -0.45188564479461951 -0.36439300357607768 -0.25462624484256813 -0.41391849348967857 -0.37303512211553297 -0.43313221502143512 -0.30512561102495472 -0.39366103134652008 -0.28552510736931996 -0.41155251757455164 -0.032125323966355396 -0.2951126405619296 -0.17450929790327457 -0.19672268490107214 -0.13195830295778643 -0.16399651429868342 -0.40757190835903362 -0.22221956609254967 -0.17728026598537683 0.014652316332773653 -0.2158813591435618 -0.092312702435338637 
-0.29625389828939463 -0.15020471284899017 -0.30861869831243721 -0.026415082354157852 -0.019782171235875636 0.017036010944237154 -0.19738708341292413 -0.21326511372095863 -0.30115234806489566 -0.072985192876118279 -0.089873086890067275 -0.22900841181231635 -0.26954107523003884 -0.36759293207093557 -0.36976706698642542 -0.31929980020144061 -0.17009694979249976 -0.32589614710192427 -0.30755217730701284 -0.31273370500364017 -0.30233654167826635 -0.23092321789780124 -0.28130287518624186 -0.33288054753184843 -0.10209925096494121 -0.28686885350714847 0.033641202590791966 -0.1862856041625017 0.023071877440914094 -0.23397038923161367 -0.21605887348501462 -0.24187082119909833 -0.019045549834990592 -0.048997090244960975 -0.13399296273184941 -0.035967410293674944 
-0.57943020092929154 -0.33759835160228091 -0.37658415671192796 -0.339785867648358 -0.35186170629866376 -0.27987111780468199 -0.29424422736382833 -0.34235229773636089 -0.29248527870126706 -0.31531132359502417 -0.24366938581461586 -0.30340313586576845 -0.31553951761482518 -0.14884395851347437 -0.18492433696416696 -0.16926245716449587 -0.53994547759065148 -0.46010167424333281 -0.59223993359330551 -0.35195729473452719 -0.55018112350734405 -0.040304140618571106 -0.51350629874777909 -0.18625276342792202 -0.65635140019064631 -0.31556802821483382 -0.31653349655174617 -0.35725088764757562 -0.23311101380412058 -0.55768672251406637 -0.22983960065897791 -0.42991355233415152 -0.46169633239374186 -0.50355152851684271 -0.45700370300918636 -0.37529613722740379 
-0.45025486403678866 -0.1607168983405349 -0.28703219364823479 -0.34941554014076315 -0.47314682023512644 -0.48053329355042701 -0.3000032823025528 -0.34481870742856313 -0.22899546053971784 -0.41694394012985686 -0.32321312557514809 -0.46315620976467931 -0.34137596610429805 0.019442060870384647 -0.037420266512075848 -0.088354091332695409 -0.30649924280062102 -0.12156592063781398 -0.45719852200308053 -0.22123942455222137 -0.14687969135288084 0.11994969240077127 -0.13831026130502241 -0.087544444044112796 -0.47629099164787841 -0.09176132787010112 -0.41948089945383787 -0.34596257574957984 -0.42205922699914727 -0.42997317816272362 -0.12742871980996989 -0.2602292701458685 -0.41526841845519802 -0.43635534024436629 -0.37270399132375176 -0.44165308311159124 
-0.14474342527726913 -0.16352349544542724 -0.11150556124095672 -0.1073482504480511 -0.11447001163247587 -0.11695443902008948 -0.12198303698400288 -0.20109801265089988 -0.13100994845868455 -0.11482262115380651 -0.14655857895030605 -0.16301805656919666 -0.1560017474781592 -0.15292108614361086 -0.18363119600723302 -0.004162282756229538 0.019985781251481212 -0.11471557984526633 -0.13741904214495584 -0.22780358728558744 0.22061507927407867 -0.09893598323279601 0.21608088909084722 0.073084144264192935 -0.14779059637766617 0.26789096350399155 -0.13050930139312766 -0.18728204161885437 -0.095007574078090518 -0.085276228441261884 -0.1800077657634272 -0.022454134178656569 -0.1124279803383447 -0.19888992642994954 -0.048340491860757395 -0.11770358853165216 
-0.11034265319972346 -0.14460045024123497 -0.051267233128363121 -0.05189602197258085 -0.094242009604974544 -0.075327915037777443 -0.093443620856433374 -0.16366350353881728 -0.12691790829067123 -0.020276368941427109 -0.14140106405283331 -0.023337185021077518 -0.10430439432496914 -0.10839269256815842 -0.14153927001266506 -0.14082539136243039 -0.027667400742876873 -0.06135693021550867 -0.12424035322972939 -0.094541994537948593 0.00096856008244633734 -0.11446905164583344 -0.0034442031687929031 -0.1264116179671444 -0.094473980879663438 -0.12845303326957661 -0.054540734209119153 -0.13602528425784777 -0.00078186187498713138 0.10509887194694237 -0.05016169937358822 0.072334211302217455 -0.076132995393441205 -0.12472879470481857 -0.062209943279912264 -0.10416753998180937 
0.10607042753262656 -0.21575853233112546 -0.23124178631618789 -0.18259044943150315 -0.15185271489061392 -0.043715957380095545 -0.21225101704783553 -0.23001863681060669 -0.21620597369168545 0.12196356024376141 -0.18973752732823027 -0.231318208256795 0.10563148755433382 -0.19734364624995135 -0.19205409243671503 -0.2016911370940111 -0.01669181606173863 -0.11485989120931675 -0.18500699884650712 0.17872672250664925 0.020132745954479201 -0.17786913096780549 -0.045164609112420824 -0.1289541498228442 -0.10314914200710176 -0.22904204076139051 0.1900001086748595 -0.099084864185777319 -0.03939609732826297 0.15850391968735578 -0.11758176053076129 -0.23191654179040599 -0.11047990252714869 -0.16188691146445344 -0.056645020856456507 -0.16726222600039445 
0.043123512330019168 -0.035844754861895117 -0.40164983997014436 -0.35178997027991205 -0.3416225898653007 -0.38231379101487584 -0.28964228580334966 -0.32547592958284988 -0.40470803269467764 -0.23892467443570189 -0.21299855723011005 -0.14574739145048424 -0.23365072830628242 -0.1890356929104765 -0.30192445276187641 -0.3714148828762992 -0.25388751845936575 0.024913103574636261 -0.24969878098419587 -0.086756034631716133 -0.1140293255581437 -0.15185050470588224 -0.29284359584580211 -0.23314928303292121 -0.35766563891221009 -0.42547086686572672 -0.17371804953749159 -0.11790494310774798 -0.19113087135928966 -0.032926744333316757 -0.017785994309262049 -0.23727766055779045 -0.3275974183521479 -0.14062907906101141 -0.17886044208463767 -0.32370099529815421 
-0.17851221274157494 0.048692163809885523 -0.1258288731605138 -0.0074385093226718366 -0.064771662826606638 0.024017930299367551 -0.047887865744717775 0.096065526030204434 0.07599403087472667 -0.078166659663444937 -0.20033926624468787 0.092983513007182383 -0.057845762503383594 -0.15169460570043122 -0.167357478797138 -0.12161024057935624 -0.064022796603809148 -0.18153849460355587 -0.1400608635743209 -0.1827708312924263 -0.074839437145460166 -0.16760118356802672 -0.092924611422239914 -0.17238915337374891 -0.12001471940865076 -0.17609247282429102 -0.1071847052272792 0.19996406250233675 -0.14915592297883085 -0.053830848671092391 -0.18107355034422204 -0.17234440509745896 -0.085929812371424094 -0.20050197482910087 -0.14076413952585717 -0.069408343239019399 
-0.51582571579834324 -0.28831918925535666 -0.17758651451855975 -0.1787076989547049 -0.15210303782685547 -0.12308134389820991 -0.089579341274325069 -0.17508043902583725 -0.17672586895345507 -0.23409034764472958 -0.11462415384491 -0.06929972447371395 -0.18812213893204199 -0.48799035324261014 -0.53035608029056858 -0.44257775967633395 -0.22723501287046871 -0.48770488182345773 -0.43936618031111752 -0.49712544375345763 -0.42423195975974004 -0.47368679583438494 -0.41902083984613808 -0.4748297803159488 -0.12331690375836384 -0.46550390413015519 -0.15205116047098888 -0.05503977687281391 -0.16226039140516288 -0.20389647055694654 -0.47981338733758749 -0.17503953726344673 -0.18789255333823626 -0.043455955273800979 -0.24430544078109914 -0.10973071537574558 
-0.45544108776284437 -0.19501610215232318 -0.15138116720520081 -0.11323741837918309 -0.096460718916376822 -0.065103680088420393 -0.14797429383569324 -0.17338024918090969 -0.20501354411049111 -0.2175416954520499 -0.18137342449644167 -0.25854914644510607 -0.30428988739973961 -0.4789238919537348 -0.48202100973475881 -0.41023009018268569 -0.17351043922806902 -0.42550498311627438 -0.39908923637687638 -0.42615112760312734 -0.40602245848047341 -0.18377352079014453 -0.38928740644123805 -0.43267534193390045 -0.13794030362114323 -0.41681403397549349 -0.13364384772386087 -0.24521098669324243 -0.10843238528044691 -0.29631507699379572 -0.36172161188491964 -0.16523288204845268 -0.10966754553790901 0.036655997522050003 -0.17570444288654535 -0.05602415158235198 
-0.56516474531296557 -0.2714906681890385 -0.38404565909969718 -0.37521060168253945 -0.43177694946297129 -0.37792476342034248 -0.38143194837051375 -0.32905517983615551 -0.30806111082316673 -0.41701794844684054 -0.37699769838534458 -0.5106394832012825 -0.42811540433501472 -0.086540276745971881 -0.14035449937678199 -0.16415864936801494 -0.40429841000741057 -0.19459702186026409 -0.54821595390767497 -0.29925119668091482 -0.29755899268566205 0.028509607539282288 -0.28808533872995751 -0.16716713001315323 -0.58013569931860132 -0.21934955032595518 -0.38664799348667289 -0.39364741189418873 -0.30504521979298499 -0.53035538265096449 -0.20841230646075379 -0.33721914435378286 -0.35658181300481789 -0.44936370066877124 -0.38270584650615558 -0.33448885492664993 
0.057945528130548055 -0.22835739573689817 -0.36656316233272318 -0.33098101385234679 -0.225990536444544 -0.34507365970045101 -0.35616878880695829 -0.4026567801970492 -0.28462327036754825 -0.23631971696675794 -0.26248177119798877 -0.031568740230758251 -0.26294955963552952 -0.36617431432299674 -0.2562614113054334 -0.2220274558098797 -0.12179829778224384 -0.0042623052436299939 -0.33876830007722109 -0.13422612119610458 -0.08739842241783885 -0.30194340402920417 -0.11554830792498591 -0.37230474976676731 -0.27008678771751898 0.017773376202131291 -0.31137148019143607 -0.0097226893301127597 -0.37146797423058664 -0.026905227548749591 0.011209081185968398 -0.061003124018755163 -0.29055839184540788 -0.19062314942305633 -0.26273979283224069 -0.31132843505243052 
-0.036616205840545382 -0.25056635856883919 -0.15517642126353329 -0.16368299812728807 -0.26370163383968426 -0.24274495832417084 -0.24319420984277773 -0.16926525789356225 -0.020330240091699134 -0.067608418992155639 -0.04630456185313804 -0.24568676853205798 -0.099986874885148236 -0.23907446778495436 -0.07408674781747418 -0.21223448452560287 0.057679227555470024 -0.14779811150564715 -0.21534770515915497 -0.21419248742882796 -0.15098274867028375 -0.22214989397706758 -0.057639874071109459 -0.23939597225208881 -0.26089303448911427 0.084293543634787971 -0.2275769088443837 -0.25055993216464278 -0.25016278691571947 0.060710691294276149 -0.10857668612904871 0.10404909153550465 0.073025142580021157 -0.24896846816956353 -0.13334141667699873 -0.26717141129901723 
-0.32738608780844342 -0.32919864585391295 -0.0042428497311427444 -0.058591059532567623 -0.34963723836142818 -0.30230620512567297 -0.32099755342236103 -0.019713216923644104 -0.015049897263499779 -0.23529476321102755 0.0012599540210106583 -0.317439966971792 0.04381940783353503 -0.29346774742893356 0.1266408475600726 -0.25746698787476713 -0.08547648995060593 -0.31155450927812606 -0.2734413419274333 -0.32832791717319576 -0.14991514847178505 -0.28924896694886421 -0.023059211978190195 -0.29818755696921501 -0.24155435793789912 -0.31973854139408048 -0.30708575073728483 -0.29619607201129977 -0.27798430050763756 -0.16678855112638966 -0.099153138560784601 0.00040834233794765978 -0.016049939058983019 -0.28746081955324715 -0.074629703833752184 -0.28718289583256623 
-0.19293479293931301 -0.25380206509927333 0.15035137927023606 -0.03193496333061558 -0.23509411171538633 -0.25692782001298431 -0.23505867780687872 0.087899440761110545 -0.26827214527812221 -0.2715727278635453 -0.28914507149816648 -0.30889886676879308 -0.23477933277522953 -0.14474776509547066 -0.18085574904249407 0.023376385798092921 -0.16793648941359038 -0.24625979596717243 -0.2243456905410974 0.049782581160600178 -0.10167043765716149 -0.20450813363559289 0.042477245289197399 -0.002648187347846327 0.14477042672705637 -0.28804959322655566 -0.24570674305145562 -0.19158561438079685 0.075061071440922028 -0.20824127194412656 -0.15290679086810169 -0.21068999428420085 -0.27781457896296835 0.0045136480329972459 0.15491812386963999 -0.20618957719854647 
-0.47378421414980632 -0.55407337031084192 -0.31940907350391101 -0.24713066960107966 -0.44971298595206072 -0.35359820481804843 -0.33660014820263379 -0.38008072086281208 -0.66771754430931585 -0.39977514614937054 -0.67282302029629037 -0.43631880739188783 -0.72569052370002796 -0.24407091595420582 -0.22298610479095637 -0.28617417702258635 -0.40103447968371791 -0.30002589062142804 0.20165952982943863 -0.40538236354480633 -0.55186762574183434 -0.65601382756016413 -0.44752573972149468 -0.29671939760036625 -0.30727441561486568 -0.25169949107129735 -0.39910590053496436 -0.44732733337007075 -0.3454540098329193 -0.60990945190929102 -0.31146985356500256 -0.68585841385506896 -0.57575586930109501 -0.32834451122569164 -0.31909446503980626 -0.24996011908453486 
-0.23667087268168774 -0.23987255030413718 -0.12530921456508684 -0.070048306490792328 0.084615536501312011 0.080420168449551341 -0.013305443157164927 0.015495924296700382 -0.25475633377184048 0.038152275495987577 -0.3354808394829264 -0.14309656801159712 0.090620527948198859 -0.098982169787048324 -0.30416949024652706 -0.2556715639883495 0.024440146322293337 -0.25701725906576683 -0.27781199864341277 -0.27054071758182036 -0.2368583054824836 -0.28431765807826559 -0.22295193615521883 -0.27366549573030102 -0.23069419012426245 -0.085879994440442101 0.071481023535532637 -0.23835930530600097 0.049755767712256725 -0.290706818897565 -0.27490016691607283 -0.28130234381956964 0.11594876806555413 -0.27480985167495525 -0.03674906963379769 -0.076566484470102142 
-0.357533027357747 -0.30872472889154406 -0.20831864322985683 -0.11801481292379543 -0.076273569873249625 -0.070174392253647883 -0.03846321046049244 -0.12450897119231377 -0.1089667164654546 -0.16237703143756854 -0.055607202502823486 -0.05066905123926084 -0.11447745745952018 -0.39164014592767127 -0.4826844769704946 -0.37263932440407638 -0.37936292667112975 -0.41715544571649454 -0.38618931841505622 -0.38257928180634837 -0.37780546457331132 -0.41616112253778853 -0.32273721753371742 -0.41180242844097675 -0.10846713275318685 -0.35976229396462445 -0.11145631675436279 -0.43898924152604918 -0.12661168855597413 -0.15272708809580421 -0.41125272349117792 -0.11014142820747122 -0.16038058557145798 -0.17684781932566498 -0.24379595109924984 -0.12167155498311219 
-0.31268834005145385 -0.08392415120343763 -0.26245231174931349 -0.18190345754014126 -0.15928573959754697 -0.18003330470916865 -0.16173356464529345 -0.24487781284269763 -0.097099327029181781 -0.082676780967792921 -0.048384754959337771 -0.10294196159956319 -0.21354735124206828 -0.30481804397626738 -0.33174390422488303 -0.22157520288087262 -0.34340621485151118 -0.34713590945446982 -0.27027241625188386 0.027055668486712571 -0.096084771616411949 -0.29039463879087568 -0.098566855665743289 -0.35295135432079922 0.070601366913123687 -0.32871836064710724 -0.18737802435599121 -0.095291585713300778 -0.13623747926940524 0.013479940949606445 -0.327187845100404 -0.17785478690975098 -0.22722325889295764 -0.015573147843267691 -0.23914754886580511 -0.15926207198555239 
0.050034912233080805 -0.10717162590482394 -0.34321197539196857 -0.32408388098522761 -0.21116088161012125 -0.31777991200804556 -0.34265240690824367 -0.38944829136306569 -0.29037241077386738 -0.27626069677055143 -0.26032896249621185 -0.057668248381273428 -0.20726259811664904 -0.36867391885244388 -0.24616600629579277 -0.18100290427342203 -0.30733059371303567 -0.026515815367942064 -0.34072248935556593 -0.095556604001299755 -0.091570788754199439 -0.29931890875320916 -0.093264036220623583 -0.39931700218185606 -0.063882657617527899 -0.18646820977091827 -0.29024493160978493 -0.030737351998235941 -0.34307359218668071 -0.014469852035237362 0.00053429451758391848 -0.3495684336583334 -0.3253083729110019 -0.050384870731446305 -0.25507902274841593 -0.25900709458332438 
0.10261334526962193 -0.037503550028695445 -0.31388351547971477 -0.22102352877693751 -0.12758964349179153 -0.095813505405786176 -0.2378341992045912 -0.24130202982174195 -0.37725295782740453 -0.13147843515445828 -0.34414806832854417 -0.20980562719272713 -0.093477168486124571 -0.37950116110798893 -0.20407926559001807 -0.35656257598064994 -0.042355179258361957 0.074735289883781156 -0.3462798005286406 -0.23743696560739722 -0.072135061043174561 -0.26905543111176611 -0.21017572087373096 -0.35903770736112051 -0.33829737404001808 -0.17564338718779515 -0.01697412527893357 0.042746490523270564 -0.29625580311972916 -0.096295043328525218 -0.091596869568984607 -0.30836512624854023 -0.29115389192039853 -0.37620377870378763 -0.17861238953178765 -0.2089868645271068 
-0.0054059602534922008 -0.23744560792182862 -0.091591336457564829 -0.03894603067079893 -0.014599857457409687 0.12227311060639322 -0.0080463666713969061 -0.094644852694763235 -0.21651468506016933 0.065164720258422723 -0.22887132932707024 -0.20379119800083145 0.05062043353380654 -0.23461391410774587 -0.22703927387913184 -0.20740965604610506 0.12689937582205452 -0.19020775418422098 -0.21079287411078504 -0.23336471294940253 -0.034725114322482244 -0.20500182304008413 0.014867317874293198 -0.20746116225193761 -0.19255108758771222 -0.10127987604887213 0.15937159085887986 -0.22045121728525083 -0.12205493071404058 -0.13273956165078449 -0.09031147997809412 -0.097623672447780016 -0.18376156068638289 -0.22159545268108838 -0.057004289379141287 -0.16834588680450288 
-0.1946371190690758 -0.18216818556243083 -0.039314344751391173 -0.063545422071944468 -0.13306704236285791 -0.12516738714852776 -0.010506435361600059 -0.11974546613677932 -0.081946600812489834 -0.00026286782303503223 -0.18496611241940963 -0.092957464752264601 -0.2202495150341956 -0.13585712854570692 -0.17664374007116754 -0.12600195622040022 -0.18055416774871685 -0.17965521208597476 -0.13331723956840522 -0.11226776635185325 0.015912472235762892 -0.15551964143777158 0.059655249684878314 -0.087915843021325699 -0.028375684372506708 -0.174011635205639 -0.086705286799279108 -0.19297730223190707 -0.077411032968586341 -0.0048928595929609879 0.057814853091420253 0.0011646917719277906 -0.074414809290583389 -0.15693216343754662 -0.10544140384186307 -0.10357729695426239 
-0.1500873958504696 -0.20410841467705068 -0.15375847097829243 -0.17009417040712491 -0.17215924855010956 -0.20465797938869648 -0.18359777917054243 -0.21058325510692635 -0.15523568043383426 -0.17671381762220159 -0.17475999033036263 -0.27206822010035919 -0.18963810541898529 -0.082360119955799518 -0.16163370705028948 0.20578717938645655 -0.20283603221734836 -0.16915110252675009 -0.038715968571917919 0.16077490158277027 0.12911312360776783 -0.16936287162823249 0.1456192691338983 0.26602809765905583 0.055622456421063234 -0.27877435315436744 -0.18252206981810079 -0.21071765268696965 -0.18527377999596334 -0.14360895792858325 -0.17569034290564267 -0.15778296107831369 -0.16679515130488642 -0.15317656714258765 -0.055323932572588698 -0.17652238145310714 
-0.30754737414796379 -0.30714033354403808 -0.28522400843631052 -0.25271562299347589 -0.43409430281529593 -0.48497595574891927 -0.32037520514871487 -0.33811126067132424 -0.55169646402239758 -0.43213946851396295 -0.57209601265107568 -0.57756731098114567 -0.65347246542768778 -0.13246831462094541 -0.14191756176542358 -0.2018217842684614 -0.28317458687304153 -0.22792252272090882 0.2943563323799871 -0.30978663709875554 -0.25297285769339156 -0.56444161698676321 -0.27239358045734235 -0.21263240255881508 -0.37181091667576716 -0.17925598352976119 -0.41979914706116678 -0.54549706080564575 -0.50582593250734631 -0.47617734000472561 -0.49100672004110324 -0.58010884099077276 -0.52903276976645497 -0.22071134335654133 -0.34288181954520108 -0.28165733484444522 
-0.29630472459844198 0.016007254036804853 0.022489661107091552 -0.055525529280069569 0.043183959394499496 0.066321953226017291 0.0402187270230729 0.064745831309676066 -0.15517234354483944 -0.052475719131526356 -0.3933477956640834 -0.19845079259402904 0.042304220673525655 -0.042801098496511737 -0.34517161900718357 -0.27774321011837633 -0.023239178078337246 -0.27466197542718573 -0.30250177033332337 -0.29281266285016155 -0.27305803378175564 -0.33201127998491486 -0.24951816437535446 -0.29842023862269695 -0.28443153787060604 -0.29237843715675194 -0.098712697051118292 -0.23842331206925702 0.024853576459372091 -0.3597951015559232 -0.3102812817037201 -0.24346746267113334 0.058302776858657576 -0.29409970005192437 -0.0049689096546833506 -0.10704600070698411 
-0.49570086149192816 -0.084088749789802381 -0.17383246140540229 -0.17733902171042659 -0.14289337940366129 -0.11631102830500582 -0.080493903958030466 -0.16819861444424883 -0.16884805103998413 -0.22701545895084138 -0.11194874982736171 -0.02534880134496556 -0.17702388575002201 -0.41680023326836457 -0.53094079177463815 -0.44273894977024025 -0.22484200575046795 -0.45254624666916338 -0.43291262754995008 -0.43525249671278332 -0.42968754780980717 -0.4685391447133489 -0.40093919670691786 -0.47013301440384453 -0.11986438330863797 -0.44714961235939865 -0.14465230813021757 -0.47622628458062438 -0.15867243034435227 -0.26104238947493486 -0.47838104786809432 -0.16233991023112643 -0.1776002144344366 -0.021961474455133773 -0.2349821532623918 -0.11012612219209907 
-0.43649560185921821 -0.0038570010802188993 -0.21034361921464584 -0.20386340921782684 -0.18911677727944712 -0.21521692347260082 -0.12467116000173904 -0.22925376391735997 -0.058645121376521968 -0.26896645462731045 -0.010678240810952895 0.015675080297386658 -0.33697790300388536 -0.40598599630910187 -0.44786876923977181 -0.35949110225028336 -0.36558344200928733 -0.4143793363188164 -0.34410213207407447 -0.089238105513963856 -0.15064890292874636 -0.3756745633173178 -0.30425502163565699 -0.41262030551685491 -0.19072749406834602 -0.40593159974455645 -0.22052741375527521 -0.25242242797805159 -0.10160217563055728 -0.14126045608666282 -0.40539372326918427 -0.039180686691429344 -0.23869715355904231 -0.1277673800237894 -0.24020316228664498 -0.063345579200663443 
0.12707452888951304 0.033962854082399879 -0.3457712987192767 -0.27566593002502837 -0.12118304654684184 -0.23540502353566903 -0.2758144193144314 -0.25455096513137371 -0.27244439102609913 -0.18457606123012243 -0.30023187840646959 -0.052872870591856129 -0.23660451485951109 -0.33947294927434946 -0.16778616711468783 -0.31991228640667674 -0.21914343011891357 0.095211304478434539 -0.31083741154140404 -0.062427625527705206 -0.10893565671019324 -0.2295619940497122 -0.25766194830383948 -0.3451467945334627 -0.26003316914057506 -0.22238111947764935 -0.1766025141299557 0.057347010555654297 -0.24955618427030277 0.0037892284032352624 -0.09826010359823692 -0.27598235730108633 -0.26208353923465266 -0.293709728086746 -0.21393672136649836 -0.10668544597426834 
