solver_type L2R_LR
nr_class 36
label 1 2 3 4 5 6 7 8 9 10 11 12 13 14 15 16 17 18 19 20 21 22 23 24 25 26 27 28 29 30 31 32 33 34 35 36
nr_feature 108
bias -1
w
-0.44306184958497496 -0.24794869968692548 -0.38291632760698197 -0.11614675844136504 -0.21413674397843502 -0.36143684444260116 -0.25805899816547112 -0.16597245398348659 -0.36189061423641294 -0.30682249784639082 -0.067766223328506778 -0.41292803423627961 -0.45250675453488703 -0.24367522440570349 -0.15375736799463277 -0.49746802436922744 -0.49961561911099328 -0.16676110709483008 -0.24144148520827496 -0.1751470972114923 -0.25736788021908408 -0.34151648916501898 -0.32092823759117561 -0.24084426527920566 -0.35608062549588887 -0.26297411428463474 -0.22003474985437596 -0.44919302117571652 -0.43054989725364856 -0.36267625118760516 -0.560970841098416 -0.22669801539442269 -0.31952840944750138 -0.18414712695485455 -0.42660170096583599 -0.59283575333050842 
-0.31000747086904773 -0.41820976687719152 -0.20407053018287483 -0.4152883055825885 -0.094386374452484878 -0.11471236710033038 -0.23239608827946487 -0.47122586630810098 -0.050954972650884056 -0.11492873261691021 -0.45064389725934972 -0.38709416863585833 -0.15839015147301339 -0.060745444341957888 -0.26375182274729747 -0.39669872508352721 -0.27662009074635735 -0.39717026008949308 -0.028036274505470915 -0.40876833351666203 -0.35224407309747613 -0.03342398341905569 -0.35675211236314547 -0.39260979199990209 -0.24391334468411899 -0.43027992438631152 -0.095037393648962742 -0.25474138337762503 -0.25895776042085122 -0.041132845146952549 -0.41045363716913208 -0.080668277715805564 -0.10738781754736405 -0.39628660947241473 -0.076795824752240449 -0.26710397080743686 
-0.38011488702838553 -0.42630686532275586 -0.16379268102018124 -0.53617588613545486 -0.1796637568811838 -0.2680820989257271 -0.12157820401578054 -0.5282854362734638 -0.10895188052406261 -0.19447576607107356 -0.50278611701526288 -0.46866890745241385 -0.23891050393466839 -0.1327022901851985 -0.505661582844116 -0.47467450047088439 -0.19617952063014613 -0.45849485804209705 -0.085508987012928986 -0.47304078158190793 -0.37297624171692939 -0.0424293004207216 -0.42791250608310255 -0.47365463390350715 -0.095490151426734254 -0.48715472445076574 -0.23662872066609147 -0.024371695431436659 -0.13534915816479928 -0.10962435826750293 -0.43251566450761386 -0.14736449575693111 -0.17418865006119955 -0.48125567098180599 -0.15637101859669747 -0.16184425565935304 
0.013384138418553944 -0.11837198667755379 -0.10275198483842185 -0.11494066415979597 -0.085720415605407094 -0.084764582551067058 -0.014914236826573685 -0.11555439514071297 -0.12473375568775631 0.019854027410234291 -0.097693812351779777 -0.11502279775655856 0.00097584632760521156 0.028308040853249117 -0.10712937614456658 -0.11174410149918912 -0.057663879862488852 -0.10661164533616618 -0.0015142466808206829 -0.10627735890304796 -0.038941125668922293 -0.10985116617072806 -0.10052678724394579 -0.10911317611526512 0.01320467494192252 -0.11178390471700737 0.11078082996785535 0.023041483769500461 -0.06056846567373924 -0.091857075614085709 -0.11599691780037948 0.04927591268559274 -0.13599274895540717 -0.11468454846135329 -0.13127726343108917 0.14178163127098944 
-0.38901712461090643 -0.033000392916136122 -0.18245804675532509 -0.29474512450047263 -0.27968498234630118 -0.01988724267593598 -0.39002849918741772 -0.22053178224437239 -0.26662617603153943 -0.34681305888911718 -0.38487306678887612 0.0081644996828927566 -0.34593864507897998 -0.37740696540624924 -0.25147115133972681 -0.011606319725528268 -0.33728489552857316 -0.091272394431617249 -0.27406915309967 -0.40195184116940758 -0.19998884745058715 -0.35936341917476 -0.0029656052831927432 -0.081744752049037847 -0.3735022060615254 -0.055415719958259786 -0.25022624635640817 -0.032186529746687668 -0.34926204261772181 -0.36153753234798774 -0.27632501469436965 -0.30318820335320673 -0.21085196020698896 -0.044034336821086026 -0.37152843690408277 -0.12617278216540445 
-0.16831346231153627 -0.061722609690431279 -0.1763338116747861 -0.11534035997204284 -0.034043791570862923 -0.010235383163173024 -0.187923035905664 -0.090822666085692894 -0.15354815554133985 0.0082135810318991424 -0.1469492942528236 -0.12521324816108118 0.067253100970399798 -0.098522391343420154 -0.1806414491377572 0.064288133065843328 -0.0039120350187298305 0.094742990486647763 -0.079801969635802134 -0.12610754538442856 -0.020402611020596595 -0.15446918799306217 -0.18379170997147504 -0.0096989409483347402 -0.1522121635934377 0.037759431640413663 -0.032387446510098207 -0.18407774694087142 -0.16741257661810821 -0.12612990707801217 0.0072529641259079739 -0.013578813796832673 -0.11291092957238431 -0.17091707678706697 -0.14894216855170347 0.051850366551794376 
0.18868874520733286 -0.0028092286609583622 -0.19238823879604774 -0.13207598964187095 -0.1320735204025098 -0.14472553800933213 -0.14573452940057724 -0.16576501880573372 -0.12494591047524987 -0.14099593094359034 -0.16877410113427399 -0.16984942370527992 -0.095718659113991383 -0.12121225284583503 -0.16590142688781354 -0.16735503109824068 0.20250697421243308 -0.1498547567422065 -0.0992281033838497 -0.17877631062528027 -0.076897959188799742 -0.17359656473134696 -0.17638088308607364 -0.13786516059715576 -0.11939917422441715 -0.15747349442769598 -0.1529221800984932 -0.1263338143976139 0.030618042112333682 -0.067638556179366621 0.24629559464176101 -0.11533217882945575 -0.12168349571058079 -0.17101359327408913 -0.16989463112844033 0.16446155083449454 
0.12644057736388561 0.11918319099977055 -0.20867797052417758 -0.07642409369754169 -0.17043402074261491 -0.18853254211016435 -0.17060476601621541 -0.19140996927726558 -0.20321358065888742 -0.19246649765227761 0.12765566237447537 -0.20450386808897825 -0.18359541227118134 -0.1565821421515077 -0.20234376923655831 -0.14695831216410363 0.04152367082926809 -0.19960097845523075 -0.14244196300910469 0.038097247513276915 0.20600459429383444 -0.14395152198152394 -0.17441621765526122 -0.14569907958296349 -0.049672233913014015 -0.2262318567884426 -0.17485983582627371 -0.20174819182585557 0.041817857842028995 -0.15185047118087247 0.087611105769199379 -0.16806464751232927 -0.17442472209629292 -0.21530428056707918 -0.15493720656631729 -0.080070334482589794 
-0.28625682022110999 -0.045189264581740031 -0.26678786642503505 -0.002038662854958709 -0.2377303013358385 -0.43485157164910115 -0.13963385558564392 -0.044248830938439024 -0.31878740108965276 -0.46311724266070925 0.045701483170292427 -0.32588580547639262 -0.41999427246331822 -0.3459929807307594 -0.02909502242368946 -0.36563074926425926 -0.33894763715055093 -0.084898830812359244 -0.25961587964612071 -0.063058746050707104 -0.091051764466649074 -0.24662514158063961 -0.21744166305351126 -0.11632032718327068 -0.19334931305143313 -0.15844226494105254 -0.37935656640759657 -0.37236648780769799 -0.25857031521868346 -0.40890758495417517 -0.46947790052265448 -0.32469257967859128 -0.36934188818505848 -0.10268649502217037 -0.44760726292408809 -0.43916498400660425 
-0.30090171658909487 -0.42253133052205827 -0.31851061370724743 -0.21936533877264183 -0.29768992669215305 -0.31035717670082558 -0.27834882816761214 -0.27292374871625857 -0.30412462311469329 -0.32076300280520081 -0.17212959046667686 -0.49648657581158007 -0.37654585017344111 -0.29737699390787647 -0.30471576442343612 -0.54218297752115274 -0.53922684473420024 -0.30607665739291323 -0.24761596736993999 -0.40837379350890812 -0.49115172929335366 -0.20056206268990023 -0.36771765630784309 -0.43828314988348827 -0.3727745741459253 -0.30795769504715903 -0.29886077601666927 -0.33804472762365906 -0.59962535416887552 -0.55766298873547981 -0.59981538872815099 -0.41084283151231427 -0.34164368181761379 -0.33679258705892007 -0.54711541568296473 -0.65436566882196989 
-0.12526067319665185 -0.086670942228528267 -0.31925129595822249 -0.25636458359964054 -0.2515364988753136 -0.046705534006139096 -0.27881092889870829 -0.4221912305771629 -0.2248585077381329 -0.050534704003447041 -0.38992799702063902 -0.37104568322886156 -0.1344208597560122 -0.066389893927398899 -0.33287533380157192 -0.24823418916548431 -0.07832141885228007 -0.39669960908945406 -0.11239767733725314 -0.39807196849909238 -0.34086963467819831 -0.15201262281486497 -0.30853347824975169 -0.25188611501465535 -0.29051347394467136 -0.3664532710875234 -0.069198139248371343 -0.33975472080513885 -0.28798671837734224 -0.027070615991959555 -0.065393274919855068 -0.011374206238496798 -0.15280362506675782 -0.36705867300432743 -0.16060072204430223 -0.33667361785272842 
-0.22818603582264677 -0.086652850695610906 -0.18106028630230783 -0.46791331840521538 -0.30275557699880867 -0.24224121249915598 -0.29953637324192056 -0.47014565530787755 -0.098659072071087345 -0.31365192680834403 -0.43210164278218194 -0.43446664684719688 -0.14596611041423718 -0.29657530489300404 -0.47124636123517583 -0.18635652381778864 -0.14354162062465164 -0.45532669746321125 -0.04490263127350394 -0.46965464040839983 -0.28184066047237938 0.0071227972972228073 -0.42873855830939395 -0.33949645130044753 -0.17551150105036517 -0.45859005941226405 -0.44750551577057035 -0.29295971384023473 -0.13362820419581986 -0.040765984082809292 -0.057611496582395921 -0.095991919813491672 -0.22950999383553974 -0.44521459538635721 -0.24776529744382092 -0.17759202395146431 
0.21160446273711234 -0.19283503503072494 -0.15855341433516645 -0.16928073888139783 -0.15492554741640296 0.012496760046018521 -0.12877049870080684 -0.16486810636024424 -0.17698365830055779 -0.046881669761955881 -0.14691672520686569 -0.19033046910553958 -0.04480820746500834 -0.082051049425729355 -0.1542569618187882 -0.072744054753428489 -0.17504937775073587 -0.18391328587726716 -0.064976917849631874 -0.20189040757467827 0.12280579747399123 -0.16159697967889924 -0.18765882586553231 -0.15182389469183835 0.24254858150470637 -0.17434574300371761 -0.020786612517853034 -0.11455043721096679 0.25067127206235279 -0.16417366574245135 0.033439299770546348 -0.070169133644661208 -0.16796125316026306 -0.19900406019817954 -0.18493290790717568 -0.11148205797804486 
-0.14737350512071956 -0.38707370751803577 -0.18163495747778899 -0.41467810861053739 -0.29592802536687135 -0.0033024427833033792 -0.41328301179065335 -0.116045961736401 -0.29918348676741285 -0.39985736551377832 -0.24696491775945745 -0.022309220590324079 -0.22230000257473248 -0.40853604348038963 -0.21617286305042352 -0.03016148364795462 -0.16505081585401121 -0.13779024008967361 -0.26999853226595677 -0.28600101737567202 -0.15765518285711244 -0.2967506593279533 -0.047624557946301854 -0.11159805278244311 -0.20297405352916104 -0.058481190373697312 -0.37480998909390689 -0.050763497509987397 -0.33735299659744544 -0.41721488730373973 -0.44793402472454652 -0.39383384633675661 -0.1850731467646238 -0.093845685010810295 -0.44441391005306968 -0.40680113565356929 
-0.15868873027706995 -0.14764800384709154 -0.19817456005581299 0.11462001198227827 -0.17584233853925307 -0.15975930006095243 -0.18488893010050941 0.12847716206121979 -0.13001659966884577 0.18977836829827949 -0.21300526960496421 -0.20062922939729008 -0.15409359333002301 -0.17849085804819231 -0.22620934543241214 0.11214628795095626 -0.054976359014961382 0.043369178852413245 -0.1658718822803571 -0.02354367143788991 -0.073184995880861498 -0.15772496465566432 -0.21162061746452568 0.11097633584363356 -0.17610335617083356 0.27832687314016297 -0.181185650968061 -0.19826550761729317 -0.20396908106947445 -0.13712558559818597 -0.18586267737309281 -0.12569741059316972 -0.1955314532203756 -0.20236305955963418 -0.13222545334426747 0.24871499324005833 
-0.22908685477857951 -0.19787720548097068 -0.0085923353111087269 0.082166067084532612 -0.3276469009838443 -0.31790294950528586 -0.3161740235230886 -0.14189153347663722 -0.079452655842454714 -0.073440853433472106 0.11904023522832112 -0.28291197596591477 -0.22025967538909683 -0.2830272609983408 0.088462823430959819 -0.27131267354171307 -0.0011394643455708443 -0.18727446251626872 -0.26418915883652966 -0.24462328936666888 -0.13844728173250942 -0.28402014001781367 -0.28431921741279587 -0.18775370592770738 -0.33518292431389468 -0.21900456941307214 -0.30401450308305306 -0.29435453461577377 -0.15541443170717029 -0.21674112160847805 0.037984330735411534 -0.27408912303774191 -0.16015806087366863 -0.30999693704943687 -0.053479314979236997 0.042607735295692492 
-0.20954897423490765 -0.24562413441457293 -0.21319843293113436 -0.03535686631180731 -0.34449738566568261 -0.3426245169219419 -0.34338713691981809 -0.31550891517480095 -0.080327121278645733 -0.31662732519136455 0.094575132986877919 -0.32192081950770318 -0.035894746641661278 -0.22095488725627729 -0.053235475122131275 -0.33019234050574597 -0.16635729546256076 -0.26466108446123121 -0.29025039285741833 0.12046523331609151 -0.068530156842528542 -0.18396894933497718 -0.31396087211776547 -0.17481352298878242 0.058061980946526662 -0.3018426056405043 -0.33008051916877346 -0.3420204548869627 -0.026977750190689778 -0.31073468298297302 -0.15467210843933754 -0.26301020751911358 -0.035868431055357607 -0.25376874757940659 0.047006767346053684 -0.13688580105684453 
-0.31694910207301541 -0.42637924387767512 -0.30193070161410407 -0.22267337630024517 -0.26333244401250355 -0.42106966855813643 -0.2506005627782556 -0.27105433922405042 -0.24469568076983547 -0.63711074507087939 -0.17496907877738418 -0.49691156865257341 -0.34502892045166439 -0.28895906572827906 -0.26033966634021127 -0.57504587577637334 -0.60726245313175742 -0.29103712331257359 -0.30736484841492112 -0.26789087546283924 -0.34764234051502663 -0.19457141157447694 -0.39113910123749029 -0.41712439879700902 -0.26857640673544286 -0.29478156654402832 -0.3992368277669357 -0.34660416233764829 -0.42682780690214783 -0.6510047381406594 -0.58679366484741502 -0.52509190075144829 -0.29721980632926037 -0.28625507384192622 -0.31721092630687969 -0.62481376466941818 
-0.35744013712056977 0.01322069754937855 -0.29922033313446483 -0.21065107954155501 -0.27530886078207684 -0.27776135047472689 -0.25143699170496225 -0.26111483358421445 -0.27288804933282435 -0.18193408923591664 -0.29960123215923501 0.078348525741575623 -0.17777819494734404 -0.21705275322841522 -0.24276454614316381 0.04652031818582951 -0.28481564041083618 -0.021355284787896014 -0.21665389444214839 -0.38268777037339702 -0.27804906723082984 -0.33741103883606327 0.072456916013151365 -0.0016554297878015982 -0.21054989763799212 -0.38982314936371976 -0.17639608031915302 -0.10159799511659547 -0.27797065898738887 -0.26571260555516107 -0.075156245922544856 -0.22421049738261686 -0.25638909683340089 0.011862373145121735 -0.34048802445380788 -0.2332407657492695 
-0.21819715209649104 -0.32393879740133869 -0.17048467329021033 -0.38185548121571788 -0.13999429413895251 -0.26135921980485688 -0.19268098092327315 -0.30069543633427659 0.061069890394494897 -0.2058079740813922 -0.38696751935687995 -0.3314984410590468 -0.27934979502530022 -0.15640250388826962 -0.34132552384970122 -0.33935277410602266 -0.27730255038786084 -0.33368442126517101 -0.11409347673625315 -0.28294865008699782 -0.27386592850498848 0.11147653285207407 -0.29207315720258803 -0.34242575612347004 0.052199303581170954 -0.3385863219493383 -0.21814806856798752 -0.01862269154895661 -0.015897822631435857 -0.056181205029106805 -0.35966960720412605 -0.16111695914139976 -0.0028181635709808948 -0.35454082875514603 -0.11686638148087621 -0.21704988735882491 
-0.36428780086696261 -0.38570111144727892 -0.16894526790496325 -0.54344254068447495 -0.17536734945756211 -0.36231646096428927 -0.11919506171149485 -0.4998392964002904 -0.11320191450011236 -0.1907628862505768 -0.52462754975245618 -0.46987718816076951 -0.24049948856864695 -0.13433144739611988 -0.4386111610498018 -0.47765641525897384 -0.20022135729183285 -0.46719914762084552 -0.09854938087579948 -0.45190329514582539 -0.39621022484704432 -0.046276700066821316 -0.43203532213297124 -0.48341186854406915 -0.096134393648700758 -0.4718799523858212 -0.23336481531625256 0.0025676628452452948 -0.13523057372392927 -0.1121727943066185 -0.48062116414157324 -0.15073105356969255 -0.17875309456866256 -0.48342598143352555 -0.16188396903059893 -0.162802449600012 
-0.091903393204295497 -0.32459393649974 -0.027819856883324091 -0.34511514252255926 0.04839965442336313 -0.36847903781786229 0.053889819950764993 -0.35880890034909441 -0.40407663511924991 0.0066524041789162601 -0.31165571326817704 -0.28304285818469804 -0.0033520748270932273 0.080479604431199003 -0.23166367696272447 -0.28053565646346407 -0.1791644195629164 -0.28964050534131774 0.027295953535060473 -0.29229014947934728 -0.26911253190004358 -0.32721340679060895 -0.25838101454686274 -0.29408723269829734 -0.32926660566564608 -0.32279029748847088 0.026289189411408065 -0.28843964495827684 -0.31093100274369573 0.046833814462505868 -0.31487128882093901 0.055185379110205567 -0.20088116462658748 -0.28014229353527853 0.070644147230183252 0.053184774979284061 
-0.47212320666336516 -0.2772760650579697 -0.24677341383619134 -0.53798750112897331 -0.20656319460729758 -0.15769855256056109 -0.079071855286485374 -0.070778475460279017 -0.47051177069710431 -0.31272253988065729 -0.47711025836298188 -0.042281937033175426 -0.37374938587309814 -0.27434780302787759 -0.045848996949164778 -0.36153254021906078 -0.34844428492401458 -0.17689159783715649 -0.092229478230783424 -0.10748229110208199 -0.16536222683193058 -0.48793899153363485 -0.23728997287591722 -0.16090314866313118 -0.52091195078153574 -0.13082718734112322 -0.26718136414515031 -0.45517915356130129 -0.47559944778807567 -0.32058436705822585 -0.1351685071045714 -0.44092530458740475 -0.077472497396268478 -0.13956235244650619 -0.42244655814494336 -0.37916815852698577 
0.14828301704949121 -0.12921508537426346 -0.12453216035762221 -0.15360320840472338 -0.11885141795424413 -0.07583472812378772 -0.13523079316591793 0.20652581034814277 -0.13236515493020987 -0.10542634996941139 -0.1464188614809469 -0.12719989682581831 -0.15110974370910951 -0.14024740635548991 -0.03153046461117448 -0.1746782416010908 -0.17365330418690292 -0.078941898548915146 -0.13575270316333779 0.27036828314714739 0.23829652388785436 -0.13206870745675398 -0.21208420582824086 -0.14986081270042728 -0.14791898212500731 0.30396294865644397 -0.1394394484434387 -0.18141079084824924 -0.12883179928217611 -0.13210863463572803 0.066413940795307672 -0.11943871923389275 -0.13383574440995263 -0.17852818266161374 -0.10232609575312462 -0.0061821107089363525 
0.19283781680212353 0.20097091309994108 -0.1663363771381664 -0.18154232518566207 -0.16876390284291012 -0.13121815119386387 -0.12249548916366812 -0.11996864728587356 -0.18611533719025322 -0.15489500602138045 -0.18457482663659505 -0.18866123896777409 -0.087692105482811394 -0.14910699071131656 -0.1724120923070144 -0.22373942010907133 0.17923441592435374 -0.19137511290417741 -0.12302050368614482 -0.13821370067176211 -0.0809200399519346 -0.19457857708492374 -0.19427581979473094 -0.1929038378099219 -0.16046158395791355 -0.0947008793903069 -0.21769966843145686 -0.13682911576344378 0.045848894548836318 -0.078908004272352616 0.21726339118742435 -0.14818093625420978 -0.16326039242144538 -0.18828298910913474 -0.20329948301222844 0.17965498559899903 
-0.054621934624490429 0.10240800152969441 -0.071014710193698746 -0.23129016727049723 -0.15904700160391122 -0.26035105075359899 -0.13934163189902105 -0.2550923278005191 -0.25840846431802295 -0.06692279815278239 -0.2225111273099768 -0.2607953510597491 -0.26453933188847478 -0.12684539350090049 -0.25677586092900856 0.11555522376319392 0.11258492654290016 -0.23303896238774552 -0.074648252146140126 -0.22751581503211624 -0.095514959518347389 -0.24662498528111818 -0.089299113013154865 -0.17141934453771876 -0.15561086410458394 -0.27478381942000452 0.058133393649468679 -0.26143316779727999 0.056812376986249066 -0.18588786886213593 0.037786224946232926 -0.023818078147815586 -0.21918460598783784 -0.25714437316570316 -0.27607868431554483 -0.083404079356769911 
-0.45354225552528543 -0.0089237786929906963 -0.23441448945867024 -0.24477289862385182 -0.29378151247786222 -0.3723173932899333 -0.23455718270330519 -0.34217788577233954 -0.38212018958438598 -0.1746892704259517 -0.3301570363756246 0.044540622272284995 -0.27577444026138082 -0.21854544025240541 -0.28916109450120508 0.020237503836092425 -0.14421643924554567 -0.053923682383277716 -0.21628971294242175 -0.4239098146750534 -0.22603759640819665 -0.38231963392454238 0.038336518041490839 -0.039851455910174992 -0.25622279062107473 -0.42717287475611598 -0.082272042852395019 -0.20623499706276752 -0.20832072057891599 -0.32343038411135855 -0.061296863789330969 -0.1768125318231008 -0.32054153646402084 -0.019184721915900906 -0.39109823448286973 -0.25013738851410133 
-0.094698572224248365 -0.27917106440005529 -0.3753090602997296 -0.27630888037851747 -0.36513165806999226 -0.078752178273987131 -0.26897971586073643 -0.04291381114156062 -0.29878411784569264 -0.29780406421946687 -0.27199082870234426 0.0058379459408978689 -0.30139767283612251 -0.28852254972829799 -0.33994427083779111 -0.0063792048136539752 -0.12253428175156798 -0.1763032680759567 -0.30232566873098676 -0.13598027861875786 -0.13053368373390611 -0.34503827645213564 -0.017624994327016343 -0.080016678106667669 -0.18542310798796305 -0.23173628909094299 -0.30069696021983655 -0.015407922717917445 -0.3735073528282627 -0.35593029994169323 -0.25924178414311688 -0.32304117371516805 -0.34900397761615554 -0.063468088115670632 -0.39134581409409702 -0.25179808022829969 
-0.032459740419548813 0.06989551177553209 -0.19594781554356125 -0.3100626849520412 -0.22096105934884402 0.12175963482572803 -0.25950453161235509 -0.15811049622000301 -0.10448248317018043 -0.19325117468961378 -0.3100669761703469 -0.33061907218773484 -0.24501274992401595 -0.2475746541770612 -0.29967720652475244 -0.26802207689333979 -0.051386464922357135 -0.36635040406842845 -0.19932183844919971 -0.061122230914581674 -0.060183872685206856 -0.024024100147740805 -0.15979148526296336 -0.26880621672962718 -0.10763385705287187 -0.012178351804896279 -0.24875154688488776 -0.18789664516859583 -0.12237584361638802 -0.1511995288016271 -0.038547092660587486 -0.21696037823655417 -0.17479238881640305 -0.3317462311883963 -0.23032104267714454 -0.23522741021736912 
-0.21525611195613317 -0.14210652730868523 -0.23618843660583452 -0.53200719387868511 -0.1706926774471412 -0.1403898617128887 -0.30113175876162857 -0.51270202235065876 -0.082966754353056643 -0.31556765435648998 -0.51957137904404715 -0.47871919386144762 -0.23778383435282749 -0.2805263352670887 -0.42465294242705171 -0.28346288479546511 -0.19052391719638018 -0.50050156679194313 -0.28170349274693834 -0.44947134889644957 -0.42921261054671528 -0.053628899709426588 -0.46130612392058018 -0.35928111875652552 -0.12060389858649539 -0.30882500275890878 -0.29461162762173487 -0.19168608463758102 -0.12742487301669145 -0.12890653430960525 -0.099959035528991241 -0.20746691366358136 -0.17496593661434529 -0.48616260160158087 -0.21788097569863688 -0.22400981491096686 
0.0029525645887784205 -0.37505568682805368 -0.11027236904651906 -0.36038312834074665 0.032810451207672599 -0.070132833443828674 -0.20252534036872047 -0.37535460976312934 -0.41788614956292047 -0.0020909422029160699 -0.32942301248839223 -0.32085380543009628 -0.022549863301874553 0.062944393032207197 -0.25580873157839784 -0.17816058410073746 -0.2834099738973761 -0.33630763848770351 -0.12552844699702886 -0.33870214419333045 -0.31373334699438798 -0.36180924310790885 -0.30080725802526093 -0.28249963371223097 -0.31972718541163714 -0.28545878019865562 0.0085480009281639294 -0.34627552506949982 -0.21500935635938648 0.011923580320050592 0.042982800114322227 0.051135605341373069 -0.18831063476039428 -0.30924917183518386 -0.014902718665578144 -0.11264312795922116 
-0.30991847870553224 -0.59750140206875868 -0.32877556542599762 -0.6337273663520675 -0.20839612349857478 -0.25570910690047466 -0.19991593449216075 -0.18207291104621617 -0.62999587793657963 -0.24276131327020303 -0.57461961855712906 -0.14691734848005256 -0.27715364523279551 -0.20598502032335508 -0.15420474922922051 -0.40741885465760552 -0.29139177235154051 -0.28211568438377477 -0.21023733835656505 -0.20948666540804789 -0.27143378148377562 -0.59470557573914584 -0.32581707510377844 -0.2498454727344078 -0.60499996412587154 -0.2406418939512146 -0.26848911039167955 -0.32505719147538825 -0.59117328784143652 -0.14591192376836096 -0.34539272413685462 -0.34886547563913783 -0.17564949861393478 -0.20667924325601264 -0.44269096315207401 -0.48683849108874405 
-0.026011292410250041 -0.25196622118675532 0.058693237075109816 -0.15405833441170166 -0.27774033386100683 -0.2294198691795083 -0.27894514392393427 0.15387905017449999 -0.20157322023929236 0.076437520457618258 -0.35521842339549003 -0.26933747197093993 0.0090356946767197639 -0.25113153879564543 0.020697283961033739 -0.25635348389593005 -0.29188549231046557 0.027549609390569108 -0.24651435219034232 0.090645031737351847 0.034683195011914345 -0.24152295281965119 -0.30947677439786159 -0.20345413927583611 -0.28463204495954952 0.17272064459738201 -0.29290705431666475 -0.27816347617715642 -0.29084534028457543 -0.19567934830668604 -0.24507499416774167 0.022744494377851466 -0.067941276549503313 -0.28333028423466416 0.12335029673375422 -0.088255177267176979 
-0.19071444714593508 -0.10720256663805282 -0.076118038863155851 0.03153106214367031 -0.37526707006090027 -0.36590114040093263 -0.35913923058769059 -0.26108929389632313 -0.0083244680117730806 -0.066034606125475986 0.062852414896135786 -0.31842380060464009 -0.02232982043968585 -0.3075953212736407 0.038059375783980304 -0.34657667113052221 -0.064199395922504884 -0.22684075356878561 -0.29497974721641279 -0.18674019643892956 -0.13866162301492527 -0.32820191856568237 -0.27661996106428838 -0.31141146475755171 -0.36864966938354371 -0.26982040078804143 -0.3630517696311148 -0.33615066526615206 -0.10032819769864203 -0.27253692799674134 -0.083791736548774476 -0.29135549977811986 -0.11231362037307556 -0.34864674175545618 -0.017519076668210214 -0.015737023978389757 
-0.18559328865872218 -0.058863687720172995 -0.19272450849735059 0.14748523273757952 -0.28916805312288424 -0.30933048201404778 -0.29114780511026883 -0.3298235517656174 -0.091662556653630933 -0.20663859754110822 0.065629697491166178 -0.3124669713118044 -0.20507102027670604 -0.25567326124857387 -0.12379433563298958 0.026800171213537068 -0.17118722061485944 -0.2350205871708502 -0.24414960068032604 -0.1077440592754362 -0.10999526849866596 -0.25961219519323625 -0.21248008834275225 -0.011017943821726153 0.096827330072398132 -0.30925776817534895 -0.23286699393167157 -0.30663660821941474 0.082582872192515672 -0.23920507271104222 -0.21130228807824156 -0.27697110324690555 -0.18016635316659863 -0.14158444854085778 -0.18700880523315036 -0.082294872950909342 
-0.19497539657650956 -0.23878730583466562 -0.41420576131999232 -0.034550885398743104 -0.39304257164274164 -0.32242511110369687 -0.28717527244532992 -0.16885065225150092 -0.31552701157692548 -0.37225535958976619 -0.29138132796718647 -0.0065939738065173914 -0.35117937096009266 -0.30782663373543834 -0.33034071654675667 -0.024080201416576207 -0.2179305331519622 -0.13778683803220995 -0.33149300023506117 -0.12973251291002696 -0.14364150264575906 -0.35948732032169628 -0.027371345399747261 -0.092081067307050221 -0.078170461566458974 -0.40064929012131889 -0.3159353103272442 -0.02354266434204828 -0.0016921978097063719 -0.38474761422766107 -0.34868910315520862 -0.35959490805443983 -0.37688595647116163 -0.10131823674455402 -0.40454715948999131 -0.31009319547365505 
-0.20977922047424197 -0.054136118412315387 -0.32193309676997034 -0.31675259248703874 -0.041049231717156534 -0.1214396573717617 -0.036437929862171314 -0.28521548551887577 -0.41926214961110647 -0.42040342297408251 -0.24205804187354071 -0.39645369522346013 -0.22827693249638001 -0.055321912883298442 -0.39456847928180422 -0.28723237571265092 -0.31289484760596881 -0.37704102680468138 -0.31979828830326318 -0.36915763967459458 -0.4880574247349137 0.011400250588257776 -0.31438666641775886 -0.20438513292590973 -0.40108467412979371 -0.21230026271762378 -0.14534660551292353 -0.31384133914396967 -0.55826195709403559 -0.50540650432637535 -0.41626258636141972 -0.49064025490133517 -0.43743139824592231 -0.35062655969917506 -0.50863410839286427 -0.30706011462661914 
-0.10818992960530054 0.20072994901247063 -0.11804966038353824 -0.056372106719236023 -0.19289278049328804 -0.058347309671368676 -0.097876733855684114 -0.15789159740282013 -0.15717270441153086 -0.022481180906724206 -0.11581639855635642 -0.17115823129747409 -0.17227518869887198 -0.15564584127346015 -0.11967073388848583 -0.042650986712474026 0.20056059489600148 -0.17604521803061876 -0.04979331815605631 -0.093813868065805744 -0.14524214988736942 -0.15565984030919555 -0.1337324703328989 0.096134652522326045 -0.16701218959739153 -0.10538277761764465 -0.10409426496273247 -0.17096196767971711 -0.11301641818737487 -0.15851250916070336 -0.038518479421173091 -0.13141142124538022 -0.16769094000124612 -0.17007335551483316 -0.15035488167231817 0.23845567402438753 
-0.17274055301421101 0.2913082412245851 -0.09955307337166848 -0.038077790291007718 -0.27726906391459255 -0.13109863530010968 -0.27806934510311276 -0.18501882669367195 -0.23454608420907347 -0.16732040877111509 -0.12584431259742515 -0.23256651230815198 -0.21990693315534338 -0.26845580253586837 -0.11948075939675612 -0.064330550683430937 0.097434447445837277 -0.25225801915043888 -0.011590353226518418 -0.16455101271203015 -0.13818398717539368 -0.2156802830196419 -0.24246681533613434 -0.12251324922999152 -0.16415003017203486 -0.26143838072317371 -0.28311200863440794 -0.25905072157029319 0.1557677404806308 -0.22204131679871242 0.11538197738080598 -0.20959904362521073 -0.25129709282364737 -0.23724998042963058 -0.20398245085232586 0.13653028773964862 
0.05877507208237602 -0.18459587648865386 -0.16172264493782385 -0.17425438428501794 -0.15997006950995615 -0.016992718401157018 -0.16713100287673902 -0.17299157280206903 -0.157293041553795 -0.1490613969701805 -0.1484940855628134 -0.098801529611428338 -0.13295524049574037 -0.14304003177930433 -0.099701491721859908 -0.0068850197168546096 -0.17935125050406128 -0.19152299522098459 -0.084412394573518679 -0.052969396257379238 0.17835581643518486 -0.13760029206521335 -0.20699517978829371 -0.096539959687025556 0.23342992413879848 -0.17019318905416037 -0.15517676891961119 -0.19661897076641732 0.32145316482592712 -0.15909432567118803 -0.046771618585437172 -0.14209964428650076 -0.14366400325546813 -0.041547998635732664 -0.13827146407239047 0.016506566177730889 
-0.11197031059439294 -0.5185371248282904 -0.24869167676329818 -0.40062491458274302 -0.27868316814085303 -0.093554740130697769 -0.43995372878040928 -0.28753043777958093 -0.3657778448404766 -0.4109180297164331 -0.28845007852233701 -0.074040801396837913 -0.018145030401424872 -0.46034140743665819 -0.30801667757491591 -0.15717433066682571 -0.29531919032336112 -0.1280205584427343 -0.18691090509753819 -0.45269585835641923 -0.064082034113743969 -0.080170333558151813 -0.094510673804698644 -0.18988522863311158 -0.098436800767629853 -0.15366649496584323 -0.48979498516292519 -0.046999914466161703 -0.40698435667857019 -0.39610795131488841 -0.2869863790168749 -0.38285460364029861 -0.23816508099658776 -0.12250105017342514 -0.35351663817588419 -0.37749293296327735 
-0.14223385639584898 -0.21290621003731383 -0.22839587631170397 0.0096731279968373506 -0.20609466905390994 -0.2143682173250496 -0.20753609946616494 0.063175867361882299 -0.11436279056140648 0.20538257743447061 -0.24169138668253054 -0.22621515719651752 -0.15243229259074353 -0.18471028043222479 -0.23450049118429162 -0.060795303334413443 0.00561573555239127 -0.022840960895517185 -0.18741466724287317 -0.094637188746404463 -0.10834940890500283 -0.17340128056810097 0.11732776204420411 -0.097266742080222984 -0.21287199467265647 0.17204906911727899 -0.21038184081520639 -0.22804069285149375 -0.21587128143913722 0.085180499653290484 -0.23773863017958094 0.012065186106375952 -0.2555079263236204 -0.22962774170475228 -0.14600164759987935 0.055269313931490052 
-0.27107535956468909 -0.32880613111658352 -0.0041912511390611315 -0.07226948430324566 -0.33977551951803098 -0.32548809833418213 -0.34144623993301837 -0.018757767696379903 -0.039484152838716098 -0.018915360145149419 0.023318829026855191 -0.29220418564418077 -0.18460508406072748 -0.28559135302015354 0.0243496056378492 -0.27274057019966286 -0.052698558241524272 -0.02810658252649199 -0.28154231089137111 -0.16651865262216503 -0.24399930327565333 -0.28689292659466414 -0.24013431407828686 -0.21027673031936031 -0.32969742367197674 -0.24858072022783118 -0.3485772174630658 -0.30008396694531125 -0.30971023593623859 0.0017767931926496866 -0.30780233150165465 -0.051974092051803575 -0.013739219974460636 -0.32360644477082207 -0.013524739805121904 -0.16119232823202956 
-0.10072053248767555 -0.32768170745119873 -0.068915403763239125 -0.068269989003526793 -0.34465896475072211 -0.3270455782684436 -0.24763699613088563 -0.12496413543566649 -0.0055073544654215476 -0.28250677559812548 -0.098837492744082461 -0.30849864217571121 -0.10993308721823686 -0.2220643741001106 -0.0019425919909215033 -0.31204824612407156 -0.28063803985602326 -0.15518889613360631 -0.28947640678455461 -0.043895964659418363 -0.28941821246137306 -0.23335054156985241 -0.23132466863250342 -0.21391158316802597 -0.05912132164583267 -0.29720263994637108 -0.34526520213790235 -0.3243216334427903 -0.2425146474504874 -0.031826818014352186 -0.15974971921145936 -0.008736430499881492 0.035106928491283926 -0.20010297710524946 0.020404942177436346 -0.31023940342669432 
-0.21211690845973094 -0.11941513729129796 -0.39934230349163691 -0.31392937604322313 -0.11925403679165887 -0.18811522496292873 -0.11214257883192402 -0.33471111137563303 -0.34770036669331045 -0.62629833899444454 -0.30666810268961259 -0.4703670417922981 -0.28397614658914949 -0.10025068705344309 -0.36523788830126419 -0.40781150025944374 -0.6053133318107341 -0.40082400076960084 -0.41036101656710772 -0.33595906674819404 -0.56054647853064654 -0.063543695055688076 -0.36354339491199655 -0.37076744349449886 -0.32224493289045719 -0.29063071518738387 -0.27384606853235788 -0.39574913584789112 -0.57790025739566531 -0.50316837162311179 -0.40293369484438252 -0.37710326784016551 -0.29108638229669026 -0.35446578128657541 -0.32098934658110639 -0.6003673269336085 
-0.49845361810675409 -0.13030017052801837 -0.34386339334110577 -0.27739787768844865 -0.095932129290476273 -0.16634020380386769 -0.079299962655635048 -0.38325102981454223 -0.41845408186602107 -0.27693180605402168 -0.28084499691109593 -0.39745098802827394 -0.25637226605900376 -0.072181497361101951 -0.27279418091710189 -0.22335666897819911 -0.35647557960778126 -0.34832666895945485 -0.60651141454876534 -0.27096495178636948 -0.53691357567958353 -0.045251508908587951 -0.49595303173028199 -0.20758554156278883 -0.54799127560991423 -0.27258544489163727 -0.21373577379287628 -0.26745229443010432 -0.45110070451313522 -0.54308557585472572 -0.24835208669034201 -0.4936996590782447 -0.51810130681666366 -0.49402369390175099 -0.30662080517706614 -0.2272269485175531 
-0.27633577295567174 -0.30523664899169994 0.0050270547501642332 0.020927679183287869 -0.072179851207178999 -0.30674231075105063 -0.23794295280244449 0.01785432611594423 0.029532563759329205 0.038815029958204184 -0.026583546426262539 -0.26044322832660011 -0.30574274308983407 -0.26953949065484056 -0.0010194590828458312 -0.15039661538982382 0.016430940003183257 -0.20624215032007895 -0.24761320902169934 -0.11031474998334588 -0.26022908965489516 -0.25366637379238671 -0.24047628321030232 -0.11311215661042912 -0.27502205799693014 -0.068834924939978781 -0.31174576459617659 -0.20223944573941777 -0.30123607882841158 -0.32212670060869536 -0.26461731168332053 -0.21585945388752084 0.024603530189762558 -0.28701811728754373 0.020947777278502496 0.10838632559893321 
-0.28813084833946123 -0.34077079388012871 -0.0048400409174963431 -0.010062844667104066 -0.35693233361081145 -0.3235101573405933 -0.33094911246009895 -0.02451303547831583 -0.032620095479780571 -0.11642796950949756 0.015380340262833124 -0.26498685761312651 -0.11121025182593593 -0.28716341944205365 0.027631603278002348 -0.25992215873022134 -0.041408999448108295 -0.12012762058243723 -0.26539701581203312 -0.10652003783892429 -0.28499610063755448 -0.2767208180884837 -0.26122794287947504 -0.30700077069577159 -0.16199126101399877 -0.28782120316040294 -0.34285137590763831 -0.29675286750188079 -0.17974560467997228 -0.3491877548447605 -0.27420807341011488 -0.083235178266851256 0.012853384311873885 -0.26954216872498482 -0.0055910922609800975 0.045096115752220563 
0.012803509452375702 -0.20834265521015516 -0.17973184082470456 -0.22265679567405106 -0.19455391106827055 -0.21342067142128557 -0.20252611711497487 -0.18448188795621712 -0.1441202166943589 -0.22564185387596639 -0.21433178701049285 -0.037497799714504475 -0.10623212278530851 -0.1683684231618027 0.0097165092937453526 -0.086850070000776519 -0.22710632948291509 -0.11953156123408874 -0.18248067871936463 0.21153053217492734 -0.161870312449096 -0.16751788492838429 -0.2298662245122805 -0.16613583305792826 0.17335761655387308 -0.21174667039219125 -0.21134462668820841 -0.23720693319155794 0.21426643593822936 -0.037441309859287605 -0.20296038116616449 -0.054889070296194574 -0.22417219132400271 0.17605159462678105 -0.073747411992009793 -0.0029313264868631892 
-0.18631517869767822 -0.41996479133217574 -0.25779506429056226 -0.38088096107593117 -0.43583343675446606 -0.45058661575950465 -0.43304217055603506 -0.53216368893699395 -0.415773220380317 -0.30707776083361465 -0.2854928976902128 -0.10898708518790387 -0.082287556919088567 -0.51326557183965438 -0.37079743907482426 -0.2169211082643463 -0.51899672009991826 -0.19145039545575226 -0.33930012063436149 -0.20695512420090573 -0.12566512546766542 -0.0055560861956301336 -0.17805844609337437 -0.17053289779926495 -0.10943401056847761 -0.21666872596675055 -0.27212545291156165 -0.1112196565272187 -0.46551163351379293 -0.25819940945389391 -0.14097498573536832 -0.42754129126347434 -0.38919520955401954 -0.16654247414897552 -0.20020991953979755 -0.41389412841360229 
-0.15804511552388731 -0.10012495324013887 -0.2019327600237083 -0.16010784489023175 -0.172338675764693 -0.19055217247739414 -0.18182131687415903 -0.17611247734379817 -0.15374325225861252 0.14179060603534982 -0.18290825000765998 -0.049047318968819885 -0.17030718756625657 -0.16009535221039023 -0.16068067120204693 0.032923944696793057 0.17216334966242069 -0.19359588775628547 -0.16786814850982568 -0.22899407913583453 0.1703095358701395 -0.15906679680612906 0.26834495687928667 -0.24209529877626859 -0.20201989949818785 0.085891635850962184 -0.080690094601390983 -0.23855370841924145 -0.17377891751241711 0.14361594858376497 -0.23252144289698981 -0.0074689391326698317 -0.21927446297560083 -0.23542071768172421 -0.15019882605062265 -0.19647069218833355 
-0.11783345118007511 -0.023294960897491123 -0.082074045506282042 -0.17981917298690603 -0.19840747006155982 -0.20918371701742902 -0.22034514374112671 -0.044663528170337377 -0.0942246635951349 -0.061619700393958775 -0.030741994127138097 -0.17551508174005731 -0.22482388501696465 -0.19053633896565517 -0.034363936614880609 -0.15420074082033677 0.068641607341263303 -0.18273457826710615 -0.18950726473713225 -0.18816024789702751 -0.17220041142899628 -0.1954112743170931 -0.093206004232547018 -0.20398822978705136 -0.21711192386960254 -0.046625310130608319 -0.22554974492509552 -0.211399421669062 -0.18661711737276959 0.13081922291949444 -0.2180146196508071 0.11902145050373378 0.010040922565681546 -0.17897664875602687 -0.095650964104908726 -0.25668574615936013 
-0.021950102932806661 -0.019719298794159137 -0.17897337748214542 -0.1680036243910587 -0.1953734986078767 -0.13988219646173039 0.040734865820880387 -0.12828749723330271 -0.085304279250503434 -0.19992486410138746 -0.12810147510532985 -0.19504956433291468 -0.22866628277980935 -0.18808248059368973 -0.10475965003034751 -0.18967073700126102 -0.080666459934603654 -0.18389362193377776 -0.18794752189794103 -0.09035240717428504 -0.19302128318898798 -0.18761799201266657 -0.12009379733573504 -0.18658139065416424 -0.17772914140901516 -0.14554128227469842 -0.10613844533793219 -0.19276342262446153 0.010131464887575692 0.16183201915076473 0.015121879417936596 0.14816967882568718 -0.040746287232624884 -0.091451594033884337 -0.12939945620619617 -0.23428359178788635 
-0.39946858013539599 -0.12219125456418346 -0.37529800438970135 -0.29470591739873248 -0.088657646777916058 -0.15913871958928461 -0.071183159823310888 -0.4033880224179332 -0.4418768599582405 -0.53104536521616252 -0.30900603902625856 -0.39966465643155358 -0.23903265686431255 -0.065156294225807321 -0.28132571201521084 -0.23420466569012111 -0.56643619290314229 -0.36621226516327676 -0.60265273209831627 -0.28914202315153598 -0.53812272210333223 -0.041420470324132985 -0.46283811712781769 -0.19849381116392034 -0.52574971456330011 -0.25242258037661275 -0.13638822636736223 -0.29939704643768339 -0.30067323290838993 -0.40563431977129322 -0.20359040380761503 -0.31775060797994809 -0.5086018809133116 -0.43689165166187832 -0.45182372999248566 -0.34750334432674101 
-0.073036510104439692 -0.35505629130620231 -0.37415484041317576 -0.38309763308076422 -0.34893129225101016 -0.14130932907270141 -0.31177470280897329 -0.086967281742983002 -0.13265530090267466 -0.20112109637919059 -0.27366268106478336 -0.03855216226719204 -0.37857353639206742 -0.33039823951842623 -0.41501157797084631 -0.13173982788195807 -0.15303767416037062 -0.18937075608391143 -0.33263925531690092 -0.11112208142083672 -0.046598865399265832 -0.29599476782042194 -0.06660501972327583 -0.094284645177390852 -0.15225328916892028 -0.11981260213044202 -0.3540058938538172 0.016230542140625148 -0.40008739794951226 -0.38958096938474385 -0.056936026663866338 -0.35135806158486921 -0.36642787587474751 -0.083990772645880354 -0.34800206842701875 -0.26912448447038512 
-0.093443640778584858 0.21148345023788809 -0.16427669422133601 -0.16264222866345673 -0.13771045100329643 0.1613970598206812 -0.24103049432928567 -0.046791046340287738 -0.18368810875489333 0.088881274431442697 -0.14915889308457786 -0.2467950485223489 -0.20439954842043348 -0.21816281311771094 -0.19709224066987363 -0.18495154129718941 0.041978110105996315 -0.19875468395139531 -0.20425194184870041 0.070326686648552336 0.23895352474852122 -0.2148730033256297 -0.1640376252969408 -0.091534260282269603 -0.22125169510441761 0.087499516441216646 -0.22147031966804165 -0.23745094398029398 -0.15871527314090678 -0.21536707379170708 -0.070107286100264607 -0.20020260570411794 -0.19421625902052286 -0.24431138980760755 -0.17294365839987777 0.0022878760331426448 
-0.17817429421382527 0.26401859777757708 -0.10852375255389077 -0.056374401853268967 0.067894179667022339 0.10536178755289656 -0.33430525976049796 -0.23033963600429266 -0.20828764302226555 -0.1228991171754016 -0.09511591869284991 -0.24797879392839742 -0.13186635181060188 -0.27177730062466388 -0.11458413823178575 -0.088009054306864384 0.034378110087180488 -0.13152324200786117 -0.21193432915474328 -0.19870282815015816 -0.25614068711101878 -0.26626978669789697 -0.24583559661463808 -0.085924420251876868 -0.25060803002401894 -0.19911951617419246 -0.1651000173777761 -0.27405903691960398 0.061467689024721391 -0.24926926888125525 0.01171559999049317 -0.25851439982599594 -0.23170654085401579 -0.25062808864613539 -0.22047171675759453 0.11919026593500283 
-0.11872874958527148 -0.27659715504008991 -0.19934119315268267 -0.21759254713543616 0.13645533350364075 -0.0040971134258333151 -0.31409950641455786 -0.24255051901754993 -0.23218213471221011 -0.18732499161110217 -0.20308186504689424 -0.16414743027988754 -0.030090897296113979 -0.21297882454221989 -0.18004096026738423 0.05398212534525406 -0.2027256002743234 -0.18347455733929632 0.029917907436072477 -0.20164066613988496 -0.2250495060881704 -0.21788525782801052 -0.23124380988299192 -0.074176121791879157 -0.10207872660902928 -0.12675516438879364 0.18058900927919425 -0.26182661876783819 0.24420320814066962 -0.2038152640136853 0.036032462403017496 -0.13097239383241921 -0.17900977638109997 -0.15045411469541903 -0.24447789092389569 0.085434690238537697 
-0.24818283152248441 -0.63994563909630287 -0.35605114436367147 -0.5473438100951008 -0.083929369661007142 -0.19317416343577726 -0.10449232321409088 -0.26638708547341455 -0.54811906967054402 -0.50585427511534176 -0.50218237915628738 -0.18543396338701734 -0.27783024984484667 -0.095507525593840473 -0.44541887452750306 -0.32315037394043988 -0.26020885803649191 -0.29941281235828099 0.14466926126326854 -0.26836502635402176 -0.47998577078572735 -0.60908940633076658 -0.31897555648112313 -0.24041945000683751 -0.5011880304205647 -0.29635013293771345 -0.19754633377890399 -0.3723759791207833 -0.5880154116300742 -0.22231086159935032 -0.21163685756490319 -0.40796476706852236 -0.38630064351367999 -0.24380908488450825 -0.57593747008898599 -0.47541825266265059 
0.037943984479082503 -0.28209282893526522 0.085186457639725877 -0.24443626427190129 -0.33070356365727782 -0.31042974047177369 -0.31890441259479035 0.010735146540204805 -0.12689856131184746 0.04307734254403256 -0.37461526405907125 -0.27795603823750342 0.011467251253004011 -0.27486211508787051 0.0024607097113448508 -0.28255938410705717 -0.019123290041240318 -0.0063836582364321225 -0.2783092277443493 -0.049711962410890452 -0.20770225220098482 -0.262146239565408 -0.23513938115981514 -0.16302780880414156 -0.30495649344470843 0.019752262668629367 0.034901325296046733 -0.29798165486459216 -0.3115810973142073 -0.01053934877239702 -0.30966820982989191 0.02026401808007559 -0.031296612995815216 -0.28847644478990958 0.07125541423056253 -0.28530042300978642 
-0.19113015225700722 -0.35240935074023505 -0.030297222162256568 -0.011128286200304253 -0.38454077389054142 -0.35348015554386986 -0.36131485689539694 -0.064894839313879016 -0.062558006424491594 -0.039091933443710682 -0.0015389142179695005 -0.315750211326422 -0.014613976629419443 -0.29117932720874684 0.002510440385633618 -0.32259272366132824 -0.23120433823293032 -0.082661972212363724 -0.27416666877944468 -0.12685758747647805 -0.24601517553725233 -0.30995816319972941 -0.24026711274117613 -0.1863628069465221 -0.3032922252335673 -0.33363132150705427 -0.27483028515563002 -0.32497004096384979 -0.27866687030938814 -0.024568142233126998 -0.33512850537446154 -0.073230705942571167 -0.035991257247410091 -0.35252003071713711 -0.041438645577947297 -0.21094794731607849 
-0.18433596636069902 -0.33558450072910606 -0.16590323628131343 0.02965850550037934 -0.34048039626618132 -0.33828075806890356 -0.33093327071346246 -0.1857292536343588 -0.013544970486345212 -0.296340053930505 -0.0037950757345715496 -0.36429265613810924 -0.2254865903414511 -0.28021679281637374 -0.057753889859983393 -0.16757809376782493 -0.35332469457529825 -0.19204477380304763 -0.28807045967786765 -0.20777249447524279 -0.25589981885605356 -0.29260655096215415 -0.039753897653810273 -0.081652792203912666 0.03633025970898747 -0.3559707052869342 -0.31634352804460869 -0.34832563393081217 0.11469893176893341 -0.063069765764419 -0.33690114796079373 -0.21658553878962833 -0.064064401088634218 -0.044741250254623111 -0.11726991340371223 -0.34162549871124193 
-0.08506308259363568 -0.40522999473368332 -0.4222521896319521 -0.18506965835836522 -0.36342459294259827 -0.3323582962944997 -0.32733038386402563 -0.14335285952455917 -0.095431710952996879 -0.40072438671081517 -0.30097215276134759 -0.053379854377406777 -0.40224579338386107 -0.33881268296768929 -0.39048885722844723 -0.14113284630748324 -0.30271988279550788 -0.1845612881583055 -0.3500763713639462 -0.13554019737169268 -0.087435496246890371 -0.30973158455299421 -0.078685873537679432 -0.082272320390219214 -0.076260254817353365 -0.30164092197744452 -0.36450427458099494 0.0028765607528733698 -0.059638675037518241 -0.35532376242197178 -0.14512266954985667 -0.36261625116561569 -0.37638126485714463 -0.12344302578780612 -0.35161730653228096 -0.35181903232673656 
-0.11839118454607922 -0.42403512581143377 -0.41611058954398711 -0.45100569762493975 -0.37998990094446844 -0.40478345316994652 -0.32131156093219465 -0.40287906405360535 -0.026905186850990335 -0.0048973977894417701 -0.27887747327602769 -0.049001796226905904 -0.40585889050490931 -0.39522645600940193 -0.45425688855993762 -0.13540071161091219 -0.26621249976808847 -0.11499484935677927 -0.4148448571538374 -0.13522439878760431 -0.077464011030788524 -0.30297156796466462 -0.092998783311609351 -0.25483793322051601 -0.23219757684000195 -0.14179909231672624 -0.37068901542994864 -0.012560238470292362 -0.38351530674343931 -0.31947328526772428 -0.05835560530152447 -0.15470220429661502 -0.28574341485380955 -0.16022907685579313 -0.25928542874340843 -0.34162609300866603 
-0.15537494263548185 -0.34362499326242746 -0.13733756161758318 -0.10850534355478633 -0.33867940863397411 -0.32718433982048645 -0.34081353229877942 -0.13501315928753121 -0.022626404379676991 -0.0096146893978620186 0.041389146633336489 -0.30665870738617013 -0.091801374844628567 -0.29418057234194167 -0.1063728943697015 -0.26825646754817895 -0.049954869739590076 -0.0847760772961971 -0.28753750506319065 -0.18783388122974312 -0.053715918859135785 -0.30029520255727665 -0.33818045888428122 -0.26896514418604717 -0.34431468765679374 -0.0075990812050765067 -0.27238919795904071 -0.19646631262659592 -0.29282887106986405 -0.14280927493892395 -0.30211265851894331 -0.024367411581709034 0.012413146759558152 -0.33305931964982755 -0.13787099599145228 -0.1460012208230326 
-0.36278867691943639 -0.38573334782430668 -0.071010612091433042 -0.055322609834098584 -0.34903644182818822 -0.3656298853034774 -0.38893061343914187 -0.064112992161116614 -0.093615347069096008 -0.067045954071285441 -0.024936989878655551 -0.30253044993686096 -0.041862512397211005 -0.32759945357279463 -0.011056199708689637 -0.25250154264411301 -0.10658027265301592 -0.034972336136391405 -0.24894456675977417 -0.33049198163123866 -0.32443992619188872 -0.32089582888223706 -0.30812591428961256 -0.31599229751564634 -0.27632221071306612 -0.34178212857515999 -0.36908638304448788 -0.33545161734467915 0.0044507560211131088 -0.14206795020040922 -0.33228171369121889 -0.086266935359956998 -0.05918814942979124 -0.31101610379330646 -0.076188302664606758 -0.02394078241292567 
-0.29089875771725648 -0.29233994756100046 0.15190526536827115 -0.1497765497308427 -0.2547928603049196 -0.31734001239097009 -0.30344941285631927 0.063382074398547913 -0.29798520444803495 -0.32420774699427185 -0.31204123887020124 -0.11652570825171624 -0.24128880177907527 -0.26642576414180907 -0.0037496646337354307 0.059466573563340057 -0.23972501975705271 -0.058767350447866927 0.078688278699824046 -0.030721655352624826 -0.3178716705650933 -0.23170248070986213 -0.29459125404075026 -0.16458879570789806 0.092945496870964428 -0.25187562983338785 -0.29710299010307067 -0.3029386019488079 0.16361977869368832 -0.27394696592250783 -0.2611921534540772 -0.2379205140401438 -0.31968810198265668 0.059922602276102771 0.17061393013270923 0.099102509732093044 
-0.27821389362263499 -0.62016635129192899 -0.49774801177003103 -0.12444089798244126 -0.59895579888125983 -0.18479816021803347 -0.084900306855920177 -0.35104292741601767 -0.5684611206445066 -0.41978042899077994 -0.56387192505695694 -0.18994320752553676 -0.32447139361858918 -0.093354270540118578 -0.28293767049076557 -0.29127758495273087 -0.38731686789747227 -0.24238282124174879 0.13004121097148619 -0.39319225340562014 -0.53859211851105826 -0.60929965254184915 -0.56324127841952776 -0.26347730073281789 -0.23777781072168747 -0.29432105528768182 -0.1642316174131806 -0.31470898166699923 -0.26918614631096033 -0.46482991788450934 -0.23065171213830249 -0.56089246675406257 -0.58490736499974838 -0.24945986782115548 -0.42327588466143878 -0.21549018088226785 
-0.019364342374042481 -0.18883128978228514 -0.13878335004090372 -0.20817118650281183 -0.024460800744944861 -0.030924198120555184 -0.26187935901426768 -0.17814961523840783 -0.19544131503096437 -0.089160826196343176 -0.22971085867057534 -0.041915631535967834 0.028398910737502614 -0.23715316355420618 -0.16327894533001877 -0.21351413384031548 0.10638968469992401 -0.23389119445737691 -0.039174497154415421 -0.20143718086655563 -0.21783524687207642 -0.20531514217895233 -0.12501526416690489 -0.17820090854281082 -0.2385235156214324 0.010311504811528292 0.30493991654049774 -0.24499356921785523 -0.23295610094907279 0.098009637649759451 -0.23793404274461977 0.13855387254902962 -0.1191176432006843 -0.23205234323255305 -0.17911323485308828 -0.27727164218806294 
-0.093733703949402697 -0.15780176781615188 -0.1097910564972468 -0.10316472606721072 0.014595524025622093 -0.23482601563566799 -0.29703746840867773 -0.1583561650142544 -0.093747481664151464 -0.11321241027301968 0.042484405726690745 -0.21088417405079113 -0.082446437227273586 -0.24075933447813891 -0.044134571803281092 -0.22431160953272508 -0.04439749696656764 -0.22279312106132934 -0.20895487670981491 -0.21289231883527462 -0.24381802119980836 -0.2494281101202305 -0.2226204695735155 -0.16178689193179382 -0.22746911363440131 -0.23468804796945636 0.049123374742624577 -0.25219608112014197 -0.28359620254663459 0.067975376247780245 -0.25145260845748985 0.027293413286259612 0.052257500813255253 -0.25576570333759524 -0.15852583588415209 -0.31763565577920855 
-0.16139245655359477 -0.075713119850875532 -0.20897878925792981 -0.14039539833744039 -0.12988116757207671 -0.25187497219387406 -0.23218793165584195 -0.085521709034703949 -0.16525949602707474 -0.19177910077351404 -0.13376514894494196 -0.32684295537666369 -0.19155986867944991 -0.20324700679943072 -0.16868580279895762 -0.12720958593860246 -0.22829650894649661 -0.28485040071891571 -0.22889464458348807 -0.088652439224249674 0.12240647401520149 -0.22085787500292611 0.15217957343064162 -0.26704875309753962 0.1471348576273647 -0.28282452776370359 -0.20118384849680493 -0.26865144791038076 -0.20838037105177712 0.11015732927361881 -0.26734365402420562 -0.10168502517595338 -0.11910562772385518 0.16950972106474546 -0.16215651477040155 -0.2593790436075894 
-0.087301307443913595 -0.30997703339179394 -0.36745524828939213 -0.37250191524633464 -0.32644503711695244 -0.37584808324400532 -0.2788941018401549 -0.28855789663745102 -0.022986531744107967 -0.32775862241213155 -0.26474544915487813 -0.036746996740197171 -0.32518209526831837 -0.36668735585483475 -0.40711340757333025 -0.11424558758925284 -0.37145620870258494 -0.089651843504263751 -0.39058098578701178 -0.11632877142457433 -0.052381788881203782 -0.28091589020429403 -0.07016269120556233 -0.27407773640129207 -0.036748018022313207 -0.1504739825630268 -0.3698018155439079 0.0072531615706482797 -0.31701227604654603 -0.23636667986722842 -0.034619723622125703 -0.33375523179747191 -0.38119889865428441 -0.093797297371707083 -0.21510867739110773 -0.32266214771545232 
-0.61702288635829938 -0.31166046317798302 -0.28492649421363514 -0.29952892900426331 -0.32423906965018423 -0.46388014684709467 -0.272333206870916 -0.30697585732925892 -0.33965666305527853 -0.2788257035550073 -0.22642904884526219 -0.4408784271222751 -0.29274424633485469 -0.074247061506346829 -0.22763894250652658 -0.159090529476446 -0.37307358665020496 -0.38025609909749408 -0.62012400270520873 -0.34219536647348547 -0.47799060127949294 -0.073401331580284779 -0.43151513314928719 -0.20370315664174657 -0.64275111330234935 -0.21009006442425038 -0.42799525748266481 -0.31232126912413877 -0.31191632610167319 -0.56573924900605144 -0.21239950767121174 -0.40216206094310319 -0.50424861653947162 -0.54012914735078843 -0.30726901771841231 -0.37820629272701917 
-0.25833780677910528 -0.26195768016864385 -0.14014732170940775 -0.16324430291794703 -0.14889372668215106 -0.26835310882977204 -0.10453324772506964 -0.09681864323921964 0.05840140209431495 0.075536390170291901 -0.12651264654331909 -0.2471429421788395 -0.28377764049299542 -0.2453199948570472 0.051081907769416388 -0.057604732250250951 0.061627680041807881 -0.24621911898028973 -0.2265059752545098 -0.2437380064891658 -0.11911749516895295 -0.23687334673841656 0.0086358946190618936 -0.1221687980077636 -0.24883429404367707 0.13831430900900868 -0.27665537823254754 -0.16955972428545388 -0.26989611729768243 -0.26680548832307294 -0.24620777327024876 0.010072879108668109 0.06927238131752135 -0.27204842251801131 -0.0144309059060546 -0.23904686089978117 
-0.21488264064283158 -0.27424644315049329 -0.030218260004993336 -0.034878691805786788 -0.29469048533225878 -0.26423283069815423 -0.28032270598111836 0.042772997257112061 0.065263991654731901 -0.21309070247518358 0.012991482602409208 -0.25021664832247642 -0.16231873119569107 -0.24052358403499782 0.087852110247695792 -0.25210435297974271 -0.039294735834287636 -0.18815796356211886 -0.2349854483963853 -0.2160745697354082 -0.17062678233272102 -0.24362216062076614 -0.046646384781598327 -0.27424800717035647 -0.18655266021308059 -0.21710685207003291 -0.27325896931672383 -0.26192315222711265 -0.30854239249586179 -0.13718975781327272 -0.21054304279667277 0.077669739782453645 0.049708561422859496 -0.2302869912777363 -0.097058321674924064 -0.2619781154526471 
0.064826075266768132 -0.16775739716756838 -0.15325761965895171 -0.17026998869606486 -0.16042409960544646 -0.1692883068624246 -0.16764150869523817 -0.14642206502453739 -0.14754367729674966 -0.18538702557543796 -0.18108322868624063 -0.16497707127557873 -0.13205564110194215 -0.14326343271067149 -0.094446788181623068 -0.15663783889109745 -0.18172293644697537 -0.055760971984209089 -0.16583388539212932 0.23335848454293548 -0.19636844729117614 -0.14965164543674031 -0.017327818645043274 -0.13499220259030942 0.24181139285317066 -0.19187563172856245 -0.17442467461551855 -0.2114629100739161 -0.16784065263942738 0.21045024731131037 -0.09493002115746553 0.047059733188698341 -0.20680976768207815 0.16709086838179635 -0.090601836692897161 -0.14755374630789511 
-0.030582238894637903 -0.10420584856710087 -0.25233712506694905 -0.38428080546495152 -0.46355262644658635 -0.44871151539516679 -0.4413855560178071 -0.46345423649387774 -0.38372019184953432 -0.30450797439186927 -0.2536622627541037 -0.11414544663916158 -0.18581393441693386 -0.47682311730559024 -0.35392919537860712 -0.19725427215110117 -0.40230216097249272 -0.14338544086438715 -0.30590106706041553 -0.16050495439517301 -0.16432237052880533 -0.01937837331854117 -0.27201894228396301 -0.13025948628313225 -0.16887634073881905 -0.383875001950226 -0.22663576208161509 -0.12826386210115934 -0.38914860938122786 -0.082698550235528176 -0.088387688030887646 -0.45167721028258062 -0.43550289048432023 -0.1391548623327119 -0.2604112700007245 -0.40944856751745434 
-0.18072921580620946 -0.049557656138956956 -0.14005034904510838 -0.077401776175320833 -0.018552619609903963 -0.12646027646519611 -0.12383532106796023 -0.14219987797513514 -0.036007026693852924 -0.075287404899626112 -0.15602079818301792 0.077072902380794575 -0.03408234853739258 -0.14146481455516646 -0.12172258643078306 -0.045403520923931247 0.22596269073037514 -0.1883020022673943 -0.13329866376025079 -0.19339590024336906 0.11831232359975252 -0.14169305249139905 0.17275179903774435 -0.20450216266075516 -0.14729952201422944 -0.11424398644632401 0.039163974709891906 -0.032761440504421244 -0.062742086044000112 -0.11482253919575823 -0.19355832931011249 -0.15777260621117051 -0.15177728409316876 -0.16498873578642062 -0.10901236245369884 -0.15728078108394289 
-0.39276241154538338 -0.31284025911963109 -0.17580089981921959 -0.18043719541216974 -0.085556886544552804 -0.15599723268090138 -0.017209599900810193 -0.16195589492839615 -0.21079866195141017 -0.25103165523529131 -0.071295610339174628 0.0057394014442128062 -0.20087498215831795 -0.40960550565499565 -0.47067765008995038 -0.37946185049260361 -0.27835677718820317 -0.42495809094972981 -0.41185660873499841 -0.45650845604152041 -0.32039432911414373 -0.39244768495653909 -0.3585376997830968 -0.41636756477205744 -0.042433110964465268 -0.27868639672464623 -0.23291171554786455 -0.23757651021416862 -0.13328526444324915 -0.17756631823254912 -0.41409213986774884 -0.099749504939330505 -0.15264442767034916 -0.093503928363184885 -0.17665580391557645 -0.083072347574736485 
-0.28177754508870784 -0.12049465143910359 -0.21116559718804034 -0.049876963776450262 0.040155867433292865 0.091310423685418612 -0.094410265268067034 -0.18754025771095575 -0.17421737454548716 -0.057364538102092598 -0.13597002861374233 -0.1736329358177334 -0.23300829072221063 -0.31471046952432674 -0.34046060230556968 -0.29940821641980592 -0.13707674384272098 -0.29997484852289974 -0.31059711106512239 -0.2053676501862885 -0.27441935092061176 -0.29300409114154091 -0.27621832114028494 -0.30258046216632217 -0.12746463156935045 -0.26135271513811137 0.012584267130611551 -0.19516460689263584 -0.0041944764721781715 -0.1608574845236162 -0.1935678789578828 -0.20416870452943972 -0.10720698373699365 -0.044629548657203977 -0.12471468716251347 -0.068218267448182865 
-0.59599159875945573 -0.31205034872325882 -0.28392305778934418 -0.2870991307410049 -0.31653910195010843 -0.27007629505936359 -0.2829445532654945 -0.29707490262788189 -0.35680983913699371 -0.36224031016478364 -0.20873783180879324 -0.44253808388635352 -0.28572577329400772 -0.074016325370695038 -0.27316606243620323 -0.14553933259699298 -0.51278448851791369 -0.38396138983241329 -0.62403166637553797 -0.28319778862190909 -0.53613648419660453 -0.068367084237779804 -0.54402260366638988 -0.18867407443044629 -0.64801052605571163 -0.28180169786290676 -0.2878252585073332 -0.30367620728402561 -0.23542409419868743 -0.51442783848696472 -0.2049667613526677 -0.4602249766300115 -0.48413629656302337 -0.43525971093706411 -0.34784915268045669 -0.30877789321217625 
-0.41192230211664349 -0.15071000828729669 -0.28540449477442537 -0.38316045821222894 -0.44322569848340898 -0.52374945755287361 -0.30479143951808613 -0.32675439944989865 -0.29490249599051749 -0.38215326692361334 -0.29417375860725437 -0.46429591925499475 -0.32984594397600642 0.081698223717862228 -0.11116980581737927 -0.0725968325496473 -0.29501679420512933 -0.12642718417180582 -0.4847598256865851 -0.17961764988485557 -0.14159554875454436 0.057248536307071607 -0.15673482931050364 -0.10851736355558808 -0.4876701607114759 -0.099594470377274619 -0.45264858169653704 -0.20642966120322709 -0.31081856397327323 -0.43798698937043445 -0.11192340265478466 -0.28142319847136726 -0.37973413322255667 -0.44995193429276842 -0.35793499675908663 -0.37708903274433148 
-0.10898062216241779 -0.17740177854681338 -0.14034970508577599 -0.12995415464882842 -0.11463873627701236 -0.12582959388585288 -0.038587175411919673 -0.17883173730047072 -0.12841910845025467 -0.10749087394469965 -0.15559544361903888 -0.20014913995733449 -0.17149889587428471 -0.14273078632022254 0.074610607676084448 0.0025198568597083106 0.0091860634272024014 -0.12286351953922156 -0.15450613101307156 -0.17370112507977006 0.22098785956357753 -0.15548667692096113 0.19836409702758506 0.053465145732816251 -0.16814665426614608 0.13045405540052743 -0.13490556544184709 -0.1351427270864359 -0.13546396691474238 -0.14032528370414543 -0.19821670948617065 0.016262915760864607 -0.082749943488873212 -0.21512994584522582 -0.15097657249570012 -0.12610674125118781 
-0.020409877472487171 -0.1503028402725525 -0.09168279809550034 -0.024726126801714612 -0.065611392379778352 0.010561562949280432 -0.0368751201346686 -0.076864899410201387 -0.10206264964079882 -0.11138235079469497 -0.12811406061758698 -0.14868631912624489 -0.11044466528384297 -0.12216604092183216 -0.12029786381333576 -0.14601122451515475 -0.033708986423277666 -0.1296467532602924 -0.13351217028293777 -0.090665018757164151 0.041693836383928505 -0.12494215103296549 0.11788228775933195 -0.13586406717675178 -0.13131244337293221 -0.15177824354303016 -0.093172631734552411 -0.15403518160960875 -0.11699144970506015 -0.038578637388698891 -0.11026494223535611 0.11015716652038011 0.018029802772491554 -0.13373156900439184 -0.13222017570916375 -0.0569120290978146 
0.064406672238074336 -0.20804488624386702 -0.23281291005514387 -0.1969452800134977 -0.094024948928587926 0.027730977767409126 -0.22123516416674516 -0.21867124879639468 -0.22617448142206498 0.064840002411111985 -0.19098915049926832 -0.22892819226495831 0.10638682975642005 -0.18821223841597792 -0.20521821987545577 -0.20434459531061436 -0.013400837461284261 -0.13233013899227694 -0.18847664355924659 0.20114295165871043 0.012821250875491052 -0.17901703315911111 0.053749863263955214 -0.12941826750362964 -0.13235844000016081 -0.23339460783243582 0.10239450376485787 -0.22905235893602066 -0.16822147060286569 0.14511345709888712 -0.16184998237407103 -0.1763702107837273 -0.18748941459282834 -0.071457677019576518 0.098513948926371331 -0.15308312564153773 
0.0097895900143651522 -0.077364448286350182 -0.33301998909813368 -0.40812797859864514 -0.41282470764787926 -0.34215605120878562 -0.44939961636749448 -0.4279110323944334 -0.41002730655267944 -0.29313407385549034 -0.24828180985832052 -0.11494188580694992 -0.2757144902487938 -0.4559104661509778 -0.29113695811366525 -0.36388320988290879 -0.29083761722969836 -0.037857653933221463 -0.12732845517437338 -0.18899368467068645 -0.10010317354280801 0.05240821597865087 -0.26859888371725976 -0.24252532833003823 -0.34152033220745753 -0.46406380524004354 -0.27326553450006863 -0.097298841909677886 -0.30793073396904164 -0.052586963694621923 -0.046850531786700164 -0.45037474100633612 -0.28935046963918376 -0.28822169613653209 -0.19578485706544368 -0.28112209735091254 
-0.15235800740039021 0.077142905733925654 -0.12357863835171744 -0.020612868750774196 0.078935499479805077 -0.081238570229918122 -0.10846274511977617 -0.094693118768428397 0.12812120956567885 -0.090109744390933499 -0.15439885853953272 0.014242142501165437 -0.010515419427319784 -0.12883625168424848 -0.11758154790424644 -0.11988999624049243 -0.022457059373515022 -0.14665520580330857 -0.11833500774502283 -0.14593166467652943 0.018662915383443269 -0.1367914957275696 -0.07747499613297501 -0.15091481961123696 -0.10507478937366403 -0.14527728296087958 0.060204353916821059 0.13257691152826592 0.056324106740497475 -0.14097903268705514 -0.15524085215100769 -0.14595533686443712 -0.12319709265672144 -0.07570699251015843 -0.1214852920017451 -0.13213150889192696 
-0.50351816848403819 -0.28607129421703575 -0.18312576627997343 -0.1782533660754739 -0.14011637385985509 -0.11248730400959213 -0.094448770507003565 -0.157531923994078 -0.16535832230506406 -0.25550314299501642 -0.12116747025534541 -0.038042625360405688 -0.18103767984870583 -0.46463640000466011 -0.53674505483797541 -0.44913247034921921 -0.22496103869796757 -0.4695498860588152 -0.4683149948813693 -0.50763842918186908 -0.37674658716645498 -0.45385256352345177 -0.45309305479083156 -0.46702920449268603 -0.11054588783741631 -0.45827851411765602 -0.16994077450286257 -0.091165815206880205 -0.17992829830541329 -0.16858137143771337 -0.47193295849974198 -0.15684297880505332 -0.17615681290464502 -0.082694452843613764 -0.23872564485633527 -0.092849912185975811 
-0.42314864113012207 -0.16030884116097552 -0.14543540348873418 -0.10112068048243178 -0.061652245745367588 -0.037222684309416276 -0.16227023047422198 -0.12420350827570381 -0.12596281613044435 -0.15091372449056645 -0.15325726222861621 -0.17768115159652284 -0.27138995646626191 -0.40641676757538847 -0.47952642583459365 -0.39614171278238935 -0.15101861667936436 -0.40315540004154099 -0.40783616003355333 -0.34329392972909295 -0.38037976074170593 -0.39273399390321456 -0.39481674663952726 -0.40132201107273513 -0.10361972245729405 -0.40086302018733649 -0.060927907632784037 -0.17914265191907147 -0.1099248181437901 -0.24202487349480356 -0.40424408127564104 -0.19967025418505721 -0.10627504528511959 0.0085511610854789484 -0.20757169521542718 -0.023492588753073949 
-0.51822191374237259 -0.24371609902544336 -0.33760923740819521 -0.30376425759317727 -0.3184229911652563 -0.31869318866335589 -0.44325742351374192 -0.36607957267871827 -0.31865817287092912 -0.36299445440141953 -0.33018909623855025 -0.53802935871784374 -0.38319720649932421 0.0012539795403900794 -0.21902182954378915 -0.1471087990504393 -0.35622174658460021 -0.18343253204501964 -0.56365765404904156 -0.23978711488892662 -0.32413197417844208 -0.010695060607658813 -0.22305114620368152 -0.20742346656137761 -0.581162328463525 -0.16076865519454275 -0.35642824211777907 -0.2611907863261253 -0.22290076085533692 -0.5013483562792872 -0.17423632120874405 -0.42222296369801349 -0.38764486556935274 -0.39969544154306463 -0.3665431271670036 -0.36501694877403085 
0.039168353134385429 -0.24160996905468285 -0.3917574520403434 -0.38077024684050687 -0.35673905814219553 -0.41410225467709377 -0.269575707008267 -0.43442427550892698 -0.23556509849676754 -0.15755050527157358 -0.30623759244228421 -0.030219335855219152 -0.28964647201421223 -0.37952388240024837 -0.33747841843185905 -0.18665750968197994 -0.15361359048328754 -0.02405696051412879 -0.37616165001582719 -0.10390049310000367 -0.12681927253764433 -0.2845393947196615 -0.11103891988404062 -0.27679419049066512 -0.30204865360366284 -0.0073541069022053235 -0.21494674256302343 -0.01703853422842452 -0.33345972042656752 -0.087483970414137621 0.0089737194771273062 -0.11470995709660099 -0.27879395478057056 -0.30421593767464278 -0.22579074480025657 -0.32754313728651013 
0.0083124343684780489 -0.26978498693281899 -0.21323464111544477 -0.19237731108305051 -0.28925214012522549 -0.26437201364537088 -0.2546178162644302 -0.17667591868624954 0.011185255384907045 0.031461964547883511 -0.056031978133378735 -0.20496054011512824 -0.12993618090858783 -0.23572015697512183 -0.13159274679585167 -0.2173505997599588 0.035349472374908 -0.18751341257973497 -0.23123351357200247 -0.29072793724340912 -0.15171435395115701 -0.24456753033259157 -0.1421727304916269 -0.23178177827715241 -0.27392616354713428 0.072964419714261805 -0.15985869339269593 -0.126068595109808 -0.26590075517956402 0.048311815900648078 -0.1169547306459528 0.090206813982400866 0.046886808369262997 -0.262677650452602 -0.2119731172836474 -0.27982598581427981 
-0.27016174949975125 -0.33563032374225493 -0.043142334445227762 -0.080589136316030055 -0.36279742462351455 -0.32417234618981949 -0.31207093802039054 -0.020699522577569757 -0.011172391593173825 -0.12735207284345648 -0.0026876721694037136 -0.30280905881456138 0.023421496926262157 -0.29370784419450452 0.12981528427664438 -0.25992000070934895 -0.096384137104461504 -0.31747410784599711 -0.25925690708200116 -0.30673815615533523 -0.21502181160543571 -0.29517158160063134 -0.10009114688787801 -0.28867061941243194 -0.22201337802964705 -0.30523414371716562 -0.3300689218488892 -0.31597890456680516 -0.29743187664926413 -0.023027884003767547 -0.13688491217797755 -0.014985389566882754 -0.034018925150104858 -0.26001198185592922 -0.13711053988539609 -0.30617798427144571 
-0.2523927371996274 -0.25083893391193873 0.19371330117560523 -0.19976705228794905 -0.2295323073767028 -0.25700746264974111 -0.2451459736617774 0.14326500870555572 -0.261077221623013 -0.26607354705619968 -0.2734935796890331 -0.24702064903277737 -0.23234827014802306 -0.22512976572040336 0.0086168606366819021 0.052016749600483747 -0.15834444485693958 -0.24164107839677093 -0.10237044290841479 0.13225028892740265 -0.23815992305623956 -0.20876273320258515 -0.0017372818080862429 0.0091141486525456953 0.15816644456206155 -0.28706755277584084 -0.24306909165180526 -0.27720003620201739 0.041972707648059056 -0.21726866617257382 -0.11861582973987594 -0.16543930576366009 -0.26958354780819394 0.12894880079850726 0.15795739245107168 -0.20893469575997148 
-0.53919404029096729 -0.52665487713097492 -0.47175896361760583 -0.23533128141623427 -0.49202133520466951 -0.31610242866462085 -0.31240547893146164 -0.31341164373835739 -0.61516378393849058 -0.39851572931267759 -0.61379569925426691 -0.28061200410424653 -0.66612395006591241 -0.12296117761411499 -0.16089775827072234 -0.23415773243527985 -0.33360346227440596 -0.28152376118046712 0.14126021511808706 -0.33817878885378422 -0.37916206112606388 -0.63892482378141024 -0.54855845497901312 -0.26842096438824048 -0.24670950221886764 -0.23667766996079614 -0.3374664712459971 -0.40983334241690156 -0.27126673543315549 -0.53562483325428145 -0.24914282095195411 -0.60501314692715735 -0.56682557539796541 -0.32872702169892709 -0.25378173675899174 -0.2110533154946089 
-0.270438911807797 -0.2641900898165439 -0.052626662040280645 -0.012771133433905206 0.04938256789410532 0.038171729516854457 0.026328669470376119 -0.0056466718914957425 -0.25538742978794143 0.035544299994507166 -0.34936669497641692 -0.06233325375717183 0.064879333382907231 -0.34176355288897486 -0.18811186523724691 -0.302291065772893 -0.0014435188400168672 -0.31053309685739294 0.04582801778213659 -0.3067589321488286 -0.28202280586564055 -0.27985103718869203 -0.26463672306555591 -0.30953484759701749 -0.27872490220707163 -0.067271819732898114 0.02661093866374932 -0.29623367221268737 -0.035047970195571203 -0.30551676117925358 -0.30266742113833328 -0.37424401883176039 0.017070744813447027 -0.25267377038382283 -0.14415841821174255 -0.20104799350848304 
-0.37437848826845294 -0.31447302998494825 -0.15884676426384847 -0.18812928947379762 -0.079862847870031478 -0.072289448258883379 -0.032845538602722199 -0.16221350953377714 -0.10000980518829937 -0.15461459407018757 -0.063840618822611397 0.031524732329896908 -0.11471315748478381 -0.41988567699831442 -0.48279344441044691 -0.38676346556567992 -0.38354299336912612 -0.40490298411980064 -0.34556425179945405 -0.37961414131678678 -0.34849335498056344 -0.39630350474743153 -0.3523357991544524 -0.39787158119811933 -0.043426041735890167 -0.37900867732904775 -0.21749748932473434 -0.44253110364216475 -0.1252848909721074 -0.30193350702611454 -0.41272460900295771 -0.088170758042754788 -0.15380381101677915 -0.28536182149932815 -0.17851149764615962 -0.054338272689937801 
-0.34195670410001205 -0.088355692535160443 -0.25342242630784001 -0.19584233256465949 -0.058900691070132689 -0.13926908380725186 -0.1973689447615968 -0.25611177676690755 -0.15514254182736043 -0.090402529106961033 -0.048672321331271598 -0.18857340759075994 -0.21951442924869666 -0.2865399386983522 -0.35557823527188942 -0.19271103672955911 -0.35410604836538512 -0.36658519784671639 -0.30030451250695828 -0.057516708980261219 0.011697029105454494 -0.29430066447888459 0.012945794788714122 -0.36197511039721625 0.042882522003697292 -0.3388522594893606 -0.25006720672473004 -0.23831576803939886 -0.15154090653456884 0.053167492924271781 -0.33691802011473615 -0.18397768823782573 -0.20762090337797812 0.05936790856988948 -0.21829508317665514 -0.18690638587448291 
0.040733334014473134 -0.11969737071735728 -0.36833114168065623 -0.33488825108775749 -0.30960304783516551 -0.38191611084879223 -0.27075183045837314 -0.41642752273267025 -0.27537418019076165 -0.28754835400201323 -0.27733404447049076 -0.057963870596461471 -0.22773780472513386 -0.37461936238729365 -0.32887659370592598 -0.13009288999371768 -0.33060376208519981 -0.0694042832486889 -0.37936349782954787 -0.083340699363430637 -0.10891284602566102 -0.2869087919699182 -0.12372762634366165 -0.31683221053197158 -0.14043551104500734 -0.16376385652209 -0.26126644232972918 -0.027788972452419031 -0.3094935120481897 0.020595931957885134 0.0022703851392581759 -0.36358449079947375 -0.3474470154232206 -0.075361677022512064 -0.21161142505424488 -0.31794327057387184 
0.10192191776932097 -0.037934601645885184 -0.34541197556411968 -0.25671441178324134 -0.18029081919631001 -0.26906992136077229 -0.12049480201434745 -0.21592555035939148 -0.33076110449610802 -0.28615859586170572 -0.35508870680572435 -0.1683389582572635 -0.096607011549081592 -0.38885364490942598 -0.23791832320180636 -0.34345476255551166 -0.053010436024978007 0.051028974105228428 -0.29754877055307488 -0.30716329473903908 -0.082669361036764019 -0.25835230280908905 -0.15920492410862433 -0.32339570464996453 -0.34260760722785616 -0.12196244180941342 0.0052031564666495458 0.038408808232732815 -0.25851346174677919 -0.24212206449942947 -0.16966045618344178 -0.2453564904785728 -0.27584565232220132 -0.38489521625912948 -0.12563180175187103 -0.21601810208301256 
0.13048585796857443 -0.26570235462664166 -0.1687037339342968 -0.047190422102368554 0.017133730313167884 -0.10637741574534459 0.040627481912396644 0.016433953488765522 -0.22170453801215384 -0.11056391245676744 -0.22519312397533411 -0.21743097398334868 0.026719007947136001 -0.24175001889434625 -0.24739474688731064 -0.22836188523065143 0.10343464281003703 -0.12901989649992515 -0.22737338274138669 -0.26695597804634158 -0.022935745404484679 -0.22443318627528561 -0.045994812864163931 -0.22302420100647716 -0.22871594471238973 -0.13338636179913368 0.14404525697579248 -0.16167679038392785 -0.089554568978866128 -0.17439281316928792 -0.11576922436387875 -0.089995495000544823 -0.19193552092128938 -0.2523093208842539 -0.078176400291516013 -0.13843973404789456 
-0.11533309503230185 -0.20276540359970377 -0.093775679283594884 -0.049834320612677896 -0.12453349158762159 -0.024437078971248426 -0.061835171269691722 -0.10276500695307868 -0.090589611389912089 -0.1037806474733364 -0.13557434068764501 -0.21753737581510713 -0.24768844329385523 -0.15700107437756788 -0.17119226667264545 -0.15328195654907042 -0.20136195410825489 -0.21015839079474419 -0.10306567723044002 -0.079579082750112495 -0.010900990748487655 -0.17459912700182129 0.17399836379721326 -0.11530716750442128 -0.12272384068146575 -0.20070670723658157 -0.16471840008920052 -0.21548287261168106 -0.060689758705387425 -0.048011844977141581 0.0038852093522078485 0.051592574138728489 -0.055926591612626378 -0.17687394146104482 -0.14232577487691495 -0.14892621713125376 
-0.1660332502779252 -0.19502962337327664 -0.021839575292308032 -0.18957206551875108 -0.15541164248587791 -0.18838616808885097 -0.17557970148537161 -0.13821144172943581 -0.16338171050961478 -0.15995957667390207 -0.17242721851109155 -0.27371667207829781 -0.17907081979978198 -0.15203308339472982 -0.094319651635876869 0.047133563321833785 -0.18408434610307145 -0.18334081755152848 0.0074162440848292597 0.17589842225681396 0.17601234497729781 -0.16890526619939006 0.1473257795025395 0.30451262071101298 0.058759138243067062 -0.23916392952738014 -0.17823200860411706 -0.24798661141248601 -0.19193265926135167 -0.1444821176623767 -0.12905202357849102 -0.1228595414752232 -0.15667262764881268 0.022923573231133015 -0.11505318456721254 -0.17006141695973345 
-0.28496293091715497 -0.32008354345140511 -0.53664420843049765 -0.24543438231462181 -0.49741233302366428 -0.3466075172526315 -0.41932856882921976 -0.36325720580518145 -0.54197044332469935 -0.4538305251726279 -0.52844625223185215 -0.43797049065211724 -0.64372528861276057 -0.046613363071908373 -0.1044533814366457 -0.17475578905430958 -0.26172388227559418 -0.23316109010827629 0.21288629726156291 -0.28613318349984634 -0.24904195916774335 -0.5811652576787939 -0.25694485525807292 -0.21424216068567356 -0.26581540774980911 -0.18731027715637172 -0.36332237083633978 -0.57598306285880108 -0.38562213670120138 -0.43310742268554075 -0.44544386863782687 -0.52276718356495022 -0.48855075218761879 -0.27194158998031098 -0.29942391201530477 -0.17431133043571603 
-0.31008861310328784 -0.00035947980180167302 0.025273002981098434 0.038298834734690028 0.030584055995516973 -0.03099594281174383 0.053444436831316063 0.035670697781271993 -0.13701586291624265 0.012123688384643803 -0.40298747385878231 -0.24408815452824872 0.042827004074667926 -0.35540377467056183 -0.12671688027105563 -0.31267784923445041 -0.027405781734790805 -0.3139318174025495 -0.077213245847009074 -0.32590955885623185 -0.29239980640929303 -0.30762413191550209 -0.28078554211194001 -0.3225152583804054 -0.28448164976613066 -0.22551907328640902 -0.030813102161645792 -0.29358303936362806 0.020061910072888958 -0.36046389912857502 -0.32237844802685695 -0.41215755870742965 -0.048637431207554413 -0.15569884126756109 -0.15105024269478773 -0.11365686987836321 
-0.48805513266745354 -0.08635105506814772 -0.18065679269063051 -0.18712674799950729 -0.13371122890354417 -0.10930802556945268 -0.086269346481824216 -0.16365697579893793 -0.15380304122697852 -0.21076823871302786 -0.12515279201303212 -0.021864165515163722 -0.168536562637463 -0.46143560264606098 -0.50557908793416206 -0.43703392768285027 -0.22236393495995596 -0.46791730734255543 -0.42595081689301306 -0.40586377940764312 -0.40409444565205471 -0.44193349974420365 -0.33448621227391678 -0.46070086759088197 -0.10293361818114651 -0.4585611836169296 -0.22856147881300409 -0.48977320763111726 -0.18168141218563155 -0.31788386388433504 -0.47098774705151913 -0.13605024360017123 -0.16454610265571196 -0.082975407654476793 -0.22962761739617266 -0.09509368332282192 
-0.41449329288562009 0.009682063845372707 -0.21356301377528553 -0.18273811955587085 -0.11818938896661006 -0.065095704883192579 -0.19538816001341469 -0.2212009810645395 -0.079169492174139322 -0.17819558244179795 -0.0086797125923199145 -0.084431649581325222 -0.32700405748052408 -0.36294170927444974 -0.44863120873942541 -0.34787463460761442 -0.35569329964540447 -0.39589320385599108 -0.36052279693779432 -0.2066171360812043 -0.25868051685635973 -0.36989461562067849 -0.24280306285474487 -0.38573381973916998 -0.1801928669346593 -0.38508188706118807 -0.29570566443141438 -0.2200639829249664 -0.051693667535378754 -0.051231070155958333 -0.39536839217298608 -0.064758812187066639 -0.19836343594986675 -0.086598618387570728 -0.24091795230971064 -0.11922905731139433 
0.12022522329962189 0.038158613907403431 -0.35512497419960687 -0.25697447193466422 -0.25311976115627788 -0.22901585982325198 -0.24197242092739601 -0.33258310958653453 -0.29760973328604334 -0.28304634118239103 -0.24600194186570562 -0.13825061728528815 -0.24866404071324491 -0.34397149500834256 -0.20900031361731738 -0.31165450074662415 -0.23697690568962987 0.075207691990715489 -0.26341126231701645 -0.17679773635130097 -0.12010251191639303 -0.23143351662452269 -0.14232975942538192 -0.31860436058177288 -0.31405506146919421 -0.16822684622517131 -0.087863040754762159 0.062469056759724889 -0.21182628798540515 0.045176412400745478 -0.19723691760750364 -0.27295003697108361 -0.25508412865862096 -0.27509117045675346 -0.19322118908253849 -0.24790331250137226 
